{
  "layers": [
    {
      "activation": 1,
      "biases": [
        0.22109898095644567,
        0.3086269216151463,
        0.014158192023224254,
        0.11507553737587556,
        0.14766629165877174,
        0.22129229216912308,
        0.03467614291754904,
        0.05750818279905534,
        -0.17562531523506617,
        0.009560222250277675,
        0.03770426919626418,
        0.09692071348981833,
        0.12069444960269754,
        0.1457472810107975,
        -0.19811974559848802,
        -0.3138716125412347,
        -0.4613266606070853,
        -0.36236311005280036,
        -0.02362236266893914,
        0.3672414492104612,
        -0.3437442545622877,
        0.18816144984545688,
        -0.07523499515446629,
        -0.23250470169944068,
        -0.03179218336121611,
        0.3285276988565406,
        0.3799459939644623,
        0.32107867136067175,
        -0.14233750029047462,
        0.030566894397125118,
        -0.0031889863942252076,
        -0.28951897949330674,
        -0.04630288211871583,
        -0.2083333175689058,
        0.07816769802576726,
        -0.4484974213074471,
        0.0723912722781213,
        -0.37839858997557585
      ],
      "cols": 38,
      "rows": 53,
      "weights": [
        [
          0.2463072662109892,
          0.02901072183859846,
          0.06103553512786806,
          0.10327546122903405,
          -0.21048131065500542,
          -0.0503870590108647,
          0.022954407688769118,
          0.032889870273946464,
          0.18323114406077784,
          -0.22807528481786177,
          -0.032976047692220914,
          0.20251965915875844,
          -0.0563659876670175,
          0.08778126913017206,
          0.09170121900538435,
          -0.07362697139926133,
          0.21529452346047762,
          -0.09758402597465608,
          -0.1647487731628806,
          0.035258215259013015,
          -0.1323067017193904,
          -0.1167555905440659,
          0.13345600185378578,
          0.012475330386617422,
          -0.23531293380031493,
          0.25005144147975333,
          0.22306283888198147,
          0.18366253821409145,
          -0.056000329180791834,
          0.0040598245241496925,
          8.87555084186432e-06,
          0.1839674141332181,
          0.2132809377252623,
          0.21632986098584697,
          0.19874946698463253,
          -0.12466359444677261,
          -0.23279378282024654,
          0.022385904611288157
        ],
        [
          0.04389893978711416,
          0.09538532608421513,
          0.4710123374970061,
          0.40908934908968697,
          0.08096434554625791,
          -0.38564885284233946,
          0.6488236082947301,
          -0.4040510295674546,
          -0.3391480658726752,
          -0.26998783571252316,
          -0.5172076910361966,
          -0.07401394423400588,
          0.8122413790095554,
          0.09275102439473927,
          -0.3216677443845914,
          0.5139664955263553,
          -0.4445837696643379,
          0.34082866428894565,
          0.38326194165342525,
          -0.0030943007659424877,
          0.36003708753783553,
          0.34893797151162276,
          -0.9300841533733121,
          0.006658049633918125,
          0.9807150653714548,
          -0.1072818666142023,
          0.18082297769851877,
          -0.29094643052135105,
          -0.10296120610583093,
          -0.20879681498694982,
          0.09336682722724111,
          -0.22777259893136784,
          -0.09518253901174614,
          -0.13486829177158888,
          -0.029318853518150112,
          0.17553600549553072,
          -0.06810336534103263,
          -0.29059789003254305
        ],
        [
          -0.007579920046571368,
          -0.2976126659087432,
          -0.03721943549092464,
          0.5112998910158142,
          0.12174719617009694,
          -0.38064207515800585,
          0.18996964628770927,
          -0.3126785631332932,
          -0.028441477410670848,
          -0.1311138070450135,
          -0.24182203705729197,
          -0.07615975052362561,
          0.6159361444241749,
          0.3561196179017498,
          -0.44611988062553487,
          0.20913006408382911,
          -0.2433877054178881,
          0.36758370561775144,
          0.2063115895921536,
          -0.1992032135975599,
          0.434581501046288,
          0.002822987650401214,
          -0.4115223269748593,
          0.16048252934073187,
          0.7169889478110368,
          -0.011914940615611751,
          0.23772077035073105,
          0.09438486732070286,
          -0.09797798679272107,
          0.16246563457897295,
          0.15724471132864257,
          -0.10907534511540612,
          -0.29308777799685526,
          -0.26962736301504936,
          0.0037258207051485423,
          -0.1123987846912156,
          -0.2481308196369573,
          -0.3087728716751817
        ],
        [
          0.16883605250542577,
          0.07322064094313159,
          -0.23061368029603585,
          0.07604766447104705,
          0.1531278642226755,
          0.06747590202857284,
          -0.3790905936373982,
          -0.09332138273045432,
          0.4956849152255105,
          0.22699422693231222,
          -0.22755516052783178,
          0.09147184368058961,
          0.3088370976845427,
          -0.11861261823022465,
          -0.18638950712254834,
          0.05002126950363872,
          -0.13997423133030332,
          -0.17738786223979455,
          0.12105767629586352,
          -0.008520901730816717,
          -0.13565680553910514,
          0.13442732279988953,
          -0.15271466284602342,
          0.48538139108673833,
          -0.4178809790625563,
          -0.4074576405435762,
          0.023272500547233874,
          -0.4798306553912399,
          0.38198749935441506,
          -0.5265358608204977,
          -0.0781909567466352,
          0.34086475627016416,
          0.12256553454217371,
          0.43213620425288557,
          -0.03201256949949491,
          -0.03502722934137237,
          -0.03928185907156625,
          0.6689586565661103
        ],
        [
          -0.00967741739771469,
          0.26768538890287097,
          -0.34086850996646323,
          -0.2705014358382021,
          -0.2262336456086186,
          -0.12925912773253645,
          -0.20359280765251325,
          0.02970715259797434,
          -0.29346397251457995,
          0.35641062722156525,
          0.2507645875521766,
          -0.740686700639559,
          -0.6492876499507568,
          -0.36695857412677896,
          -0.42806506062111604,
          0.21368772882190976,
          0.374725992718247,
          -0.0999977916269469,
          -0.1455660176704469,
          -0.16556760470072923,
          0.383306346193754,
          -0.49261819768017184,
          0.7061609181055726,
          0.42401193960915257,
          -0.5923150479095219,
          0.19951074641509434,
          -0.2030108201150845,
          0.2597077208030935,
          0.5939594395760717,
          -0.22240391066033027,
          -0.14862754137610204,
          0.25837229690299823,
          -0.016548638805767395,
          -0.23265211982253656,
          -0.02715801085093366,
          0.1857068667705509,
          -0.11443790992866407,
          0.6360168611591818
        ],
        [
          -0.41480418734330404,
          0.033403939478279486,
          -0.07768555619976912,
          -0.23472439859128663,
          0.14328387186198538,
          0.07730639741190634,
          -0.3409777974129159,
          -0.44983506564986625,
          0.3825129026725474,
          0.361165297364561,
          -0.15615979109706093,
          -0.12020566927382458,
          0.0221731178818725,
          -0.7017520400732421,
          -0.18156301189652826,
          -0.21448870781870696,
          -0.220981207063463,
          -0.32226464180805997,
          0.4042482081708649,
          -0.46954462685674636,
          0.49338840056329136,
          0.12997213955618833,
          -0.15338874354385085,
          0.2846161365987867,
          -0.6843910901391376,
          -1.0420335389434863,
          -0.5009602011306498,
          -0.7983711185280302,
          0.4410752884509526,
          -0.41020425220078216,
          0.2013228499464453,
          0.5865828135635347,
          0.20999692057531436,
          0.727676562044809,
          -0.17518404751546843,
          0.5507045126291897,
          0.24749812207672856,
          1.0928401158496017
        ],
        [
          0.11781713356057658,
          -0.07680481561507668,
          -0.04080432204916047,
          -0.18746124109062248,
          0.2064640873348415,
          -0.18825982800148786,
          -0.12770958929146659,
          0.22133227325129312,
          0.010507222828883311,
          -0.09785962633432199,
          -0.16205409532008946,
          0.12745193597916613,
          0.05324232924043781,
          0.24746445930484176,
          0.21724618434691084,
          0.03429898549253248,
          -0.2131213991447727,
          -0.20247192749511767,
          0.02856730849018388,
          0.09374941885573049,
          0.21830076452685462,
          -0.04246464178570241,
          -0.20423376365465704,
          0.11804622048518673,
          0.16837337797292573,
          -0.17799670667945633,
          -0.12038823467146556,
          0.09509006798363416,
          0.08270517674204754,
          -0.15274248330216877,
          -0.04421264787200898,
          0.10908812247861976,
          -0.20860433686586538,
          -0.16913383832351434,
          0.044924354130369874,
          0.14580054882862933,
          -0.13351458177881878,
          0.23793751824830037
        ],
        [
          0.004172624830245658,
          0.21174180337969448,
          0.05310136384059973,
          -0.24560158969525966,
          -0.1838276939231006,
          0.19175711547414873,
          0.014181851188293921,
          0.22201489985662767,
          -0.001749421154362255,
          -0.20169376382912646,
          -0.12425432055264231,
          -0.08740742340593877,
          -0.24370298820039019,
          0.1927000889248848,
          0.11237439742995188,
          0.16549932663185407,
          -0.24855018455076064,
          -0.16272241735073092,
          0.09148493508852319,
          0.24646529128503572,
          0.22969225859166684,
          -0.0036745861227036325,
          -0.13014043832872282,
          -0.17173466777312704,
          -0.23811266562746097,
          -0.17491923610363533,
          -0.24821538718521058,
          -0.18744583965178296,
          0.03479824116168142,
          0.0344292928501909,
          0.18676324068650477,
          -0.19094960812712536,
          0.10703202574704651,
          0.15239383259838843,
          0.21955360874203253,
          0.22312948052984177,
          0.24083158316101802,
          -0.05491575578314237
        ],
        [
          -0.23831355209619765,
          -0.17570920392148662,
          -0.09018193552455998,
          0.12872272820211061,
          -0.07358103588766352,
          -0.1906498256116586,
          0.09512292976510972,
          -0.014380110653618666,
          -0.16793376817751546,
          0.0866002961314778,
          -0.20432520790130335,
          0.23385801532792766,
          0.14684375868039554,
          -0.24054707507845785,
          -0.15964432898192457,
          0.161759662338322,
          -0.12162893666483136,
          -0.2171512886299757,
          -0.0028138186667452116,
          0.06092811161281345,
          0.04095529735197171,
          -0.13625410563098145,
          -0.04221787401041685,
          -0.22505627704007963,
          0.18186430566864656,
          -0.24951780346733854,
          -0.13339646616669162,
          -0.21132396376080265,
          -0.09660731185307989,
          -0.08628482852680332,
          0.0937059286718911,
          -0.14785813593824637,
          -0.0788000751214125,
          0.13881899918076487,
          0.18734991240806298,
          0.13625849962336406,
          -0.13490250257297945,
          -0.1654975978868102
        ],
        [
          -0.4575446437599471,
          -0.5965263444527852,
          -0.09486221380857059,
          0.1956175794619692,
          -0.1646833307573048,
          -0.17907674529408124,
          0.14578945834210047,
          0.03878377848469884,
          0.16706900216220424,
          0.1092310185029546,
          -0.028925078727732978,
          0.5843948831759057,
          0.002021506934945131,
          -0.37907490374012387,
          0.4968169965128581,
          0.12030941020704791,
          -0.526653548062844,
          0.3135122475315876,
          0.22077905799341593,
          -0.05647344929718324,
          0.07653843266448129,
          -0.014954107785927586,
          -0.07861891083700917,
          -0.45310012034921043,
          -0.2579167827794179,
          -0.42131343320083187,
          -0.02533334170985655,
          -0.1707653424824463,
          -0.15566908265409934,
          0.10082864720235403,
          -0.009837778160562844,
          0.03626165278444021,
          0.14482752684831335,
          0.185416043438676,
          0.13881161432638744,
          0.599166811207855,
          0.07880355246884929,
          -0.5144462153189843
        ],
        [
          -0.24995082910870658,
          -0.7093041764227848,
          -0.15485373833780527,
          0.005956328465422822,
          -0.24381534538589847,
          -0.0002857915917723873,
          0.13083656745333452,
          0.48400670507548127,
          -0.3958811530370583,
          -0.3558384188169638,
          -0.08614267079494224,
          0.20753709615246868,
          -0.19553245573548236,
          0.3616060673595823,
          0.2514455006145187,
          0.6780741415668595,
          0.49329493303943356,
          0.7611406214461004,
          0.05591531687525552,
          -0.18937323377361664,
          -0.1633383405156859,
          -0.12822960526985516,
          -0.17776136679071164,
          -0.5114926032114249,
          -0.005096200998293626,
          0.44773005829324664,
          -0.07543989390853921,
          0.04857067751010598,
          -0.34843200321832307,
          0.5503766164991207,
          -0.24812776322147367,
          -0.20828718084077164,
          0.35999112365802827,
          -0.5801525366175173,
          0.3041622885000349,
          0.507678426197421,
          -0.36015844527081553,
          -0.6211266860993435
        ],
        [
          -0.12440272897997678,
          -0.10200690763119474,
          0.2436929616522325,
          0.3963135589573143,
          -0.2488163853391055,
          -0.44629813859232775,
          0.15654634567520773,
          -0.05616314928824173,
          0.01555348678371787,
          -0.0675627476447758,
          -0.27547459848359296,
          -0.11755794748330163,
          -0.20480796014190714,
          -0.3836365878452568,
          0.18651261368765518,
          0.6298279437063053,
          0.3469396878820495,
          0.3572680661865321,
          -0.01990404444964201,
          -0.19294034812593533,
          0.6315628460238214,
          0.09940221182577141,
          0.13850728098648504,
          -0.04579764205866129,
          -0.3783512723374218,
          -0.19411174987094507,
          -0.3716832272486605,
          0.10463521630926596,
          0.5602925922233893,
          0.12977178370976178,
          -0.015835320393194584,
          0.23553243204684485,
          0.36225181221918273,
          -0.21450495269514375,
          0.016051371575912913,
          0.14585699866518362,
          -0.17608726357441062,
          0.1595380497975385
        ],
        [
          -0.34696793234949175,
          0.09134560670726256,
          -0.10994845401652545,
          0.198703765567937,
          0.09918659811849477,
          -0.5804572977994664,
          -0.0802288695600356,
          0.0008242391627555105,
          -0.5227409608218846,
          -0.2271229528004614,
          0.11797550318672205,
          -0.21681529930233465,
          0.08785842859003781,
          -0.2502231894454172,
          -0.0160008292488076,
          0.6272172812093253,
          0.3858420389405879,
          0.2779577143117282,
          0.18538388749482923,
          -0.318910793998207,
          0.6476476863554064,
          -0.3542982911375872,
          0.05566614520482928,
          0.25062533023099565,
          -0.35864785207338584,
          -0.07226961837302442,
          -0.37546305989662904,
          0.0312868040951304,
          0.4070793443513264,
          0.09316793234873369,
          0.18275805333514714,
          -0.004526485781684164,
          0.06795330187015806,
          0.08050721778589477,
          -0.16736451930598117,
          0.2601005495833756,
          -0.23925955863410744,
          -0.24038410586151213
        ],
        [
          -0.3374246453430481,
          0.04131717566226411,
          0.11420165132422762,
          0.2718408737391599,
          -0.013499972695703698,
          -0.13321244585330744,
          0.13680281826757665,
          -0.2819490445260445,
          -0.09940198004137289,
          0.1616051157942285,
          0.027952883812937843,
          0.440186250263931,
          -0.009864733674823165,
          -0.18404235799964552,
          -0.13652432534417386,
          -0.416452850267597,
          0.1751102209864713,
          -0.21071106144906185,
          0.012255882392881544,
          0.388117734776777,
          -0.3252674459359487,
          -0.02047074520551969,
          0.02351175860595014,
          -0.14390749126487182,
          -0.22669561704046445,
          -0.2311601380892731,
          -0.19548170687647123,
          -0.049073174299048054,
          0.010579413387090154,
          -0.10673704105545802,
          0.20871257671319637,
          0.010961212986478923,
          -0.15658312757244192,
          0.0846288317173408,
          0.21521194568291535,
          0.07564269387997233,
          0.27848263384521893,
          -0.33610379805505125
        ],
        [
          0.15796279725326087,
          -0.17080686263539363,
          -0.11782543433194544,
          0.22237201452058974,
          0.10402300257803235,
          -0.15669919713782782,
          0.1875599881972093,
          -0.23504124719191938,
          -0.4091896165404582,
          0.09953726724030933,
          -0.3848614832271575,
          -0.11561241055416768,
          -0.07170496480789093,
          0.13674786613024986,
          -0.20446779352715855,
          0.3403692642013628,
          0.13376279876851085,
          0.4631783887426418,
          0.31596310942090144,
          -0.3393440526484202,
          0.4196681940400057,
          -0.21725757939002072,
          0.11316934391868032,
          0.189858289312774,
          0.1976196112715743,
          -0.04744473054775094,
          -0.22426284709993222,
          -0.20332887389752002,
          0.0633203429137427,
          0.1909801089512136,
          -0.3165000270369148,
          -0.14164991858687878,
          0.1627957051586807,
          0.016333421190005012,
          -0.2753566266620815,
          0.19625347731396686,
          -0.1066364118872186,
          0.20049949550436502
        ],
        [
          -0.29968707647307213,
          -0.04450803837833691,
          -0.07362052195890302,
          0.020511717364984566,
          -0.0908041378642239,
          -0.18902700018338936,
          0.2571433496165858,
          0.043396544659289625,
          -0.32668741322132067,
          -0.011481063471095461,
          0.041327704675295354,
          -0.04860365494700759,
          0.07760324351803712,
          0.1676598997829505,
          -0.28840849960634124,
          0.5351538507969822,
          0.09180051748546478,
          0.005938513099764729,
          0.3131196100716295,
          -0.2554114528307673,
          0.4524212045553223,
          0.024972932426497403,
          0.12255359281538265,
          -0.09912700019175098,
          0.4105139088235308,
          0.2115401343239434,
          -0.004289813307601166,
          0.13808322174354265,
          0.2429309866672697,
          0.2238031963519058,
          -0.41327099793450367,
          -0.1475436386407314,
          0.09763292655735366,
          -0.10207357432319311,
          0.14284316439995012,
          0.18651433361408173,
          -0.07583648589657756,
          -0.07422352919345784
        ],
        [
          0.006112631744803403,
          -0.2169625777360777,
          -0.012792149801626074,
          -0.03176479396294016,
          0.34241293642648524,
          0.31621641599479994,
          0.21767552880306773,
          -0.017577954676191464,
          0.33376385331949165,
          0.08919238752346832,
          0.35564176202419473,
          0.3701406248003942,
          -0.16293960781787517,
          -0.11480088477048962,
          0.29969098340820793,
          -0.21227231997990104,
          -0.08793511605184363,
          -0.2301637732062059,
          0.2571578977101813,
          0.4342867946682819,
          -0.35459081853410895,
          0.2678329772383148,
          0.19768462364134592,
          -0.3643003104024941,
          -0.4991221470506002,
          -0.22919166448818576,
          -0.13446550677197178,
          0.0010543149332047073,
          -0.20074667163100024,
          -0.09142023676439848,
          0.061228815419050175,
          -0.19854395259454374,
          -0.26081387767874575,
          0.06525954554662619,
          0.08888953914430091,
          0.06608914591320401,
          0.2323920639974717,
          -0.24622106409591574
        ],
        [
          -0.03526842982576954,
          -0.06609545285088576,
          0.22390712897780898,
          -0.14416783990454435,
          -0.10091606697987678,
          -0.08016515805928746,
          -0.06845683549957932,
          -0.043431437429074196,
          0.256276951336873,
          0.013368689960464045,
          -0.13865593162881032,
          -0.1787675418448591,
          -0.1757197831685897,
          0.0727682196090243,
          -0.20413068486711203,
          -0.16387656012633495,
          0.07007234652149355,
          0.027161907603515563,
          0.1348660355653333,
          -0.10077997438725912,
          0.14444649261802117,
          -0.03826895801097782,
          0.19352444797062354,
          -0.1160006746006262,
          -0.08949211323254459,
          -0.09050515055731821,
          -0.001985559489029919,
          0.20746727390057024,
          -0.19530671428378252,
          -0.04954756835767839,
          -0.1792378155505483,
          0.0877793530967037,
          -0.1634902073224768,
          0.11116488145835839,
          0.13358657574160382,
          0.1882078746898901,
          -0.02959981794361844,
          0.10804539249312814
        ],
        [
          0.04184639455235844,
          0.17891750598561137,
          -0.1721994192841036,
          0.035942455441135834,
          0.12609083767777846,
          0.19647044818664852,
          -0.10001466629138263,
          0.2123416613611652,
          0.002721072689786717,
          -0.014285539064699357,
          -0.09101850320388669,
          -0.18410942862007357,
          -0.07027650224911923,
          -0.01596305126314413,
          -0.18862515936184215,
          0.00855566129684555,
          0.040141515014689315,
          -0.14738855946400567,
          0.23649337594474926,
          -0.1625018791614353,
          -0.2809652735880794,
          -0.18799659375776112,
          0.12027164306868753,
          0.0038582961156386143,
          0.07390434087629723,
          -0.20657859344027527,
          0.19131181229573804,
          0.03636934716849596,
          -0.16778604937160718,
          0.12421627233645578,
          0.1891924346537524,
          -0.19992725951035717,
          0.16689958458507287,
          -0.2007652384954561,
          0.17139944188855494,
          -0.22917558364635696,
          -0.20500486422199232,
          -0.0346380489044535
        ],
        [
          -0.08383394436247513,
          -0.3560299749010007,
          0.34312551291918236,
          0.38206744355550865,
          -0.061266884769588414,
          -0.017098657191240874,
          -0.015258318734350056,
          -0.7296529121703291,
          0.4627261303004011,
          0.22563831651636032,
          0.02815765750208707,
          0.2633814483460089,
          0.3372438172280598,
          -0.195320416317972,
          0.012901633255369083,
          0.006671064601715211,
          -0.5416331053747236,
          -0.31698066115876233,
          0.2251739165783321,
          0.25910792210629224,
          -0.21643425701483177,
          0.06114592197588093,
          -0.4227218664670124,
          0.036490503092781235,
          -0.05437836110717395,
          -0.5867642320602944,
          -0.3703875610881639,
          -0.2318784992850426,
          -0.3123893490421539,
          -0.5121939885588762,
          0.004281197045374569,
          0.009043736668454034,
          0.0285370598262596,
          0.43660652353472856,
          -0.20086390701269524,
          0.2993306325315015,
          0.3476161599056795,
          -0.03757871813978282
        ],
        [
          -0.09231293606712784,
          -0.4236340017060129,
          -0.18059856663356844,
          0.013329034019270805,
          -0.027837534121090107,
          0.41964476038205056,
          0.04601057732622877,
          0.1478911645139821,
          0.2313390386415207,
          0.18288718689505123,
          -0.15970601748378294,
          0.2622286315912218,
          0.28540803684996197,
          -0.16489140920410042,
          0.22194261522153094,
          0.1214565687327904,
          -0.14277630510883063,
          -0.05316026078098432,
          -0.1077536455124707,
          -0.3098572638243145,
          -0.5168387841914788,
          -0.26962740127641127,
          -0.10522860469436436,
          -0.2937900631663553,
          -0.11478396433671323,
          -0.0010763749163761934,
          0.02920143082219461,
          0.0504058678847042,
          -0.891479401409497,
          -0.21621920097982084,
          -0.24722058239303316,
          -0.11522194169831344,
          0.04567466131598701,
          0.15354195423787848,
          0.03570028246795326,
          0.046730475474241494,
          -0.3070804865902326,
          -0.4459201472794518
        ],
        [
          -0.09477340901284044,
          -0.09765370399504462,
          0.15417512454470403,
          0.025441950031475417,
          -0.1523364403357132,
          0.22655671921684883,
          -0.13616928634324116,
          -0.08931982048100301,
          -0.06435432190937761,
          0.2871550405169805,
          -0.04157182302571857,
          -0.19420544631324202,
          -0.0025045885418373054,
          0.09839566277672,
          -0.13542777894747784,
          -0.06918917898010064,
          0.19210928024541368,
          -0.0674405467424591,
          0.1383148626978746,
          0.038117092765208305,
          0.10521042377807256,
          -0.05316178567928649,
          0.22747258056323344,
          0.2605648981425557,
          0.12699968034368028,
          -0.14414873469138292,
          0.2257862893929413,
          0.059809831801220854,
          -0.1958102975561462,
          -0.17492109194702707,
          -0.18749866713823604,
          0.19997133063596767,
          0.12742179160602796,
          0.04891898417054055,
          -0.19689422030744672,
          -0.2698281492603608,
          0.12080235732376425,
          -0.1902035003664486
        ],
        [
          -0.019570640387727656,
          0.08167808979646204,
          0.1464806422946875,
          -0.24954676631702002,
          -0.10467109799508618,
          -0.09837199285975484,
          -0.10442875144808718,
          0.15099573553905257,
          0.1919064430471505,
          0.2422888357504501,
          -0.225011213649434,
          -0.1085741443017716,
          0.1013307007261463,
          -0.06914301050089244,
          -0.23865613036621397,
          -0.18358373770479824,
          0.029055364584409597,
          0.052750415088874125,
          0.1769951776057349,
          -0.0030254443085441364,
          0.055221902561146015,
          0.05130942789416837,
          0.0659612917023042,
          0.11767396132188575,
          0.08176390422397306,
          -0.22697384313845034,
          0.032869192553513976,
          -0.014430476445993814,
          0.23784502582411923,
          -0.03359332576745388,
          0.14551502617047773,
          0.31519921434473586,
          -0.22627816343476714,
          -0.18580911575538908,
          -0.16056937901209264,
          -0.1507589098994125,
          0.08223135707090143,
          0.1466602960130211
        ],
        [
          -0.07769855101184191,
          0.2084557197817313,
          0.18780954433583238,
          0.10227674724117349,
          -0.038473458624460104,
          0.18508339487244496,
          -0.19692728266519288,
          -0.07359562508146725,
          -0.1618213161357936,
          0.11118758292273653,
          0.022973814749204187,
          0.1521571371878619,
          0.06081268529537404,
          0.0912030691299319,
          -0.03246927119521878,
          -0.007225626027895502,
          0.004735201748914019,
          -0.0019090380237096751,
          0.043926974303496014,
          -0.2048290583789279,
          0.05131392486955623,
          0.18910563874477315,
          0.041877561259767375,
          -0.1725004274117189,
          0.20519400490138898,
          0.04740620612980934,
          0.16294404008744265,
          0.17188534359955213,
          0.05447398569439956,
          -0.14218587775748823,
          -0.2526284659653124,
          -0.16207671645296812,
          -0.01302836060636713,
          -0.22256365016897445,
          -0.19707581922796766,
          0.23076422608861064,
          0.0832840168732826,
          0.20738018180799858
        ],
        [
          0.0833366448439294,
          0.05764344582790586,
          0.22085516201434413,
          0.10245807011841074,
          -0.061342957215359546,
          0.1057962563989599,
          0.08700417917079319,
          0.22290191118453315,
          0.04564088292567624,
          -0.09000472728147112,
          -0.07432446856098458,
          -0.19028815959687154,
          0.11001035376268921,
          -0.10639600908011652,
          0.19434517206253948,
          -0.24075453214506587,
          -0.014853700951347032,
          -0.24079421000319404,
          -0.20446498167628813,
          -0.2228617687883775,
          0.1833263328343603,
          -0.07948246044994989,
          -0.24441526486032317,
          -0.2063828179950682,
          0.18612864925974756,
          0.2326053646749799,
          -0.17867020137039386,
          0.13770225677515854,
          -0.11631732048052905,
          -0.15882658133356894,
          0.12530651083535146,
          -0.13721565568290972,
          -0.19464165626465185,
          0.09423018038113609,
          0.1577696532895643,
          0.11149549498972096,
          -0.19409020341646574,
          -0.038773842297949467
        ],
        [
          -0.22559714582162727,
          0.35789649253682415,
          -0.187208345363057,
          -0.18351013491121054,
          0.15643426242837963,
          0.34853326776178056,
          -0.25362644103992155,
          0.18380169051903925,
          0.07601751018711428,
          0.29673184379387857,
          0.19247943989920085,
          0.34785014789643054,
          -0.213887632245158,
          -0.12757192359539982,
          -0.0795865351869978,
          -0.5380069609239758,
          -0.28878964572946625,
          -0.39751291211294504,
          -0.0658218947947707,
          0.17222075377798057,
          -0.11500799277315447,
          0.3629540531495612,
          -0.11570274831649281,
          -0.03966423752654936,
          -0.4575909738240259,
          -0.19308943754053282,
          0.09621435860912134,
          0.1043485488510092,
          -0.009908250781032977,
          0.11252727604850613,
          0.15565622443883517,
          0.02650612868829873,
          -0.1875130504129399,
          0.06798655588545162,
          0.20850361451459712,
          0.043314389306470885,
          0.5758779624661785,
          -0.16190277964553063
        ],
        [
          0.11614998062604663,
          0.33524819413608004,
          -0.33709497608971634,
          -0.4285156881479142,
          -0.33449243422145664,
          0.9225261561873932,
          -0.5815830132340093,
          0.03916011408616495,
          0.30451617696472616,
          0.44693925749843005,
          0.31516993825325185,
          -0.327540291231878,
          -0.4900971149915629,
          -0.33837536961321585,
          0.02972611697415758,
          -0.9924910515722629,
          -0.34189373515873256,
          -0.8499451529294161,
          -0.13308220501632484,
          0.3615337603566402,
          -0.5236390145530181,
          -0.13716600026610457,
          0.6520819294768101,
          -0.3381305855513274,
          -1.1061787860838608,
          0.2791578066635766,
          0.0909203449831945,
          0.49291628666767245,
          -0.2651205634081324,
          -0.44107161815978646,
          0.13661855457081773,
          -0.26372903532761305,
          0.07099051191516376,
          0.08935964522654948,
          0.0951678086350858,
          -0.49438860826558506,
          0.6085858944413522,
          0.07598821116822807
        ],
        [
          0.24408432442220765,
          -0.15143196014584737,
          -0.08381783279702484,
          -0.0997728077901542,
          -0.24661572134708093,
          -0.14859300070748188,
          -0.24992638689671587,
          0.13349265890824605,
          -0.05137138736416399,
          0.2073912886963888,
          -0.014708942490618174,
          -0.11915929840331423,
          0.02873371184722488,
          -0.05290317346394819,
          -0.018210901489287747,
          0.12965958600400795,
          0.24855523796207554,
          0.11562317744167136,
          0.17700491029693738,
          0.14105413901839986,
          0.14720538168223313,
          0.09748498767252711,
          -0.25425289406786405,
          -0.2039452542961583,
          0.24215903208760367,
          -0.09526598422181533,
          -0.06891293816662532,
          -0.11038692980338097,
          -0.010013316880017761,
          -0.05154559569045704,
          0.006214309601714691,
          0.03229964306878619,
          -0.16478429997038335,
          0.09380277915861175,
          -0.04654811241512223,
          -0.18782694826222948,
          -0.03274008435773963,
          0.01567368713302864
        ],
        [
          0.026691345162190974,
          0.2254487039365194,
          -0.13707986133394073,
          -0.18239002006883273,
          -0.16537055495804764,
          -0.23846266895301035,
          0.23191956875708009,
          -0.00011016552784612004,
          0.2027161685439948,
          0.05529790648847417,
          -0.163607211209711,
          -0.0798929740437558,
          -0.08039531890570754,
          0.23584179815034217,
          -0.023126858727531212,
          0.07032277111635266,
          -0.10507442229726756,
          0.19250061232418747,
          0.2213741724670218,
          0.06864563028366419,
          -0.11488643026702361,
          0.21655079707906652,
          0.16863791116228813,
          -0.07406712120316328,
          0.22930441509895602,
          -0.17440720610364557,
          0.0144214109713639,
          -0.15233664443530337,
          -0.20014758003124702,
          -0.17727360373463977,
          0.08037741213538614,
          0.1944702663894383,
          -0.01666226439554991,
          -0.07551174707352086,
          -0.0380864763622294,
          0.06983770443963162,
          -0.05092581561108597,
          0.2304214632394649
        ],
        [
          0.03562438369640826,
          0.20735179448188223,
          -0.14716805317876225,
          0.03856117690726333,
          -0.008895393623531945,
          0.0025888731167258137,
          0.06799882550410506,
          0.07180833946421196,
          0.24179732074382365,
          0.08737250842480437,
          -0.003647105991259411,
          -0.1317204739246449,
          -0.21793419920717208,
          -0.006911484460436853,
          0.2233441222139381,
          -0.03887994411713443,
          0.2163894673669482,
          -0.07475691438387125,
          -0.23342193906773473,
          -0.26079989226502304,
          -0.04178725603706755,
          -0.010433963907424078,
          0.08797510575009683,
          0.023955806337418707,
          0.08676556088911369,
          0.26527520176408426,
          -0.05006811401266673,
          0.23167152307201094,
          0.07828847634190543,
          0.05771967814027326,
          -0.2734439168380612,
          -0.08640225558680052,
          -0.17049018370984972,
          0.23993555157773647,
          0.30156331533560654,
          0.0035972227473622595,
          -0.06783829152075088,
          0.3932370989002635
        ],
        [
          -0.04241914054500589,
          -0.07557693916662508,
          -0.20299924567910813,
          -0.256523824417316,
          -0.04875821851187121,
          -0.06356631507155049,
          -0.3183608329818547,
          0.14383701928217227,
          0.21995179340076498,
          0.027770787962469876,
          0.2485862140628515,
          -0.3118275035580817,
          -0.019175674100456203,
          -0.1543058130795442,
          -0.0032049596806507786,
          -0.28135307389014863,
          -0.005665725352789138,
          -0.028813799428749915,
          0.14414232918771822,
          -0.3006911462478199,
          -0.28751045923645824,
          -0.0016263960980308695,
          0.02955208802782808,
          -0.006323693699547951,
          -0.18596765948723887,
          -0.04297397829583821,
          0.029468117876741386,
          0.05442605812000615,
          -0.10510580581129436,
          0.12059132816907038,
          0.18657332310463204,
          0.18195965549027499,
          -0.048203114541088846,
          -0.19659685582375397,
          0.03336061962896059,
          0.13597492389577356,
          0.0052821794728148885,
          0.027545941737270062
        ],
        [
          0.07156745022847864,
          -0.23083960496282077,
          -0.02909730761745391,
          -0.029901609524699804,
          -0.19539518238606152,
          -0.19279360490002478,
          -0.005381969009852391,
          -0.07872044513298462,
          -0.0005272924037023876,
          -0.17590577756397144,
          -0.058524937690643535,
          -0.026024291935012444,
          -0.23517608838499635,
          -0.3125234876790141,
          0.054268739546766656,
          -0.01052439176024754,
          0.2190948183388103,
          -0.02857675222098582,
          -0.03721329526242101,
          -0.03277378734448605,
          0.31210340023019606,
          -0.13552454553131507,
          -0.17547419355225458,
          -0.06929438797279294,
          0.18311458013164952,
          -0.34139900647875565,
          0.09296694230163158,
          -0.18111415628922073,
          0.31710702853837075,
          -0.01755269537816529,
          -0.17338890709657567,
          -0.17727590394868403,
          0.02927752223171479,
          0.04730640384489903,
          -0.13656957352404692,
          0.17673720349503724,
          -0.17377375317216331,
          -0.030572052426597565
        ],
        [
          0.07489760829986729,
          0.06259147560834592,
          -0.0557436759651825,
          0.24973398889492718,
          0.1887946443144691,
          -0.3559451493327549,
          0.054213195319575046,
          0.17380694656351722,
          0.014516066153967881,
          -0.20326979228674882,
          -0.10543056598824406,
          -0.2086457004228928,
          -0.1774890721753422,
          -0.003176964567259614,
          0.17605583204536787,
          0.04395630245828177,
          -0.12652103043886775,
          0.15694151337481557,
          -0.10584230393116288,
          0.039991493701191434,
          0.04567115416253918,
          0.20185645131714708,
          -0.07427607482023074,
          0.1702501044074188,
          -0.041148053860478366,
          -0.2792290587948239,
          -0.07307691667925276,
          -0.14872115130814398,
          0.2885005370649288,
          0.03548797470441916,
          0.13283856151623236,
          -0.17277614238785774,
          0.1430673323348425,
          0.26994276205365536,
          -0.18091024597236485,
          0.26227064472548006,
          0.15327603974121992,
          0.017655104386956225
        ],
        [
          -0.1295923960442956,
          0.24392277720047092,
          -0.06864614917539388,
          0.11661197513960957,
          -0.06462441377898202,
          0.20523000249786202,
          -0.14168473911172885,
          -0.09405112689102785,
          -0.03310147263705847,
          -0.18590632163088314,
          -0.16528533130145748,
          0.04282882019724214,
          -0.15768105732674376,
          0.010040650522077388,
          -0.004215426855117445,
          -0.1725340192492692,
          -0.2440177059630427,
          0.0600885914394401,
          -0.006357146825177706,
          -0.20948566475625457,
          -0.21485409590632656,
          -0.09133905662975614,
          -0.15425323142294464,
          -0.258356564790433,
          0.08167960617267811,
          -0.2408663068358126,
          -0.13009559396309664,
          -0.21081978399863277,
          0.2493570906303955,
          0.16510215468748607,
          -0.08302126146970322,
          0.05082907503186763,
          -0.02187872106400002,
          0.2359565696601798,
          -0.2079280181160734,
          0.24226968383706843,
          -0.03936725542734836,
          -0.08212666834224734
        ],
        [
          -0.6461332843945468,
          -0.10719899186054133,
          0.2831835942060009,
          0.12386464056140277,
          0.09302384867361657,
          -0.4041258880306031,
          0.13279040537015235,
          -0.10080523938502454,
          -0.10686444669549348,
          -0.3170112523488977,
          0.057417973287923633,
          0.23829890701558062,
          -0.052526329381636996,
          -0.2139134123169662,
          0.14847818766195195,
          0.23399548075001705,
          -0.15612033929911368,
          -0.05916621329921151,
          0.5313484831602455,
          0.0018498339156428898,
          0.49592999202559707,
          0.20554079816932816,
          -0.21288747763292842,
          -0.2870371714798197,
          -0.44106274668188217,
          -0.7210353647060772,
          0.1548719210408797,
          -0.2771987954596733,
          0.34551906706678914,
          0.042903653249570115,
          0.5459848766037583,
          0.1331153924670532,
          0.11430844315118957,
          0.5521229794435429,
          -0.2861660996917814,
          0.5445996033717602,
          0.44381604259733637,
          0.1558343844030163
        ],
        [
          -0.5123370276329282,
          -0.19722373027753368,
          -0.5207743611580571,
          -0.5591430028022568,
          -0.6791864486973832,
          0.1975334170070768,
          -0.5319713160911845,
          -0.17839038267321622,
          0.07518571684752978,
          -0.01860710595669935,
          0.1666884998066052,
          -0.5579764238224193,
          -0.7154847178875007,
          -0.3188863536246011,
          0.36273168388887944,
          -0.0680434887448013,
          0.36864539693381015,
          0.12817826252375392,
          0.4469975169455266,
          -0.4833329025043936,
          0.19530564843377235,
          -0.4383549538526286,
          0.585266170851095,
          -0.06673046256028768,
          -1.3491549120427704,
          -0.23058035234790802,
          -0.12151305142204687,
          -0.1895664647769925,
          0.5120636823980482,
          0.010369612839133157,
          -0.38215656617893945,
          0.15630077774518386,
          -0.17268342163481923,
          0.23056343810084584,
          -0.12468628097922337,
          0.23759605819007018,
          -0.040773141604804906,
          0.4662616950603081
        ],
        [
          -0.668221039698511,
          -0.41835937563470654,
          -0.4014589932364473,
          -0.2091458082696036,
          -0.6251403452062471,
          0.3179860481946192,
          -0.5306254282684648,
          -0.022667426975479917,
          0.27548972415261946,
          0.3684826941657914,
          -0.23314097740711695,
          -0.29518331984214313,
          -0.37746529524281536,
          -0.23926196242510575,
          0.10463535547686585,
          0.2775839836226232,
          0.37530420204216614,
          0.2588810735770061,
          0.545438496057868,
          -0.530603947772148,
          0.21080377564911965,
          -0.13010522142075098,
          0.2901812134168826,
          -0.018839193570469946,
          -1.0985904195192033,
          0.045323516173680564,
          0.043343008588826996,
          -0.4095130980491952,
          0.21398643944621615,
          -0.28982472232579515,
          -0.5172189857650792,
          0.15091413091468103,
          0.18216891478428499,
          0.3187766200419978,
          -0.5143472970731144,
          0.8327158968956954,
          -0.354438935508277,
          0.3784899445378292
        ],
        [
          0.3663764386881199,
          0.25957317741217417,
          -0.059543563701181336,
          -0.08288362431134735,
          -0.26010158718552806,
          0.38254924453819433,
          -0.3639899118050086,
          0.4032855504220692,
          -0.3328347583252433,
          0.6951702976389837,
          -0.045024585578200826,
          -0.20673137976414552,
          0.02713444638243722,
          0.03944457378413371,
          0.21603187033551569,
          0.4203539922579992,
          -0.10527455845956461,
          -0.3425241860041723,
          -0.7229071426478217,
          -0.6577050327035293,
          -0.03232791415152416,
          -0.4140649298852576,
          0.3268251547615011,
          0.3069090577400173,
          0.17256707910121283,
          0.35068862343574375,
          -0.4886182391753782,
          0.35587244663642936,
          0.1659938600892444,
          -0.11053731322047769,
          -0.1959220399371769,
          0.21095035343326332,
          0.34731165006889286,
          -0.1189679150743739,
          0.5928416942379164,
          -0.33850799820802574,
          -0.2163819207412638,
          0.5457613845038256
        ],
        [
          0.2950793461740684,
          0.0811051697208878,
          0.19533173645067203,
          0.09354513771353037,
          -0.2417969995205363,
          0.402393688337886,
          -0.5748040192700834,
          0.5844537701881338,
          0.08423504653002459,
          0.3203668604679115,
          0.19616272907081095,
          0.209357345107555,
          0.3231261997992907,
          0.03482192851484238,
          0.3404792773673446,
          0.018513900875953306,
          -0.26062723698570267,
          0.05588201631225997,
          -0.6854341834580656,
          -0.5406062709399836,
          -0.10047170495733715,
          -0.6576132278758366,
          0.44120172950719294,
          0.5907799960183138,
          0.35518391425250995,
          0.7007475256517309,
          -0.47822997302573034,
          0.12175148371516778,
          -0.07140771523335679,
          -0.09793060247795204,
          0.07575017392637355,
          0.16392624022242372,
          0.2624919771289249,
          -0.28426551660874205,
          0.5235272596348262,
          -0.44161330933849113,
          -0.2794494367038986,
          0.52581682836332
        ],
        [
          0.09151665163681856,
          0.1389203507678572,
          -0.2649364926943655,
          -0.36663717745961355,
          -0.08182656331128677,
          0.7711490814589074,
          0.025722772223225603,
          0.2329262752293779,
          -0.08719228279736482,
          0.22836531499029403,
          0.40108483907804426,
          0.19001021967418766,
          -0.3171312793396965,
          0.13881647910822462,
          0.33274638534512785,
          -0.9019329241310696,
          -0.05781622794333086,
          -0.7617373176211129,
          -0.4710657109455841,
          0.5445013977659844,
          -1.1099570858353005,
          -0.04438990030284011,
          0.23814947009541157,
          -0.38647922324836714,
          -0.5853166818214688,
          0.43248445726148366,
          0.28243362269145506,
          0.6348963468416919,
          -0.43646034837415554,
          -0.07182642613003597,
          0.24358018312829577,
          -0.2253863830344345,
          -0.027824630803099413,
          -0.23946828194617598,
          0.17836916227760674,
          -0.7233471769942721,
          0.6379744655863521,
          -0.5457414211856213
        ],
        [
          0.22899308383003994,
          -0.07875895514373228,
          -0.07224855123677476,
          -0.1291767725158904,
          -0.2125189865169573,
          0.215835614292099,
          0.06670569016183794,
          -0.020893333286268845,
          -0.1213424443169203,
          -0.16038662380884872,
          0.004974759949489438,
          -0.08489749675621554,
          -0.15470231514092672,
          0.12568909468601558,
          0.16013270131596954,
          0.025737188250365084,
          -0.06479901669500995,
          0.01010833485344758,
          0.04872108089150694,
          0.025007014852715673,
          0.21807983222685673,
          0.09955347651122168,
          0.22545153325195288,
          -0.12109285645897089,
          0.11275227333243228,
          -0.12146286617671277,
          0.20469631983354322,
          0.06969543795785808,
          -0.23321489404126752,
          0.06777591888913079,
          -0.14712620381427613,
          0.14147712362723677,
          -0.22207763981833417,
          0.23717760617159148,
          0.07207851731967199,
          -0.18975765979045195,
          -0.18321111107411586,
          -0.0788314846542316
        ],
        [
          0.35908233984740917,
          -0.03282849361807539,
          -0.1845996908453915,
          0.4642655657723089,
          0.25179096870964374,
          -0.45078322324801057,
          0.6185267069006446,
          0.0740753147581738,
          -0.33276311315535245,
          -0.23307544520293513,
          -0.18511951997374115,
          -0.3592790770004018,
          0.3590915982619916,
          0.684970949677289,
          -0.39355103470282704,
          0.765378678740886,
          0.35355342163795156,
          0.3915589762340793,
          -0.11734971707847115,
          -0.000674723444067363,
          0.7492271433149044,
          0.1609113995127331,
          -0.3870772479566484,
          -0.08192897489928426,
          1.261865511402447,
          0.3691572397565405,
          0.3870746124710547,
          0.1117382754766045,
          -0.027297718455583545,
          0.2474215515748373,
          -0.2440978476157826,
          -0.4000952551825925,
          -0.0063181527871688375,
          -0.4251619242521494,
          -0.3180413590639026,
          -0.15840380554944183,
          -0.3557263707918018,
          0.10392704400658578
        ],
        [
          0.22804517162521418,
          0.10309934361154642,
          0.23394132136587303,
          -0.051382745895038405,
          0.4524993866843207,
          -0.37286403176802424,
          0.6383083988910658,
          -0.10228048829119026,
          -0.552634063437088,
          -0.41142439496825906,
          0.008299322964218158,
          -0.14635291558366442,
          0.47914942765927376,
          0.41635042097560576,
          -0.44958054969774003,
          0.09593530343685149,
          0.08427074530819402,
          0.14123875306405975,
          -0.004453537924692885,
          0.0981561863367653,
          0.46831147132376066,
          0.3829571897750306,
          -0.33250191105757754,
          -0.10275897898556523,
          0.7608703467143819,
          0.21944117011447786,
          0.1295577081980505,
          0.177307523487738,
          -0.17416182687392023,
          0.01630798519687667,
          0.10131846924072452,
          -0.11993334592241209,
          -0.2545971980372122,
          -0.3624277987863678,
          -0.23696695958536443,
          -0.12920313575984713,
          -0.20373608384653127,
          -0.09387187917409989
        ],
        [
          0.19750975989268657,
          0.115234599705959,
          0.11318514367658941,
          0.11034308885359423,
          0.1782875810900924,
          -0.06511590219750907,
          -0.12340302326175037,
          0.3136920429150594,
          -0.06599276901923809,
          0.5266706559723473,
          0.1824895644201715,
          -0.23831240674835374,
          0.1800874998343743,
          0.2246239361316778,
          0.04938116055956657,
          0.5356505017121587,
          0.23362294842292702,
          -0.026377902993844154,
          -0.49864424223498277,
          -0.2999968304546948,
          0.35869158527113715,
          -0.5820865504398847,
          0.19960243715006132,
          0.22108047195123712,
          0.3136217443946902,
          0.11506276002048257,
          -0.10693977989724836,
          0.05590268773533402,
          0.19901240408323578,
          -0.18238710624551732,
          -0.4945680523920352,
          -0.1220755704575225,
          0.360184580497549,
          -0.4206348381599865,
          0.08290618108207023,
          -0.38143682069686524,
          -0.0032936422205396432,
          0.5344384597580716
        ],
        [
          -0.1632802790223318,
          0.008964647931600199,
          -0.24615218468519903,
          -0.19265124207888304,
          0.18365296866176536,
          -0.14075704465283348,
          -0.2275021385862733,
          0.26174360396988644,
          0.0735257852454162,
          0.12718231146947767,
          -0.2507447637734176,
          -0.14373346553592362,
          -0.116465418530615,
          0.1327179625244308,
          -0.024585232576404263,
          -0.2101041050972818,
          0.2365373593033423,
          0.10288828434118623,
          0.19266661240514513,
          -0.12053478546750937,
          0.15740506035904614,
          0.10288575111688462,
          0.11556861210241862,
          0.26539851594251496,
          -0.21463864151418716,
          0.11288829007863437,
          -0.15491076467687187,
          0.07681277436401647,
          0.11063930413268493,
          -0.0037783364124134825,
          -0.21208719860603997,
          0.08828865797835551,
          0.09027183954562297,
          0.2275148219489986,
          0.028401501174258503,
          -0.244955383532914,
          -0.1911964297859316,
          -0.006232437567712956
        ],
        [
          0.6120689223815109,
          -0.014450411252823798,
          0.6030740728595837,
          -0.6090039625529579,
          0.17490921987593372,
          0.6420347457059754,
          -0.5665793499104411,
          -0.3790619195644647,
          0.8374034267926982,
          0.11600947682998419,
          -0.4765177536669143,
          0.5619391375163646,
          0.8362883997650075,
          -0.08416773069330856,
          0.5578724111563241,
          -0.9149232373602101,
          -0.9685259657985734,
          0.10046114257935256,
          -0.45369994680313736,
          -0.5318546431162727,
          -0.43763272078197907,
          -0.1313977356214315,
          -0.0011787754336544283,
          0.7689813746072477,
          -0.42235081244782363,
          -0.29049532539249306,
          -0.7962765708631205,
          -0.8352334010602893,
          -0.7829430240122555,
          -0.4141291055133845,
          0.3020091446268191,
          0.7283207382378113,
          0.043420445255287925,
          0.5460802598343203,
          -0.18142791094149943,
          0.35184674986642644,
          -0.737446456572735,
          0.08930331410998339
        ],
        [
          0.4991094886663697,
          -0.020394132016711256,
          0.21835146886916526,
          -0.6535377415798949,
          0.3156023732809416,
          0.045526703531162054,
          -0.3292555938285601,
          -0.40390501945751695,
          0.7768478526657733,
          -0.010561535554199216,
          -0.42205772549235276,
          0.009348986308557556,
          0.6122775658952467,
          0.20511639245834573,
          0.5334624525498888,
          -0.3297300334202517,
          -0.29732128769805916,
          0.5017565965496897,
          -0.25283230821202535,
          -0.1937710778547551,
          -0.3767319715684165,
          -0.06818237002993414,
          0.07306188250412865,
          0.6936723262117681,
          -0.6121463161425938,
          -0.2256151733653053,
          -0.8208546732961598,
          -0.6313323994166075,
          -0.4560296046308659,
          0.035804486768803476,
          0.25200151595400944,
          0.7246841871769535,
          -0.14192947430266542,
          0.5729715308071682,
          -0.3294783444334745,
          0.5139618025027115,
          -0.9388673815737507,
          -0.16205888934985957
        ],
        [
          0.2766740253422502,
          0.12669625683747215,
          0.13092698188570792,
          0.19692655296404996,
          0.11472482510049295,
          0.26626694535885453,
          0.03602902988877021,
          -0.03075343868165905,
          -0.07695319349430835,
          -0.1797026994065064,
          0.18497188199891473,
          -0.06712099887305238,
          0.023414149378431056,
          -0.012334374672067872,
          -0.06757694981898789,
          0.09943591837334458,
          0.09129226770436177,
          -0.2095948992625568,
          0.15229360375045076,
          -0.021348666537651943,
          0.012857513124635695,
          0.18836995945607593,
          -0.09563374180914837,
          0.1723262130187593,
          0.13489091304039832,
          0.11450527051147787,
          -0.09370877142191208,
          0.19529398802807016,
          -0.017817534714047605,
          -0.198673130144602,
          0.03428519716340311,
          -0.11154486378967403,
          0.2165768422056381,
          -0.014369766459151658,
          -0.17019025214457997,
          -0.15171665969507378,
          0.1323648122064902,
          -0.17453300959318865
        ],
        [
          -0.003708279936677576,
          -0.21880936392420544,
          -0.07512174159579454,
          0.16255009452764957,
          -0.062136182427509463,
          -0.12560585958563858,
          0.23943260535184477,
          0.17444820665867763,
          0.16311646639363755,
          -0.2802382879538591,
          0.24011835329509948,
          0.025032431235851672,
          0.08032446808721275,
          0.2083455694241004,
          0.2999710912644929,
          0.15277703815480814,
          -0.12415664348890183,
          0.21412195859020233,
          0.12088133488092231,
          -0.09886280984710773,
          0.2697397239283215,
          0.13488537057226416,
          -0.2294804051882986,
          0.1658143913774023,
          -0.011018147575217468,
          0.12309628561400629,
          -0.24604743151394112,
          -0.08696393612701231,
          0.16313002456492584,
          0.37394569347046114,
          0.13790160553888692,
          0.09445115343283877,
          -0.11237153178282734,
          0.008381821398722861,
          -0.05826813923291519,
          -0.01800582801574132,
          0.009058809188646448,
          0.03779115260173094
        ],
        [
          0.0036697644368175715,
          -0.4299727856088718,
          -0.06453386147747252,
          -0.17122057748274022,
          0.21489680425579613,
          0.3120214797417793,
          0.10957793147980331,
          0.16516396666065744,
          -0.0722970302868066,
          -0.2632744218766976,
          0.03202289270910398,
          0.4047398730398682,
          -0.006851977366930242,
          0.3348812006798331,
          0.3893598622363524,
          -0.20240814849595593,
          -0.09328608741899472,
          0.08236455109775438,
          -0.04238919739715657,
          -0.08066429085980888,
          -0.4549115374277475,
          0.04082237788865556,
          -0.0497539416123985,
          0.16558077098187518,
          -0.2158029116428952,
          -0.01536686154120971,
          0.1282440464248911,
          -0.06217423049918578,
          -0.35670745692234795,
          0.02170418933988962,
          0.14207262378325297,
          -0.047142109377598204,
          0.00024007550850451437,
          -0.014016447328408458,
          0.11144706455117293,
          0.11176097570922319,
          -0.019258776873907018,
          -0.5639108511227948
        ],
        [
          -0.004320446012233334,
          -0.4763713941126753,
          -0.0375297087237087,
          -0.36720288972259557,
          -0.34380958436552994,
          -0.10656024064469007,
          0.18240044574559308,
          0.9917160146164848,
          -0.15697319218828565,
          -1.0915326840340198,
          0.20742880327413984,
          0.1334361147322466,
          -0.417862050476473,
          0.4623684694672075,
          0.4227671321872965,
          0.4326517264581626,
          0.8570745372761835,
          1.1315680563153152,
          -0.16076930043612384,
          0.07362011349058101,
          0.12280913704506048,
          -0.6801442781422978,
          0.3098460096230133,
          -0.28194704499765555,
          -0.35411862298406765,
          0.8076055652088924,
          0.20310900343318325,
          0.2182459212972099,
          0.013059644457869024,
          0.889114618414956,
          0.06815478311403861,
          -0.5358119359277478,
          0.28146672089215685,
          -0.6606178391615354,
          0.41832823625908144,
          0.40594345470807447,
          -0.5353381152622144,
          -1.3488049243253204
        ],
        [
          0.01650008680451855,
          0.1844513437124322,
          -0.09171585045566866,
          0.07138166229710655,
          -0.20552335234732738,
          -0.22832345874964624,
          -0.20595810979598028,
          0.02315367109776226,
          0.19276419260803984,
          0.11582534333158281,
          -0.003302747052799424,
          0.16991670391377744,
          -0.011786362041468622,
          -0.12783863234730483,
          -0.11614675028682106,
          0.06310896408915775,
          -0.16065576648956575,
          -0.06412158374277296,
          0.036916164511279166,
          0.23577083625910322,
          0.10276858947273144,
          0.041585165965788304,
          -0.021171071200818403,
          -0.2563173494159111,
          -0.0011502562579696906,
          0.06137133056871703,
          0.13049649490795906,
          -0.05852020400185124,
          0.17611868957784962,
          0.016831180562651826,
          -0.063449050539126,
          -0.11778432202821822,
          0.14517754315995204,
          0.21230529632383677,
          -0.08349433802752836,
          -0.07586834418703836,
          -0.05664983087268471,
          0.04921217760735613
        ],
        [
          0.16384095959033215,
          -0.16551626512046352,
          -0.182989214529275,
          0.12129155214407417,
          0.1000428703914623,
          -0.061941419147557505,
          -0.16555954912201315,
          0.18310975028129503,
          -0.057812177334438775,
          -0.07840404524217967,
          -0.07290693755534221,
          0.08191138912377727,
          -0.13663250657518067,
          0.07897788277072348,
          -0.06209982982544766,
          -0.02226582524827012,
          -0.16993420134504397,
          0.09150553869138973,
          -0.03158322947759567,
          0.049664267457072676,
          0.012320480874224092,
          0.11398515307675768,
          -0.06872285537787251,
          -0.1931415280506858,
          -0.19219397794154072,
          0.09724881572079566,
          -0.18636239125568665,
          -0.18165258116102082,
          0.2492272490871852,
          0.25045184250522723,
          -0.13516438454758703,
          -0.2227206991663759,
          0.06705014459267761,
          0.19736631551599912,
          0.25322927728409195,
          -0.04463760371621817,
          0.05924321859972625,
          -0.179586858854115
        ]
      ]
    },
    {
      "activation": 1,
      "biases": [
        -0.2555917842656574,
        0.05713995144556221,
        0.14840954488737637,
        0.05532597604191366,
        -0.009919747996974128,
        -0.05315903144708706,
        -0.1329794845027383,
        0.16373739284404715,
        0.05350098542492451,
        -0.21419868911688414,
        -0.22196968777692502,
        -0.048266416627388425,
        0.006001048616020425,
        0.29122711626094194,
        -0.16433560546177864,
        0.026920262427314958,
        0.1490745282205636,
        0.05403102180159486,
        -0.03074660053559025,
        -0.150870274750981,
        -0.10145189672475942,
        0.016544101905290615,
        0.15330428737486698,
        -0.2509839220813086,
        0.11196334986720613
      ],
      "cols": 25,
      "rows": 38,
      "weights": [
        [
          0.02090928382365412,
          0.11300289137554477,
          -0.35800108789472984,
          0.10589183706570512,
          -0.7032956396411091,
          -0.36720402990140394,
          0.1961553763493863,
          -0.6196867783676047,
          -0.23581544626561096,
          -0.38340159188974726,
          -0.1890159433724936,
          0.3821962720985416,
          0.3911838232893724,
          0.614007707253653,
          0.23305610517608005,
          -0.3335040400931684,
          0.04178220469748358,
          0.17632112077854767,
          0.9568412280927953,
          -0.013789849900048817,
          -0.13278554749993618,
          0.10594578295583931,
          0.500807485179361,
          0.32097699882610276,
          0.3192862765195463
        ],
        [
          0.23330900715956365,
          -0.16721985132664938,
          0.42933647218350446,
          -0.09862441654178425,
          -0.3627652500200794,
          -0.03637194077768638,
          -0.4345397786480403,
          -0.23330360192021585,
          0.24643028251942561,
          -0.4522410402591396,
          0.14132147889042038,
          -0.2821646930998037,
          0.7201937475139556,
          0.5831223671216448,
          -0.0294697274580886,
          0.08341867833842459,
          0.09014989038260664,
          -0.43428635347543626,
          0.1286296217617496,
          0.4593210605313462,
          -0.7422449279422364,
          0.14017288615278242,
          0.13477170803033825,
          0.4717276244000415,
          0.03790056869624641
        ],
        [
          -0.04507262294388478,
          -0.2031386783881386,
          -0.4706141731917098,
          0.1021090337181173,
          -0.20999362898181115,
          0.02971565230194053,
          -0.05443388203995437,
          -0.28949093729685166,
          0.4448390507122654,
          -0.3571192598928443,
          0.04603627040435582,
          -0.23484788183403893,
          -0.10529644501266258,
          0.2646758863333089,
          0.23279934927538096,
          0.1485130225055301,
          -0.49242237988419796,
          0.6092134835724642,
          0.4977579913494461,
          -0.08012323605809167,
          0.18988586767026158,
          -0.023065212169335988,
          -0.0093177789971123,
          0.17661536570359795,
          0.22306122365218176
        ],
        [
          0.2090060528406539,
          -0.4197482216373178,
          -0.4635922887545713,
          -0.23101654278567063,
          -0.35194928615101484,
          0.2645529065208309,
          0.43845147910057736,
          0.34588065316535066,
          0.003780499529279254,
          0.30473750660587845,
          0.6284508828907773,
          -0.18738239599564901,
          -0.0901489854260304,
          0.9526312792079341,
          -0.360387138111674,
          0.3996558131832618,
          -0.3552520200393217,
          0.19932217507144406,
          -0.22343466463334052,
          -0.1997991668944508,
          0.07150078147700112,
          0.4479077072527698,
          -0.4797904133845936,
          -0.1768555797540978,
          0.04124549214601231
        ],
        [
          0.294174825871029,
          -0.14688851422217963,
          -0.2446344860029122,
          0.22930484666185363,
          -0.243384985011937,
          -0.21274136521632897,
          0.2743203351819102,
          -0.31073378875767665,
          0.09379048219243916,
          -0.5430095945728578,
          0.3912559970926217,
          -0.127466751217007,
          -0.026566545356743295,
          0.8733844665887607,
          0.3756738236273037,
          -0.13475975991244693,
          -0.020583848182355906,
          0.3262920416438371,
          0.12836306025157673,
          0.27088350045186055,
          -0.2181035875928516,
          0.4295709551648326,
          -0.16051667174638468,
          -0.15748308609507963,
          0.475927113348605
        ],
        [
          -0.1621280124284674,
          0.7935734699202863,
          0.932163402051104,
          0.013744475093993595,
          -0.06981591013962189,
          -0.2997383728127766,
          -0.4625492567746175,
          -0.0467726257232934,
          -0.09930689743299786,
          -0.3350558390393643,
          -0.640929890087813,
          0.21834002010425185,
          0.7044030307139826,
          -0.3354193140854853,
          -0.4697824106849068,
          -0.20859125902327152,
          0.4562527149046747,
          0.3237960281648415,
          0.6143676879445802,
          -0.4555660669525797,
          -0.4350556887371888,
          -0.6291632038094216,
          0.4110407912667579,
          -0.4144150380157325,
          0.5010021735364065
        ],
        [
          -0.3446066587891246,
          0.0021875521450317394,
          -0.6060305959230669,
          -0.1170090310662152,
          -0.294301465691569,
          -0.27581127233432984,
          0.9933964881633693,
          -0.3361278026507865,
          -0.08209962540392705,
          0.09319345244614691,
          0.5184618479262654,
          -0.3186611569512417,
          -0.6267458180986267,
          0.8511426925561059,
          -0.2577711710023256,
          0.6139334808961623,
          -0.2305778931089308,
          0.14725646953643573,
          -0.39459108287640915,
          0.15145721823196187,
          -0.12100162812903702,
          0.22666445339638774,
          -0.3332508880555056,
          0.08173198975426033,
          -0.33025188960015994
        ],
        [
          -0.039875350454996523,
          0.5425289693356602,
          -0.4598064502448076,
          0.3059327294120011,
          0.10158186980090288,
          -0.24118462250903672,
          -0.3655981367427968,
          0.22677243877073092,
          -0.27516709047273386,
          0.19718674222457055,
          -0.039923318976604484,
          0.41564999440088946,
          0.45646631069988364,
          0.5590307913290528,
          0.187360804986925,
          0.625224802145729,
          0.2366934676143626,
          -0.7228894749254153,
          -0.0014347594728411352,
          -0.2587323495824868,
          0.43440955582786017,
          -0.5972967226946924,
          0.582483072349153,
          0.06776495866214677,
          -0.38961307639882653
        ],
        [
          0.3280499626841709,
          0.0956270069893644,
          0.7398973078318533,
          -0.07227629732765611,
          0.13794432497491346,
          -0.2565121338358874,
          -0.4563157947647199,
          -0.287527578036831,
          0.057991549911955875,
          -0.731663651006606,
          -0.6517794726996202,
          0.0805597255495493,
          -0.3643021441072088,
          -0.6423981311462642,
          0.010249528942343438,
          -0.6196369778282234,
          0.054219253117966396,
          0.49969981348242853,
          0.2537520462519849,
          -0.11922109960391773,
          0.3477693531552794,
          -0.015297450268652058,
          0.1541220485182024,
          -0.35132303295027606,
          0.8732372360371498
        ],
        [
          0.3326706094445644,
          -0.41300452444384683,
          0.3484141036894418,
          -0.39477554394557657,
          -0.6012781699018889,
          0.14137449057279483,
          -0.7511061053994001,
          0.5240727178803123,
          -0.0094961598972384,
          -0.2357205569385891,
          -0.2762588425228607,
          -0.060356387255078574,
          0.7695962983636788,
          -0.12322785172713963,
          -0.35780368817853575,
          -0.45206806315337583,
          -0.2364954335182735,
          -0.23167175127439374,
          0.7041483714863889,
          -0.2317115742397523,
          -0.6773108258366315,
          -0.03028149854792133,
          0.020852802584122008,
          -0.5181405038505796,
          0.23856007907985274
        ],
        [
          -0.2544139060044419,
          0.4185331002066044,
          0.4352324663494001,
          0.2449354223579726,
          0.16813048233882982,
          -0.12142404961547061,
          -0.2348646099736355,
          0.3774850983886147,
          0.32509136114825515,
          -0.11427708951705241,
          -0.27236671893832903,
          0.07580310050409644,
          0.4371701578486877,
          0.6086767781063924,
          -0.19610724422914994,
          -0.0591952648343424,
          0.30824857639538433,
          -0.35531396810812604,
          -0.4025755917219495,
          -0.4159641252449992,
          0.05099920237767221,
          -0.1682161620812574,
          0.03964243066201531,
          0.14325151738955763,
          -0.20740615112343735
        ],
        [
          -0.12959642217490094,
          0.30306577028112563,
          0.10813703881989879,
          0.12586924161402616,
          -0.03998018585817019,
          -0.13222635573319977,
          0.06540405888432939,
          -0.32800943185116926,
          0.556266385372959,
          -0.238547678189927,
          -0.0526305613125688,
          -0.15422158768523084,
          0.0018501459091349926,
          0.5845515029363632,
          0.052638071108740525,
          0.2218794700222823,
          -0.3269162320115056,
          0.5648604660267577,
          -0.04742553956692765,
          -0.05641740807896586,
          0.8377879233053354,
          -0.46242197268902335,
          0.007339517797619451,
          -0.7175377530331566,
          0.6785099616985981
        ],
        [
          0.107620879264789,
          -0.2199767811978209,
          -0.3556119682779596,
          -0.06643409196335348,
          -0.6728500268368742,
          0.13313984278842603,
          0.49400008482008995,
          -0.6383053711727666,
          0.16260194888407323,
          -0.06504961560301709,
          0.06036880642948773,
          0.2710193702082257,
          -0.3169784867823669,
          0.4570387660557914,
          -0.12406419950536195,
          -0.21397812775322664,
          -0.8111139940198617,
          0.9330462824553052,
          1.0044448492549765,
          0.6718754427761096,
          0.21893203771072542,
          0.5045573107204472,
          -0.1739876094625377,
          -0.028867127754504337,
          0.5598775877637261
        ],
        [
          -0.5258024558019845,
          0.1196537338154221,
          -0.34719200839448466,
          0.4871083015799608,
          -0.2881832851817199,
          -0.3538023645742024,
          0.4472751964537969,
          -0.5449954773625477,
          0.058156364375832444,
          0.27245102462460025,
          0.09684115556516196,
          0.5375037246132822,
          -0.28405503166057067,
          0.6772036338786924,
          0.041685061156067925,
          0.37942044828442084,
          0.02077334073521749,
          0.09714663406752344,
          0.5259116420296754,
          0.06694179422337208,
          -0.10953956585455608,
          -0.2220191637744205,
          0.07516291375284541,
          0.5974587854831178,
          -0.41049792506470867
        ],
        [
          -0.08454625784195038,
          0.6571702724042686,
          -0.0627530592378116,
          0.42372070282070606,
          0.02925626206588559,
          0.28986526342111363,
          -0.26073079387226833,
          0.13188344113877534,
          0.26287553372743794,
          0.15538859184509368,
          -1.004513471923624,
          -0.04114515099621487,
          -0.1623991925900528,
          -0.3642758039999372,
          0.04412158256592497,
          0.02054680772038764,
          0.0720956291181006,
          0.5218561807249045,
          0.05745925704422421,
          -0.12953536055286027,
          0.6735746270788748,
          -0.4047026106751307,
          0.7117861821340389,
          -0.5489249770187138,
          0.29322380754560223
        ],
        [
          0.4521727606774124,
          -0.22066970512223227,
          -1.120316915662321,
          -0.15834137912601806,
          0.319447489432365,
          0.553676053820256,
          0.6077124355526469,
          0.2895805870425586,
          -0.7384971559366956,
          1.1596379784452189,
          0.20247585562294973,
          0.000987798694227473,
          -0.5631553334286958,
          -0.019978945477590427,
          -0.18984829445076704,
          0.766830398001814,
          -0.5217806175527929,
          -0.652118486717955,
          -0.061682209096632086,
          0.21386063300530334,
          0.41582551571778975,
          0.068764552925641,
          -0.6156664928432903,
          0.21129393718094042,
          -0.5174123496424995
        ],
        [
          -0.016026481702468273,
          -0.06847426412990405,
          -0.22860418624518078,
          0.3439958435795138,
          0.7291851423165829,
          -0.24048154509491085,
          -0.11345989994294897,
          0.2963453953079297,
          -0.6214373381163366,
          0.5518598402223728,
          -0.12583455360519655,
          0.2275364092766538,
          -0.22308857642710936,
          -0.18465954281650987,
          0.48615067184099925,
          0.6921947742424512,
          0.46709507732472477,
          -0.7330922291330524,
          -0.6984545724666887,
          -0.518320755346442,
          -0.059679385256815314,
          -0.2791833165195107,
          0.01987208071409789,
          0.31993727973338626,
          -0.869962159617924
        ],
        [
          0.11345227011616447,
          0.1355871524488861,
          -0.6868175316563947,
          0.33649465226784503,
          0.4568028395574528,
          -0.012981408288380451,
          0.4758878412608668,
          -0.15216997100519905,
          -0.47411212741706443,
          0.7452510228876773,
          -0.4331632362040934,
          0.5097958926090482,
          -1.179597857393722,
          -0.5185963179279823,
          0.21903523063817756,
          0.4968877245291414,
          0.04888256706693191,
          0.19511503182651496,
          0.18839676847645345,
          -0.3372308815306927,
          0.9364498159390893,
          0.07020304839480179,
          -0.4910243396516673,
          0.22664390350060584,
          -0.49782967653828875
        ],
        [
          -0.4623114616029615,
          -0.5057823145007279,
          0.37152869670158806,
          -0.2466734276588188,
          0.5975422446467056,
          0.23238032580575327,
          0.20188112084635135,
          0.5691245868155985,
          -0.22522614447744715,
          -0.23790354987590573,
          0.2968029020336232,
          -0.30617879965826206,
          -0.8275919483078983,
          -0.5255789993312262,
          -0.28637394188430876,
          0.2381464623547437,
          0.003919749849987588,
          0.5114619220561228,
          -0.5560090616832656,
          -0.0706326061915196,
          -0.26771147138924056,
          0.5033891582603942,
          -0.1914124646195133,
          0.05623845814894391,
          -0.30718537338555874
        ],
        [
          -0.9480636633933597,
          0.33032185571334133,
          0.02388395445650971,
          0.18414141862732356,
          0.11773192387167718,
          -0.34092780313709836,
          0.3087538943753551,
          0.23700031541010447,
          0.1745661346034054,
          -0.85806096892612,
          0.5746672214358172,
          -0.13686723310111454,
          -0.11141693688115827,
          0.945597040415165,
          -0.006224196993995984,
          -0.024705730608146566,
          0.4284985026365181,
          0.20526241856119334,
          -0.3398468229730526,
          0.22245523271055737,
          -0.35703058918897673,
          -0.44942655742372645,
          0.19694496614629003,
          -0.003930943389737636,
          0.17994152961215756
        ],
        [
          0.5241639351834051,
          -0.9233929420549525,
          -0.6390344013470179,
          -0.16324146253139538,
          0.20949431231247176,
          0.607117616616431,
          0.21783871760511225,
          0.491126181262653,
          -0.019753809003704492,
          0.8274506393704667,
          0.3626149921805303,
          0.010892159494697289,
          -0.7990718770288959,
          0.12711785841208903,
          0.5420906252187291,
          0.4786565498282837,
          -0.09041468612315937,
          -0.1781985552246628,
          -0.28545104437295915,
          0.18618925114620924,
          -0.4973060616749041,
          0.6517767576521617,
          -0.6828559927856988,
          0.47328105070258475,
          -0.593214989781164
        ],
        [
          -0.3386905827283673,
          -0.38116984327882386,
          0.20753076586337071,
          -0.3128838854511897,
          0.02836733488576029,
          -0.38316122928676055,
          0.3498562274497017,
          -0.08134453196926746,
          0.43301299796044423,
          -0.7207119466844576,
          0.4080834522872043,
          -0.3819532292504693,
          -0.018089273835704033,
          0.38555524048231216,
          0.10853886580438812,
          0.15236741748044066,
          -0.07425779740168052,
          0.5256583343234493,
          -0.44537241268666394,
          0.4567987198397914,
          -0.1824744015184232,
          -0.004180402419763398,
          -0.4266905117802366,
          0.12232207843951148,
          0.34912608261801215
        ],
        [
          0.052609390196438593,
          0.623697731797734,
          0.16921986877708606,
          0.16286011920348353,
          0.01841278231045191,
          -0.2846377909400244,
          -0.8755552850281416,
          0.3594704876523248,
          -0.26300718271646134,
          -0.10387190408893214,
          -0.624829614287335,
          0.17145278818716939,
          0.6200326416417814,
          -0.4671592982484245,
          -0.06638874518125147,
          0.0028755813665121087,
          0.36545284454805566,
          -0.7958983817922308,
          -0.23323662150906868,
          -0.5382881980381841,
          -0.04275170322722388,
          0.15513164599599683,
          0.5647754298952813,
          -0.05019503653948785,
          -0.2197705844857345
        ],
        [
          0.4868964102419262,
          0.13592795457278137,
          -0.04543167117776126,
          -0.3950401456528368,
          0.09074325289617699,
          0.3885497445066116,
          -0.5445306986308489,
          -0.40959350271296446,
          -0.08841710150198062,
          0.0968106874733945,
          -0.4927792138774555,
          0.15259554674726922,
          0.20805080255053643,
          -0.3414497783128014,
          0.5182958398683675,
          -0.5165004439106936,
          -0.47799417459380067,
          -0.04281505912139326,
          0.7596367109956422,
          0.37163507124633116,
          0.14602548048547434,
          0.5045407554274288,
          0.055762248523306676,
          0.3165337572648841,
          0.2434215128297565
        ],
        [
          0.5575530836117748,
          -0.48449838368895626,
          -0.7713916956794444,
          -0.026444461774452924,
          -1.021028231682576,
          -0.2377220016853952,
          1.286431977828545,
          -0.8963360944678727,
          -0.29881525215678373,
          0.5978567868162936,
          0.7255517748679344,
          0.57090736397627,
          -0.1766429985604603,
          0.8225210409396828,
          0.502193937695316,
          0.5854304497167682,
          -0.8430033252478702,
          -0.2660003520552982,
          0.6340809490677669,
          0.8901368784816807,
          -0.3357540745595562,
          0.8124871331671264,
          -0.8359304751787766,
          1.137064004461545,
          -0.21211619588018127
        ],
        [
          -0.16533467282150255,
          0.8770411482652541,
          -0.06512899505877073,
          0.31456151682925426,
          -0.5536862801417043,
          -0.22417244652983717,
          0.4434650728257328,
          -0.300983970831135,
          -0.5926152275545383,
          0.49635479514108166,
          -0.03686536087933025,
          0.6544447229491782,
          0.6567112246554822,
          0.5127803980864681,
          0.038597723245928986,
          0.4615881003703512,
          0.5878440460925509,
          -0.5136362219481694,
          0.38643679315767554,
          -0.05970200200136602,
          0.11713871238212999,
          -0.5312550685865394,
          0.5308599123115625,
          0.4803102621290341,
          -0.6707003596088632
        ],
        [
          -0.9122688423576614,
          0.2963029690147883,
          0.18642921490690442,
          0.237720050887878,
          0.015559865996543153,
          -0.31512676360872255,
          0.7465250832888715,
          0.10621269758294845,
          0.25636953355222464,
          -0.16677442932932074,
          0.6446617471565325,
          0.20134175988794653,
          0.3008859507450398,
          0.6899918355763812,
          -0.14691665990092234,
          0.10319571936068712,
          0.2308600342186751,
          -0.18646415950889209,
          -0.5891967620895379,
          0.17786098211532483,
          -0.5001760883576453,
          -0.1628929576886996,
          -0.36507672336870184,
          0.02954379173952522,
          -0.3640399335303781
        ],
        [
          -0.16509672963095917,
          0.5557657290909209,
          -0.2240655289279232,
          0.13330001721671986,
          -0.562438421607878,
          -0.35269528073220136,
          0.31143798853393423,
          0.406260090828904,
          -0.2710061436451199,
          0.17289229208861215,
          0.48414292015609495,
          0.26879975706893716,
          0.5914832980604433,
          0.9555530257674147,
          -0.503136534293508,
          0.25340283300454836,
          0.5594829704325529,
          -0.6794256569596009,
          -0.27191000846639973,
          -0.03515738731585276,
          -0.15821056169170866,
          -0.6432439511301927,
          0.18020470901956007,
          0.08604624358758559,
          -0.25728295329276585
        ],
        [
          0.2080306391768112,
          -0.7219300157888192,
          -0.1432583838653149,
          -0.5189729584704719,
          0.6338767364978453,
          0.6150989184821736,
          -0.7577587749447211,
          0.19872642947548816,
          0.11845489271774919,
          0.2930345502495598,
          0.1237198485054478,
          -0.02670725661954644,
          0.034494962868675656,
          0.005456396719311706,
          0.2862902823051864,
          0.18694981374118527,
          0.22950239570082345,
          -0.955172461343303,
          -0.7690916769107212,
          0.15268546582985448,
          -0.6190391315269009,
          0.3080297300920521,
          -0.4028169909887198,
          0.150727269907914,
          -0.3917145020925906
        ],
        [
          -0.4360363028688455,
          0.20660638476365936,
          -0.6684275219721738,
          0.38624032880865333,
          -0.06857235989927249,
          -0.014427089327986146,
          0.3978753508328619,
          0.16422096917020781,
          -0.15637937560343634,
          0.5134332313319101,
          -0.09665543482785749,
          0.22629404484139018,
          -0.5280183107690061,
          0.5868208343593587,
          0.18216139695078742,
          0.24166264770018855,
          0.4901568017400542,
          -0.1533116148907657,
          -0.410953662425647,
          -0.27716542591618076,
          0.4073036663730416,
          -0.1967217747699656,
          0.33440890849850863,
          0.33683335603539555,
          -0.3484673552224789
        ],
        [
          -0.22976488401616532,
          0.03527160006794707,
          -0.05366196843575452,
          -0.22438827516244003,
          0.36165342972716624,
          0.20360128862057736,
          -0.2524466233449507,
          -0.39793611367056353,
          0.3848030970478929,
          -0.5877628190561387,
          -0.20022406809033524,
          -0.4163027430019762,
          -0.12009545094423384,
          0.5187286136123669,
          -0.07550765697201965,
          -0.22590148585249514,
          0.17216174608386112,
          0.5009622685076898,
          -0.12834482254134266,
          0.11345407402472084,
          0.2329295804388863,
          -0.2895274256749287,
          -0.0530122035935607,
          0.034255823663121035,
          0.30505479675097324
        ],
        [
          0.4022394515537488,
          -0.25361075817758155,
          0.022877515286208405,
          -0.1721401498557607,
          -0.0046097258114151905,
          0.247873189889611,
          -0.6178052986869427,
          -0.008220318792665406,
          -0.021760635989497786,
          -0.2438683099475609,
          -0.7415716292734724,
          -0.12191155789486513,
          -0.2910212252008317,
          -0.7486024964796135,
          0.4406702328706822,
          -0.4478633858680723,
          -0.28939710990197665,
          0.21237141459910563,
          0.3503842911685336,
          -0.09175573511665645,
          -0.21452323464511255,
          0.025704631713409764,
          0.123706985263556,
          -0.2457097037073273,
          0.5898961658654883
        ],
        [
          -0.0798893840442936,
          -0.23119802945444456,
          -0.10922210500880265,
          0.10671868541824699,
          -0.1306779243302371,
          0.06537502985002018,
          -0.39633949447485833,
          0.21727592784968577,
          0.1580354723687623,
          0.5238072701945797,
          -0.3064072324851873,
          0.19371263039421283,
          -0.16248965908415308,
          0.07802629555826356,
          -0.07143009709179939,
          0.049785580764696885,
          -0.15502562720056162,
          -0.3102036581620376,
          0.23989811347853035,
          -0.12354756880392745,
          0.07347065499550101,
          -0.07919980328760523,
          0.08361349564684124,
          -0.45723873630889594,
          -0.26270043843685603
        ],
        [
          0.17457444380020465,
          -0.23342122499109802,
          0.5342953679167626,
          -0.2644479153431825,
          0.4287579504259848,
          0.46656769692364913,
          -0.4549569026915468,
          0.09044476367555347,
          0.38994815034532543,
          -0.625305556291396,
          -0.45735891877845464,
          0.0012060384304660708,
          -0.5737724028649224,
          -0.6767899508179589,
          0.14900414413958568,
          -0.6642502619492955,
          -0.22670732155975215,
          0.6614396337407653,
          -0.011992625501349448,
          -0.34288721772027847,
          -0.31043658930478074,
          0.3994511157984481,
          0.2625854206545728,
          -0.3044582150046854,
          0.7923245919307682
        ],
        [
          0.028234015425006784,
          0.4526017261729103,
          -0.2245786208237927,
          0.07489851503298638,
          -0.2710002375736141,
          0.052245964244945806,
          -0.16696814759051964,
          0.05954405702917634,
          0.02425405161168918,
          0.14554926952218022,
          0.042104289650313,
          0.006561108758860447,
          0.45050432943024765,
          0.31389178919047145,
          -0.3119163761371206,
          0.46536356617777247,
          -0.09230886985681856,
          -0.31544758571374903,
          0.2766804996659242,
          -0.08595549694135668,
          0.0533377681610676,
          -0.5441464214049323,
          0.49838358685633233,
          -0.2843861438352684,
          0.0686200500422033
        ],
        [
          -0.17163581039496015,
          -0.5856947612558828,
          0.1573209379452802,
          -0.005605938351352906,
          0.5727999958959362,
          0.06612600619910163,
          -0.299820903260196,
          0.3724407181589861,
          -0.1818802039488836,
          0.005678237744617125,
          -0.579858526010333,
          0.1408994120221362,
          -1.0575954153371387,
          -0.8532265003949467,
          0.43141785959021295,
          -0.06560713913031657,
          -0.3092722445267501,
          0.6939165445396954,
          -0.4792417438853627,
          -0.40208260432165027,
          0.478551516325573,
          0.47365762000489114,
          -0.3520417549516236,
          -0.5662964373597096,
          -0.036749998066016504
        ],
        [
          -0.38866863991209255,
          0.027173768846581285,
          0.41453252927750434,
          -0.029843895639635697,
          0.05559604786958928,
          -0.11549726239280893,
          -0.09430327801272408,
          0.39719206579899163,
          0.6503065331224929,
          -0.8706304491270119,
          0.3053721087977091,
          -0.5175696207514386,
          0.4609566219302026,
          0.6715219664326577,
          -0.32295861357470335,
          -0.14614974501311412,
          0.03898985244200125,
          -0.3716889155919627,
          -0.671268970936047,
          -0.3713516056556281,
          -0.5761951135369832,
          -0.39513891333895373,
          -0.07681161787640389,
          -0.6455599114908721,
          0.12402084859929378
        ],
        [
          1.084819421772606,
          -0.9868379051658086,
          0.40348661430510796,
          -0.90547040191968,
          0.03677333474022516,
          0.4980370999212552,
          -0.8743177757751776,
          -0.005296187915909158,
          -0.0887259632192651,
          0.20731733333006178,
          -0.092322026784052,
          0.025581982849819798,
          0.6703565953874806,
          -0.7021867620370811,
          -0.11399891048821326,
          -0.765452027828095,
          -0.45770945281431924,
          -0.6459861054718582,
          0.08882314842207861,
          0.2366047902962867,
          -1.1989192304565435,
          0.4740700760894515,
          0.07766582184179335,
          0.051742080258137986,
          -0.025622255266780622
        ]
      ]
    },
    {
      "activation": 1,
      "biases": [
        0.8083803871110842,
        0.25166444484445244,
        -0.3460399777546931,
        -0.2479533019827139,
        0.09152122452807161,
        -0.16934070153932015,
        -0.16206265793530938,
        -0.11171471455180551,
        -0.0780965653135845,
        0.05778675112726721,
        -0.04955913491612358
      ],
      "cols": 11,
      "rows": 25,
      "weights": [
        [
          0.8547081341763733,
          -0.17197104749838607,
          0.21201245077775654,
          0.3133728194644328,
          1.411289233494096,
          -0.3130718603556395,
          0.2464844791195513,
          -0.5052900772124943,
          0.8113257970629216,
          1.2526817048877386,
          1.1213434997819745
        ],
        [
          0.18356978610818647,
          -0.1801971160447499,
          0.05699249146999056,
          -0.08671860057165943,
          -0.46841623103620333,
          -0.720638096402763,
          1.1288163711238384,
          0.6843362407723665,
          0.052693329398601156,
          -1.0815803690892118,
          -1.7606968721672285
        ],
        [
          0.7209422275416548,
          0.16743208800280254,
          -0.28028387197785837,
          -0.8054264643639278,
          0.5144929429893562,
          -1.4967557471875057,
          -0.5124483201789793,
          -1.0283309474206288,
          -1.73791319995595,
          -0.5489702196118438,
          -0.4765789556057286
        ],
        [
          0.40929286437473633,
          -0.06566033682632282,
          -0.34315409833728944,
          0.18637843066448564,
          -0.35397536713725497,
          -0.046402695759554545,
          0.29450625472925235,
          0.9559204240055519,
          0.30670793735739327,
          -0.9339297344921375,
          -0.6833613017480001
        ],
        [
          0.3934056926542043,
          0.3411497951429191,
          -0.6051294150124924,
          -1.0357253023033932,
          0.9627321203840699,
          0.9278364677717602,
          -1.3851806901578347,
          0.6003893481701569,
          -0.509272350338089,
          0.07796422795681816,
          -0.724279552095964
        ],
        [
          0.8499526880218149,
          -0.01400352629794243,
          -0.47675450015311105,
          -0.08288161062726364,
          0.9662031997085285,
          0.6031473965020238,
          -0.455146677955957,
          -0.4879658216905061,
          0.08457185095537799,
          1.0099931426863595,
          0.333696699903682
        ],
        [
          0.5168573096615693,
          0.22059935574492387,
          -0.12225304051496753,
          -0.7512411570305305,
          -1.09385223922029,
          0.3254857517808917,
          -0.1969003324993638,
          -0.40002867938205317,
          1.0454116165351037,
          -1.409691135077185,
          1.724590191051629
        ],
        [
          0.5160260811412853,
          0.4142494328570714,
          -0.016099460743867283,
          -0.049427267570371504,
          0.6341479967033856,
          1.090129057078584,
          0.10977798621290948,
          -0.02220761714308508,
          -1.6531347233749951,
          -0.15018306989813512,
          0.047249415177565035
        ],
        [
          0.6051676620675558,
          -0.20701729412389447,
          -0.49318516426339537,
          0.30252706603309765,
          -0.7283626538135505,
          -0.7016784490869951,
          -0.8078837961542719,
          -0.705967109711941,
          -0.5116554829827784,
