{
  "layers": [
    {
      "activation": 3,
      "biases": [
        -0.0966611099326614,
        -0.2627859521812321,
        -0.3345494390011006,
        0.26239948978264954,
        -0.3002710215146339,
        0.23068938720667223,
        -0.24048760978268177,
        0.008132913562728186,
        0.06802790631389698,
        -0.3430048314591553,
        -0.2105429531513034,
        -0.518089620387428,
        0.173026912586895,
        0.44771534025316856,
        0.08583627453960889,
        -0.002537754903750218,
        -0.10930632956503342,
        0.008683579238121918,
        -0.01974247558408818,
        -0.16702104293205827,
        -0.4142843645753497,
        -0.13885053758968566,
        0.37700125983076427,
        0.00753911907709083,
        0.45392808211562036,
        -0.7098942232000717,
        -0.341521205864824,
        -0.41701141898628036,
        0.12009669066090274,
        0.250888103280724,
        0.3385582955473678,
        0.4989148687385214,
        0.22154001226880066
      ],
      "cols": 33,
      "rows": 30,
      "weights": [
        [
          0.14339212925454972,
          0.13063611330012684,
          0.09391012789505174,
          0.0706662378233431,
          0.32368884404964576,
          0.11427309522149523,
          0.2096040066374082,
          -0.03139533665074077,
          -0.07237082282581371,
          -0.30138210265044646,
          -0.4612631303891989,
          -0.23285824637372457,
          -0.3030371608197639,
          -0.7221862156999882,
          -0.06114642153434116,
          -0.5865608727505228,
          0.2985034106348714,
          0.14541301712634333,
          -0.5970219856587757,
          0.38146390598458535,
          -0.4769481043283551,
          0.26182679056083336,
          0.08651334242588901,
          0.06941711389075583,
          -0.37965803276740645,
          0.005446965688442644,
          -0.6591452710642824,
          0.21537892291725397,
          0.4794144706755963,
          0.08279742389023935,
          0.12665743738555982,
          -0.12879532901862142,
          0.4930859483574961
        ],
        [
          0.20742489542663975,
          -0.3503519166512264,
          0.2516378564828677,
          0.2522869163649697,
          0.46297412472378174,
          0.4563834009267821,
          -0.1989542337821606,
          0.16079886377743985,
          -0.45677933492566075,
          -0.4844220194807693,
          -0.41339867630129395,
          0.134641998434444,
          -0.5554220460248335,
          0.013184374247137047,
          0.21839376404781305,
          -0.377921917250415,
          -0.1879022931907742,
          -0.29665922087787283,
          -0.47245111667894774,
          0.35261762999789814,
          0.2842432276291879,
          -0.04908530592175036,
          -0.5499112210459178,
          -0.20935818794607017,
          -0.2833623759451379,
          -0.03440553418640955,
          0.04109687626056346,
          -0.4219191621421191,
          0.5863125430332317,
          0.1917060226596463,
          -0.16116156110519286,
          -0.001709683762876356,
          0.19104703941237106
        ],
        [
          0.2684448189615466,
          0.2667206216084217,
          0.06397795358156917,
          0.06616326161188832,
          -0.08120583548525122,
          0.07479269658223904,
          0.20230446670364138,
          0.03942904481859286,
          0.22280661152705974,
          -0.2695640806516427,
          -0.36689938435330255,
          0.09295137726783548,
          0.027636473995773323,
          -0.2811584498767884,
          0.08254533473501302,
          -0.30545768995274164,
          -0.1647895815457624,
          0.2043062822901166,
          0.07305723325479661,
          0.18961210014025662,
          -0.08320188781155854,
          0.11653085919089748,
          -0.21206644501006253,
          -0.08787751087048652,
          -0.15210522908692017,
          -0.31144408591308076,
          -0.1618687127334322,
          0.005402272613009265,
          -0.004570407324760705,
          0.1197100980490334,
          0.05042952243246577,
          -0.0501901764608318,
          0.18807519711954745
        ],
        [
          0.6599676921127805,
          -0.2486157875782672,
          -0.21134272696651993,
          0.3548415224064646,
          -0.27512510830955733,
          0.33397054156727324,
          0.1442583736890192,
          -0.99004838058376,
          0.12126551301359967,
          -0.27024535538123917,
          0.3452326905741065,
          0.19086553386821017,
          0.1486924028086479,
          -0.36701892640895206,
          0.3841121496727306,
          0.05390674513858463,
          -0.21360207970509526,
          0.4213561321290742,
          0.47644807357596597,
          -0.49867758177300736,
          0.19782632658489732,
          0.1977830947907596,
          0.02233222326460019,
          0.6617221648386141,
          -0.34238243307820115,
          -0.3708685094136883,
          0.27674442665994076,
          0.45644694605538133,
          0.24802463209791745,
          -0.05020644314255855,
          0.2952432483454265,
          0.041295934726627945,
          0.22084268422671965
        ],
        [
          0.02038989511976139,
          -0.054150959032894096,
          0.47298806008898997,
          -0.6085541123769453,
          0.8646315777626189,
          -0.07036960554888702,
          0.24610281818832713,
          -0.2620568603847106,
          0.36148904687654465,
          -0.7500855237004658,
          0.299095645098448,
          -0.45118644057883756,
          -0.45251950023100745,
          0.6391840149021434,
          0.34639294588432784,
          -0.19385894045478605,
          -0.5006244024217884,
          -0.589424192157551,
          0.09390124081341884,
          0.02474099448926603,
          0.5675334840509535,
          0.0375279257118605,
          -0.6599481736300002,
          -0.29295462030805636,
          -0.1393493502572185,
          -0.06163098215520793,
          -0.12361903027463035,
          -0.39395394226286173,
          0.7523573135390764,
          0.41574913181699,
          0.42199556040776914,
          -0.32262802600111373,
          0.14584180916149755
        ],
        [
          0.3322623441442328,
          0.031746580385800895,
          -0.3305853120314391,
          -0.25348103621569595,
          0.31790996795266985,
          0.24879591496431883,
          0.30693238526171274,
          -0.554748523996023,
          0.2785728070284577,
          0.041171117348669045,
          0.17051496956760417,
          0.04655841474441417,
          0.03501085350536274,
          -0.27872359776170846,
          0.25664208258778776,
          0.13029888793282662,
          0.20641985952453296,
          0.2700221931882155,
          0.020216979244764708,
          -0.45869362758320326,
          -0.053446865073450284,
          0.30335428177665064,
          0.32010180487698764,
          0.3176529099940259,
          -0.1330730397067096,
          0.33447017837992926,
          -0.0799342988345543,
          0.0729929202581353,
          -0.039788347915187594,
          -0.08690620207386442,
          -0.08103723814632394,
          -0.13876335634991133,
          0.0887225938476918
        ],
        [
          0.28648306714592336,
          -0.27329452080173533,
          0.2240389062756717,
          -0.02125916282879707,
          0.003682837538588385,
          0.22356078499513501,
          -0.12900345681953557,
          0.1136550054810644,
          -0.3741786676030625,
          0.09892808351879405,
          -0.5054327203409515,
          0.2025066655857993,
          -0.6181233220655508,
          -0.24907179354911682,
          -0.17528668248920418,
          -0.5914415340807688,
          0.23387243780541525,
          0.2226498105949781,
          -0.3927367812873903,
          0.45285616707884,
          -0.2715870200360622,
          0.24207636014888723,
          0.1235172708218277,
          0.5417312888658896,
          -0.30336798011831423,
          -0.24900297602853952,
          -0.612234859033453,
          -0.24976644145991922,
          0.48408302912278606,
          -0.1915295754948429,
          -0.4338322846435582,
          0.15896885377550982,
          0.2931291075267757
        ],
        [
          0.20669144979775886,
          0.15616477342884286,
          0.17998682556605447,
          0.3346702148757102,
          -0.13551499073590764,
          0.056718263072520744,
          -0.29482911141058693,
          0.0017144150575649079,
          -0.3402629653568436,
          -0.14834712251562965,
          0.007529486562640219,
          0.24490596284565025,
          -0.38538690660282,
          -0.13398618584524324,
          0.19529065194053843,
          -0.16275710284054687,
          0.3993941134066957,
          0.18154057752544586,
          -0.12250729991335069,
          0.10563839377783182,
          0.2021271224324832,
          0.1605594943479243,
          -0.32898152148702725,
          0.02425861388223977,
          -0.50102168590084,
          -0.4553510744987974,
          -0.2856793355823908,
          0.23448503266907011,
          0.44449493340170704,
          -0.19454451713987278,
          -0.15412463087366673,
          0.06343983782107146,
          -0.02201252462620156
        ],
        [
          -0.02831448127278105,
          -0.2541629862024174,
          -0.17208729165976558,
          0.03254688076553022,
          -0.2740357302198835,
          -0.14770847189535352,
          0.26108653416892713,
          0.2174263634393934,
          0.1771078183318702,
          -0.04140617872595128,
          -0.13004696585032316,
          0.22828740892288865,
          -0.10938995621064261,
          0.0568062291864162,
          0.08265032544372485,
          -0.04571698836893712,
          0.3004969470003252,
          0.08751817637657719,
          -0.13771892656713366,
          -0.17526660104013364,
          -0.29571271138441246,
          -0.06395038223209228,
          -0.02060313661617021,
          0.2637086381702719,
          -0.0817109381562359,
          0.19595159564395853,
          0.15158546969773676,
          0.4085145721088179,
          0.2676585335910447,
          0.26278487657313254,
          -0.21698241780392433,
          0.30230211042764127,
          0.027873663356947766
        ],
        [
          0.253144245221286,
          -0.5084493442596008,
          -0.31854169052002795,
          0.41369906966431924,
          -0.12489864140865398,
          0.35685975434301753,
          -0.1611061594429358,
          0.1156782555978843,
          -0.10035679852307558,
          0.6835579382737023,
          -0.00659699139635324,
          -0.2584088012309166,
          -0.1563270818544223,
          -0.3456034657665191,
          0.010241870554922865,
          0.2935654919191001,
          0.0005694267943867306,
          0.16755676458500668,
          0.25786967349964,
          -0.7491689985307541,
          -0.1880215305926329,
          -0.17165766724794504,
          0.15039475192100238,
          0.5697693928594337,
          0.15165653049364364,
          0.0153627005661116,
          -0.36850449236301014,
          0.32572311327007053,
          -0.41590688164960155,
          -0.4452811725204604,
          -0.4336845620091715,
          0.026596470456243516,
          -0.06590914210644598
        ],
        [
          0.5465886466544359,
          -0.18543558221126047,
          -0.7512334865959663,
          0.15438196398524226,
          -0.10574322606951811,
          0.10259485320659444,
          0.35762915901269543,
          -0.7451998351329664,
          0.29216218462671223,
          0.5333979277920946,
          0.12466461181770015,
          0.1861340824262334,
          0.3197474816411253,
          0.24480755189311,
          0.10645987204954827,
          -0.026454493832738252,
          -0.2546549191567393,
          0.5449401453141606,
          0.6817030603409827,
          -0.7228199604976492,
          0.0411595649164118,
          0.48491780100509646,
          0.4637264350565308,
          0.5302793863644173,
          -0.09142567847647115,
          -0.20044448919955232,
          -0.13982473492498945,
          0.37196247014005396,
          -0.4435535820710996,
          -0.1711003963964481,
          -0.2164177725485789,
          -0.007349655091027827,
          -0.18196331828663465
        ],
        [
          0.3855521925655743,
          0.3084599409159807,
          0.5527653632475586,
          -0.1609640535458845,
          -0.08973695644439704,
          -0.1152976528399762,
          0.28859574589969594,
          0.02984186846027772,
          0.19269307480132444,
          0.2424321390131358,
          0.023149926833633577,
          0.006312270714500608,
          -0.3349620155262574,
          -0.09803066715761415,
          -0.32636933741098123,
          -0.22335336417384832,
          0.14210153359720593,
          -0.14691164355423666,
          -0.12791304684518337,
          0.4071396437420438,
          0.05262920462603196,
          0.02758945831676347,
          0.09841522867290224,
          -0.03606780806398927,
          -0.527840048491981,
          0.2375928395091562,
          0.2720920889110847,
          0.4438553486203591,
          -0.16395512177075428,
          -0.17025020461547957,
          -0.41683538803982606,
          -0.27860923309520047,
          0.06495627079545095
        ],
        [
          -0.0353936345559332,
          -0.1846475223860427,
          -0.07106611389459903,
          0.20616084955816527,
          0.3989690725362993,
          0.21031817739543665,
          0.3307373422160072,
          0.42846148720337646,
          -0.3469001810435802,
          0.08900261209468024,
          -0.4648538726848206,
          -0.18605538445217223,
          -0.5071016713888634,
          -0.395251755911091,
          -0.23854413007063485,
          -0.14382784623007658,
          0.22934575270060212,
          0.3521483414284271,
          -0.5611299594295024,
          0.46543940653935045,
          -0.369330737204786,
          0.30653776084903017,
          -0.03273794016889063,
          0.13980374653666794,
          -0.44791931155554926,
          0.1517238435188716,
          -0.792715291932718,
          -0.29987087542271906,
          0.5259261441499091,
          -0.06932299336569088,
          -0.008106630266080158,
          -0.263346119443759,
          -0.09547798079961689
        ],
        [
          0.011685133702105898,
          0.11817709074414441,
          0.5040360626176222,
          0.07509640946583986,
          0.34019860072071895,
          0.0009905768653933453,
          -0.07483364154529255,
          0.26086910868423346,
          -0.09104428017606071,
          -0.3135068458848928,
          -0.37924503290004424,
          -0.18031499360463205,
          -0.3395102525419051,
          -0.2660590149648848,
          -0.19249919008925465,
          -0.3674153524082277,
          -0.0296503263700004,
          0.20251751621985675,
          0.03027796233228816,
          0.46482724056562036,
          -0.2001396615288253,
          -0.29864696101025484,
          0.08341707823094803,
          0.2593269900625426,
          -0.21183867734723327,
          0.1024504350853941,
          -0.19853860203820464,
          0.252598425616498,
          -0.22754305096429805,
          -0.36803997734734295,
          -0.029277618104192746,
          0.5029776526017471,
          0.06672608539755756
        ],
        [
          -0.004464860949551145,
          0.20857939505801468,
          -0.20107327714668174,
          -0.2359867613077092,
          -0.01974222102938401,
          0.047262833519420906,
          0.24026721100362874,
          0.2308377452915741,
          -0.2380374836138941,
          -0.10058985517584597,
          -0.41367624090303445,
          -0.06588847936684586,
          0.29613346176653976,
          -0.2564161718322593,
          -0.12959605322609416,
          -0.11283829025413683,
          0.3192335763657381,
          0.07920182452429253,
          -0.24876422118325275,
          0.298144950261746,
          0.22809991566042762,
          0.20290121098318217,
          0.043514719097515656,
          -0.08130855571520648,
          0.18260294885011516,
          -0.283591766181051,
          -0.1848149047179022,
          0.2609017549172,
          0.1504691434720979,
          0.28861860599758915,
          0.07637437044564682,
          0.23373954005426933,
          0.18149162983240008
        ],
        [
          -0.2562015707902846,
          0.373725879998134,
          -0.0023433932818769663,
          0.18262000202985343,
          0.10750163787571017,
          -0.18388565922909506,
          -0.07744616360396975,
          -0.22151604599040567,
          -0.14683431880152856,
          0.11206780824596325,
          -0.7776959736459551,
          0.4199135638081167,
          0.045064670431862026,
          -0.00449133790789268,
          -0.33006205804876604,
          0.3335552661076968,
          0.23242855962516326,
          0.6562974759679041,
          0.12074470689793178,
          0.4741272948802581,
          -0.04154342390152342,
          -0.1283767506047241,
          0.14867762463032616,
          -0.08586602533232529,
          -0.03702001609863027,
          -0.35209248486699446,
          -0.01985644717136218,
          0.03278097421240795,
          -0.042751551563142795,
          0.28162883607310635,
          -0.06732401910907163,
          0.25256171331096117,
          -0.42083508161105154
        ],
        [
          0.5123856592682983,
          -0.04205597032291461,
          -0.09497447310673648,
          0.006779886794891619,
          -0.041535668756278295,
          -0.010083381517710243,
          -0.17800303930580633,
          -0.4171210683059453,
          0.5316772725940033,
          0.5977090093164384,
          -0.127654472835398,
          0.2980325459169825,
          0.01796519119610282,
          0.430360332686549,
          -0.5893030524190487,
          0.3848290996869167,
          0.03647968656067899,
          0.10218309597722129,
          0.2963427143695286,
          -0.9801804480629142,
          -0.30802504257479774,
          0.036468459333261045,
          0.5151883015386773,
          0.5301395428072814,
          -0.34711897045599577,
          0.222555598205659,
          0.0879124056628519,
          1.0092454212397617,
          -1.2407100831521691,
          -0.18346200166766743,
          -0.4238513666484688,
          -0.10917278361784784,
          -0.3925200333857151
        ],
        [
          0.0036602582469183634,
          -0.2166607247072248,
          -0.09002784520482242,
          -0.09068923340247124,
          -0.10226667031818484,
          -0.26920243498098034,
          -0.054765693687370005,
          0.24235334802345176,
          0.22577088185262223,
          0.001828699392186406,
          0.12495195503248366,
          -0.328602728171098,
          0.5332641664555917,
          0.0026138664301950465,
          0.17071734451244103,
          0.1333605425675397,
          0.2960134759462972,
          0.10016714828470036,
          -0.43342545290725354,
          0.04850186270511992,
          -0.3665731098188401,
          0.4476647967959105,
          0.6214820522014505,
          0.15285916586610762,
          0.4453292529878531,
          0.029052762172511154,
          -0.18942117763864963,
          -0.09450950858454162,
          0.2124116722777409,
          0.07440172627530107,
          -0.007745995055445818,
          -0.47155001941247093,
          -0.10325301359339216
        ],
        [
          0.1663485543596865,
          0.012475412235191424,
          0.5177999910919139,
          -0.03652545227973567,
          0.26042204211223535,
          0.3377974086740421,
          0.1274989576550737,
          0.4041701712472229,
          -0.26900538503423393,
          -0.06314662924399277,
          -0.2912190874159155,
          -0.2546903515158845,
          -0.5099909660603312,
          -0.5900641261180055,
          0.08627785511373573,
          -0.49636612954973386,
          0.02118688779714413,
          0.1241111476888778,
          -0.48745216386541107,
          0.47280809764683496,
          -0.024349117222293944,
          0.15855645550350492,
          -0.5452836772245006,
          0.39494253423336373,
          -0.12061869694497472,
          -0.14432140459490392,
          -0.7658826730418173,
          -0.3815131705120102,
          0.62191905427722,
          -0.17745979990527636,
          -0.3743470123840163,
          0.18710864201443955,
          0.12911991713974952
        ],
        [
          -0.2781502701944401,
          0.1169340907625627,
          0.49478020705890063,
          0.26712463529206826,
          -0.1262141390389099,
          0.04627047246830388,
          -0.333020389574309,
          0.1678014801949073,
          -0.41085665911016633,
          0.04508509627882582,
          -0.14993419232457406,
          0.33965533371274637,
          -0.5238124624261142,
          -0.49349408533257666,
          0.14240071541015437,
          0.12182848744270112,
          0.04893407223502477,
          -0.18715791216558708,
          -0.46602090745575475,
          0.2937567956210146,
          0.2276351548476,
          0.13584334707097553,
          -0.2401601664909626,
          -0.103243866349568,
          -0.3609633371311882,
          -0.33682362613155253,
          -0.053548494114699405,
          -0.34491156803931394,
          0.3702372696276578,
          0.04215112973127624,
          -0.3299250573024679,
          -0.0454519751821267,
          -0.1631512596644132
        ],
        [
          -0.03170806877069968,
          -0.10210772412116548,
          -0.11245132258788541,
          -0.15830425385597716,
          -0.12176302838716573,
          -0.2708346122124283,
          0.05353110626881989,
          0.1914101708970778,
          -0.04694115769213337,
          -0.32081259426751274,
          -0.29246159071924444,
          -0.2809789106052421,
          -0.13249655125780535,
          -0.20701744022946716,
          0.10072595226079865,
          -7.894242469235299e-05,
          -0.022703596452219303,
          -0.19483162279092006,
          -0.28592831959074994,
          -0.24000111618538386,
          0.2553026549955273,
          0.3126287307064303,
          0.37487590083780103,
          -0.011141501879849169,
          0.1166569355856611,
          -0.1199443367227957,
          -0.2904923787780981,
          -0.06583746970114632,
          -0.10846522716098413,
          0.2710102379947996,
          -0.0690808443810926,
          0.13281666863245645,
          -0.12473594040745672
        ],
        [
          -0.05285964767165393,
          0.23436873525049087,
          0.18000742207597778,
          0.1983209117038391,
          0.2995805932469205,
          0.06135635834934073,
          0.13080690454271893,
          -0.0643766963608883,
          0.12535846498149816,
          -0.03507269798457355,
          -0.6750628358255161,
          -0.37285621856047,
          -0.029543652643287597,
          0.45079554587567106,
          -0.11043288045918265,
          0.07799434591354035,
          -0.32712011135198604,
          0.18091854697968973,
          0.15700075050130222,
          -0.06764677185292355,
          -0.05788459831237171,
          0.021197113586936666,
          0.016610471895195555,
          -0.06126100139309827,
          -0.41060801259807295,
          0.10699030741349508,
          -0.08445640519359889,
          -0.054407967563673325,
          0.3406437138085003,
          0.20267561085580996,
          0.3279892815049602,
          -0.014208253513231675,
          -0.17104014899908418
        ],
        [
          -0.049654054749837,
          0.8828558187678883,
          -0.1143868981699517,
          0.24576549536230846,
          -0.5908455927590578,
          -0.113630084823486,
          -0.1167274196959057,
          -0.08435200326332101,
          -0.21559076839820285,
          0.3913856587730313,
          -0.2289726836210957,
          0.6303716952352287,
          0.8034312426630645,
          -0.20529627608128434,
          -0.5479080067214543,
          0.26652075124567876,
          0.14345145539583648,
          0.6203617229246221,
          0.20349605195916445,
          0.005667052144042294,
          -0.02399492390307793,
          0.32843165591906887,
          0.7568087691988786,
          -0.4908019290213811,
          0.33375218101478743,
          0.039533705629069826,
          -0.05603502372903387,
          0.2367035974516821,
          -0.48942517327403906,
          -0.5157655834912059,
          -0.06548049244338423,
          -0.1980195974001843,
          -0.6054029626985415
        ],
        [
          -0.03994579115527376,
          0.08390896034411019,
          -0.5129164121391172,
          0.056474212207064785,
          -0.49394729191086384,
          -0.3683403500586562,
          0.4140778212827281,
          -0.06602803212968973,
          -0.2186536159441943,
          -0.10059172131490492,
          0.033280698821968456,
          -0.4103397028107633,
          0.7097603226866546,
          -0.008302080266243909,
          -0.019328581094372212,
          -0.07126378050438778,
          0.0960467498112234,
          0.2294041889466581,
          -0.028723547456413662,
          -0.35763139609246725,
          -0.37857837201107736,
          0.04088579077557564,
          0.5549125388890744,
          -0.0246210285269335,
          0.7873904081173441,
          0.46947344710022215,
          0.21734392119157975,
          -0.07797320768210535,
          -0.04193199319091736,
          -0.15178067473921802,
          0.1473168187201826,
          -0.6089003904515482,
          -0.13968982411066702
        ],
        [
          -0.07769784979186388,
          0.15555081669762816,
          0.4089897764954232,
          -0.2641358845963912,
          0.5535736147009801,
          -0.2678789486075718,
          0.25186511640475356,
          0.2561382116872481,
          -0.45899867690812507,
          -0.238036606026773,
          -0.18869752392213493,
          0.18040363160541067,
          -0.5574636917668695,
          -0.5429528809132957,
          0.2595411489818032,
          -0.5517860547015521,
          0.5038381145216665,
          -0.22108417738375863,
          -0.5824692448588773,
          0.15550310665571115,
          -0.026988795591278824,
          -0.13505744576005882,
          -0.5640434528609053,
          0.29997992098571846,
          0.15086440571684828,
          0.008091091852291388,
          -0.7195166065200345,
          0.07284975050144347,
          0.47971354336264044,
          0.044530558915980914,
          0.22835631628482816,
          -0.08243475543075895,
          0.278584946602498
        ],
        [
          -0.2757331077115245,
          0.32617231684732584,
          0.3894771760809406,
          0.21010549323792643,
          -0.16916020561801856,
          0.18797394968825806,
          -0.3246675513888805,
          0.46690057355809683,
          -0.15657416247087722,
          -0.16891378803837423,
          -0.06464447584529245,
          0.19746422305101707,
          0.06355731083767177,
          -0.5133605371434303,
          0.0939197173189289,
          -0.431960622863672,
          0.18496477158289762,
          0.11433750931432357,
          -0.30985505315419193,
          0.7830860227915363,
          -0.0612956313352561,
          -0.16603683851196066,
          -0.27894051275263343,
          -0.0878003099867767,
          -0.361180800321607,
          -0.4435594480591931,
          -0.4207680670860691,
          0.09643233273609907,
          0.30732288474371616,
          0.011896580616128865,
          -0.21372778101350315,
          -0.0464263172396468,
          0.21015986600874798
        ],
        [
          0.19360058885085968,
          -0.25668491559805134,
          0.14179467730992895,
          -0.13865313289109174,
          0.13965707243335498,
          -0.19915849584636994,
          -0.13307832904346828,
          -0.291660141171391,
          -0.11824102961746612,
          -0.20965502177773987,
          -0.17445163303139738,
          -0.28118037904844057,
          0.039213479402698447,
          -0.12399250524426005,
          -0.27488952388750293,
          -0.06729063395247808,
          0.02240074719701306,
          0.33141036723784006,
          0.23080235352933165,
          0.21257613028118053,
          -0.05405811942907373,
          0.36962153992160507,
          0.2867304651215527,
          -0.22108846341412125,
          0.06887613820949078,
          0.23801940670744318,
          -0.22022689596567785,
          0.06543112085416317,
          0.3493961902165402,
          -0.1625480899559038,
          -0.13132698119801145,
          -0.0776026999109797,
          0.27226210646033966
        ],
        [
          -0.46765377982038203,
          -0.222344009260621,
          0.434286238811721,
          0.1692107894365688,
          0.6806817058522796,
          -0.12381559471347404,
          -0.36172905035492764,
          -0.2407272389863477,
          0.2509827305735063,
          -0.3281801496869173,
          -0.1407601177238563,
          -0.5626064075838877,
          -0.23377815843953748,
          0.4893261235086168,
          -0.019772512704076015,
          -0.09172774928511547,
          0.033221695597741234,
          -0.19450928547559382,
          -0.2782044481507299,
          0.4304807682259255,
          -0.3061472373510444,
          0.37517883355138487,
          -0.6028007438445097,
          0.25272589702303044,
          -0.00432243487685327,
          -0.207330141569299,
          -0.2383682979675131,
          -0.19820754072734575,
          0.0596362614168605,
          0.11975608377298137,
          0.3334100929513547,
          0.22876025434717814,
          0.302691240177896
        ],
        [
          -0.384473262138118,
          0.9819921158506905,
          -0.09533146290746286,
          -0.043510647782450486,
          -0.6166009430039552,
          -0.09050012708466239,
          0.10371067569335612,
          0.0415404990231456,
          -0.2885588150655893,
          -0.5444701809546703,
          -0.5666618835879289,
          0.5285616691161369,
          0.7288922813425751,
          -0.3648108547539488,
          0.1562326515870737,
          0.5458171719549326,
          0.33878148346753534,
          0.3097682198180136,
          -0.27722616884433476,
          0.619301241038525,
          -0.17605221359694775,
          0.22558418162228266,
          0.15452834007857724,
          -0.17919354000652707,
          -0.09831989352266848,
          -0.12010744027499552,
          -0.0005226987448094994,
          -0.1899087927806895,
          0.20937483613724625,
          0.30474711246887454,
          0.01565416047162294,
          -0.15018982307719128,
          -0.023738272417709774
        ],
        [
          -0.38275815298323335,
          0.093931657950651,
          -0.39347615808277714,
          -0.36075607558793227,
          -0.49890677593373084,
          -0.262760334200931,
          0.327356941951987,
          0.04435424402618341,
          -0.013378675290425917,
          -0.3754565303340114,
          0.11895907010924424,
          -0.22127917863722196,
          0.6718279430647096,
          -0.0818232870683496,
          -0.12834027005385507,
          0.214435733071637,
          -0.2723776558949416,
          -0.15457542368099605,
          -0.2951570641797906,
          -0.4057732311843447,
          -0.07919709205926478,
          0.3792423724010398,
          0.5235714257793719,
          -0.11020278104824296,
          0.6042081918978965,
          -0.07201475476967541,
          0.19902506456213342,
          -0.5440474373296199,
          0.1341158905793699,
          0.24633076307875104,
          0.3368965351055592,
          -0.3739375196503066,
          -0.10582063880230445
        ]
      ]
    },
    {
      "activation": 3,
      "biases": [
        -0.46324924366557685,
        0.024026892926747697,
        -0.3929141839531001,
        -0.6005341715515001,
        -0.19620353095278373,
        0.4344747351450977,
        -0.45256741655950444,
        0.09729942281094195,
        0.5228436808962199,
        0.11744467008736742,
        0.24985195027885176,
        -0.06865882550938703,
        0.18070106338986897,
        -0.18693234673327194,
        0.46484627209845575,
        0.09652550503768934,
        0.2547253792734184,
        -0.38198123993630156,
        0.11552595071757367,
        0.060687237302741906,
        -0.5294801606924247,
        0.006955559078910612,
        0.16118340338924994,
        0.3564324007134453,
        0.36705231845226083,
        0.16860343657732316,
        -0.4582954873401151,
        -0.0850264116595446,
        -0.18142765135568367,
        0.20772067803327865,
        0.03902462569939156,
        -0.3436368507039633,
        0.4328655593223605,
        0.15059611252923444,
        0.0455465292614644
      ],
      "cols": 35,
      "rows": 33,
      "weights": [
        [
          0.22497998948156872,
          0.15697342079370483,
          -0.038982709207282175,
          0.3205420050300074,
          0.19390776392387266,
          0.20115959163408062,
          0.026319417602018887,
          -0.07721507498455471,
          -0.08253217757614818,
          0.18334939676607576,
          0.4647410931525629,
          0.30086121542400407,
          0.020372088516973245,
          0.5083762100066751,
          -0.01680079550067638,
          0.4748655191366649,
          -0.594722470945534,
          -0.07979192416767675,
          -0.11121006186523377,
          -0.33892396564757604,
          -0.246359166703209,
          0.2763253717759383,
          -0.12361141682155212,
          0.10348817892108769,
          -0.1845493459941777,
          -0.48229795328954583,
          -0.2708766897845268,
          0.17986976254576897,
          -0.3455590317244281,
          0.0347279618278538,
          -0.04761254858105919,
          -0.3531047198819333,
          0.14750011930317036,
          -0.4061544266335592,
          0.23723687659189496
        ],
        [
          -0.0019385456074872676,
          -0.06695739623143204,
          0.1885847110979305,
          0.02084854234901597,
          0.2934935168108931,
          0.026515692912697297,
          0.10916266381092363,
          -0.4049904332691077,
          0.15283774516530643,
          0.03842636551840276,
          -0.3017705101768363,
          -0.3349281830150507,
          -0.07435175703951352,
          0.13655032412628718,
          -0.288615630188487,
          -0.47546924534998714,
          0.12825634763517704,
          0.36567000989702725,
          -0.6051647450807928,
          0.4374069711576793,
          -0.04383508654576391,
          0.420447484895955,
          -0.361576987831086,
          -0.5965668318643232,
          -0.06864893201847733,
          0.2169568943408356,
          0.7646555435263362,
          0.06262750701476416,
          0.345408486272519,
          0.1403010888134666,
          -0.09466488071997461,
          0.23839602409522648,
          -0.04452944723649324,
          0.4884495608340057,
          -0.13259477042959458
        ],
        [
          0.022879785013787922,
          -0.4797734329712998,
          -0.11410057236656967,
          0.06963878261842528,
          0.0432417985599987,
          -0.03766284087528323,
          0.22921070139901858,
          -0.4033881847091762,
          -0.5428381477563723,
          0.3142401346746755,
          0.04739448846852673,
          -0.12303707623749538,
          0.08733958458045564,
          -0.0578141043219807,
          -0.11486676086022254,
          -0.17649205449919475,
          0.03301276042227679,
          0.559585440459854,
          -0.11149540971721368,
          0.2274686650737296,
          -0.14331774178160692,
          -0.40403020272172063,
          -0.8744667118001649,
          0.2682833805376491,
          -0.06160171287372365,
          0.2102553302524421,
          -0.29170119868039884,
          -0.4087400236625707,
          0.10383481324868986,
          -0.4737326490109915,
          -0.20538990731105744,
          0.6813975624679339,
          -0.021930364627708022,
          0.5312514505834004,
          -0.3813913967167162
        ],
        [
          -0.2690723307575407,
          -0.2955312250933369,
          -0.2520337353207493,
          -0.02042238496894914,
          0.169570755691511,
          0.4750007599985075,
          -0.5037997895482978,
          0.1400910491778477,
          0.332251953254637,
          0.2588496016101941,
          0.24876571148344503,
          0.034665808076318784,
          0.03264390998145366,
          0.23535265310678924,
          0.15634680587221803,
          -0.12807247707445613,
          0.11009492841463787,
          -0.10374384154091035,
          -0.28306759460353337,
          -0.09323071399791796,
          -0.3038327030479642,
          0.1115530239018158,
          -0.45564408174062354,
          0.21544671611616012,
          0.4673244002437321,
          -0.17641485538401683,
          -0.06877268237918904,
          -0.32416453056923994,
          -0.4861401911907501,
          -0.10080978281249796,
          0.0925946111058235,
          -0.518613186656737,
          0.4134202845567614,
          -0.10375222498970513,
          0.23021759419870005
        ],
        [
          0.09863841728146595,
          -0.3311054036977963,
          -0.21121176224144583,
          0.1236808195979239,
          -0.39083635485076235,
          -0.3649051961740064,
          0.09330423210634738,
          -0.0162371738333971,
          -0.9177225365415835,
          0.06304966145450254,
          0.3793164199105224,
          0.1004191968575838,
          -0.33637522025795563,
          -0.004849696491561551,
          -0.17656914513990277,
          0.497306408495429,
          -0.06565495599964667,
          0.280424999718646,
          0.4505537250286035,
          0.3018503484981879,
          0.19018758740721656,
          -0.41242951103329994,
          -0.5228760072135187,
          0.6242386590054372,
          -0.23445276016515257,
          0.5287304262871712,
          -0.559351233431438,
          -0.34756369437236945,
          0.05521661121073182,
          0.10099948507933222,
          0.5510426968330722,
          0.3725449196503293,
          -0.222090946271367,
          0.2769331966251215,
          -0.243301948912921
        ],
        [
          -0.2743233177448094,
          -0.09050974944431751,
          -0.30276660466985367,
          0.0032770046748415347,
          0.23827029013667209,
          -0.05529508719109636,
          -0.4385783273586462,
          0.2638567030251562,
          0.3554362779872893,
          0.46589225975267845,
          0.40040513171057346,
          0.275164612387136,
          0.28340936940591965,
          -0.07270913890418812,
          -0.006700229470951989,
          0.4830768367427395,
          0.13189001765497574,
          -0.16514227263569686,
          0.23489794376145587,
          0.21236287180839988,
          -0.283785158365338,
          -0.2112347218818225,
          -0.43654125373906005,
          -0.058245956279812536,
          0.3227283800578639,
          -0.28396712351464337,
          -0.32802755148665685,
          0.07756860558438772,
          -0.22062924388466332,
          0.04968171805333592,
          -0.41608205747475274,
          -0.018975275718869408,
          0.3662875591899809,
          -0.09177910922289659,
          -0.2584237893775564
        ],
        [
          0.3344277607930024,
          0.4523124671247747,
          0.21969118611383986,
          0.06270488529404447,
          0.26616893707360934,
          -0.05216692524830963,
          0.11342683281260327,
          0.13156259340981577,
          -0.2990933602224087,
          -0.10295362564428501,
          0.20445481017561057,
          -0.19479790960018062,
          -0.2703537625549458,
          0.23274615388525796,
          -0.29042326579563194,
          -0.006559124622476321,
          -0.0348760681747887,
          0.39476168490466457,
          -0.10145500856793717,
          -0.04126165900697204,
          0.47732962189245903,
          0.11032178060889365,
          0.2676613109916002,
          0.08458976525113468,
          -0.3863820966141886,
          -0.2728081006943164,
          0.08684857061464285,
          0.3545803193455813,
          -0.10389382734640695,
          -0.012941160212950699,
          0.5094871783701562,
          0.24238936586979806,
          -0.13839433794843692,
          -0.13083713841785813,
          -0.11306114763059492
        ],
        [
          0.3555155000828377,
          0.21559159716174175,
          -0.09166909379580636,
          0.08180681410971481,
          -0.32785448756741914,
          0.2998914352063065,
          0.11717613377334307,
          0.05043556658592132,
          -0.24127466006710788,
          -0.1756383639292811,
          -0.38178681457271496,
          -0.5681974576343568,
          0.37190669003422905,
          -0.5734666667796372,
          0.19802953786955727,
          -0.5106112596468264,
          0.11553594348532775,
          0.37800250406656394,
          0.2539970322049001,
          0.3426308818267983,
          0.1444045987557116,
          -0.37301643503142645,
          -0.5544334703796939,
          -0.10863936014803635,
          0.4574890928806473,
          -0.4148343692578638,
          -0.4411503649194615,
          -0.048312975979193894,
          0.3607858270815036,
          -0.4763089204162501,
          -0.024294572700962944,
          -0.002362065525902088,
          -0.3063860636265648,
          0.6670026881144643,
          -0.09740942318224181
        ],
        [
          0.26308753839952087,
          -0.2169991428669729,
          0.12984965572397275,
          0.4465061751570268,
          -0.22439525091561718,
          -0.15050284900658933,
          0.36985271541652176,
          0.22480291016361295,
          0.23467236981666198,
          0.04163690545245882,
          0.04389057088085955,
          0.2283283248769374,
          -0.1706993696106963,
          -0.05705068714672231,
          -0.3256954539978582,
          -0.006949561834569671,
          0.14025921379509343,
          -0.07157089415769224,
          -0.34239202835390853,
          -0.3747010840624138,
          0.11466512847849435,
          -0.24547319084744695,
          0.4049565060489892,
          0.1663198818759716,
          -0.41595837172595906,
          0.47990277842788537,
          0.11035049326295744,
          0.05706479298652895,
          -0.05134564412058375,
          0.1533832231837993,
          0.24343831293392773,
          0.14218777991465986,
          -0.00026854672976360023,
          -0.6542060619048047,
          0.037039260029493065
        ],
        [
          0.2570126007253849,
          0.12100930686679175,
          0.43313818157238637,
          0.3146177291004159,
          -0.21687437095504236,
          -0.19973786090239595,
          -0.25600951827348745,
          -0.13324041617941207,
          0.5525492370638196,
          -0.14760559834509152,
          -0.16002849876499195,
          -0.19253417030661546,
          0.0033223771996103283,
          -0.2687150734799704,
          -0.07138617271681287,
          0.40367755688519363,
          -0.6750781831394584,
          -0.04664290191089419,
          -0.4726721346058701,
          -0.5655537480513791,
          0.0538783495930657,
          -0.11606438195195996,
          -0.243410754914114,
          -0.23263589150759434,
          0.186675298686776,
          -0.12013498859895032,
          0.23294697501503553,
          -0.15869718356118465,
          -0.09321938883217261,
          0.0472657020296858,
          -0.3384347140753808,
          -0.1550945834406707,
          -0.20496766511283832,
          -0.6947230560209642,
          0.29255327407032156
        ],
        [
          0.2564005731871697,
          0.09028018255356793,
          0.1491412983950023,
          -0.17562218329586363,
          0.10068788820700006,
          -0.30145221784374554,
          0.14007270872021024,
          0.2646665800333011,
          0.07894150233904462,
          0.11985133043442174,
          0.1827919310372025,
          0.16061435620534936,
          0.18796008434253236,
          0.08959052869422697,
          -0.17549519452802942,
          0.41734347727101107,
          0.4151732853852731,
          0.1884469671419182,
          0.46051877480064174,
          -0.711645182583497,
          -0.1986490623968681,
          -0.039946784976387775,
          0.6833200990849413,
          -0.14893154282066576,
          -0.519340114569794,
          -0.03708025007750463,
          -0.08723896140351865,
          0.48791977403953835,
          -0.07719743065160536,
          -0.62464434731878,
          -0.2825220676748214,
          0.15157275893008398,
          -0.059344180857049254,
          -0.6231022077346593,
          0.34341622682236156
        ],
        [
          -0.1462059138790358,
          -0.2593862815048993,
          0.11789325356032271,
          0.17845758538527512,
          0.06477859914406549,
          -0.16571189381581705,
          -0.25686605782724625,
          -0.2293586908589269,
          0.07386476722694914,
          0.334538998454381,
          -0.06760700424568684,
          0.33638778388232365,
          -0.2735109908417257,
          0.3204099218817582,
          0.08917495539167651,
          0.019023888386432014,
          0.38677756239370437,
          -0.3260056800521274,
          -0.5326815523487766,
          -0.15164258123507612,
          0.12118258735300436,
          0.5103950983717039,
          -0.6091204417474878,
          -0.44820229708129994,
          -0.03123890719890857,
          -0.4447944000018923,
          0.5408352254579888,
          -0.14089323077282884,
          -0.21063077935296176,
          -0.1785287887313395,
          -0.4920404019040839,
          -0.5455600284747538,
          -0.18665369163493725,
          0.025558584553089517,
          -0.13413444217049572
        ],
        [
          -0.13892260147518123,
          0.484292169351771,
          0.5261978734585946,
          0.2873201472251423,
          0.3185786214982883,
          -0.12495722841996144,
          -0.060276209847817425,
          -0.018615470311984173,
          0.1406904274888271,
          -0.5834287899276199,
          -0.4529848679106782,
          -0.298060685280071,
          -0.1790823735883838,
          -0.10565906217304367,
          -0.023417943513261593,
          -0.28962161298506967,
          0.4066159655894263,
          -0.4336689691815899,
          -0.35192530576097814,
          -0.2692950536218588,
          0.18722783574235127,
          0.23361850630743775,
          1.035046500914685,
          -0.7357685752359754,
          -0.4825431222499957,
          0.20871762400129457,
          0.9222760970822679,
          0.07529020471368993,
          0.19277142091345853,
          0.13156974620260464,
          0.04261126326727266,
          -0.5675021369013938,
          0.2916518060825192,
          -0.3335562704766455,
          0.3217996826662095
        ],
        [
          -0.20800821276240453,
          -0.35895286633506185,
          -0.10838437430372222,
          -0.2383547429158821,
          -0.2952631040137557,
          -0.19618659930325172,
          -0.1534376270348782,
          0.3522470207822529,
          0.2938315580628226,
          0.4205540065479616,
          -0.09996581804236329,
          0.3250420125454799,
          -0.09889142806847469,
          0.0601986689376176,
          0.000621817889129344,
          -0.155376082497298,
          0.3181170809172261,
          -0.11452283511090673,
          -0.1293559721194646,
          -0.3297175880580062,
          -0.11590826068631732,
          -0.44199440695816505,
          0.4760226553909373,
          0.0398699423957575,
          -0.35395592668687786,
          1.1977073989259466,
          -0.11574949632144388,
          -0.2847019847259714,
          0.5646796028847487,
          0.15990891412555402,
          0.19442366042437753,
          -0.3719314313061077,
          0.14611178360853144,
          -0.560442990746547,
          0.3669649529727282
        ],
        [
          -0.3015441837715324,
          0.05436953234799579,
          -0.40575124443180494,
          -0.3453302417559163,
          0.14007992986962223,
          -0.12147836115852946,
          -0.11989653207518795,
          0.08742384970972544,
          -0.2517037939907,
          0.31959579562416746,
          0.22116235256242125,
          -0.04584105984923105,
          0.1019773750815987,
          -0.02591997042597402,
          -0.09530372895903529,
          0.44004098673716563,
          0.265150793305845,
          0.013584831027129854,
          0.23088560132301736,
          0.16942706527050655,
          -0.27270882851169326,
          -0.05348903265913653,
          0.24684980629088943,
          0.07243047090502414,
          -0.2592476392302292,
          -0.15662610012032713,
          -0.39731434009194555,
          0.5312306693409441,
          0.07042468822769572,
          -0.1578781948815797,
          -0.050849971889772826,
          -0.04653425318227125,
          -0.18906594834854612,
          0.21093877203264386,
          -0.02376187798892757
        ],
        [
          0.06264347610864665,
          0.23398574816549778,
          -0.04816810977915642,
          0.08065624997839733,
          0.23466814818743653,
          0.24934520382116773,
          0.017372103991042265,
          -0.032696017910701876,
          0.308950314124461,
          0.14841675492318462,
          -0.3347465002526554,
          0.04307081344509928,
          -0.05543702140309813,
          -0.13462150276926058,
          0.07409141246537665,
          -0.24188957892866528,
          -0.07553532532157585,
          -0.42342608819662864,
          -0.3479792197181524,
          -0.3750511535489578,
          -0.12158643257295801,
          0.12008638185788983,
          0.37165206305837567,
          -0.5714100403585013,
          -0.036213869724024406,
          0.44097561456463047,
          0.5273800710561634,
          -0.26618234929894197,
          -0.04560230248851659,
          -0.22206025880323488,
          -0.20403656857301314,
          -0.5510255466457278,
          0.29455317843061174,
          -0.48896645141077555,
          0.48319473174179844
        ],
        [
          0.034614407968779966,
          0.136334363006413,
          -0.15086622298274582,
          0.01176708215538851,
          0.15362702535439154,
          -0.15147546916427007,
          0.1272996611240253,
          -0.3801122585529916,
          0.15351407466370123,
          -0.3320486618118397,
          -0.23318100786588764,
          -0.10044632327672526,
          0.1875227882645449,
          -0.27950684174164536,
          -0.148046859356817,
          -0.08336378567295126,
          -0.3405107620000425,
          0.032460023022511234,
          -0.11732039700820591,
          0.391073237252646,
          0.24154550323767562,
          0.07451231361600415,
          -0.2966570218438619,
          0.0909199293779319,
          -0.0928479798948139,
          -0.6490061034059323,
          -0.07965370290589265,
          -0.31110395885794756,
          0.012535165848100013,
          -0.21599720948374473,
          0.12674777338133822,
          0.1040737255031612,
          -0.2654709881219337,
          0.27084096601329766,
          0.1369727811631742
        ],
        [
          0.027776337626774894,
          0.4006357853933001,
          0.20454423944441683,
          -0.2503633183869021,
          0.23556367093514038,
          0.16001209953373874,
          0.042615974467434634,
          -0.2816372541416753,
          0.43701891968703077,
          -0.155723361055814,
          0.04981723385757802,
          -0.16833841678755995,
          -0.282463573355735,
          0.3084556359544977,
          -0.012926345998818882,
          -0.18819343227533822,
          -0.1329186981366029,
          -0.38436384429006504,
          -0.5105468512802398,
          0.21473721059923004,
          0.19911844479732654,
          0.25807373657843125,
          -0.36983060946592855,
          -0.07226505350373058,
          0.16881935223305158,
          -0.09647648805603895,
          0.3848368413233003,
          -0.08688903783038077,
          -0.6387684241479601,
          0.5744689121284723,
          0.22369472213665184,
          -0.1160301189770027,
          0.028259866613191045,
          0.022815668964607325,
          -0.052267830217031706
        ],
        [
          -0.1441809304983548,
          0.0015432659706075987,
          0.3934652574847117,
          -0.28489796329449885,
          -0.08910197214820194,
          0.22681899777924325,
          -0.20973522945482478,
          -0.04396093397093932,
          0.6313489511855696,
          0.5840267476763995,
          0.048658703062790666,
          0.5542811349614526,
          -0.2828077129991901,
          0.3914523676565818,
          0.0752613935380247,
          0.34989643570196904,
          -0.13685739239206873,
          -0.38870256099926553,
          -0.32148469027931165,
          -0.8216312998312489,
          -0.2629338558199584,
          -0.22353893479521544,
          0.2613412068714051,
          -0.3530322830964133,
          -0.15215039516977719,
          0.37055372301180545,
          -0.019191205272279993,
          0.1798333528522774,
          0.3020453732773296,
          0.3271512090761174,
          -0.13157867463541337,
          -0.7459464617965667,
          0.0688252887376417,
          -0.5804222123898732,
          0.42398327689644927
        ],
        [
          -0.12273733413544333,
          0.09281981388160691,
          -0.5360485372435941,
          0.32369771340606823,
          0.09990932911770126,
          -0.03355473064478869,
          -0.10232029508575306,
          -0.3384552145522176,
          -0.3832787457775464,
          0.23765431271394766,
          -0.06778446679897708,
          -0.2819503677146137,
          -0.3166019957813509,
          -0.19255644853578988,
          -0.19302335736211254,
          -0.5849683016628214,
          0.5265990896183349,
          0.7069554113304886,
          -0.08851198407740818,
          0.7810936379574314,
          -0.00917351425567823,
          0.19977148214615523,
          -0.7044437529200771,
          -0.11710129700966004,
          0.4185416632209442,
          -0.39161057344322797,
          -0.30938260108143145,
          -0.44006564454350044,
          0.3614376391183647,
          -0.3487132428052482,
          0.06320503373360394,
          0.6753509069664619,
          -0.1999696322464724,
          1.1411719536166363,
          -0.7485363736587175
        ],
        [
          -0.3717919301532358,
          -0.25367635836735997,
          0.1490180598408183,
          0.20275179455562484,
          0.18470469262138764,
          -0.01837520409589914,
          0.3208153284472346,
          -0.01756902973074657,
          0.0535768639099232,
          0.5702421934989657,
          0.17295842425134603,
          0.16749710265846057,
          -0.30536721527692146,
          -0.0020763728937933127,
          -0.203746332489817,
          0.21870632637581477,
          0.26520935827392883,
          -0.2177002295623455,
          0.14622127487739855,
          -0.2910847294196529,
          0.07938992336089797,
          -0.11993233540355541,
          0.03727930212947619,
          0.08324335849810541,
          -0.31242169428957145,
          0.29735449454679674,
          0.08652692898538718,
          0.341801921075105,
          0.36501991095230024,
          -0.18163245969846728,
          -0.41420596324754744,
          0.1368781775991577,
          -0.17453884325853256,
          0.22501624333517242,
          -0.34362337151170835
        ],
        [
          0.10156007857224947,
          0.5284305746850959,
          0.04319724320249252,
          0.3506447643990325,
          0.2154679160080072,
          0.024575597531309702,
          0.11086898451976557,
          0.11871383952173989,
          -0.2477128072817932,
          -0.42546957363318666,
          -0.21094895304129577,
          -0.3665575885500833,
          -0.4054438712337,
          0.34693115111978684,
          -0.001165698507529015,
          0.13154303578113483,
          -0.02276623584501795,
          -0.10172198048597432,
          -0.1776739956573421,
          0.25027792694774487,
          0.22930523249823878,
          0.047553605899283924,
          -0.0329619916406403,
          -0.23009347703898891,
          -0.2526663680399651,
          -0.3169267239091152,
          0.007154162739675732,
          0.007033563153599065,
          0.035173307921981235,
          0.45121026390621277,
          0.5086538090268817,
          -0.06594679330217855,
          -0.10651214892021792,
          -0.13320711067120983,
          -0.10404170496663409
        ],
        [
          -0.06024001725357179,
          0.5751353209206175,
          0.6396345315488224,
          -0.016867730408433517,
          0.15785403044636162,
          0.00203075538639796,
          0.2524287688841728,
          0.17812435942202612,
          0.5261057293821318,
          -0.5866348133628179,
          -0.24177730152226665,
          -0.1733687050989277,
          0.16723585385049464,
          -0.2126714283397969,
          0.07698403786802636,
          -0.13124197717581815,
          -0.26035790216282,
          -0.32743014984352814,
          -0.49774801932529017,
          -0.13692163307493305,
          -0.18998180459535705,
          0.1607395434930572,
          0.602644693740812,
          -0.49278706912646736,
          0.05163532297883373,
          -0.4850418081663083,
          0.8991643987210288,
          -0.040233265638329775,
          -0.330635459973857,
          0.056082164037038446,
          0.4197559456529291,
          -0.37420701480109014,
          -0.15348032449139595,
          -0.588226504219247,
          0.5612599613359537
        ],
        [
          0.05376955352174711,
          0.03114279728350676,
          0.13963169092546732,
          0.09826870176968387,
          -0.11048244677016371,
          -0.022634194041361626,
          -0.2957987637806389,
          0.3678186552188837,
          -0.05712444305237645,
          -0.26046987443844016,
          0.1419828650877478,
          0.22453964311768626,
          -0.3109262553773687,
          0.2377478275734806,
          -0.2415255283549058,
          0.3921422061003214,
          -0.5584059958424898,
          -0.32983913874088355,
          0.21445846277655767,
          -0.1626606454062295,
          0.06789205261002605,
          0.23679446797330064,
          -0.27228423169728216,
          0.4657148844539646,
          0.1635361894834448,
          -0.31831848096904997,
          -0.45317468899360974,
          -0.0034861241449512066,
          -0.694181575233661,
          0.3794586800083654,
          0.28115847117039905,
          -0.3227524278693607,
          0.14828870773624148,
          -0.2995054278809337,
          0.0975295980572007
        ],
        [
          0.1728125471235328,
          0.46508217147428227,
          -0.3020475518678524,
          0.20717159000725172,
          -0.09058226864479767,
          0.1962191192444232,
          0.2109970048434071,
          0.09832504644820463,
          0.22282427839447294,
          -0.6523968643275566,
          0.07962455566964828,
          -0.6048013372924642,
          0.1914593396476031,
          -0.20831491763906484,
          0.22783439304425457,
          -0.22763527919586543,
          0.08158669969582896,
          0.14356349774618593,
          -0.14629323805290664,
          0.20874264176920596,
          0.22988401356807966,
          0.05637708885887023,
          1.0254408063477403,
          -0.44718314242357565,
          0.08244558520143225,
          0.16805389390743788,
          0.09423088167391455,
          0.11890541064885794,
          0.4229282551491056,
          -0.2432108719952257,
          0.5052711264352675,
          -0.18938907858000664,
          0.22288718229011237,
          -0.27945010045007745,
          0.5228099200947652
        ],
        [
          0.2700785523207634,
          -0.20623019094804104,
          0.23907036916692986,
          0.48937621975147805,
          0.27133471536672576,
          -0.3751028982578264,
          0.08425882290109368,
          -0.214569302021791,
          -0.4416240035387465,
          -0.43523753555157313,
          -0.41238817527328925,
          -0.32712455485808367,
          -0.2364716349481876,
          0.19170059460399316,
          -0.47935774857129937,
          -0.2849962196618124,
          -0.3766203233535629,
          0.2525635703336564,
          -0.03341079024701249,
          -0.3321362827811898,
          0.5169420381101383,
          -0.010644562405272883,
          0.3370438294394562,
          -0.3219069592369692,
          -0.022986557270465717,
          -0.0657153702866732,
          0.17922367238459744,
          0.11030135515029721,
          0.05508615878214445,
          -0.02747946118255159,
          -0.20482950115995013,
          0.30919190012684583,
          -0.46740586395385264,
          -0.4446794275138974,
          0.12878250001096228
        ],
        [
          0.06698496279788795,
          -0.3149623741417095,
          0.40940144875213896,
          -0.022313711298612805,
          -0.16933711805299953,
          0.2895907445533521,
          0.3581793110309169,
          -0.21950805458459197,
          0.5284645564782083,
          -0.07211616621529704,
          -0.17055952178360673,
          0.28747869720872704,
          0.09343232248525407,
          -0.15185816329258536,
          0.06771727257091689,
          -0.1638021722050571,
          0.1918499528077965,
          0.08400456067843767,
          -0.0513204451087064,
          -0.49056382571078105,
          0.28168944692745856,
          0.3451426916821295,
          0.7055565574736948,
          -0.14237904955454472,
          -0.621438206900457,
          0.4719037277079893,
          0.4291401101036895,
          0.24836780935423808,
          0.4496013742896279,
          -0.5777675168126338,
          -0.34097883259855544,
          -0.28117247283008645,
          -0.09859495249586375,
          -0.4797603058736965,
          0.2992618251411382
        ],
        [
          0.33250265600101075,
          0.15251194221152883,
          0.357089247022913,
          0.37053724159287665,
          0.3962035745917435,
          0.026647689069488587,
          -0.21901397485027432,
          -0.03108125347275136,
          0.12890458420840814,
          0.2163061829969486,
          -0.10105052201868232,
          0.4562413905856255,
          -0.20074337674981016,
          0.07177316116793006,
          -0.42929891167483825,
          0.24752691733011462,
          -0.6022054639084075,
          -0.4573609845630051,
          -0.5519166532269861,
          -0.549605320545298,
          0.30399278213617636,
          0.09060998925538775,
          -0.24316259184515254,
          -0.15483101665704233,
          -0.0658990191999005,
          -0.40001761101643085,
          0.09337571712564698,
          -0.19908795701006615,
          -0.20055112178535303,
          0.2636447102504361,
          -0.4047279779985099,
          -0.43036745339869464,
          -0.3109207504528982,
          -0.4586498193091116,
          0.10060001941516096
        ],
        [
          -0.1881232461562985,
          0.21619271234142842,
          -0.6124091821915797,
          -0.17080944061892914,
          -0.23613841947242326,
          0.0457833048497518,
          0.07980071683906055,
          -0.02082694476480257,
          -0.9946681217030867,
          -0.21301178518102928,
          0.05878775752459041,
          0.08205501453589585,
          -0.27717882222825657,
          0.21456750661598087,
          -0.10243127070912549,
          0.013522353252980733,
          0.4722846049824024,
          0.32942918276457644,
          0.780663505725566,
          0.9351735037664417,
          -0.07136008498720682,
          -0.19955460000149094,
          -0.031900459389310486,
          0.32345239187431285,
          0.015956685414895616,
          -0.44479638745558725,
          -0.5074586231725389,
          0.16549241392537808,
          -0.2256634192869151,
          -0.3275207565233548,
          0.5656107161738502,
          0.6456540154739316,
          0.27582247924487363,
          1.1083366081225736,
          -0.24752703345816987
        ],
        [
          -0.0549394716924446,
          0.1505331510088651,
          -0.34910816764921426,
          -0.03427180884340789,
          0.19559049713707552,
          -0.0804302342218279,
          -0.31661967945166164,
          0.0309650716555773,
          0.010078764825875485,
          0.14029237132463585,
          -0.3929346248001695,
          -0.06580668197024947,
          -0.06541499387066596,
          -0.2043578740953825,
          0.18910316259230325,
          0.031204434183905727,
          0.3288699962865585,
          -0.1275159348403493,
          0.4095190002440487,
          0.2268327100361275,
          -0.21871395408924205,
          -0.2092070857351805,
          0.2738262903626889,
          0.1826999624438205,
          -0.30342562087884545,
          0.3854963486839618,
          -0.02498831769667912,
          0.1343178297359526,
          0.4789981882262709,
          0.07044087737417237,
          0.1684082053320976,
          0.2101536863137801,
          -0.08343362742219589,
          0.08498009342772649,
          -0.2590778919529424
        ],
        [
          -0.14249279465618034,
          0.24556274253654398,
          -0.4515842512038195,
          0.027793044031428297,
          0.010461894642370526,
          0.06628263705807357,
          -0.28763993250292896,
          0.2951829001736517,
          -0.20467561659317182,
          0.023931683445992558,
          0.23387266770425955,
          -0.1789190826239435,
          0.13400173401005763,
          0.25976595151641174,
          0.1145229269391444,
          0.0910195768461864,
          0.5682767920111783,
          -0.056140918880899705,
          0.1701527996635345,
          -0.12865122478298913,
          0.004746259845189942,
          0.061035202798329295,
          0.3203112694744798,
          0.041393463890680764,
          -0.22274887494692908,
          0.4830692090220473,
          0.24236910203339068,
          -0.058267894885185516,
          0.25052627048500664,
          0.06300393820544753,
          0.388198413273631,
          0.2799388454114056,
          0.3865153047861858,
          0.0887078441250889,
          -0.010228031373877499
        ],
        [
          -0.2067010044742434,
          -0.3700655829809065,
          -0.3242600140554028,
          -0.31271119714918355,
          -0.2794795839183796,
          0.3187179054653617,
          -0.41503715582013223,
          -0.0438529576054986,
          0.3836954313252639,
          0.35711194373362654,
          0.36989704152234626,
          -0.08156368130054087,
          -0.20170657978304357,
          -0.22434986047713573,
          0.4234119356508366,
          -0.12384401356995679,
          -0.16422755786325968,
          -0.3355494598956324,
          -0.11093368877093948,
          0.27092869797809715,
          -0.45770072378777815,
          -0.05185802488529902,
          -0.5516168824600821,
          0.3218295687528762,
          -0.06508554237346785,
          0.44626059745458607,
          -0.4767324298933699,
          -0.07984007701887967,
          -0.23780268392838322,
          0.05277723133420256,
          -0.4448139076490742,
          -0.3614363176545843,
          -0.06696313586009524,
          0.1443683611991681,
          -0.0546366674758745
        ],
        [
          0.3368844162439226,
          -0.2776658800863303,
          -0.3013816328878681,
          0.15590392800981065,
          -0.14256417416548736,
          -0.26315248993951346,
          -0.10790285229621355,
          0.18934649470605758,
          0.09250403236033446,
          -0.222721796064858,
          0.432761161376145,
          -0.12632096874012835,
          0.28994807254973753,
          -0.03109193195699316,
          -0.03027378614710487,
          0.16260746944662338,
          0.07315757512114851,
          0.22265988395059588,
          0.5678451984559411,
          0.30288870404039,
          -0.18078079967055638,
          -0.0009795118337699326,
          -0.2797399933809945,
          0.3742444832019432,
          -0.1355206146824263,
          0.07107606968660708,
          -0.24256085854251322,
          0.1279620852774193,
          -0.2402800748654695,
          -0.22228092936333435,
          0.19906837868393057,
          -0.061823264846418736,
          0.21410850725829308,
          0.33149775689045474,
          -0.3784081137360935
        ]
      ]
    },
    {
      "activation": 1,
      "biases": [
        0.7350736837456651,
        -0.6961811935457375,
        0.10953313449906979,
        0.01331049505764736,
        0.06416057587351652,
        -0.08885846011552273,
        -0.49008239720223606,
        0.22597566204827826,
        -0.0796121081558331,
        -0.1383185919584658,
        0.1715024377399045,
        -0.11962441054685738,
        0.2506250789833049,
        -0.06289510252085477,
        0.11252621852223399,
        -0.0320057829500776,
        -0.01912775732198567,
        -0.7380222480449359,
        -0.8195660803719982,
        -0.7736710575690074,
        0.07537679852127464,
        -0.03443962447932311,
        -0.786334037528842,
        -0.0233812599625158,
        -0.08764942683079954,
        -0.09256696485371238,
        -0.2284033506978145,
        -0.6489159311917967,
        -0.04703003967435575,
        -0.021475716288564616,
        -0.704620049983291,
        -0.7893584706213903,
        -0.15905530575345897,
        -0.7240153835300893,
        -0.3237496212301871,
        -0.049190405551913986,
        0.00605619280370589,
        0.2576841767748115,
        -0.01103283530239394
      ],
      "cols": 39,
      "rows": 35,
      "weights": [
        [
          -0.5796537062593646,
          0.2519794748066352,
          0.03160399724365041,
          0.10850465797053592,
          -0.2270927691058055,
          -0.1572854689312472,
          0.42373075035859353,
          -0.28555261436701945,
          0.2120909373036076,
          -0.1376118082053919,
          -0.3765292770649608,
          0.28455188650656055,
          0.15846478034010614,
          0.013241784188429688,
          -0.3486455273399777,
          -0.2533359938300605,
          0.1285625231047761,
          0.45004637397647257,
          0.26918459681398227,
          0.5528037192902756,
          -0.0724918963094614,
          0.00461930708460441,
          0.4888998650639623,
          -0.10396285580674405,
          -0.21913289399378627,
          -0.281849295416968,
          -0.00581649039884603,
          0.5924458127503391,
          0.3357720879879533,
          -0.046774311464262926,
          0.5692908912661304,
          0.4771313647769878,
          0.3676944449464473,
          0.6046918599180331,
          0.4285137088891712,
          0.292593462549345,
          0.2770798723713028,
          -0.3283965253167873,
          0.04630216777312814
        ],
        [
          -0.08375566010327579,
          0.12710258603793534,
          0.01087584265196889,
          0.39431738249944415,
          -0.7160408344472105,
          -0.04737263996636433,
          -0.5561252663692335,
          -0.046318838998677454,
          -0.18194216831417312,
          -0.2535549516914848,
          -0.030946604537852446,
          -0.18842570389273886,
          0.312956517723317,
          -0.04260282894035133,
          -0.20900499113347765,
          -0.6121952751208586,
          0.12722316120573168,
          0.0759693278111224,
          0.10978446298063635,
          0.19363084371905526,
          0.25357146269977754,
          0.3755254744592469,
          0.2724290777552011,
          -0.05142127180096363,
          -0.27354969886503644,
          0.015586780261040403,
          0.044716958774674104,
          0.15964661270739117,
          0.07676238379059373,
          0.36446328948445283,
          0.11511125005272106,
          0.30200055667882075,
          0.4612370931115729,
          0.09225555135393025,
          0.06894417934331405,
          -0.09940383479651664,
          -0.05165262452098201,
          0.7531259791809337,
          -0.20505834170643808
        ],
        [
          -0.3392888366388074,
          0.5073579425433351,
          0.1829650854447869,
          0.09211988484391001,
          0.21160723800375636,
          0.16776822861291302,
          -0.09717383393678483,
          0.32787352152258864,
          0.05132874992870985,
          -0.2165155229813129,
          0.22861439252531499,
          -0.4785011633893241,
          -0.7337248352483494,
          0.19053377255466267,
          -0.036683726543113464,
          0.759389520884925,
          -0.30204870280508506,
          0.4174749623494607,
          0.1874188238085464,
          0.1324717507092548,
          -0.0594104542668569,
          -0.18529671777913567,
          0.35849447530869766,
          -0.1407922075941791,
          0.29586940996435274,
          0.3400974615290369,
          0.20365840363680676,
          0.5083036433851503,
          -0.21669325266879175,
          -0.031095642935453405,
          0.5525272051709267,
          0.3519644871568728,
          -0.43107460471003745,
          0.4243816922409895,
          0.49950322484067466,
          -0.2133692949348168,
          -0.052340953689768155,
          0.3768916043041021,
          -0.009665367248115982
        ],
        [
          -0.36158496301328696,
          0.6114997256984863,
          -0.14586124905325445,
          0.28713560633859614,
          0.06859170590912783,
          -0.11124361146414065,
          0.11843186396996924,
          -0.40446427979152666,
          -0.18831702835565006,
          0.07906073798794123,
          -0.27757193479488196,
          -0.17033191830192265,
          -0.3680266644300052,
          -0.21523036878399743,
          -0.025410902516064534,
          0.0035261494141890304,
          -0.22239110781043983,
          0.6502303001914367,
          0.5060150278813254,
          0.6062718944156296,
          0.17005043730068803,
          0.22802377329400877,
          0.41427616880464924,
          0.09966491544515123,
          0.08474110587221777,
          0.22655813095408917,
          -0.034276494600986605,
          0.6195723252014708,
          -0.08744540208128755,
          0.13510743258635433,
          0.5835166250871319,
          0.551352527478813,
          0.3208992701066094,
          0.474542914736779,
          -0.0031386234295631547,
          0.13081379254120376,
          -0.22552793106263735,
          -0.35243203429580067,
          0.13962485116063947
        ],
        [
          -0.0914472250098222,
          0.1055921309946738,
          -0.0932545911793003,
          -0.14323962669245038,
          0.042167141460010334,
          0.08493645920701973,
          -0.23619997221509464,
          0.02563513842817783,
          0.0053714285937330845,
          0.24274896604348062,
          0.13538781194384605,
          -0.10252883258418942,
          -0.2065903343888882,
          0.06525680157387653,
          -0.26105993994372784,
          0.039620802683856385,
          0.3135715349632881,
          0.3367008476115823,
          0.24110852463660232,
          0.19581635593398566,
          0.3312013554010238,
          0.3087099791901947,
          0.3196215544778975,
          0.18216285331069107,
          0.15762495289739445,
          0.34272279004649564,
          0.21391874373857006,
          0.06627958613377062,
          -0.09864986485911231,
          0.3561586170254767,
          0.3134831214901977,
          0.08908208274801556,
          0.32221856700145074,
          0.28353784453924635,
          0.3390619115252736,
          -0.12279049639229456,
          0.012673869441048065,
          0.35722521218482584,
          0.2020585586776469
        ],
        [
          0.45207048978339026,
          -0.4626980810299551,
          -0.19931933271636007,
          -0.10379150060494506,
          -0.19981483865247118,
          0.32853380246385877,
          -0.35991022744184115,
          0.06038042785139157,
          -0.11839716117144466,
          0.3512795133547285,
          0.3681804523460112,
          -0.34175564952581794,
          0.21679696896351705,
          0.15887264188259315,
          -0.058283112356766704,
          0.1271518609022994,
          -0.02691067577393771,
          -0.21548134647405476,
          -0.1374172649843778,
          -0.45558788233298686,
          0.04057642640392567,
          -0.22148018688833027,
          -0.45853672482463187,
          0.018861662580191587,
          0.1456670473197549,
          -0.06359203318368985,
          -0.15396028336124465,
          -0.27968146772234875,
          -0.06438359839522824,
          0.1835247719337231,
          -0.5308325731485644,
          -0.41545572632874406,
          0.1546843431373321,
          -0.048238462946775536,
          0.012258906267609504,
          0.03874528135939355,
          -0.25887467336302894,
          0.007254524403504587,
          0.11160734490559124
        ],
        [
          -0.6661825502205524,
          0.6746731833154592,
          -0.1384840576176965,
          -0.20139893932559402,
          0.08656600557279145,
          -0.024754264772600985,
          0.022280563928679224,
          -0.41395012876157283,
          0.13971944766545247,
          0.1098364464140749,
          -0.17310773360214088,
          0.25456728850431704,
          0.02128086586213413,
          -0.013929883228055096,
          -0.34559548565604903,
          -0.34950839538338185,
          0.375164422476791,
          0.7239477783568242,
          0.4000447039397183,
          0.6258367292970033,
          -0.19793442044172174,
          -0.045230841308029415,
          0.40732627280788347,
          -0.2839056635003855,
          0.237053304759342,
          -0.0015757908447448542,
          0.16334597647870047,
          0.6700549163326192,
          0.0822024721228004,
          -0.2666274881034212,
          0.36887698637145494,
          0.4761906707138497,
          0.42402091851532786,
          0.3700621409737634,
          -0.14392884644014606,
          0.1777360903872765,
          0.0783943559499827,
          -0.368822259812887,
          -0.14116693978569494
        ],
        [
          0.08764224111452318,
          -0.3355167982932558,
          -0.03464739422008579,
          0.40332150846951664,
          -0.37018122563284694,
          -0.3857952661530841,
          -0.2097995732473251,
          0.1448542382606862,
          -0.29486406798554887,
          -0.22963593938079138,
          -0.2462786698520287,
          0.06040113090349222,
          0.016107943007653978,
          -0.2851082922650194,
          -0.26989213145581625,
          0.17110596927247634,
          0.2726844661431999,
          -0.018799857350012987,
          -0.3774956985910817,
          -0.02968528763574588,
          0.1319169351586671,
          -0.17560113759019064,
          -0.4805792743597987,
          -0.16825143205373103,
          0.07836669259141854,
          -0.4478382885867883,
          -0.317446876258297,
          -0.1574730010579335,
          0.02808081849196455,
          -0.0796064384305617,
          -0.34132367715215756,
          -0.4067562333401693,
          0.20663345945088524,
          -0.2458225762726453,
          -0.24242002507737853,
          -0.23057442411105555,
          0.4423169695271245,
          0.005963391349589521,
          0.17842196690343484
        ],
        [
          0.030363480874348488,
          -0.30616825346410254,
          0.08319872620906729,
          0.02519355105877459,
          -0.022217546591542025,
          -0.07413848012348559,
          0.168185207083671,
          -0.5981522387527786,
          0.0045268364704525756,
          0.5467380375037676,
          -0.3164070994314838,
          0.36035683175861283,
          0.5731173716077571,
          0.04366250157060868,
          0.0545713390402988,
          -1.2084863456551613,
          0.9024803013293989,
          -0.1991605235525664,
          -0.3277599426084946,
          0.11597446290205289,
          0.31974561309918714,
          0.44692104072314215,
          -0.01873741221888985,
          0.46952971293144846,
          0.07255738440400653,
          0.022055904647097987,
          -0.42163104006290436,
          -0.4091304644554891,
          0.12798713334885015,
          0.5636984072276968,
          -0.224431704648867,
          -0.4151330285813091,
          0.8936582424548322,
          -0.2221272861750314,
          -0.23523286448718608,
          0.17171593659152218,
          -0.15847250601525442,
          -0.7277196795830501,
          -0.14127167780071792
        ],
        [
          0.5728369123314331,
          -0.3625872911023211,
          -0.030605388603044598,
          -0.4242671769444671,
          0.5126533199589097,
          -0.46568972774892414,
          0.1071133805497939,
          0.2469830895649098,
          -0.3250658736763523,
          -0.10706739768851949,
          0.34420233348826446,
          -0.1834476904058144,
          -0.4606443319044117,
          0.157167281651,
          0.2952946463430647,
          0.7756198640023738,
          -0.3245437635188406,
          -0.4723646838765853,
          -0.25269241950137283,
          -0.2580039036878783,
          -0.23803998844623972,
          0.01994749456387912,
          -0.4973953577398764,
          0.12784377699125393,
          0.37642180314768825,
          0.702323762815788,
          0.2445640529168473,
          -0.6048790298580072,
          -0.037290408711427685,
          -0.012764402630769306,
          -0.3714463319640632,
          -0.5820379433655214,
          -0.7335795855492504,
          -0.6076365513626917,
          0.1280876945115218,
          0.06541917313768532,
          -0.5005714366754507,
          -0.17209233880481128,
          -0.0676340253877426
        ],
        [
          0.25971528165053237,
          -0.28724123403427276,
          0.01611437867008077,
          0.31228458668583237,
          0.059820660235092804,
          0.3377424374776296,
          -0.27254328072206646,
          0.3263804840195833,
          -0.040831569792396105,
          -0.12085097725535154,
          -0.08084994975217523,
          -0.06747419632658934,
          0.24622511828719196,
          -0.08951236687226717,
          -0.3036013701124729,
          0.08076821537655322,
          -0.30072928697320944,
          -0.13378870019844172,
          -0.6135582745625957,
          -0.5084477241665712,
          -0.10753784223440505,
          -0.23794838407948415,
          -0.09216494763234319,
          -0.29500948134899707,
          -0.11873121595194222,
          -0.5570029279078815,
          0.2549489878064179,
          -0.44582730377680524,
          0.10011180058895865,
          -0.040248130160604724,
          -0.4577506519551549,
          -0.1867520424102153,
          -0.26053755437741716,
          -0.5452392209615806,
          0.09647663704117566,
          0.26135491187809357,
          0.21698671395166638,
          -0.36023255002430327,
          -0.06457736563783414
        ],
        [
          0.3316683750628569,
          -0.18348957064271879,
          0.20330474353791672,
          0.07886135602886277,
          0.601177031544369,
          -0.2886680547843053,
          0.5626390252627677,
          -0.1467428600124365,
          0.15916977419995132,
          0.16058452379121288,
          0.016815158953825175,
          0.56845926848911,
          -0.30657535993970425,
          0.10283206658697833,
          -0.23102622880671334,
          0.307415762428841,
          0.3683177829236342,
          -0.13734590293806132,
          -0.27945168651632923,
          -0.4763721379074447,
          -0.131034253930225,
          0.3826228067058615,
          -0.18146843736077903,
          -0.19983423461114636,
          0.455006527688754,
          0.4789837306868812,
          0.025993140831614737,
          0.02388473037134706,
          -0.17517388192480413,
          0.02684414491668456,
          -0.18136457433532044,
          -0.15229698255667648,
          0.2111237188237465,
          -0.42967951852206465,
          0.29735776206886594,
          -0.10241013672222903,
          -0.34737466428798014,
          -0.4297185756089998,
          -0.011461632743717434
        ],
        [
          -0.017466418917898456,
          -0.1813131572715655,
          0.1661630070211388,
          0.277311033212366,
          -0.06869770670342047,
          0.27671870693654815,
          -0.43830369979475403,
          -0.23980785665159607,
          0.21803266772982827,
          -0.1045568808321332,
          0.041365260766410374,
          -0.16166143482526477,
          0.052346024512874616,
          0.14911659734175345,
          -0.20976870378473936,
          -0.39110879827356787,
          -0.018808484203142573,
          -0.36525114540675296,
          -0.3212923783919678,
          -0.29561906083199346,
          0.25715299923215507,
          -0.1967103920237441,
          -0.23007383750505972,
          -0.29601466297201695,
          -0.14782114717281708,
          -0.16827551804958882,
          0.1931591983210333,
          -0.10303260383048042,
          -0.011120873411192288,
          -0.15549894156340005,
          -0.2591032371394935,
          -0.10207800269856318,
          -0.4179891848752737,
          -0.11436112536208197,
          -0.10159326738952275,
          -0.09616111394408637,
          0.4146176601151728,
          -0.22837718143261268,
          0.25141932881025425
        ],
        [
          -0.20988424407439069,
          -0.029294809240990084,
          -0.079244028504227,
          -0.008909946044292651,
          0.3762731010649398,
          -0.1788324052392354,
          0.4380284302010082,
          0.3942032261916956,
          -0.22209572839454125,
          -0.4000911525031501,
          0.10159736876815832,
          0.19792789464802804,
          -0.16405737399610984,
          -0.10225467712379734,
          0.019985247854257752,
          0.2890417678370095,
          0.22030889381805563,
          0.25909776578897575,
          -0.18514199034506118,
          0.15214549508926278,
          0.1237472299087317,
          -0.05412621049245325,
          0.17605204005241507,
          -0.07161689781590062,
          0.10510008168569766,
          0.26371031285349894,
          0.1574524259957056,
          0.01629877366330977,
          0.04815496604547418,
          0.37836648991111715,
          0.1392067772003502,
          -0.12355187088776128,
          0.5988276651634926,
          0.002008961311639995,
          0.00037312141687808475,
          -0.14464947109113788,
          -0.18487518711929166,
          0.2878569512334596,
          0.08736283678552709
        ],
        [
          0.6441260839669793,
          -0.4768613755426844,
          0.28135276809162274,
          -0.02087140986576983,
          0.17293586227523688,
          0.15548333553868263,
          -0.4862148253115635,
          0.24794085271701166,
          0.043370462717993864,
          -0.17147154926846747,
          0.09554363163782563,
          -0.3135962469111669,
          0.10672009381803318,
          -0.1685871393615881,
          -0.1105913060805069,
          -0.2910655634252511,
          -0.05899176966906337,
          -0.6577506648456549,
          -0.4681757615360609,
          -0.2977532760454263,
          0.07137911083716911,
          -0.023916075118572192,
          -0.5192562064800633,
          0.031222875565438415,
          -0.06314771389122535,
          -0.21780874376689083,
          0.04227200185367907,
          -0.32824768818482175,
          -0.0922438734017814,
          -0.002066155712069676,
          -0.20741170276151877,
          -0.23002799749273745,
          -0.15629054231223308,
          -0.3748000304508912,
          -0.3464331134030936,
          0.26836155845592286,
          0.06891201596367857,
          0.3488283359352058,
          -0.11172091781618525
        ],
        [
          0.0686276289741053,
          -0.010262164082127257,
          0.10900088084059406,
          0.8291968610666373,
          0.06454320286084973,
          -0.49318485355353914,
          0.4854497541747806,
          0.15988678324949843,
          0.005030094890876676,
          -0.6174401503781738,
          -0.022063648656686027,
          0.2533356825712101,
          -0.28573155617218055,
          0.10148806994143784,
          -0.6674002524280471,
          0.5041023175408491,
          -0.032736165520794586,
          -0.36034881507012323,
          0.0784539625117592,
          -0.3221829420055696,
          -0.07828244564102907,
          0.08715082175445145,
          -0.15428634866665278,
          -0.9182936738915737,
          -0.17554602850987147,
          -0.30609925282494654,
          0.1252331137510749,
          -0.32075183666944956,
          0.0382192817781096,
          0.3586418946287138,
          -0.033378456359851684,
          0.05494899032450054,
          0.21315817011388866,
          0.029312572098694544,
          0.2630519854377112,
          0.1967194621303228,
          0.36311099888135195,
          0.03221000773406436,
          -0.0764581477139236
        ],
        [
          0.026876921349091355,
          -0.12068852848809632,
          -0.156456230864776,
          -0.7473854950766666,
          0.0938081483079908,
          0.1672486772863023,
          -0.6739613005527306,
          0.1982881552198575,
          0.19055536391163408,
          -0.04323905426330468,
          0.5713791653164695,
          0.1837330952335654,
          0.2282261082566373,
          -0.24667436709549445,
          0.5868814313594976,
          -0.023940588686277863,
          0.32096464003735115,
          0.22059623769077358,
          -0.21330108110981694,
          0.06916605772538807,
          0.05962735037060679,
          0.004405799859544727,
          0.061072984596938946,
          -0.5770923440568487,
          -0.18844762590709546,
          -0.1228945529138769,
          -0.5797833823812077,
          0.08778851422993135,
          -0.6372019625027459,
          0.19127625990052546,
          0.20241925204496428,
          -0.14097634438336684,
          -0.8418037076676901,
          -0.07261903062837996,
          -0.5602660357179832,
          0.05538395295865416,
          0.22140792763452904,
          0.07009544126955998,
          0.12528733222972432
        ],
        [
          -0.3832268941886468,
          0.3126680601013109,
          0.18216726147134651,
          0.11057599027259005,
          0.2525994951311387,
          0.060618032604479184,
          0.040982084407862364,
          0.2514618290181847,
          0.009551347311194737,
          -0.1776578005953517,
          0.31438527965517293,
          -0.10205065676029176,
          -0.3496775797520452,
          0.21666908398591922,
          0.20605843050223505,
          0.24006305269884273,
          -0.6762633248136383,
          0.07360259669054682,
          0.46840768194974175,
          0.2691026827612299,
          0.15920674825720643,
          -0.48027606605827944,
          0.3037542060690598,
          -0.11138439810042755,
          0.036165054110338206,
          -0.12082972137208274,
          0.20038039180652165,
          0.57153785737387,
          -0.3915797344652108,
          -0.39027988097518174,
          0.3142761494936036,
          0.6531162528964616,
          -0.928537526650598,
          0.5709416830992741,
          -0.16360941957366051,
          0.009089944674731655,
          0.23744014520225448,
          -0.050549761759739936,
          -0.11004451770265207
        ],
        [
          0.19809650165298132,
          0.08951284374442296,
          0.14786596400023597,
          0.29105178434508755,
          0.17927860070945012,
          0.09808693195931453,
          -0.0033684411886704584,
          0.06189813493508008,
          0.18795681871513822,
          -0.15692168309955748,
          0.42024482018990444,
          0.22585794629736408,
          1.0977602407226645,
          -0.16145838936903198,
          -0.12295895809931372,
          -0.6671194468092805,
          0.3268274737608788,
          -0.0768277700087529,
          0.15860105038615527,
          0.09825273987575851,
          0.3742111842401987,
          0.25431708036363776,
          0.024524937056939863,
          -0.6698320224073981,
          -0.3750301910100611,
          -0.4296572114260607,
          -0.7734356574863447,
          -0.12370775130027713,
          -0.019145911926139344,
          0.2410794484745981,
          0.09763864122610708,
          0.055648473197943714,
          -0.028886951814653145,
          0.05723969588085398,
          -0.2925009161045333,
          0.22963055897013793,
          0.6892583849651297,
          -0.6929848928362684,
          -0.09449447223633528
        ],
        [
          -0.21504588729327337,
          0.09730619551058654,
          0.07933209753213384,
          -0.5613768333644511,
          0.34070414123332754,
          0.10368788858012276,
          -0.7706318449964957,
          0.7719876542204216,
          0.15296677922851515,
          -0.3321514431302958,
          0.7520276946388744,
          0.08552198738138625,
          -0.3143134242862942,
          -0.22115476673945858,
          0.42281054885314084,
          0.5087734567931215,
          0.5231869387869049,
          0.12938233762745557,
          -0.13667729858860045,
          0.17854000002895948,
          0.22110614561766398,
          0.0686199335445267,
          0.09475402834475176,
          0.08156378156305591,
          -0.24309981015292753,
          0.708484731201,
          -0.21424490453312794,
          -0.2669163131358901,
          -0.39683204894833624,
          0.2234970504122486,
          0.08057072146142488,
          0.09469337095851899,
          -0.12116799416827327,
          -0.2543281582482356,
          -0.04922493418881737,
          -0.04577236755723932,
          -0.526516753548263,
          1.1724818477305738,
          0.02022315274688506
        ],
        [
          -0.6160041967586023,
          0.5520122959779182,
          -0.27952769259870813,
          0.21446790588652923,
          7.349098802002536e-06,
          -0.07062404240473784,
          0.3022814246392075,
          -0.14633539246758528,
          -0.018053163895945145,
          0.2688778740020431,
          -0.31138007078653474,
          0.3116040556420293,
          -0.2942497762913645,
          0.2909170737728137,
          0.12048292043258102,
          -0.3407001633691042,
          -0.12723439325807814,
          0.7612594215415129,
          0.724119748952237,
          0.6755613079106306,
          0.16172363498303854,
          -0.1877859769738857,
          0.5709427486269478,
          0.03135194236154807,
          0.24481406770143796,
          0.24093266590180926,
          0.13029296439524213,
          0.632088735856294,
          0.2713198236746811,
          0.10458894222422908,
          0.3684693014175756,
          0.5459211738809191,
          0.25052370035980004,
          0.35447857281435385,
          0.3887080177060821,
          -0.09952383165670825,
          0.15421592787815658,
          -0.4494576954316417,
          -0.06461978055667851
        ],
        [
          -0.24779626320157244,
          0.1312718100978719,
          -0.2031900160793118,
          -0.10426672088585405,
          -0.0225448118105839,
          0.31677712230944033,
          -0.21415591383645247,
          0.15514237426557848,
          -0.042167084614890056,
          0.06190136126101373,
          0.3317954029136968,
          -0.2055190572451492,
          -0.1703610592233368,
          -0.02115445061221416,
          -0.018219333465606925,
          0.2254545156875933,
          0.32813844501551,
          0.013863883542523265,
          0.3838847883162809,
          -0.016026654479638778,
          0.21369709128977735,
          0.09742582825087771,
          0.026394553279500157,
          0.68607159755066,
          -0.1528945504502142,
          -0.08747872000625435,
          0.38944581710440235,
          0.04178096075600867,
          -0.1336233843575114,
          0.4633693328733428,
          -0.028100375808050537,
          0.2348063575351001,
          0.331598310212267,
          0.08409904736112421,
          0.4775380362738423,
          0.2185855367522702,
          -0.4936344984292922,
          0.23265022998921095,
          0.08429634744253352
        ],
        [
          -0.0023373142868419188,
          0.1368844647033675,
          -0.1545055741887578,
          -0.1692337338927061,
          0.008996791394744814,
          0.6445511720800458,
          -0.95170043166936,
          1.1567798256020485,
          -0.08353763258864502,
          -0.09789242122126898,
          0.719433805856976,
          -0.26981904371530374,
          0.6163395825871669,
          -0.4629350419839783,
          0.753507183523711,
          0.12139871773886629,
          1.1132706446208396,
          0.056163859138078885,
          0.06615157484702046,
          0.44266864265449396,
          0.8774742302178942,
          0.18824514008677398,
          0.1786656622431116,
          -0.9413602808674378,
          -0.16382621912959527,
          -1.0012002050710849,
          -0.9022837178625326,
          0.013378367725120612,
          0.10732107449785182,
          0.6392993831656284,
          -0.08314522356323793,
          0.3384146158691718,
          -0.5589765804546983,
          -0.05288882899541675,
          -0.6401842664817105,
          -0.22443492269418455,
          0.8074851878833089,
          0.38107919735390117,
          -0.14009414235033138
        ],
        [
          -0.02456948688661588,
          -0.30574789070784686,
