{
  "layers": [
    {
      "activation": 3,
      "biases": [
        0.11154382076295309,
        -0.048678845923134324,
        0.17403926954906984,
        0.5803648649785349,
        0.08209975086408057,
        -0.05588269022113237,
        -0.5581879831473889,
        0.01784417013909017,
        -0.0888225528271313,
        0.523454005277321,
        -0.20296164561048716,
        0.25594343179088075,
        -0.09570875505051303,
        -0.43578196356020593,
        -0.2383664992578993,
        0.24215360327556024,
        0.14477610122197654,
        -0.13136986450847501,
        -0.6815325045741458,
        -0.10496678902671021,
        0.022165590020285526,
        -0.27687557108519695,
        -0.24983676158921972,
        0.4516833906679852,
        0.19861568425402118,
        0.07480798385649065,
        -0.36781952419948644,
        -0.06274225799359216,
        -0.021118418047553263,
        -0.2929091871255185,
        0.06885492538716174,
        0.07086450614017317,
        0.08280571275512884,
        -0.16337817583952335,
        0.47619441431145454,
        0.207291931241291,
        -0.1389493512929293,
        -0.33349482850518325,
        0.4082607697530498,
        0.15466023114296187,
        0.025774789700971523,
        -0.08071601633685908,
        -0.2485096530977062,
        0.5332738975839741,
        -0.07405400241050367,
        -0.3545779172837771,
        -0.23305982934479708,
        0.6781394938430768,
        -0.3370316745227661,
        0.2440038759959898,
        0.021075219886741374,
        -0.0006398881134112803,
        0.22250096363756755,
        -0.13250058516176097,
        -0.1305094602671253,
        0.46308026155294896,
        -0.26893981290835905,
        -0.004334097925724434,
        -0.17269133760294622,
        -0.3711419123310651,
        0.0045558652537842055,
        0.3474029508705648,
        0.21470277350584221
      ],
      "cols": 63,
      "rows": 30,
      "weights": [
        [
          0.24128660060570262,
          -0.18846234745997736,
          0.1326851319749394,
          0.0865339956055588,
          0.4309060273196776,
          0.2293829081850895,
          -0.16000095450740662,
          -0.23993289537436657,
          -0.06948637059046121,
          -0.14254589444237087,
          -0.12275861952446333,
          -0.15933113914806632,
          0.013507866936425292,
          -0.3442882114033289,
          -0.337714752592159,
          0.1374773687073299,
          0.05021466020995559,
          -0.454581378222815,
          -0.02002916823777704,
          -0.04441796060559992,
          -0.07264973883528283,
          0.2486083865747077,
          -0.0918618467300729,
          -0.16680857978141408,
          -0.14590146710359356,
          0.42929690363179573,
          -0.33926252796049683,
          0.10933751906171751,
          0.13484023336836565,
          0.25259409075429706,
          -0.08990938362786294,
          0.5089064254092502,
          0.12142395471273067,
          0.4204795258434904,
          0.21419565640673685,
          0.029446827073293328,
          -0.15385629874573217,
          -0.07143135715653144,
          0.13178436757574385,
          0.13682704675798185,
          -0.10011691513417902,
          0.4398595191094557,
          0.4628565061544519,
          -0.2580437229117434,
          -0.01481143526433243,
          0.1446155390732959,
          0.0837550859097775,
          -0.14529210425163694,
          -0.1482999641035837,
          0.6453796891710786,
          0.03599627550094311,
          -0.32151720274367346,
          0.2976696236045974,
          0.1072311165407514,
          -0.0947331253968554,
          -0.0008924048952581226,
          0.12162384823663971,
          0.24850182145076363,
          0.25134555231305783,
          -0.0025749104677538627,
          -0.25205106186937837,
          0.1642581006478301,
          0.060755392214965454
        ],
        [
          0.15283664088627216,
          0.015611763515077455,
          0.2913084486884548,
          0.03840402782116409,
          0.23336605050562323,
          0.32448844778310404,
          -0.0252660359872132,
          0.15588456189285654,
          0.10086773897572117,
          0.18967840545132564,
          0.0055670741987417114,
          -0.3306013237265423,
          -0.1458120866139174,
          -0.2012117910240515,
          0.17194930437753175,
          0.029269457220332355,
          -0.06755473017498449,
          -0.14923701827643276,
          -0.31383475674364114,
          0.1331201757812519,
          -0.011523486698922227,
          -0.19517223955888005,
          -0.12830507340520486,
          0.29157093100844855,
          -0.09544785972898505,
          0.22762154045336036,
          -0.26287523383768,
          0.09872483098828796,
          -0.2347428960264006,
          0.5133577184315393,
          0.06784172792077564,
          0.3922977626832196,
          -0.4065951551776831,
          0.3066625392708091,
          0.11584016810423352,
          -0.05248094936857374,
          0.16664549379834087,
          -0.28571254948250935,
          0.19507138036569896,
          0.35192697491410796,
          -0.19557227030820465,
          0.29427471972061703,
          0.3440063931724095,
          -0.005529660511861409,
          0.19040189275264424,
          0.047738852431497295,
          0.46172852248708235,
          0.30104028461033644,
          -0.3106127856542067,
          0.33948627350493854,
          0.13453334401429812,
          -0.32643602019123247,
          0.18827161514640534,
          0.17820991615259163,
          -0.12613040139605547,
          0.05356402264903765,
          0.06524813671059114,
          0.1628417677246757,
          0.03408361884753707,
          0.0853316944379057,
          0.2940265292271338,
          0.30333201297194545,
          0.032250677460311336
        ],
        [
          0.32488215194035014,
          -0.01049014516715669,
          -0.2590098917989726,
          0.09749980576822079,
          0.08785927136390348,
          0.12221792576397861,
          -0.023395050042922198,
          0.0330003763209093,
          0.11959079960585682,
          -0.10441675907812417,
          -0.06716996281996031,
          0.14783508079465138,
          -0.1656775372528865,
          -0.09229001148999574,
          -0.21454847387805243,
          0.1169028465098443,
          -0.015570133098579719,
          -0.09971029296890684,
          -0.1616250348340982,
          -0.03268829320455129,
          0.15800710755972477,
          -0.20988317256087544,
          0.029817376699328088,
          0.19581169502798995,
          0.024357054117372236,
          0.2725590855643375,
          -0.06511250956366127,
          0.03607981328818129,
          -0.21695506776738718,
          -0.06589162794015126,
          -0.15917709600293184,
          -0.0856522894662085,
          0.22406943881380328,
          -0.08596251703929898,
          -0.12677241260962735,
          0.10900266758540977,
          0.015588325338730686,
          0.10142478327223468,
          0.04787022698720096,
          0.2448046271499274,
          0.1310792849362005,
          -0.17654005997154598,
          -0.24054144356299256,
          0.1877615759397791,
          -0.20167364714936029,
          -0.26714668661958035,
          0.02845375523213921,
          -0.04229078506006401,
          0.021514562732630273,
          -0.11429390163268566,
          0.20535964875581686,
          0.12149213077950338,
          -0.1215265492906286,
          0.1260088064428988,
          -0.1244147453682972,
          0.004286274842416281,
          0.07926025180652775,
          -0.25085121834234086,
          -0.23770287638805415,
          -0.06644315917486394,
          -0.11366439837899743,
          -0.05101804302873496,
          -0.030256965139519733
        ],
        [
          0.29611800873130467,
          0.0024271814306399382,
          -0.2257545708632924,
          0.3055019997133435,
          0.49788578453012833,
          -0.2419783243405923,
          -0.3740724021999371,
          -0.4298302257311062,
          0.3220449555199436,
          0.061404360513305827,
          0.34202970648017483,
          -0.0678987375053176,
          0.07437542610091873,
          -0.017792225339611747,
          0.3444756641121252,
          -0.1481801031243174,
          0.13512635390438874,
          0.23341720472465707,
          -0.3277737075024567,
          -0.4523647070645544,
          0.4745101609048479,
          -0.3575229332527271,
          -0.299994406685649,
          0.11639193209464331,
          0.2096700184811846,
          0.07830531752349418,
          -0.31161966225047644,
          0.24911726709038906,
          0.09207642322090445,
          0.008410808577684916,
          -0.315239654330276,
          0.2626504786726779,
          0.13819469263200077,
          0.41699459362550384,
          0.24751795794896905,
          -0.18257103226370067,
          0.3270478848483202,
          -0.2591618858578903,
          0.006371541500402726,
          0.19894446486752823,
          -0.01770189177976419,
          -0.042969960722320004,
          -0.3219419810676393,
          0.14786425269897174,
          0.09263699928973501,
          -0.2783489831921706,
          -0.246915643908987,
          -0.04681216367244292,
          0.2775001310937875,
          -0.24746603861093322,
          0.14170355808754861,
          -0.37553776843243913,
          0.1003758471210848,
          -0.15339819354704276,
          -0.270449486369744,
          0.15244314587108992,
          -0.11498682250878493,
          -0.3207302194767896,
          -0.006560201402006161,
          -0.29999693610925016,
          0.07203914718956812,
          -0.047559941691706485,
          -0.22465070406499055
        ],
        [
          0.4793970607072966,
          0.4690329394331793,
          -0.19284645124358168,
          0.24620305321477232,
          -0.16975027906583476,
          0.1281712151357091,
          -0.014180090498331587,
          -0.07764022324778302,
          0.04132745233032239,
          0.20837975280602247,
          0.779126336139275,
          -0.16675564991353614,
          0.48535752893457745,
          0.17953280478930606,
          0.6149354073654225,
          0.2761429616639717,
          -0.4656276116417018,
          0.08179512861564867,
          0.0073395258611984255,
          0.00676847293311339,
          0.5241620734772724,
          -0.04165902933240731,
          0.34128480609673606,
          -0.06739553962471975,
          -0.02735414725586549,
          0.13777499440505653,
          0.27106180601913754,
          0.4863510859919514,
          -0.14091938304787632,
          0.0059195467805944115,
          0.49192442150308796,
          0.021127700394716353,
          -0.22350063772175288,
          -0.48293055775592725,
          -0.07979463121508565,
          0.14157692361877647,
          0.28727979614308163,
          -0.12365781106329271,
          0.15076798396276267,
          -0.1294291679174653,
          0.28672439187228693,
          -0.5151971110387022,
          -0.16172751681602002,
          0.20080911808098983,
          -0.25261280755823934,
          0.019334340752078478,
          0.5339151307437975,
          -0.057658178129529905,
          -0.26721180611942547,
          0.18280263907281957,
          0.18461564443037434,
          -0.1325513439698314,
          -0.3638830831236971,
          -0.09457656769399311,
          0.41694833730220987,
          0.10090668543973172,
          -0.07016974510495272,
          0.18596229135565817,
          -0.05682760182780038,
          -0.023676060496998844,
          0.11487377893178426,
          0.3947724954975775,
          -0.2727492771752106
        ],
        [
          -0.0216274071853658,
          -0.06748238623445389,
          -0.1671771534226591,
          -0.15957542673848008,
          0.370604043282256,
          0.03505196281491909,
          0.2783156883016136,
          -0.22113947364465955,
          0.10143962006120164,
          -0.001978042893748834,
          0.30763719960401914,
          -0.09779187600197388,
          -0.21214394630898575,
          0.006874449858738066,
          -0.17482476678438402,
          0.2603186993777705,
          -0.23371557769208412,
          0.017184978177305146,
          0.18481289848029472,
          -0.327757060278102,
          0.042971160214151136,
          -0.18034323913624217,
          -0.2612473558179716,
          0.21331741300276127,
          -0.313196955803994,
          -0.09594195855341858,
          0.08412638568514506,
          -0.04739072046266024,
          0.10145921663274825,
          0.24928503764855495,
          0.10439977715239109,
          0.27158908063336756,
          -0.09596069250102647,
          -0.08125480163665558,
          -0.14337724357529433,
          -0.143175447938222,
          0.014379640653118631,
          -0.14120879117263987,
          -0.23384153814004113,
          -0.16246170942490248,
          0.0038150289189212722,
          0.1678793238935942,
          0.1233268885292231,
          -0.148811240892036,
          -0.3064290168772773,
          0.22028529624837817,
          -0.25568179908504224,
          0.0844276027560405,
          0.16559865121306083,
          -0.004306382512809734,
          0.26602801635722323,
          -0.26265656452375996,
          0.04606534674208954,
          -0.1631597991157113,
          0.03251027814289758,
          -0.08279531666766989,
          -0.27090270344311,
          -0.10672267981962572,
          0.1626405884374863,
          0.02594206376762116,
          -0.18510206397620127,
          -0.2586277200158382,
          -0.17124630969448554
        ],
        [
          0.4831254231620557,
          -0.21702873697856345,
          -0.2061609326583581,
          0.1578515746943771,
          0.44135534055564324,
          0.09571939519940663,
          0.14602842205475836,
          -0.013454162007947693,
          -0.06527870465000687,
          -0.014241684844686369,
          -0.40460298665007427,
          -0.07774675888236131,
          -0.19885630765814488,
          -0.3160223663440798,
          -0.606682542137169,
          -0.008460553223270577,
          0.30519159834640275,
          -0.5607080122083298,
          -0.015288209706276883,
          -0.1475232034113293,
          -0.25560031557548096,
          0.31474515625899135,
          -0.27736769966178776,
          0.05640600321521246,
          -0.3515009753471698,
          -0.00899315681741076,
          -0.06480427672828061,
          0.31883786487950966,
          -0.34068637470280083,
          0.5099325553260086,
          -0.38130850673123484,
          0.5255971134991172,
          -0.08933241168247075,
          0.22932301446784617,
          -0.01929907873564704,
          0.3764288793205559,
          -0.048936801921692044,
          0.2830013466901193,
          0.04732418879884749,
          0.4969807044663424,
          -0.14793258487433322,
          0.6590534703760944,
          0.4997187582846391,
          -0.29371362065564427,
          -0.2721670401750644,
          -0.11240088477497757,
          0.09561565239821479,
          -0.03503525679016712,
          -0.07452487601443479,
          0.4076810620405363,
          0.37971193162317673,
          -0.4368267525423616,
          0.08381066036411218,
          0.12683077194749318,
          -0.23185271937570737,
          0.214028189684266,
          0.1280989877199127,
          0.136374561618333,
          0.019980162337640273,
          -0.19518461749353008,
          0.05807973813251163,
          0.40898917224879583,
          0.2390584445326695
        ],
        [
          0.1348945910642068,
          0.11678609284897803,
          -0.17055691352783556,
          0.329537702768926,
          0.34599572021733943,
          -0.04610324449280017,
          -0.25824583341111734,
          -0.11869220472653087,
          0.2018944772113137,
          0.3499365398414112,
          0.07472488200819588,
          0.11665761839535381,
          -0.00940664893249886,
          -0.030806476904406105,
          0.08685540627969711,
          0.1306340666173392,
          0.31991551680834507,
          -0.3401623706137511,
          0.09289556458864785,
          0.11496422434460743,
          -0.22425770913894094,
          -0.08241062341721754,
          -0.19412876916653754,
          0.009108839618178715,
          -0.202946438220249,
          -0.11851750416994662,
          -0.370371795757042,
          0.14978070920283784,
          -0.11264915875313698,
          0.4487472407273864,
          -0.41364910511808234,
          0.4215226373386166,
          -0.03150144089176969,
          -0.046085313047576085,
          0.24475020798235644,
          -0.0369525278072054,
          0.16400512541526163,
          0.18886863231112938,
          0.2838755087393896,
          0.1642039601516097,
          0.14215232020697247,
          0.2064487685426379,
          0.0233980104735307,
          -0.027146791268883554,
          0.05972289331067186,
          -0.1671261288047073,
          0.2809681790525861,
          0.18526214861499596,
          0.08883629836112536,
          0.48196958394498735,
          0.37624926349564863,
          -0.3183811284610309,
          -0.024119678574422272,
          -0.16804469021906066,
          0.04945202365128563,
          0.21605157422645319,
          0.18526222106892515,
          -0.06270295374228006,
          0.14886765077635877,
          -0.29252125121786865,
          0.12872813733022329,
          0.20588456300836078,
          0.20570439976030175
        ],
        [
          0.18572836366229425,
          0.14667105178400572,
          -0.019021567665785576,
          0.00047344317558908606,
          0.16079346238535253,
          -0.07022218568448657,
          0.11015563964356094,
          0.15114379440394965,
          0.218111333522556,
          -0.04192762540625337,
          -0.14343110870491216,
          0.16703654478040078,
          -0.23390515310682308,
          0.1569530093489935,
          -0.06876180447594343,
          -0.1234300189354645,
          0.2008802881573479,
          0.1356757715251086,
          0.2408549018445937,
          -0.25767401547817886,
          0.04540020301921466,
          0.015374078340710706,
          0.2132167633820621,
          -0.027617022951716447,
          -0.19557238874649802,
          0.15200324783556982,
          -0.06541894477762282,
          -0.0956451076259539,
          -0.02345343093430695,
          0.1608793084586885,
          0.09200795285603548,
          0.24933271562620504,
          -0.15359565736106448,
          -0.1106231419153869,
          0.09206295741580427,
          -0.2369497112843211,
          0.031036263686489703,
          -0.08854914410826653,
          -0.057618266591822814,
          0.19986229236887917,
          -0.08577047282701414,
          -0.12131444474093585,
          0.21226130533022006,
          -0.08699973538449106,
          0.05319530978253869,
          -0.20701193198088794,
          0.09188021479936131,
          -0.2721386349144579,
          -0.10166079692087784,
          0.024610735202318178,
          0.27354671354308135,
          0.1681632699147794,
          0.04076227278075286,
          -0.2082748838126683,
          -0.11502066911573465,
          0.05424084256307225,
          0.06153452480900852,
          -0.19374381848990732,
          0.0452201212569369,
          -0.1941308417930123,
          0.1434789067668449,
          0.28087937892492926,
          -0.20868697961701838
        ],
        [
          0.015297448367739015,
          -0.31965526892568114,
          0.04975103276339335,
          -0.1268001242655797,
          0.3023615711142375,
          -0.19767353014107242,
          -0.12917754391035194,
          -0.032536386166437954,
          -0.29033859857721034,
          0.20441640077574083,
          -0.39794789020616167,
          0.3561405580636232,
          -0.2847588255622485,
          -0.24016227488078631,
          -0.45230373281144537,
          0.016808740009958148,
          0.3001767831563868,
          -0.43690364219980976,
          -0.356045768368661,
          -0.003813434040503116,
          0.17028664829188583,
          -0.2086333796038632,
          0.14218136539439813,
          0.12853017191074156,
          -0.26899665057866967,
          0.01515781468394659,
          -0.19473549188641268,
          0.18555827851683082,
          0.2326837313413165,
          0.014655777656927174,
          0.012450337184127934,
          0.2016475544325094,
          0.21448769035947896,
          0.4761788716281728,
          0.40733474370810857,
          -0.2201666779950937,
          0.00939691050297981,
          -0.0059855396333626095,
          0.11299440355776758,
          -0.10426497097157364,
          -0.19065577321465993,
          -0.10956743631179258,
          0.06778885666707249,
          0.1405163549976351,
          -0.2699912433887097,
          -0.1160549329812238,
          -0.3618629592059432,
          0.07555982123289999,
          -0.31801563704237,
          -0.13891196298928207,
          -0.1974132676052631,
          0.15953098509114047,
          0.011623316695409872,
          -0.21726708415756363,
          -0.32614930322687796,
          -0.006881399744855579,
          -0.16037927164778423,
          0.13584348535739585,
          0.025380999868235006,
          0.11309335434494469,
          -0.3130049445992889,
          0.2250863472770377,
          -0.005571449365708752
        ],
        [
          0.10674176209224065,
          -0.26114252511521446,
          0.012644987409907927,
          0.11663103818796704,
          0.19012798067184875,
          -0.2843306478301081,
          -0.1961959598237307,
          -0.1767126811945696,
          0.28364130747782357,
          0.005175438112235257,
          -0.05040874372488221,
          0.15779327607678093,
          -0.2983190549867805,
          0.09181593813103703,
          -0.14696524084726464,
          0.3206447345256378,
          -0.27398929543908046,
          -0.11743734305704362,
          0.19485864736814412,
          -0.5258509269644339,
          0.5411608896908813,
          -0.2873609965053839,
          0.09359235126498186,
          -0.0833083060607093,
          0.1458967202502358,
          -0.03147305490482206,
          -0.09225480275363586,
          0.2269692553362896,
          -0.03538788315364884,
          -0.3695446139547851,
          -0.07069393593479842,
          0.023985746750018692,
          0.17231318255246167,
          0.18379440801874347,
          0.0012574942112527534,
          -0.1214187016925775,
          0.03829681621245794,
          0.1652226821112151,
          0.20750226992381726,
          0.31001270913283824,
          0.299970426341489,
          -0.48974123033308986,
          -0.12498765855749132,
          -0.15047908154705744,
          -0.32808570954619887,
          -0.09999917320698752,
          -0.36858735749505417,
          0.1784055563601684,
          -0.05309147430785387,
          0.03473182699494684,
          -0.1534825397149479,
          0.11146805055842082,
          0.027730397797416532,
          0.04754426300682525,
          -0.26115627951354764,
          -0.10971516326392627,
          -0.44982051058417977,
          -0.43409775471288237,
          -0.02446573932968682,
          -0.3789104228963933,
          -0.1127452126009104,
          0.026492013627740774,
          -0.058188587619943756
        ],
        [
          -0.27422694438949624,
          0.13923351908294568,
          -0.09123690117957566,
          -0.16934460395806447,
          0.17034806274373818,
          0.06269721281767243,
          0.08611800931071385,
          0.14380648376969934,
          -0.06252910762307792,
          -0.363929196206104,
          -0.1464199857440697,
          -0.18891517710351544,
          -0.16800847288717832,
          0.21296845458222993,
          -0.3067040690655614,
          -0.291289670925297,
          0.22091892199891924,
          0.1412223456812535,
          0.37960722333111224,
          0.023759847030925357,
          -0.24276697766392452,
          0.272172227972283,
          0.12149452873980537,
          -0.2553192632473077,
          -0.050470432400063325,
          -0.2541746738075364,
          0.19490149967113682,
          0.12342177845169401,
          0.23017952700019967,
          0.35531305703849825,
          -0.3274244456291269,
          -0.04025596982962216,
          0.14724785240722363,
          0.2870960972690268,
          -0.1239366799449613,
          -0.2816943430594404,
          0.2299267972414987,
          0.34485276876409565,
          -0.36458578730639063,
          -0.1431474002693634,
          -0.16412173888484952,
          0.25900670733023073,
          0.12398903705992953,
          -0.1317432371788148,
          0.11882959082345389,
          0.2772565234322245,
          0.05338655938772628,
          -0.32770786186900164,
          0.05644455647925095,
          -0.2704934137109273,
          -0.020519668956593174,
          -0.11970446053633936,
          -0.26058944956259805,
          -0.051392187311532285,
          -0.02789098731170891,
          -0.10272356788570688,
          0.30297872845424484,
          0.10374667436209184,
          -0.07194665894497967,
          0.3021177061546029,
          -0.17960386644684648,
          -0.30686844538459157,
          0.1616001550654499
        ],
        [
          0.36315060900280377,
          -0.3199722842018544,
          0.030767951743197616,
          -0.171232717543299,
          0.28425336889782366,
          -0.005411681256250882,
          0.1567439780411994,
          0.13111045122475545,
          -0.020738438089622797,
          -0.07010368713298838,
          -0.12373090240926031,
          0.08478453939855372,
          -0.1414669472051836,
          -0.14205966391066116,
          -0.3013598649741008,
          0.184461027315356,
          0.35787140326917916,
          -0.3058848396367915,
          0.15852726094353978,
          -0.271332869281814,
          -0.35474282517881756,
          0.349728486678597,
          -0.018791834950939303,
          0.16694464136192158,
          -0.36718858223583406,
          0.2829838340489827,
          -0.18607980994054113,
          -0.06114351133397182,
          -0.08928572572117967,
          0.06985557538915736,
          -0.28900807252872446,
          0.20133841455905319,
          0.15690242449967964,
          0.25966156199323,
          0.07037189651859843,
          0.3657650396226967,
          -0.12517075516159415,
          -0.18705141676152529,
          -0.2094409218325171,
          0.36569842173344563,
          0.005892750599684013,
          0.5655603752337703,
          0.04389562550548529,
          -0.04318481043482374,
          -0.2984019367528083,
          0.020684971302002187,
          0.1344471321568955,
          -0.17405956206904785,
          -0.20760231043073113,
          0.6172642246095226,
          0.41686195628392053,
          -0.24992792831848792,
          -0.11944334837261845,
          0.2622963771559764,
          -0.07851257653650552,
          0.008783672533778705,
          0.3765939664657009,
          0.38578841189341173,
          -0.016712882156633944,
          0.24547868751045143,
          -0.33574814105374096,
          0.155358695370183,
          0.375759563218114
        ],
        [
          -0.07816784612710442,
          -0.1829632665245887,
          -0.18083665780537966,
          0.31791240700087503,
          -0.050734836560993216,
          -0.014040783040741495,
          -0.15834546997866408,
          -0.048041558543655626,
          0.03048981980379324,
          0.14502183476195732,
          -0.2224749083578657,
          -0.22725809039345937,
          -0.25456446873357047,
          -0.2001294449527173,
          -0.26984773747746743,
          -0.21606905083837205,
          0.171666585590217,
          -0.18597335801284484,
          -0.12226750059590467,
          -0.09666500300294281,
          -0.3469120131546668,
          0.08991531624256029,
          -0.1942207264291405,
          0.07713562250820045,
          0.28052638217986564,
          0.019671250636316483,
          0.06540679462120881,
          -0.08826071715173955,
          0.11873450172078234,
          0.28728651936361566,
          -0.2698823094374097,
          0.3184859132224419,
          0.04687445400746078,
          0.11249475025891757,
          -0.17502046871990976,
          -0.017524811042406493,
          -0.16053785174205196,
          0.12145320833716398,
          0.23996942655270542,
          -0.006280076456219997,
          -0.2564951010721615,
          0.29109934607671173,
          0.31322825909264973,
          0.14424258622021371,
          0.2607262065886221,
          -0.19720624156835267,
          0.2834815557811952,
          0.32404809254383343,
          -0.12251233211110482,
          0.19915478525926586,
          -0.0035086327635498117,
          -0.11198072587482623,
          0.02771097672422203,
          0.1151007931949661,
          -0.1938752702318647,
          0.22460571016134606,
          0.29086669781551505,
          -0.01194170155327149,
          -0.0803424620090538,
          0.21335421985189323,
          -0.06546557202468917,
          0.11695873647970359,
          0.2061054958685839
        ],
        [
          0.3006052112618496,
          -0.03676577740465648,
          -0.20777299862352658,
          0.22261045165726345,
          0.10288130887636524,
          0.020025474029760675,
          0.20534568415548296,
          2.5722575511268665e-05,
          0.05205574044414047,
          0.07907137288863736,
          -0.00768348583599163,
          -0.2239273608233925,
          -0.19646102153535774,
          0.1562105402146417,
          -0.09502935248711131,
          0.1457059331976727,
          -0.03239811751931364,
          -0.255771403925278,
          0.23286464209103114,
          -0.15199506876144647,
          -0.08322212323712842,
          0.11860073104162129,
          -0.05315394902011768,
          -0.04783617092720762,
          0.02788914034774345,
          0.2038297036154966,
          -0.15615106856577554,
          -0.18583490867616437,
          0.163029860205723,
          -0.09079010018980097,
          0.10657067734796428,
          0.08104640516641992,
          0.10955618750668328,
          0.025798534425372683,
          -0.22581402842802806,
          0.15309988041247624,
          0.028422255512946398,
          -0.11803409805044969,
          -0.23462752868091696,
          -0.08903785537995915,
          0.11247142526277432,
          0.005556542421699592,
          -0.15723474252494962,
          -0.1572176184167315,
          -0.1800350672473154,
          0.18118671603841893,
          -0.19017014639200877,
          -0.03385227874048733,
          -0.07264690172164569,
          0.10621853950966836,
          0.28304757438105366,
          -0.21969252052860264,
          -0.2097800218103447,
          0.22114642361193404,
          -0.05162474357010998,
          -0.24105978308924195,
          -0.02926575330594412,
          -0.10479603500075096,
          0.15742144442803266,
          0.15099836239419168,
          0.1362732828129426,
          0.04389792338641936,
          -0.18209400425476505
        ],
        [
          -0.04463889399485797,
          0.012241557112853142,
          -0.10751995961712546,
          0.19970948957574136,
          -0.3160478876498783,
          -0.05383942030779142,
          -0.2906966452903454,
          -0.3773575511702632,
          0.048019647080219864,
          -0.11719093868895508,
          0.21581826183046512,
          0.1537968942264032,
          0.05195247837504643,
          -0.18626289870199872,
          0.23336647927711618,
          -0.07607764941918413,
          0.13804146144935897,
          0.1428084324597109,
          -0.09325971688563797,
          0.0419090435405871,
          -0.0979236256261362,
          0.0017270725992745452,
          -0.28465428205906546,
          0.28208464479693274,
          0.04124327254084412,
          0.3143075217428072,
          -0.3052478340427273,
          -0.10129138064266528,
          0.05810526256479855,
          -0.4860684696308552,
          -0.10911008820909893,
          -0.05390204709947901,
          -0.12475041542639097,
          -0.03770934609366624,
          -0.2573040541709511,
          -0.03802705356484919,
          0.04592029186732558,
          0.1943928218273546,
          0.12985937518544932,
          0.11282887553767457,
          0.03533765201063462,
          0.018798353441275485,
          -0.40886643369887427,
          -0.040110447163846985,
          -0.22205649674414243,
          -0.1892625319775732,
          -0.2636539416310615,
          -0.022156347953756202,
          -0.1872731566055366,
          0.2272716066690914,
          0.21599389587951537,
          -0.020801680656646178,
          0.10967945309929564,
          -0.07442580802881826,
          -0.2343476733623611,
          -0.05411890409331527,
          -0.22693652105766848,
          0.2682435175827053,
          -0.02156264080131269,
          0.17703241596206415,
          -0.20511504065863898,
          -0.13494268827820483,
          -0.21919521450980636
        ],
        [
          -0.6383801562158313,
          -0.279627101346642,
          -0.4208346467331767,
          -0.15708203937663479,
          -0.03973315868455621,
          -0.5774067420846841,
          0.10158073841491,
          -0.12607661243535326,
          -0.3378062987847691,
          -0.2019124560429681,
          -0.2691730759348205,
          0.528118049100525,
          -0.2851830418583851,
          0.15788279759881996,
          -0.04079401484871428,
          0.2186389906831411,
          0.18422110898532423,
          0.10443964659456,
          0.17926214616163838,
          -0.2204279987202984,
          0.34699855317221456,
          -0.11443162225856189,
          0.04078951944803327,
          0.07925129736596453,
          0.15503290813121312,
          -0.09035412597111284,
          -0.19310523919941242,
          -0.26552058541163814,
          0.44777085799848987,
          -0.3572147770707217,
          -0.06286487265674162,
          -0.4365166409008028,
          0.3195458653781991,
          0.22083745510588002,
          -0.04730325446535844,
          -0.4999274714381462,
          0.049391828906485594,
          0.3404860681337064,
          -0.0922015492400584,
          -0.24608077417191815,
          0.1591249291056215,
          -0.14456253463958635,
          -0.350737799144998,
          0.09136102649282397,
          0.04645207199463192,
          -0.003933366408567227,
          -0.5671371071763879,
          -0.1817822496157279,
          0.2317151060678226,
          -0.7940723398373565,
          -0.5563672489507123,
          0.3244730057988559,
          0.31222578379718774,
          -0.20676169507317593,
          -0.3474645236198484,
          0.10704726182038779,
          -0.33924611551997014,
          -0.38327687538923977,
          -0.2746170157824638,
          -0.12253867922889158,
          -0.21527621955549994,
          0.043836472956226516,
          0.3620770394823416
        ],
        [
          -0.019396089783052396,
          -0.31968669009871514,
          -0.018472065410404068,
          -0.37900227029584144,
          0.14348126011281295,
          -0.08530922505457943,
          0.055384370288206294,
          -0.08934160362792819,
          0.08770137932717458,
          -0.16766980855913277,
          0.007271144193016362,
          0.2141908864858086,
          -0.30725112572350505,
          0.06724353453648359,
          -0.1533204964722997,
          -0.027093176269358806,
          0.32757099208112134,
          -0.14189249754303712,
          0.3036237849132269,
          0.12251179663205354,
          -0.3448739619945087,
          0.08553343965017118,
          -0.06704396027202582,
          0.16312463382588638,
          -0.0952414402375657,
          0.17538853502696877,
          0.032429049440995325,
          0.031256840263707286,
          -0.39902707995095826,
          0.24247990922414486,
          0.08973086295214501,
          0.1888763766069554,
          0.4244901983858615,
          0.33677997277743266,
          -0.11946564367289474,
          0.34347506526354427,
          -0.3076394704816982,
          -0.012300599157107883,
          0.017244517192426957,
          0.3702158861881844,
          -0.36227144386448945,
          0.3577287549538513,
          0.07310512146243257,
          -0.26413579513095337,
          -0.10566183113972095,
          0.31039644137137345,
          -0.19457210997684302,
          -0.1878136659722009,
          0.025324527777664124,
          -0.15431569026643852,
          0.2453471931613996,
          -0.12876520188254723,
          0.23110937790631106,
          -0.14315576189460494,
          0.020573717723071344,
          0.17311587247519214,
          0.30364830041092183,
          0.19658791707197726,
          0.22532688788406946,
          0.244648835435995,
          -0.2564961034608959,
          0.142621787273477,
          0.28181855517107
        ],
        [
          0.042635696406420176,
          -0.1216860896069416,
          -0.14264680169364313,
          0.11493030534324854,
          0.10479867410055389,
          0.2507888805034925,
          -0.1922797213643009,
          0.14852627646020516,
          0.14411203414851698,
          -0.2609117663865893,
          -0.2468287967315686,
          -0.2462001071157287,
          -0.23206506000534505,
          -0.07091778285193014,
          -0.45103107135731507,
          0.0890618682512315,
          0.18661392578875713,
          -0.08849865691190764,
          0.16506672003116482,
          -0.1542683063671689,
          0.006088695015489224,
          0.3149677686255796,
          -0.12413449671601051,
          -0.2143866284676789,
          -0.24798924802170633,
          0.30032595143677343,
          -0.25572182042129804,
          -0.13889101947621224,
          -0.39998038773871564,
          0.49909535434339647,
          0.06025876484646293,
          0.333101251748771,
          -0.08915710229934817,
          0.49212823213665485,
          0.07153620341686023,
          -0.09479584983646445,
          -0.19808826390712245,
          -0.06748506525654867,
          0.04952100604712714,
          0.24620799166922624,
          -0.44735191876957864,
          0.21306993373060792,
          0.18649083594353363,
          0.06812204110958912,
          -0.36945213941539035,
          0.32609998489743586,
          -0.05005339659919249,
          -0.29844675452846886,
          -0.09011874318752276,
          0.6288140312079027,
          0.5092571238696683,
          -0.2968427351456994,
          0.2039872789438268,
          0.2795078767265548,
          0.11809692339980578,
          -0.10372621237211585,
          0.39112086280691777,
          0.17850679043346426,
          0.06252978183633852,
          -0.04387868474511559,
          0.07965582649837653,
          0.343769889769642,
          0.42583238047253014
        ],
        [
          0.05899310470856765,
          0.19088078802209782,
          0.008946081072217537,
          0.22090831131823863,
          0.17134461449365204,
          0.10524595072583141,
          0.16005852767192041,
          -0.029476081911834588,
          -0.2249697846508913,
          0.06967876760484161,
          -0.06475967278962333,
          -0.003796560504465351,
          0.253232381145099,
          -0.02732454139966902,
          0.10795526627015661,
          -0.22130270504247154,
          0.07229260812087075,
          -0.18370345845829614,
          -0.2897062607217628,
          0.24476714374792374,
          -0.017524245745185074,
          -0.03244828208825181,
          -0.009447250574236702,
          -0.06317198681580569,
          0.26062574484677786,
          0.09106745066412297,
          0.11089212472465465,
          -0.19329027316891056,
          0.30142467134116563,
          0.4957936933174295,
          -0.1498997093516513,
          -0.04563960980834789,
          -0.09591117177133186,
          0.13984628485095274,
          -0.05670194517480605,
          0.03727501400908085,
          -0.1543252964439816,
          0.02223268422164213,
          0.013377789941659866,
          0.14531724522308723,
          -0.2990965759537925,
          0.32509666819528676,
          0.14707240670144303,
          -0.055177532775920336,
          -0.10091396718845204,
          0.14652921082857837,
          0.19401046328968005,
          -0.06248008041963241,
          -0.1619740801467129,
          -0.004811504147252506,
          0.07075582546935304,
          -0.3136145553674959,
          -0.1470474037353712,
          -0.17841751639101347,
          0.14468722820241878,
          0.2581025809928995,
          0.01791363594498778,
          0.016115033064554998,
          -0.13356214599018526,
          -0.10380841571200651,
          -0.17509209477425075,
          0.2247627054765858,
          0.19882516000712291
        ],
        [
          0.020475282427513668,
          0.035294906883656406,
          0.21133655473440363,
          0.0666764445235466,
          -0.154770206078398,
          -0.08484239879651172,
          -0.13599565841699363,
          0.021398150851217844,
          0.2776983396989002,
          -0.22609461446936135,
          -0.16089089734795362,
          -0.10146225783342894,
          -0.14199381397227356,
          0.033220662859187636,
          0.19674732002681153,
          0.07089251935463438,
          0.05882546732785821,
          -0.18034204057390202,
          -0.19148220382784198,
          -0.013094115725888124,
          -0.058158637319293244,
          -0.25720468570288724,
          0.04218516169607035,
          0.2251247742109297,
          -0.18868182418857762,
          0.06915170072532706,
          -0.029801574090652424,
          -0.14427702085410216,
          0.16367129383364545,
          0.17005359623704733,
          0.15890497949929844,
          0.16970697861914186,
          0.12646970351255998,
          -0.010328344925239642,
          0.12695223622076574,
          -0.13905323769964514,
          -0.0024334942618537817,
          0.21977048017448378,
          -0.1968365579146032,
          -0.002579911199719193,
          -0.2066783451712929,
          0.03213517831630724,
          -0.1909295396221136,
          -0.28322906183358487,
          0.16572953155148804,
          0.004995746299345354,
          0.08846714927985358,
          -0.1687681330902005,
          0.016302483071228908,
          0.29610840126556126,
          -0.16495587086641014,
          -0.019309071202090602,
          -0.11271267464444368,
          -0.12973062265074983,
          0.056546423077716526,
          -0.14231329540367982,
          0.2087007280509521,
          0.07819515321162321,
          0.1530543013529311,
          0.016747292400215857,
          0.10561962891343359,
          -0.10583783341483294,
          0.22856120369933058
        ],
        [
          -0.1202003325236198,
          -0.03070426116411486,
          -0.08212319346730429,
          -0.25167475738765155,
          -0.13480092257944412,
          0.2975463533951576,
          0.15398332544677928,
          0.05992743898491802,
          -0.0786127940201333,
          0.24247598983612978,
          0.34196419809494444,
          0.22413009186726793,
          -0.08962061004737863,
          0.11069319194370174,
          -0.023556185658963138,
          -0.012893938529558386,
          0.23875568765110294,
          0.06271088339018638,
          0.21298346312741212,
          -0.28353914230773297,
          -0.1245903302165808,
          -0.04535969715258044,
          0.2743538204141891,
          0.04737645539693003,
          -0.04976898861935761,
          0.31072050734117707,
          0.061787787723968854,
          0.3060446152074769,
          -0.14241356303325686,
          -0.21112959729231448,
          0.18396122774445028,
          -0.20170954895321408,
          -0.25830740033508715,
          -0.27372115356270915,
          -0.07913423766253345,
          -0.11795586176420998,
          -0.014061811012642296,
          -0.017326279062132726,
          -0.1691797950956748,
          0.21271718897213465,
          0.09906756706442515,
          -0.14153458900893442,
          -0.06249384735291191,
          -0.12357836800067683,
          -0.041773830302065426,
          0.012529694496718898,
          -0.16353774334508636,
          0.07431924123600714,
          0.15566304730621242,
          0.06459169908846003,
          0.21084781176297596,
          -0.27259445734084964,
          -0.07983917099764747,
          0.03736201353909974,
          -0.21496086561880082,
          0.21940567524309237,
          0.1734554771534094,
          0.25284151567821667,
          0.003757051721869447,
          0.16487931913797269,
          -0.29245329033861744,
          0.25781673695132923,
          0.3711519880660899
        ],
        [
          -0.6447026329459535,
          0.08823220862238698,
          0.04131184673325404,
          -0.051140077511818885,
          -0.23444164329313358,
          0.009114234548566752,
          -0.01635684606270652,
          -0.32518097840638166,
          0.08397366644630697,
          0.18229752922675566,
          -0.1307734119009277,
          0.34529164236900933,
          -0.2219187005966601,
          0.09192680941135313,
          0.2645286848032665,
          0.0043569318601491235,
          0.2093878098030066,
          0.2760265461290902,
          -0.06884507564529993,
          0.2138610790571057,
          -0.0954081112786615,
          -0.02676805933702364,
          -0.2178040109332562,
          -0.23765521416915772,
          -0.1600529474528933,
          0.03235297566178891,
          -0.15563849028988244,
          -0.39213057892487885,
          0.3325016885505167,
          -0.2864704428717301,
          -0.2955764817743752,
          -0.10631295449656096,
          0.23528685030167687,
          -0.001958770011326552,
          -0.43303566903124463,
          -0.23643871552819784,
          -0.0450119043369625,
          0.008721176423296154,
          -0.14331964749749304,
          -0.3826543128804128,
          0.25142213099896543,
          -0.2310237039658044,
          -0.13180270157640678,
          -0.0035939856862288017,
          0.23179245707861995,
          -0.047688158841658126,
          -0.024823089799267645,
          0.10444709225607485,
          0.24772761441125896,
          -0.1914590172853322,
          -0.4633640636386978,
          -0.010806570738955872,
          0.4365201331092365,
          -0.009245017260365784,
          -0.3517290762253819,
          -0.13972945463202838,
          0.19106483219006962,
          0.05746655151759378,
          0.03231960628903296,
          -0.030757398162336132,
          -0.22942285786069339,
          -0.5669880059545789,
          -0.07576965888031913
        ],
        [
          0.22513401863783591,
          0.06816348254791287,
          0.2968393450928403,
          -0.26291215642319393,
          -0.08700557783417424,
          -0.08004222525862405,
          0.2365215102344167,
          -0.21058028880242058,
          -0.13690648266601568,
          -0.2104251478658541,
          -0.168411695819715,
          0.09932273256666586,
          -0.15374740722875269,
          -0.0623603827540656,
          -0.1405358475868168,
          0.2734948000563689,
          -0.040166851348621795,
          -0.07338167739430848,
          0.06218411337816936,
          0.07241201734320495,
          -0.3142397972328191,
          0.2772606604787348,
          -0.23100046063464386,
          -0.30835680160937246,
          -0.40036314518673577,
          0.08060883119280565,
          0.2832406923667657,
          -0.03106951322005041,
          -0.2958284053335429,
          -0.15333115164850677,
          -0.1885187753749933,
          -0.17031860419662206,
          0.1831919350250061,
          -0.20002183966839446,
          -0.09312826291882689,
          0.03498785732733833,
          0.04058152163801452,
          0.17820789669315223,
          -0.169707241076631,
          0.20512121246580411,
          0.014935394824866425,
          0.24905864303292694,
          0.10418389448432479,
          -0.31653395005777385,
          -0.13447969770638615,
          0.25153498540094676,
          -0.4110896108783511,
          -0.12019058712834949,
          0.2927867108218768,
          0.26505713478417775,
          -0.0032022729156172833,
          0.004746733530885556,
          -0.14858162021080376,
          -0.1395345520351266,
          -0.01601942756074059,
          -0.18009080650031356,
          -0.09969819291908782,
          -0.11044506782824157,
          0.021820484883342397,
          -0.14069627506154403,
          -0.04450348881323288,
          -0.17637106689605805,
          -0.02860031046334372
        ],
        [
          0.30291385264907084,
          -0.2504690878787635,
          0.1774285069531189,
          0.08806820168257246,
          0.12525496070210926,
          0.4076994036324086,
          -0.012552212684200776,
          0.07713289609890385,
          0.12170947181099329,
          -0.2530683489018621,
          0.13313560391023904,
          0.13667269182433317,
          -0.2935166256398329,
          -0.14055049453904964,
          -0.1394932403655262,
          -0.13463624442514918,
          0.27848988265014396,
          -0.4920829934940112,
          -0.13521125839684275,
          -0.331986807147603,
          0.03030248669395709,
          0.21245425479544947,
          0.048598740091753294,
          0.20240023002962032,
          0.07391941015754079,
          0.3122314799065205,
          0.008816746359678069,
          0.04629524980243272,
          0.035601984527128,
          0.31500841514597,
          -0.05639052768189585,
          0.5179227853341953,
          -0.10256731322577432,
          0.4485978675999046,
          0.15379403896207716,
          0.22226980046529138,
          -0.30379243494288777,
          -0.1068444262386977,
          -0.14953223769332935,
          0.15682311283697112,
          -0.4105719178465602,
          0.5190840683604733,
          0.45959555080373826,
          -0.28116583764295705,
          -0.35736468028239043,
          0.16905698355067206,
          0.16839086367217695,
          -0.2733688836982493,
          -0.10259310689724979,
          0.5580383233493137,
          0.2136253886946079,
          -0.41213148907607766,
          0.21953558726226263,
          -0.08662957620930194,
          0.09523024377554219,
          0.21834507147124246,
          -0.08297630617081146,
          0.38204512678132535,
          0.25484435675724615,
          0.13033245580241032,
          -0.1245648667997777,
          0.19106098883451994,
          0.3578149262108864
        ],
        [
          0.3271870292242022,
          0.1642513023050236,
          0.02866514714754375,
          0.26816235409398814,
          0.19913785142346765,
          0.26338182018391326,
          0.0664768710793708,
          -0.1784645837543775,
          -0.20672939166981757,
          0.04600132309992359,
          -0.24344440578990548,
          -0.3486492285554669,
          0.2142502065309391,
          -0.20185250437229224,
          -0.2448572526868015,
          -0.12787834933073303,
          0.300974652899692,
          0.12752365365853355,
          0.02024080760328042,
          0.2214858637650286,
          -0.2722259540623376,
          0.05004254119935698,
          -0.11493550481071783,
          0.28169356459415096,
          -0.0195165668511163,
          0.14202269102615425,
          -0.2381133797997012,
          0.0944643973684169,
          0.11137794226035848,
          0.26944558752203956,
          -0.2441519915751144,
          0.08257140199952744,
          -0.25452474968775707,
          0.3838421553297121,
          -0.19488380998843347,
          0.0764602844705758,
          -0.06784901923546337,
          -0.08308226567812517,
          0.2659151660567165,
          0.27858357610031714,
          -0.25549101224487153,
          0.41172397278822875,
          0.3512372413935246,
          -0.1064456193320146,
          0.019832241898244743,
          -0.0053063856144186985,
          0.25668719426080816,
          0.13633215211437186,
          -0.26926161713837926,
          0.10597374785976507,
          0.12108345104255919,
          -0.10841732748420774,
          0.2474579567748924,
          -0.055677956689363185,
          -0.11343104034609128,
          -0.07417103969119096,
          0.2729528109262052,
          0.15182064308289922,
          -0.14150107275821233,
          -0.053315192768730264,
          -0.1855549123134191,
          -0.08301874122074535,
          0.1681415757303695
        ],
        [
          -0.05379010373210233,
          -0.02534059068757673,
          -0.2198633714979415,
          0.02986530942659867,
          -0.159095803421655,
          0.08537748721293127,
          -0.12319361898971563,
          -0.09597212349454047,
          -0.10439846764282625,
          -0.205970832395587,
          0.28033426944656553,
          -0.17340566601335414,
          -0.2084827567375006,
          -0.04443646091259851,
          -0.1646023380140614,
          -0.010611361346125194,
          -0.019497793470928542,
          -0.1559690327438085,
          0.0441929785499163,
          -0.11004918872474187,
          0.09238194228659616,
          0.011855168959481162,
          -0.02890076437748636,
          0.16976665267670774,
          -0.22805588670274715,
          -0.07292620616927073,
          -0.12029905957569782,
          0.13532776880256478,
          0.08059587208098606,
          -0.14043037453849141,
          -0.06659336358963736,
          -0.04309066209257367,
          0.2630759911213168,
          -0.3132542403298448,
          0.196206628302809,
          -0.12322131893052038,
          -0.19948930222805783,
          0.17156924913246194,
          -0.15742697234991848,
          -0.018616076827676315,
          -0.04992809377067026,
          0.21415202768061836,
          -0.08716573314957103,
          -0.09885390150255775,
          -0.13853680973624005,
          0.20252773017333942,
          -0.12588945060037762,
          -0.09035609753568026,
          0.030097854595368862,
          -0.007297359259819996,
          -0.11572090779587028,
          -0.07154585981851809,
          -0.1344120824596032,
          0.07735448228379789,
          -0.026596627555967495,
          -0.12256760205357588,
          0.0028877858724200857,
          -0.05855143540202304,
          -0.136524961011761,
          -0.20045030944983297,
          -0.24308694644878487,
          0.23690111246468648,
          -0.17716562863830085
        ],
        [
          0.4171266203575453,
          0.12499026085679237,
          -0.1853769308919429,
          -0.1463769000490869,
          -0.14129489090793498,
          -0.047243926013598794,
          0.166070653811791,
          -0.22487641970388453,
          -0.23940604124008177,
          0.015214524172718081,
          0.20414527743307978,
          0.20031798921848634,
          0.060268314035604335,
          -0.038655603812737145,
          -0.04896109017726724,
          -0.03364267139600682,
          -0.2566703721857757,
          -0.038859572233456534,
          0.0635401141950012,
          -0.09653489907082194,
          0.42231460910988944,
          0.26569154163488634,
          0.20356378542577275,
          -0.12513191181898672,
          -0.2925960047631687,
          0.4047462263386299,
          -0.05046503064313292,
          0.22981828414374622,
          -0.3285034760736413,
          -0.24839938770981285,
          0.2569627632800931,
          0.08941443633960267,
          -0.3467075265929136,
          -0.10057182098740419,
          -0.24101388093622939,
          -0.11417100429287413,
          0.12163369371198667,
          0.02074805186034915,
          -0.1926545890229092,
          0.4133316078296541,
          0.3127328938610854,
          -0.3502146041942459,
          -0.2792595674905406,
          -0.15908735129265325,
          -0.38517812935706874,
          0.2420355660902838,
          0.28246522708538546,
          -0.019655729684136654,
          -0.39436275537796983,
          0.3087079138559431,
          0.10122311085287149,
          0.04955077392562477,
          0.21921000200522345,
          0.22862534334739917,
          0.23328683176580928,
          -0.06664987116181562,
          -0.2906412392141727,
          -0.14505504756349025,
          0.12734374855015773,
          0.18629759139536917,
          -0.03535847333704515,
          0.4440810132484109,
          0.05942322165099248
        ],
        [
          -0.19565505683707424,
          0.346737503861985,
          0.16641310414130456,
          -0.14492788087561295,
          -0.497817929482167,
          -0.15126365445343473,
          -0.06282855185081375,
          0.1929306055848307,
          0.23521555241345365,
          -0.10865289345133448,
          -0.2929571970557994,
          -0.26406378380086953,
          -0.15104742218752207,
          0.08766273110687703,
          0.505217535335081,
          -0.3600264056303233,
          0.14302172999024043,
          0.17502932834685142,
          0.27571857576213576,
          0.45390663545776083,
          -0.5467413003917109,
          -0.06685194724077857,
          -0.29921261552383377,
          -0.30718681909165746,
          -0.013380579454315223,
          -0.04027672011494101,
          -0.18412489125783982,
          -0.4766004977162521,
          -0.15182152246755212,
          0.19151518562276942,
          0.10223877404825334,
          -0.4913743931124355,
          -0.21526869378270944,
          -0.04953243774931485,
          -0.1426853041395386,
          0.08624518637284148,
          -0.45543395612669857,
          -0.20262078792554922,
          -0.2304908300885181,
          -0.4423761671042879,
          0.35471947464401027,
          -0.2514832763018097,
          0.16344266523693282,
          -0.021281020633001007,
          0.35662793244866575,
          0.0298823226535712,
          -0.16006677141879797,
          -0.2140176720593983,
          0.2989751589677272,
          0.07024794041968899,
          -0.00020944525121658196,
          0.23741462868001573,
          0.3146864471927527,
          0.3261111157068846,
          -0.23130214932471257,
          -0.3051292567019938,
          0.016301613356320938,
          0.13215240535040543,
          -0.23498109978469683,
          0.25969453777392504,
          0.0713313703916578,
          -0.04567481921444146,
          -0.11227234337550701
        ],
        [
          -0.092967559660392,
          0.10976586192400205,
          0.14154030538742152,
          0.14150934972857793,
          -0.2837989471239375,
          0.08006803966387996,
          0.33399707462446104,
          0.0435575493867389,
          0.1865578060162316,
          -0.20459195464093535,
          -0.10189811770108106,
          -0.1098908458881241,
          0.17399113631279334,
          -0.006253841153043002,
          0.30056479248949214,
          -0.1465045395331382,
          0.08617986890374563,
          0.2537430964360053,
          -0.09980672319914011,
          0.1337294630497142,
          0.10980747493766325,
          0.07592562044799699,
          -0.17086326299590912,
          -0.14928974440071874,
          -0.29355965389913546,
          0.3367326787593432,
          -0.11941354789112797,
          -0.11307955273046622,
          0.03362565054952099,
          -0.09724999192757493,
          0.24100702972330743,
          -0.0490260337668265,
          0.30142399351907706,
          -0.4450721190181051,
          0.04828224200158564,
          -0.02579550706112761,
          -0.34787713658383473,
          0.1172904412154539,
          -0.24242635090538264,
          0.02381709018029028,
          -0.12248547131458307,
          0.11718495881165339,
          -0.13579267283311755,
          -0.026999258764233355,
          -0.16959390331481058,
          -0.031449611306623236,
          -0.2948840907284365,
          0.06269615058454876,
          0.025482597315150644,
          0.29114698021472457,
          0.21307519176387604,
          0.225346848686044,
          -0.31070381177654144,
          -0.03181582274111606,
          0.07267864860963186,
          0.18877970002720626,
          0.22510056702747297,
          0.28018402203262865,
          -0.03350387148510493,
          0.16835777828483148,
          -0.19872058113809896,
          -0.19263856800893334,
          0.02315432273854903
        ]
      ]
    },
    {
      "activation": 3,
      "biases": [
        0.0758314497033059,
        -0.3822035630313494,
        0.03461937134004717,
        -0.030564538720470845,
        0.19699732833640157,
        -0.1925916068370355,
        -0.22837432771966365,
        0.021788655799085226,
        0.4365497950821334,
        0.05955589304343388,
        0.27222672020892746,
        0.12494817995810525,
        0.09158670052866486,
        -0.246192260018217,
        0.22572802920359852,
        -0.06344795035562724,
        0.6640439827710326,
        -0.08796211490188648,
        0.06033452549466346,
        0.27459030588832584,
        -0.03792155359546335,
        0.01905830238140205,
        -0.18203060817251882,
        -0.04871922017562161,
        -0.14382912174920182,
        0.2821879654205298,
        -0.2173353807490478,
        -0.2810809980480078,
        0.3953944169244628,
        -0.22782240869880502,
        0.2764544338557257,
        -0.30110392030395083,
        -0.5085689928000675,
        -0.2906441831635392,
        0.2867083203259348,
        -0.37791407490002715,
        -0.4469233714515177,
        -0.3409470547303698,
        -0.11566721666543836,
        -0.1332814157883274,
        -0.18252143797607326,
        -0.28991872935934604,
        0.13711594962355764,
        -0.35464252535390145,
        0.14190832492974545,
        0.014282719144014008,
        -0.08246965505952639,
        0.01683840912492998,
        -0.07394846041854708,
        -0.0897760611462423,
        0.06199639757867637,
        0.5554499939097153,
        -0.07166785807156388,
        -0.37419942050803,
        0.0660726655983691,
        0.21711898730090082,
        0.12418609003763721,
        0.07468640902436753,
        0.24691111621958772,
        -0.32929309937083845,
        0.22042551267092264,
        0.12554980799479265,
        0.05284841243333467,
        -0.12442599420771872,
        -0.22510631066267375,
        0.13221915007669027,
        0.07807932542630733,
        -0.24789416648542514,
        0.23877495838597393,
        0.10618320278918944,
        -0.3014289492510845,
        0.17222111364252596,
        -0.4061415184129046,
        0.1518080485513531,
        -0.15568691892199216,
        0.2833613514124661,
        -0.24901077035779226,
        -0.006374811145518503,
        -0.05425364893607115,
        -0.22422145014957362,
        0.2658904151807319,
        0.09340467206435357,
        0.49784462886811265,
        -0.045462531070737555,
        -0.16726219191309782,
        0.12026744687850821,
        -0.29942543173437214,
        0.20119519718331885,
        -0.43375781152366216,
        0.03739808579959293,
        -0.2935306427390402,
        -0.17628359644855648,
        0.17935642176745675,
        0.08244179370875004,
        -0.01322673407881279
      ],
      "cols": 95,
      "rows": 63,
      "weights": [
        [
          0.3284771680640881,
          0.06642811081736574,
          0.17109115888444856,
          -0.13202245286218206,
          -0.13619091219004612,
          -0.014882311797068757,
          -0.2106290369149131,
          0.34029370589230373,
          0.1644250108509589,
          -0.1278880170940973,
          0.04204161358027612,
          0.17789977057975537,
          0.062432688734666786,
          -0.2817131216040454,
          0.12600379813225301,
          0.009565656029419493,
          0.014391539237984429,
          0.15173773901933926,
          -0.48448489492820185,
          0.07998579226664608,
          -0.17362270941046803,
          -0.5678983754779676,
          0.027825847823350163,
          -0.2741903268430593,
          0.045186688887894434,
          -0.1512413652593697,
          -0.11870146701199673,
          -0.1041561355144017,
          0.11362804581150307,
          -0.20359891308773712,
          -0.07384320496838079,
          -0.15488010577280484,
          -0.08931819424763357,
          -0.0993637923549961,
          0.10719060245975366,
          -0.08101104606308042,
          0.008578437101567728,
          -0.11238179269124064,
          -0.13379720671188633,
          -0.06986912225375701,
          0.20441447161532858,
          -0.01223481556149932,
          -0.1039895786645071,
          0.16327208832250678,
          0.18787746867590005,
          -0.07409640546089408,
          -0.002412077761832274,
          -0.20155246694813386,
          0.29653928893965453,
          0.091529456486101,
          0.214946636682478,
          0.21786273941810952,
          0.01731053351177667,
          0.08832214183921047,
          -0.32467943850098613,
          -0.02706972879635506,
          -0.16099522547772546,
          -0.07914072294625196,
          -0.1308128454723932,
          -0.14607888129819405,
          0.2058686115617617,
          0.10608455946679941,
          0.4342005362634898,
          -0.20188865867470496,
          0.1374211189437374,
          -0.050955851645739896,
          0.20771546847519168,
          -0.35741821595655776,
          -0.07141035295628212,
          0.36662434794378357,
          -0.10646994591166016,
          -0.040265468297061575,
          0.052551238343037335,
          0.014892350226798464,
          -0.181006926315903,
          -0.021187015514554854,
          0.1383081055439932,
          0.05835646367075916,
          -0.2035790274173678,
          0.23529797166074484,
          0.19262125528024673,
          -0.2902184613486251,
          0.034601516809248806,
          -0.18144565143602748,
          0.2168150317972264,
          -0.11455574712865271,
          -0.23197732677877153,
          0.1671378535743049,
          0.04005557182408334,
          0.10405650292307285,
          0.1582706812139182,
          0.17438206571763268,
          0.16756004496739443,
          0.041311029478673406,
          0.08894216752609527
        ],
        [
          -0.056197952048330155,
          -0.16563611600499056,
          0.030270204079071907,
          0.07819649077280275,
          -0.05041799675621072,
          -0.1299706989589961,
          0.17484322998103485,
          -0.25572491369304456,
          0.0855712551526283,
          -0.24019520342502063,
          0.09963814293191521,
          -0.06533291887412516,
          -0.004773644505920831,
          0.039371215137295794,
          -0.3179643548841776,
          0.216430950437963,
          0.05573303380751566,
          -0.010091585315282299,
          0.1632393852910346,
          -0.027581017473922893,
          -0.21514384314211937,
          0.20551343464692162,
          0.20276160855796965,
          0.022104896947294873,
          -0.04703662183658975,
          -0.09629178261511681,
          0.09761683015901128,
          -0.10065327233424803,
          -0.14578845993093317,
          0.25137627628686476,
          0.16036768230012405,
          -0.1791485320207237,
          0.01122499159764683,
          -0.1336621514476099,
          0.04044426076904821,
          0.06514175865150036,
          0.10191071841570935,
          -0.1768929083013795,
          -0.05644294030400334,
          0.2708616342701506,
          0.024036934214441273,
          0.15714328333938327,
          -0.17753355682700306,
          -0.16030205911067155,
          -0.014180631631780563,
          0.052027880154704734,
          0.1363461497379767,
          -0.36653721901177977,
          0.03804568386440279,
          0.22810593481095096,
          0.18955690754113919,
          0.006090062429917457,
          -0.32997212840991974,
          0.15045242440953094,
          -0.13212157831622764,
          -0.025581648316133427,
          -0.08112727743962377,
          0.09397458929196259,
          -0.01497962656551865,
          0.07357116278275506,
          0.028696683238195502,
          0.07621411702883434,
          0.11977352201685139,
          -0.1753383270506673,
          -0.08859512296628294,
          0.1887683202511838,
          0.08594182992332722,
          -0.15626830329173838,
          -0.17532549182389054,
          -0.016578208149548586,
          -0.051604244724663656,
          0.003978521269780771,
          0.021963230013480887,
          0.20957919285506932,
          0.10888288281585223,
          -0.12556004560731238,
          -0.043693499805006676,
          0.11566860742566727,
          0.1665430402614064,
          0.0646621614887102,
          0.1747233881304517,
          0.002268610607234974,
          -0.028371155098661,
          -0.25297247744774976,
          -0.12738748146591017,
          0.33865798622071613,
          -0.024915118469335636,
          0.09049897640351098,
          0.11875814307525637,
          -0.027081120337801325,
          0.08373676384526238,
          0.03223459413257267,
          -0.3790853302767942,
          -0.2834907241230011,
          0.17175707767636045
        ],
        [
          0.04228463402771775,
          -0.06911459000482491,
          -0.08272060398323217,
          -0.11143933723983507,
          -0.10851987832249024,
          0.10979326370291148,
          0.17464773325974753,
          -0.20578415145690607,
          -0.2000749766788913,
          -0.23789955855553538,
          0.19585083311011445,
          -0.08681020890345807,
          -0.17133419820481408,
          0.09941939787441555,
          -0.1749320267710006,
          -0.10927942463114942,
          0.13392954481906158,
          -0.0579919199338939,
          -0.2236871679162662,
          -0.22451661105094545,
          -0.19519052058074218,
          -0.09541210434069834,
          -0.14907740598886762,
          0.030119460229783207,
          -0.15511579198081302,
          0.03516626461451454,
          -0.20158151672818292,
          -0.09687449212672686,
          0.05571082304482282,
          0.13489680430905499,
          0.012793634838751596,
          0.004203367949443234,
          0.1391923215620614,
          -0.1488346975093593,
          -0.06164247712265163,
          0.00391878616692823,
          -0.11198635173248968,
          0.15433923281538303,
          -0.0395812361290671,
          0.15933896320597102,
          0.036915409396437476,
          -0.08466856339440058,
          0.18046494543509045,
          -0.19049761892706102,
          -0.02644708752736285,
          -0.15037369414323312,
          0.09543834505174031,
          0.20443677391934112,
          -0.1706720160348139,
          -0.07759369642953756,
          0.18720049981628945,
          -0.1580227134945009,
          -0.020720607593465425,
          0.022092291844937842,
          0.18814832451997263,
          0.04643313339528339,
          -0.21270036401677697,
          -0.08226944618422435,
          0.11756334902192518,
          0.15594261752556848,
          -0.017294484980609686,
          -0.17431901342256853,
          0.02201812773721889,
          0.1251940976097233,
          0.15199324152772647,
          0.017784797615782392,
          0.06308908059476695,
          -0.024070751620360945,
          0.05241515476364127,
          0.011106924435248553,
          -0.09360897779663042,
          -0.10140562893059095,
          -0.18007024437378116,
          0.2763876605967828,
          0.014730484254787709,
          -0.14385784668244317,
          -0.16537962927254266,
          0.13072216858183094,
          0.21750758300619905,
          -0.21380350598660797,
          -0.13437444501873688,
          0.05184012816677471,
          -0.020958193756835566,
          -0.1489357015365472,
          0.06980553906770626,
          0.049325892491898296,
          -0.05455871712489264,
          0.11455108815978185,
          -0.13864361682881582,
          -0.15634595979406068,
          -0.1911696931322604,
          0.07094015180676465,
          -0.1286416352853904,
          -0.0792305323349338,
          -0.04762820308589198
        ],
        [
          -0.09882535657111924,
          -0.1331864261946828,
          -0.011650304287389064,
          0.16350112346558562,
          0.07042774437253137,
          0.12916372383835115,
          -0.0168827010029232,
          -0.0670772314541111,
          0.13889218068724005,
          0.12754803430068212,
          -0.1098114362649151,
          0.10420220683564903,
          0.16910395751053484,
          -0.006195409345942424,
          0.24617912169520287,
          0.0212664532266041,
          0.33479645993085416,
          -0.1055628124811403,
          0.11906557187719416,
          0.1987712656848573,
          0.0327150929339212,
          -0.28259855753461083,
          -0.1799364341030513,
          -0.16387412875080487,
          -0.22579787812722416,
          0.23801949188721475,
          -0.25815516782386055,
          -0.08478730716028016,
          0.11175491007262293,
          -0.1768484719557782,
          0.05707091389229019,
          -0.23232623969185862,
          -0.30871994687032767,
          -0.2218691572734721,
          -0.08031963545012293,
          -0.3244166224063298,
          -0.1393689975758126,
          -0.0984607340228738,
          -0.20355535094815733,
          -0.13668602327757348,
          -0.05426871796914053,
          -0.21305208375420884,
          -0.06995710348612266,
          -0.034421803730901424,
          0.020458442848534163,
          -0.08130752526399165,
          -0.05353959664419632,
          0.022226061783833375,
          -0.01521984595208435,
          -0.1513571147087547,
          0.26866669006285376,
          0.2602038303992013,
          -0.08062983659078847,
          0.09019643648003756,
          0.03814028823243777,
          0.08353397996497984,
          0.024759948701385884,
          0.08819214866887418,
          0.1832519181076878,
          -0.32020766754400143,
          0.22216888688938194,
          0.032640970062117025,
          0.17581495699510644,
          -0.20778449711128913,
          0.08225816130452218,
          0.07924182686611046,
          0.084621496154728,
          -0.061264088442159206,
          0.18463012128496334,
          0.14358847571529995,
          0.03920732102685858,
          -0.02185822269283125,
          -0.31702319380167826,
          0.1479228013427146,
          -0.04357979269702407,
          0.21261567681812968,
          0.09001483362420817,
          -0.05310451322022765,
          -0.07187475289800781,
          0.19723055345597204,
          0.21915038439404677,
          -0.10521272952748766,
          0.21149288300268934,
          -0.22757122664683957,
          -0.1930812418141072,
          0.10272005588542554,
          -0.11992093924756556,
          -0.10817783965869682,
          -0.10299207916313675,
          0.14469526779129652,
          -0.16630355817182482,
          0.02869450182291393,
          -0.1309917160455658,
          -0.14334202415570074,
          0.014980397381664042
        ],
        [
          0.290677457795129,
          -0.13969171368533037,
          0.26597204244087963,
          -0.16750566122409505,
          0.05272841587008711,
          0.11563008894266251,
          -0.24497215598840638,
          0.4179637694097108,
          0.2145357936818787,
          0.38085322033534635,
          0.0052932931222618995,
          -0.0027654102884209514,
          -0.04418197254319322,
          0.16036166960617207,
          0.13327098702374812,
          0.09272648435416894,
          0.004155073996261505,
          -0.3568361465678304,
          -0.11974980796203252,
          -0.01694621164343859,
          0.0422746285988764,
          -0.39712791535136766,
          -0.1836071440146832,
          -0.11146930176195205,
          0.018460048001099908,
          0.22386695539408016,
          0.16434459937035228,
          -0.04253018870653789,
          0.1791874355668481,
          0.10941592837598814,
          -0.17483894157775182,
          0.003210597774928544,
          0.003141328927862005,
          0.0017443640256578595,
          0.2727007307796816,
          -0.15251911896950993,
          0.12454865438798243,
          -0.02503620557217878,
          -0.21193008507274927,
          -0.02113594168718674,
          0.07668473864708629,
          -0.2171980487946757,
          0.09225603725728448,
          -0.1966348706041,
          -0.05839511462547538,
          -0.11999744928387829,
          -0.24667402800545732,
          0.0021211694292337844,
          0.46281512968766936,
          0.05220529645078527,
          -0.15731824969620953,
          -0.05690998091856339,
          0.31530087594608996,
          0.26489039809616055,
          0.1921028118131947,
          0.17061308012888465,
          0.008118712604665903,
          0.10266583927357815,
          -0.02485216750772208,
          -0.22277216230825184,
          0.2257624431992391,
          0.1890189462822013,
          -0.12281352135664124,
          -0.1595077476145949,
          0.02238249756819072,
          -0.025332855910904884,
          0.011972191906370545,
          -0.03761713108663928,
          0.0870762336908342,
          0.18583097626057496,
          -0.11572811676794625,
          0.025052476518141725,
          -0.14884342215766716,
          0.05885558367902619,
          -0.13343387716168553,
          0.14067337724972748,
          -0.03267951272058803,
          0.16260631268463518,
          0.13615179414697146,
          0.2388531006537108,
          0.0057302462524664675,
          -0.26335601451921636,
          0.00832808000080875,
          -0.16087054486367228,
          0.015331093156515457,
          -0.07808730196037957,
          -0.09418384366231405,
          0.07676263828785014,
          -0.08437607129858853,
          0.0197106541530137,
          -0.1209913460106935,
          -0.05701422336807393,
          0.41729831297240616,
          0.1677110323269298,
          0.13053990027447013
        ],
        [
          -0.033235357730701215,
          -0.12797017947452394,
          0.24649112726656738,
          -0.0348888875100027,
          -0.17404558376844423,
          -0.010965474443182448,
          0.09322626832431383,
          0.10204143133826278,
          -0.09296620066553521,
          -0.217460717290008,
          0.054324973790427014,
          -0.33070706209067446,
          0.13400914097532218,
          -0.016243665698267937,
          0.05930849353924666,
          0.10643485992694734,
          0.04932111433730828,
          -0.06651598814301943,
          -0.31511583278261646,
          0.06825548713689907,
          -0.24501051772583254,
          -0.16888933539607676,
          0.09271988384184263,
          -0.2384001377740784,
          -0.006300540185552309,
          -0.17203668355293739,
          -0.15662073945461183,
          -0.12312088830613399,
          0.06873026739001585,
          0.10660824129270911,
          -0.18552901486845816,
          -0.07400808460331425,
          -0.013638396358044974,
          0.06279769941843774,
          -0.22372309954303224,
          0.14936642221095395,
          0.0925514283547333,
          0.18320661199148444,
          0.12292224118906328,
          0.08005960171892766,
          0.25336627630116887,
          0.18286488825418779,
          -0.033518757519133885,
          -0.029568770307625666,
          -0.11306397509673588,
          -0.046107273106014646,
          0.058869740089974934,
          -0.1965029898007836,
          -0.07049792718272949,
          0.202188223427366,
          0.1057309787736406,
          0.05449103967798104,
          -0.20135370023788493,
          0.19893547189926178,
          -0.06710486721663346,
          0.020608072808467003,
          -0.2724602125255532,
          0.13507873359256528,
          -0.22972701925080946,
          -0.10856458283265868,
          -0.08280051301118284,
          0.08039920965093404,
          0.4141620214989218,
          0.05220016116868915,
          0.07185113854709058,
          0.09780267582091212,
          -0.08224042512146436,
          -0.22374159776184346,
          0.06668156287389283,
          0.1478037337145884,
          0.008884146289338602,
          -0.04793467503964157,
          -0.13250313686529358,
          -0.15777636381136956,
          -0.1141858813763191,
          -0.07564882480269258,
          0.018182900153900224,
          0.07565851845741782,
          0.0586432792916629,
          -0.0634222550436615,
          -0.0231943539179863,
          -0.042114258033330465,
          -0.11964193805299904,
          -0.1305861620844727,
          0.2105048213720207,
          0.1542852653456768,
          0.14681762175453172,
          0.17672430802172018,
          -0.16292824614898466,
          -0.12825198834717033,
          0.1104580935421415,
          0.12320197986136715,
          0.09276545330823897,
          0.06877811731754258,
          0.06693743959915652
        ],
        [
          0.01843166543300743,
          0.1464489558727404,
          0.23528326694250043,
          -0.03504346639066009,
          0.07419468083416085,
          0.18162209122629525,
          0.08413857379528265,
          -0.28030782361177864,
          -0.2568054500236667,
          0.08403420498135268,
          -0.18255065219387587,
          0.049575545406789295,
          0.10718805441466067,
          0.017291463431309773,
          -0.17570194636830078,
          -0.08944174190262334,
          -0.03651021545452916,
          0.12790382979508816,
          -0.1883461685948892,
          -0.2536145466861992,
          0.15894764626463667,
          0.17159667911007043,
          0.24340554023882893,
          -0.03605189868892326,
          0.1900339969853094,
          0.03974852553875561,
          -0.08016309671081223,
          0.03404767191647558,
          -0.23658816421788628,
          0.23881467675072493,
          -0.16613777915878428,
          0.1828996769292064,
          0.2784095584127023,
          -0.07440368379328648,
          -0.2620074882192926,
          0.2815195298139096,
          0.26634731914275966,
          0.016835544899518076,
          0.05227639195272539,
          0.11087657630259037,
          0.12163720366421764,
          -0.022265284645919772,
          -0.038100316252933655,
          -0.11071257117635924,
          -0.05109951362222597,
          -0.13513768249677444,
          0.14310903065052802,
          0.006508468871340242,
          -0.15204014760885778,
          0.19609427968439894,
          -0.15605389167303935,
          -0.01842665185024203,
          0.13106711304922383,
          -0.14247903322390582,
          0.09805216432633009,
          -0.19383349046070672,
          0.04984235660273316,
          -0.041534755850252326,
          -0.16419235227320814,
          -0.01042856557761057,
          0.1252645560908614,
          0.1325027372765383,
          0.08025117131416251,
          0.09650111387988493,
          0.10280100344724623,
          0.09293055669573726,
          -0.015618049574382249,
          -0.09047504336260946,
          -0.21121014879181366,
          -0.10100808738122359,
          0.17047975791723638,
          -0.07460366699952961,
          0.2015816096000438,
          -0.1574384741310644,
          0.17046311806008052,
          -0.2223754499956911,
          -0.08923097984012206,
          0.18563401027987209,
          -0.06946198198893226,
          -0.07205300612822503,
          -0.05387975256763411,
          0.1220066995909933,
          -0.29212813529091813,
          -0.16003593737529082,
          0.08796834458646972,
          0.08420266031423933,
          0.16964124834663288,
          -0.12383269128432282,
          0.23432730521981843,
          -0.08726969632302471,
          -0.05923588007035268,
          -0.035718833840896885,
          0.06172074744267681,
          -0.0057801062944882456,
          -0.19870827050226028
        ],
        [
          -0.2454305021498672,
          0.1035841014507341,
          -0.0902942503584295,
          -0.2736497537830535,
          -0.023367654682568413,
          0.09712760389117868,
          0.12193542261628398,
          -0.103566817919495,
          -0.07679344064363909,
          -0.045678026143594216,
          0.09636704310696625,
          -0.2123547958630587,
          0.04678079006910767,
          -0.07549541566593777,
          0.0325193087411283,
          -0.21548287244822525,
          -0.029425518184507383,
          0.31853787147594004,
          0.1490712600659743,
          -0.10791292626042466,
          0.1406265251124921,
          -0.2212050068333535,
          0.19063470002204097,
          -0.14815374015949076,
          -0.19772861115811502,
          -0.1107880035804906,
          0.16813699796571407,
          -0.11125281821878066,
          -0.02913767687434361,
          0.21710466889126073,
          -0.021864640927536767,
          -0.06672217668735601,
          -0.001043107179985,
          -0.092326198110531,
          0.11519846827566406,
          0.0426800235162617,
          -0.0892033142018905,
          -0.021442257932351914,
          0.1348445683126365,
          0.03028029760522788,
          0.17752289761767584,
          0.09747454714181732,
          -0.008834468582194811,
          0.17134008593192585,
          0.008604730251576785,
          0.15666982287166234,
          0.021335862067802917,
          -0.006608881568631962,
          0.07368208766894468,
          0.06793956728060667,
          -0.15735115037111919,
          -0.2473154799250059,
          -0.1999264794756369,
          0.1423216061147477,
          0.10361686852058505,
          0.1490877458563133,
          -0.19951777981490676,
          0.03436439887730003,
          -0.1146088912269987,
          0.13093629008938737,
          0.05215899492123477,
          0.09324835920886267,
          -0.08317589159541364,
          -0.08247592472615704,
          -0.17543059009705733,
          0.1493369715386205,
          -0.09762071895291086,
          -0.150948674890623,
          -0.06360965361491999,
          0.17075584964757104,
          0.1697529141485011,
          -0.11809316612990771,
          0.10769558672336026,
          0.10249034743009376,
          0.038879937461787195,
          0.024559401540865864,
          -0.19620058427023776,
          -0.07570871717242914,
          -0.03973890486475091,
          0.12575607461061716,
          -0.06101701116478257,
          0.09859818946617405,
          -0.043974820118194285,
          -0.062131326424866525,
          0.14266780525325856,
          0.09875141498535019,
          0.04548824232988227,
          0.12196149302852898,
          -0.08865570772244223,
          0.1451632634228562,
          0.046008662028261364,
          -0.07264534424087957,
          0.11894870558454555,
          -0.10044034344682062,
          -0.18133540191261635
        ],
        [
          0.29120944891784856,
          0.19862563815220716,
          0.12307586285256371,
          -0.09018709252964105,
          -0.18592671650979084,
          0.13442255193213393,
          -0.02941455089863739,
          0.0030661190324042277,
          0.01845558056194442,
          -0.07064147773738241,
          0.00524892819454825,
          0.06264958177381903,
          0.05470559260247085,
          0.21076799446503755,
          -0.19335633875763586,
          -0.05452348430389154,
          -0.1514865341814964,
          0.015088040004031059,
          -8.414313019914881e-05,
          -0.16768217795364,
          0.02745214258812927,
          0.07623042413080962,
          -0.15742715028131735,
          -0.08523788931414215,
          -0.14619340443345796,
          0.05970600077642382,
          -0.04287780558685308,
          0.1915938367917035,
          -0.19237891603294424,
          0.07460877609830939,
          0.04329104035948569,
          -0.08245434250165637,
          0.16824166426498344,
          -0.11487862493557079,
          -0.10039164112265979,
          -0.06531023119846259,
          -0.13846546350300842,
          0.04870699690870174,
          0.14165064857884813,
          0.021004914419850695,
          0.06124578941504504,
          -0.13371143822087464,
          0.2290742631756493,
          -0.1132516705500164,
          0.053108334787413516,
          0.04932716569910608,
          0.10798155207422751,
          0.06476168666995485,
          -0.12135435797401985,
          -0.10744471353667825,
          0.07979605512378739,
          0.08858186419586449,
          -0.08834770814412536,
          0.19002229511574256,
          -0.24618670038257612,
          -0.06824103445019135,
          -0.03798059701311229,
          0.02902212367890856,
          -0.005983786515599728,
          0.10458675962545826,
          -0.026467123685271227,
          -0.12754831815840684,
          0.07496753003166706,
          0.05060219757503004,
          0.22500250511656766,
          -0.033857513931405535,
          0.23988123304472111,
          0.18410612962912035,
          0.051304602635335754,
          -0.18496033320657915,
          -0.020843326947565854,
          0.05699981296858371,
          0.10287106667595988,
          0.01945280558584573,
          -0.17592083867947977,
          0.22572737821974967,
          -0.149479980057076,
          0.14882770887320995,
          -0.25309020710499003,
          0.143888804211931,
          0.16121393377197313,
          -0.06873570955102123,
          -0.20202715963775195,
          -0.06472783990871783,
          -0.05782040371563308,
          0.07266337831639959,
          -0.07148027887696075,
          0.060355927846298923,
          -0.15966881202576,
          0.11159954783182564,
          0.06697075684183612,
          -0.08850130415085058,
          -0.022757758132002662,
          -0.031223036246760018,
          0.20898546881564295
        ],
        [
          -0.1384486150781605,
          -0.23625205881026118,
          -0.0460666340824876,
          0.2532844650247987,
          0.10487489157413425,
          0.020614803805901378,
          -0.18207301820659588,
          -0.06389094348823371,
          0.02064581478802906,
          0.026245418970953175,
          -0.14087162409962167,
          0.14304324222976494,
          0.22129708671003015,
          -0.03176623971013026,
          -0.09058871548641415,
          -0.05721424699770288,
          0.2004107076592567,
          0.040877987236220714,
          -0.10116949823093645,
          -0.09631322178033448,
          -0.14843108802471383,
          0.019178412089893026,
          0.0858051626169469,
          -0.158011742785282,
          -0.20547168431350987,
          0.22430399304249363,
          -0.2208151649523832,
          -0.24522383623529226,
          0.1228060234731951,
          0.0287326270751047,
          0.13805164595022992,
          -0.2776522165583082,
          -0.1259145051456061,
          0.011275163853236405,
          0.13344729002093114,
          -0.24768887503077028,
          -0.04698272923278809,
          -0.27433471446002733,
          -0.11256091565633634,
          -0.06302834861832439,
          -0.20986444273789953,
          -0.2535983533715002,
          0.07758513507341082,
          0.11878630644809884,
          -0.07836296419246075,
          0.014437706895784247,
          0.11151538359219217,
          -0.00979245601889736,
          0.0074678922290544875,
          0.003061700746628464,
          0.04278244194122061,
          0.2660851640140186,
          0.12242478776257763,
          -0.017038087659929955,
          -0.12564083297552547,
          0.23320083627377375,
          -0.041441670162683845,
          -0.1996751200543126,
          0.10724442089688165,
          -0.0772782505975986,
          0.22251545018219107,
          -0.1653847943457835,
          -0.0077053599483443294,
          -0.12425310227664702,
          -0.11254785030523287,
          0.009076343558588268,
          0.09622095477651658,
          -0.08439201959344883,
          -0.021055956376900966,
          0.03328148058778276,
          -0.30165004903632064,
          0.15577884980310794,
          -0.026975477660191646,
          -0.06374987388735841,
          -0.032041858540044044,
          0.05839994823115606,
          -0.26649524231359933,
          0.050515112294239564,
          -0.11872798674463718,
          -0.017839006908905018,
          0.1307554896784757,
          -0.12158465912450352,
          0.26251402792231604,
          0.1720335854511889,
          -0.18342259420755183,
          0.31462244770489106,
          -0.2857452181172064,
          0.23241546688001816,
          -0.22113949416839312,
          -0.09361473183295348,
          -0.11190252743520147,
          -0.13856535881957371,
          -0.007899834871829553,
          0.06692987564512191,
          0.18225961220955522
        ],
        [
          0.18320125772996868,
          -0.007194920594400659,
          -0.03480535266513289,
          0.30753627311365284,
          -0.06471772666490189,
          -0.312635634966684,
          0.0858338846638782,
          -0.17988247170958147,
          -0.08202872496527619,
          -0.24540621904993268,
          -0.06005356462679497,
          0.15659644966714165,
          -0.04486963063469559,
          0.045526088288693395,
          -0.06811112825518886,
          0.14107959961319805,
          -0.18906135630523943,
          0.23166166142795677,
          0.12951528215977423,
          -0.050694161358778037,
          -0.25872266126683446,
          -0.025690962978189708,
          -0.1343389397900108,
          -0.23666430573833483,
          -0.06356948585420664,
          -0.1814029714346893,
          0.06857586665820156,
          0.16563087217134628,
          -0.0297355925656063,
          -0.01880046108336844,
          0.17009080253126538,
          -0.013421576018669749,
          -0.13946163646907586,
          -0.09724851877187149,
          -0.19073995704422086,
          -0.005370487445296095,
          0.2101750293492682,
          -0.07939485559998097,
          0.14547376334906836,
          0.26211464736871626,
          0.06419128257655944,
          -0.08896685553240909,
          0.034144422716200905,
          0.12933308730381438,
          -0.0035088203710771154,
          -0.2103907221469181,
          -0.21759454738842865,
          -0.295928020025177,
          0.1484694032211576,
          -0.1424455546186543,
          -0.0673813577225864,
          -0.18976098872628866,
          -0.21051909200771055,
          0.008335166197263625,
          -0.5193642048312908,
          0.03666541790085957,
          -0.08355173309400127,
          0.11822622853198023,
          -0.14915709821861123,
          -0.11733696817048357,
          0.09901331025287088,
          -0.03475202219184902,
          0.0738464127410521,
          0.13617151701487018,
          0.275419013020878,
          0.14053559059801485,
          0.21298822358840022,
          -0.1562356910800057,
          -0.2617011252257492,
          0.14166978495292631,
          -0.012761448981388113,
          -0.09981802371466766,
          -0.0700660503955562,
          -0.3423657652602589,
          0.1988845740375991,
          0.17529240606494825,
          0.22260268941184277,
          0.07987549698315942,
          -0.13376231965367122,
          -0.02784776910674166,
          -0.06139626700577311,
          -0.03591190412472978,
          0.048122093678988245,
          -0.05276625757375757,
          0.035808115468250044,
          0.28002084231669855,
          0.10143749668562257,
          0.12473371224909542,
          0.025839922444810336,
          0.10607483079080474,
          0.18041226085965223,
          -0.104882209462395,
          -0.2633466991141097,
          -0.25498667644855694,
          0.18454322489579641
        ],
        [
          -0.12970028922244767,
          0.09438013281413116,
          -0.007522185616651333,
          0.05749549636178543,
          -0.08062869941082633,
          0.017786490834886794,
          0.11834150791182046,
          -0.07711718816508165,
          -0.14120621095548877,
          0.1061260584494621,
          0.1456955503788141,
          0.2018765642386248,
          -0.2696242428457685,
          -0.10915971950960414,
          0.26827920208529504,
          0.09877030647234128,
          0.11580050191743546,
          -0.06686375605447908,
          0.2994859798914399,
          0.17446873624471604,
          0.1390288777314027,
          0.21147003143763365,
          -0.021781946232804324,
          0.22565684631000876,
          0.20600368394760882,
          -0.06102042643844569,
          0.061248815179456795,
          -0.1316324242100899,
          -0.0323660333401943,
          0.051999921733915856,
          0.14165957612209223,
          -0.1960431329561897,
          -0.00893708865987058,
          -0.050608777214329506,
          0.21347632114311021,
          0.14356958985293528,
          -0.011103452635519435,
          0.07298215740644566,
          -0.23969639898956532,
          -0.10346589190122572,
          -0.11157509440655707,
          -0.2230089225249423,
          0.1819405984174878,
          0.04974780784180415,
          0.20792850165236101,
          -0.09700978792656131,
          0.18150153319891027,
          0.05712558164188209,
          -0.16604252150879825,
          -0.02098854803205803,
          -0.32800816936859467,
          0.10887835804080703,
          0.08829024788839758,
          -0.12616127092378715,
          0.1947583802157522,
          -0.11458929890298335,
          0.23972177847589626,
          0.1824379546620033,
          0.12358654478269894,
          -0.13920062936446967,
          -0.07262695533419664,
          0.1725401658079452,
          -0.16309543368489363,
          0.00838103794801489,
          0.09200131399921971,
          -0.04160502462318118,
          -0.14918592952013857,
          0.24931048452217439,
          0.1495402355519924,
          0.20609908677612204,
          -0.16079759155443815,
          0.22284153733159084,
