{
  "layers": [
    {
      "activation": 1,
      "biases": [
        1.0885444554279544,
        -0.05272858946077438,
        -0.8114299523657645,
        0.8290567959418366,
        2.8386903486610895,
        -2.985827613922205,
        1.6224286491336228,
        -1.309299203776282
      ],
      "cols": 8,
      "rows": 10,
      "weights": [
        [
          -8.240610738581118,
          -1.3348410386900975,
          1.4004028994196804,
          0.8408018638977385,
          -1.0035227953330628,
          0.00438210395353979,
          -6.751772041311338,
          -1.6753184671083405
        ],
        [
          2.396195665447489,
          0.2895006855002894,
          -4.603728689009545,
          -3.8188231692452086,
          2.849771442809145,
          4.117356046765523,
          -2.3134996818736107,
          -2.6415579289176065
        ],
        [
          1.3708985611280449,
          0.62238241636806,
          -0.7960264773394456,
          0.30580051084561755,
          -2.9460990440329624,
          0.7121606926030766,
          -0.6335486626765632,
          2.838686736938192
        ],
        [
          0.5756018954581605,
          2.9036782114210666,
          -2.986807281688307,
          1.3023838397822405,
          0.3195004146818962,
          -0.7848853239400959,
          -0.5879160459080213,
          0.7518353906632802
        ],
        [
          0.5157977087739181,
          -1.5929497220022135,
          1.382113850368916,
          0.31585786234507846,
          3.87669540896012,
          0.43154890836638904,
          -0.7699159436160099,
          -2.7635855759856836
        ],
        [
          -2.0264548877023385,
          2.733806393693614,
          -1.696650283354053,
          -1.309410864152315,
          -3.3864129091105797,
          0.630591034784011,
          -4.561241784853819,
          2.828714092985696
        ],
        [
          6.833238139409317,
          -0.7978343730059267,
          6.612665418261119,
          -2.3182815573058027,
          -2.891327023233039,
          2.809954527559102,
          -2.366995771498257,
          0.1105241671608368
        ],
        [
          -0.2619732849710393,
          -2.4127242447115913,
          6.615013779860716,
          3.762168070391909,
          -0.41575663359167614,
          -0.17761880932162014,
          -1.062610231835682,
          0.8324633918041908
        ],
        [
          0.9886731283270003,
          0.31581084985836927,
          -1.4354327928642643,
          1.392979075910639,
          4.0576028116836484,
          0.46437098286423545,
          0.18771295158238244,
          -2.8363462367626764
        ],
        [
          0.4698160507732244,
          -1.1523691766938253,
          0.5011737396431121,
          0.27059839551944675,
          1.6319874254395073,
          -0.1047129457588789,
          0.2596018091449018,
          -1.0049645007367853
        ]
      ]
    },
    {
      "activation": 1,
      "biases": [
        1.683527428048959,
        -0.4050955352050898,
        0.3829828397427797,
        0.40908361660671627,
        0.48317127889152484,
        1.8921747334313024,
        -0.05747192175866715
      ],
      "cols": 7,
      "rows": 8,
      "weights": [
        [
          -1.158078735298143,
          -1.2727901490743867,
          0.15695919581068543,
          -0.6130916647968707,
          6.2455693466326565,
          -5.399177928018079,
          -4.444922244243039
        ],
        [
          1.5682973045810844,
          -2.530127774477335,
          -0.6254550781796439,
          1.732855599046995,
          3.448877850073103,
          1.262457805304765,
          -3.0740560765064244
        ],
        [
          -4.783764256052176,
          -0.22039372660135004,
          -2.0975818041605985,
          0.08564842796628062,
          -6.384074156757367,
          1.8922702358677828,
          5.574553827873375
        ],
        [
          3.487814075409268,
          0.03861392297230835,
          -1.9164669614694354,
          0.7161317021776312,
          -4.754858872085178,
          1.3909450948737097,
          2.1392649896120095
        ],
        [
          3.167601309468074,
          3.3625597973023313,
          1.2974738276592834,
          -0.7638797149712854,
          -3.200739292834865,
          -4.885489430609777,
          -3.796680111948183
        ],
        [
          -5.2053475868282035,
          2.066325818776507,
          3.3083417852991066,
          1.3514650616962158,
          1.0141949995465764,
          0.6041504977939122,
          -0.905651717441469
        ],
        [
          3.9416786862663584,
          -2.672075641094119,
          2.3307807120642448,
          -4.4899985892448635,
          1.7973140185090533,
          5.449875256461849,
          -1.8738516734092228
        ],
        [
          -0.025066932575445608,
          -4.0828770336689955,
          -1.60239063817642,
          1.1006931331254224,
          2.223503522370691,
          3.8838102399508436,
          2.741834174341906
        ]
      ]
    },
    {
      "activation": 1,
      "biases": [
        2.336089009391271,
        0.26395202708046683,
        -0.34514984709164437,
        0.9170920823701313,
        1.1006985158599696,
        -0.998955342143252
      ],
      "cols": 6,
      "rows": 7,
      "weights": [
        [
          0.8982636027353187,
          -4.50496989786531,
          -4.69266603302375,
          -5.1006890020058195,
          -0.1650981249651864,
          -1.4105419546321387
        ],
        [
          1.9826748495279654,
          -1.8571220030904194,
          0.6137790462551025,
          5.79700331385134,
          -1.4672433086612409,
          2.167909676313315
        ],
        [
          0.6453306860927039,
          -2.9490289879468716,
          1.7829980628399806,
          -0.24215102414759707,
          -0.04305647614011166,
          -4.259504228519696
        ],
        [
          1.0349920863425675,
          2.9987274677107623,
          2.024293347695702,
          1.8900968437183205,
          4.934153434118892,
          2.884631905364356
        ],
        [
          0.6103191491100414,
          -7.106330558810785,
          -6.832333735214107,
          -1.9413351984086051,
          0.02886941823463266,
          -0.3058984913748172
        ],
        [
          1.6005905713750512,
          -0.011242674117480733,
          4.434786034114416,
          -4.935471726175407,
          -6.493194051080066,
          1.8463747336322387
        ],
        [
          0.3616691658063586,
          7.60486574126698,
          -1.9359202082536735,
          3.0444050462379435,
          -1.8539794962542309,
          -1.356887744079052
        ]
      ]
    }
  ]
}
