{
  "layers": [
    {
      "activation": 1,
      "biases": [
        0.4272024483047183,
        0.4647122089111031,
        -1.2056196461634807,
        0.5760762936931,
        0.12913698144007213,
        -0.1990777071107383,
        0.06059585524599862,
        0.026415655669869347,
        0.45283953511226743,
        0.05571691673712539,
        -0.10195105362728682,
        -0.4083264454149319,
        0.0844536313928932,
        -0.46076246034949636,
        -0.1085407186374399,
        0.4176848135786481,
        -0.4891609767305472,
        0.14611601555583079,
        0.22879007253280723,
        0.36167039242868404,
        0.07496807563364864,
        0.3361925335494397,
        -0.9961634177784868,
        -0.25874398226574885,
        -0.030713357313566874,
        -0.23032747239641724
      ],
      "cols": 26,
      "rows": 30,
      "weights": [
        [
          -1.5490695488495536,
          -0.21546307801577738,
          -1.508279748525308,
          0.2538560416725388,
          0.20763698887513934,
          0.19507920926256692,
          1.4037148972782665,
          -0.42516103533894534,
          -1.4908115211615416,
          -0.26386858202369745,
          -1.1043744987314268,
          0.1787705235254206,
          0.025010804546120063,
          -0.4986103207405374,
          -0.17648634793204585,
          1.362414597544034,
          0.39727925544599496,
          1.7122617979114998,
          -0.9344047722185654,
          1.7029567527503886,
          -0.1161900300792227,
          -1.2665860732190712,
          -0.13584060555289673,
          0.9891965845762637,
          -0.03939416885731956,
          0.7244523153799572
        ],
        [
          -0.21742871726268795,
          -0.35523379147375317,
          1.0504513260030601,
          -0.30544644259726567,
          -0.3563081154197387,
          -0.06215870056225661,
          -0.48845372810407256,
          0.24648178433176565,
          -0.4703293812035398,
          -0.048443540347015,
          0.060822904597852834,
          0.8110763964510728,
          -0.2096990131242177,
          0.7379905554620367,
          0.36404859566532594,
          -0.46212864791811337,
          1.0244202284047172,
          -1.1629391000033427,
          -0.08271294507244792,
          -0.4213805563474042,
          -0.26321080374511013,
          -0.9218540101835787,
          1.0621744262955175,
          0.7796223264992517,
          0.23707126868337844,
          0.11660878601229831
        ],
        [
          0.008669877649637987,
          -0.15550261730409495,
          0.5607520034554243,
          -0.5295005750906179,
          -0.021276892292492067,
          0.2619913500207773,
          -0.19252009190295494,
          -0.2895116891192113,
          -0.3182148151707759,
          -0.24511077169021941,
          -0.3561547765901807,
          0.1345852704446568,
          -0.15143356319156892,
          0.4416371552423261,
          -0.10972983810157995,
          -0.4132286898357256,
          0.4581122489522058,
          -0.2646973180682588,
          -0.05020491282799226,
          0.2202482464361667,
          -0.3409608795126125,
          -0.059128719624866724,
          0.3161178266818009,
          0.6318207750466817,
          -0.006368606680781147,
          -0.08148150144333123
        ],
        [
          -0.5651936144718681,
          -0.6142367225146188,
          0.37499576981800226,
          -0.023805174985395645,
          0.0150951272470207,
          1.4240978134409612,
          0.24098642192013384,
          -0.2994302061034859,
          0.6577378153540969,
          -0.7910144406877908,
          0.09493697959063042,
          0.7249876845484646,
          0.4511773869445043,
          -0.8060735973872973,
          0.35874564148549615,
          -1.8076376586665066,
          -0.9507329619046617,
          -0.054835020580029786,
          1.5660316416353142,
          0.28481081034566297,
          -2.1878981316151567,
          2.13881973258121,
          0.2861048944791748,
          -0.8841627831652349,
          -1.7906419363687442,
          -0.8177250589659034
        ],
        [
          1.4677979013046722,
          0.3146298101667235,
          0.5473919605922625,
          0.4645492970697665,
          0.9394412807193074,
          -0.7412025392253032,
          -1.2058580954761935,
          0.06951361878650686,
          1.4914974495519544,
          -0.10574212308123254,
          0.3274391351973982,
          -0.48519038700920125,
          0.0005107231964608436,
          0.11766895286381378,
          0.06660146712626035,
          -0.40866836290763064,
          -0.08837640901786631,
          -1.2207349503176397,
          0.4404225840610751,
          -1.295682240541682,
          -0.23933622084310555,
          0.15407123119761437,
          -0.77158861444518,
          0.16349279799214914,
          1.7660107811609458,
          -1.0382207620935004
        ],
        [
          -0.06913837419355821,
          0.2483028537267599,
          0.043811813073478,
          0.1595784639906291,
          0.15218195105492432,
          -0.3246578037434669,
          -0.11351644028801898,
          -0.04830608275404311,
          -0.010703852245853528,
          -0.07063168061941816,
          0.11688091469670428,
          0.3603044552104429,
          -0.3712833382296015,
          -0.004708278179625797,
          0.05382695439910812,
          0.28609584069316796,
          0.2072906532314836,
          0.029789449236418082,
          -0.01908339347501903,
          -0.20649791373245283,
          0.2883849504873819,
          0.1459097586631585,
          -0.24631700260014514,
          -0.12576569128249807,
          -0.08840318496173528,
          0.2872478955785579
        ],
        [
          -1.1569526402836998,
          -0.37416311802829505,
          -1.7884579790616313,
          0.16615707247557288,
          0.20375991478441713,
          -0.2849600482907858,
          1.456109150337526,
          -0.30077121678013574,
          -1.1905968764675026,
          0.11671572035055927,
          -1.027499854267074,
          -0.24301914145129566,
          0.09069393186901827,
          -0.7014226809493456,
          -0.051203153514895246,
          2.0961449659654243,
          0.3705707592648316,
          1.8996120909407548,
          -0.5870638739420369,
          1.4965114455637625,
          -0.5698753179741274,
          -1.3631141851315758,
          0.009273556388414345,
          0.8869347844867936,
          -0.6506658626369278,
          0.8030019661237727
        ],
        [
          -0.4228352590472338,
          -0.49507396022779837,
          1.494891419391512,
          -1.0612558465284576,
          -0.07918112994533381,
          -0.08783541455500565,
          -0.5381011412906074,
          -0.42408011998654216,
          -0.9268315166908307,
          0.19293152587256032,
          0.3547516853232056,
          0.762481718029713,
          -0.20938806158505888,
          0.6230694134547151,
          -0.09609390112273282,
          -0.6926991119230201,
          0.7336703406874019,
          -0.4038980133940885,
          -0.3232485694592081,
          -0.6091040468791884,
          -0.10267259677703927,
          -0.7792588212599227,
          0.7711147580824274,
          1.0947357300103664,
          0.0929682656723969,
          0.7239367008065984
        ],
        [
          0.11566630750550305,
          0.06626875953960756,
          -0.033525199479388104,
          0.21931753544477153,
          -0.21706221701752695,
          0.18891909895642575,
          -0.14399224436918173,
          0.03900237406855514,
          0.02596050728929201,
          -0.13899231822649466,
          0.011110568414742839,
          -0.051556707782445144,
          0.12617381153036103,
          0.17992888274183694,
          -0.2955257715847979,
          0.011911891948807308,
          -0.3078778189749166,
          0.12423267773881227,
          0.053274583004872506,
          -0.03049722257422344,
          0.16215808131209816,
          -0.12450849495699454,
          -0.2612629178218969,
          0.05123127277296826,
          -0.25869601967547085,
          0.08195036366215697
        ],
        [
          1.056249151044849,
          0.8419267952944808,
          1.1782377390859082,
          -1.4384093533794562,
          0.6119555367400604,
          -0.11791200732069301,
          0.3081971105221133,
          -0.2930740043327079,
          -0.9252274871130939,
          -1.6764891032771825,
          0.2805088552739798,
          0.9130966461948465,
          -1.2323437299400806,
          0.8831156632345658,
          -1.2326364918352906,
          1.399436664083988,
          -0.317667600951202,
          1.301505850742571,
          -0.6503629110944747,
          -1.5424665493417211,
          1.1688151517787002,
          -1.3652412945822698,
          -0.9806358823726881,
          1.7079226929360536,
          0.889096904051953,
          -0.13659508676553891
        ],
        [
          -0.3762569613465917,
          0.2856680942052782,
          0.6492875492261111,
          -0.15759692792365573,
          -0.05433604004279886,
          0.6314121461717865,
          0.4957531399665184,
          -0.4168877807658944,
          -0.4452079027974983,
          -1.002575541540548,
          -0.49316320238680117,
          0.2465834400025812,
          -0.01961865713727116,
          0.26602073040979307,
          -0.43232687045801943,
          0.3422021217595137,
          -0.3068311360329582,
          1.081690639806201,
          0.2867703833470238,
          0.1232904575147077,
          -0.2798673042262298,
          -0.24880398564396433,
          -0.4944650638926787,
          0.8466810914608004,
          -0.2675855922234208,
          0.3044541522213111
        ],
        [
          -0.3166762337690216,
          0.09700380489464658,
          0.3140065802780315,
          0.05816560016405391,
          -0.025257065512861797,
          0.02537441692561801,
          -0.20755625873234002,
          -0.21206489518166044,
          -0.016546428326845726,
          0.17059520013018759,
          0.25675767066009036,
          0.03759765370909271,
          0.023058166315454834,
          0.099707355833478,
          0.08561368290604479,
          0.06427318162109959,
          -0.2480437332018468,
          0.16613310068968162,
          0.22483382585052084,
          -0.05771076101107479,
          -0.0423842309399,
          0.29593562235106824,
          0.1794563783223664,
          0.03884311505157024,
          -0.03552556989555792,
          -0.26841106054057523
        ],
        [
          -1.0365555559982496,
          -0.10338349083286255,
          -1.8273309538918352,
          0.5326970921697912,
          -0.2880209552366933,
          0.28254748874664676,
          1.4183874650733481,
          -0.4248600124080498,
          -0.8716402578877588,
          -0.31156876641434356,
          -1.1006748700526818,
          0.03486733806498521,
          0.014815889795051197,
          -0.7615723666159052,
          -0.15424856977306703,
          1.6057506336616512,
          0.33815646936360294,
          1.653126078484158,
          -0.6241532567487985,
          1.62201414038455,
          -0.3480876946571629,
          -1.3839839540782528,
          -0.10549000715452513,
          1.061587434423616,
          -0.45051891168096714,
          0.5647562134545612
        ],
        [
          0.06631455051724089,
          -0.49398991395517144,
          1.3145622177316016,
          -1.0559400318557657,
          -0.581409737710287,
          0.11936117748278183,
          -0.13751386651306766,
          -0.27981424157281887,
          -1.0614271207323658,
          -0.074100002983635,
          0.44780631234140855,
          0.6390129637595462,
          -0.39852633815130634,
          0.34899641306799645,
          -0.019887700097833187,
          -0.4088668239654541,
          0.731033001181649,
          -0.9768985834990823,
          -0.6172913489194772,
          -0.47814837572784785,
          0.38411914268532166,
          -0.9733444987205441,
          1.1045829775670388,
          0.06105373972363652,
          0.47421716605688213,
          0.6307756176925629
        ],
        [
          0.05930549972555028,
          -0.008574341171705387,
          -0.4655519395391611,
          -0.06351883122067212,
          0.17451117295078408,
          -0.2565697966846925,
          0.3866046951120295,
          0.24292160483369674,
          -0.3768279867376097,
          -0.057151321440868826,
          -0.36061507794834996,
          0.0003742565964553367,
          -0.2580991444710536,
          -0.38332037502502164,
          0.09273770080799285,
          0.33216446704945884,
          -0.09438996729377619,
          0.15773711831022866,
          0.04788499876874479,
          0.26070031449465264,
          0.0673820859002474,
          -0.2129308596957563,
          0.06346583106591248,
          0.2045641202024696,
          0.20621923339629544,
          0.3173562332075504
        ],
        [
          -1.0579690205250292,
          0.38227988215297204,
          0.5450013721630506,
          0.06433869221674299,
          -0.17182227608561454,
          -0.050884276881571,
          -0.5259917251245252,
          -0.8115875195464264,
          -0.6468358937536558,
          -0.00221015563826959,
          -0.1585608823241675,
          0.3657826332909563,
          -0.11638618924914661,
          0.4233537483632612,
          -0.1724823751744691,
          -0.5213433883000868,
          0.2770498430147796,
          -0.2639217067729105,
          0.05028576932553342,
          0.5709685674913404,
          0.9607586579100486,
          0.15605730578882362,
          0.688736111383065,
          0.707748988236064,
          0.4986044324730035,
          0.7639884217771651
        ],
        [
          2.1103722505729574,
          1.5877936641738757,
          0.06889869408343595,
          0.22979520120379968,
          0.2584620154122943,
          -0.6935823055715435,
          -0.6654558902034889,
          -0.0036962044703504815,
          0.549758862863821,
          -0.5255303508768226,
          0.2957952611967526,
          -0.2968842343998131,
          -0.9727765982848452,
          0.8078052304868821,
          -1.1163383493012164,
          1.3672484763223274,
          -1.156324266891698,
          0.13908064799759587,
          0.6270331771615526,
          -1.7173368231515134,
          2.0312781239011692,
          0.17034491655484596,
          -1.2392632845602942,
          -0.41497600464983997,
          0.9221121849547499,
          -0.19131098127454058
        ],
        [
          -0.03893049140973308,
          -0.1447450063199829,
          -0.7536667548578203,
          0.14592811137790757,
          0.2002653434437408,
          -0.23305128433224426,
          0.32630700142843744,
          0.2829518219837201,
          -0.3618939056812987,
          -0.4214284795737653,
          -0.49594043177683866,
          -0.42849152683696257,
          0.20799392312189727,
          -0.11364696816540576,
          -0.41384969380728653,
          0.6172558625200361,
          0.18657965563751405,
          0.6327156452386418,
          0.01925174522867284,
          0.5576230280494352,
          0.16923743063494598,
          -0.3333533386421753,
          -0.36967841519251926,
          0.3397631198656427,
          -0.5357975228081512,
          0.2223198978732567
        ],
        [
          -0.901884930575691,
          -0.6010674061147225,
          -1.061580689888641,
          0.5451018743326776,
          -0.3011396586134455,
          0.24592018843622634,
          1.114785353374098,
          -0.31427847727357916,
          -1.1637663061819152,
          -0.1940090567521488,
          -0.7018615054159881,
          0.017423674556595766,
          -0.19056116689991334,
          -0.38507815570553966,
          -0.2777176723228076,
          1.5834818042377659,
          0.38748129764147404,
          1.5361918899118423,
          -0.8367169048823224,
          1.4477565296752921,
          -0.2332761169591534,
          -1.0602715723421898,
          -0.4166235489040989,
          1.1002277199346948,
          -0.2913642811013436,
          0.4016218684174509
        ],
        [
          -0.8206171741668166,
          -0.7742989989628359,
          0.6088839358969873,
          -0.34292159612432227,
          -0.38856694721722673,
          0.2137422099267543,
          -0.4309336836073864,
          0.22709586704433996,
          -0.5603324928636502,
          0.694223414250847,
          0.6972298904325082,
          0.36884433535519795,
          0.5364365049471748,
          0.3409532925888742,
          0.8139175869497521,
          -0.971468344648148,
          0.5481869678832042,
          -1.168575620347735,
          -0.5640583097948427,
          0.22521019481102808,
          -0.0232170993348378,
          -0.4690643233656652,
          1.4321151240204164,
          -0.4752848986920707,
          -0.4915506811107867,
          0.5464113668852593
        ],
        [
          -0.11068337170123145,
          -0.19631029554148596,
          -0.5222166825749283,
          0.0731562800878762,
          -0.19911939251647445,
          -0.06847347823680831,
          0.17422997847337102,
          -0.15246229071934983,
          0.17105745700988945,
          -0.21789930602466287,
          0.1369006181382823,
          -0.12663703911229912,
          0.05113591936182405,
          -0.38812149230515874,
          0.022594953304628723,
          -0.04995727745652782,
          0.25418851140791526,
          0.30676549877846604,
          -0.16944307273571524,
          0.222676186042894,
          -0.12489207944475923,
          -0.09252626642694778,
          -0.01569663966234485,
          0.40996207523465084,
          -0.048925464989549146,
          -0.1023548503351498
        ],
        [
          -0.8806707463870433,
          0.21779190640485,
          0.5726421297297041,
          0.13493321240006903,
          -0.3900687706979005,
          0.07810938737694309,
          -0.43238110494864385,
          -0.2701077753170497,
          -0.717277771359743,
          -0.1667391305812717,
          -0.39032564339186937,
          0.17815693927684725,
          -0.20436538647508998,
          0.09526879059384799,
          -0.24211168368568758,
          -0.3506619903433781,
          0.5060104707985036,
          -0.15313492973958387,
          -0.29194544342897155,
          0.4565239074679873,
          0.5472832169336285,
          -0.10124954349974977,
          -0.20445232820326034,
          0.4564257891315931,
          0.8741414465631541,
          0.5097105794500646
        ],
        [
          -0.9753285532724271,
          0.15839096141139797,
          -1.948948095548741,
          1.21116273188765,
          -1.1727813176105601,
          0.5478862143226292,
          0.014137022724901336,
          0.7509502502705858,
          1.6049195296759156,
          1.4795509946236787,
          0.21301510983040048,
          -0.8501915141301071,
          1.4109195121962348,
          -0.7609244519693555,
          1.1373532081382443,
          -1.1136494200345164,
          -0.9270473571001525,
          -0.6994798562667535,
          0.717284227334668,
          1.4761250236172028,
          -0.5156765933667137,
          2.6265050073625873,
          0.567444413186603,
          -2.7752274994855064,
          -1.2025026899681739,
          0.2850295706322216
        ],
        [
          -0.1522392324949181,
          0.1725587839017011,
          -0.01713267849852413,
          0.07700031431900561,
          -0.056088039304364116,
          -0.2861044120502577,
          0.3770273939655915,
          0.05919510158717996,
          -0.40396540931135516,
          -0.3252470919501795,
          -0.4128510114884672,
          -0.05022739343651249,
          -0.0955526698734653,
          0.13861083597261323,
          -0.2699689988087796,
          0.6543676225324841,
          0.17053495611619104,
          0.524819993620466,
          0.10411957712937625,
          0.2603776356597389,
          -0.2546075164966043,
          -0.08963716926982557,
          0.011341036231142727,
          -0.0007011407125717756,
          -0.419549393496733,
          0.09389470005997103
        ],
        [
          -1.0122994855692409,
          0.09507429135568497,
          -1.2998141498056837,
          0.17958184188922732,
          -0.26104559342117895,
          0.14230960892437425,
          1.0972899021765024,
          -0.2777480851975267,
          -0.6749732500292106,
          -0.41751021118526493,
          -0.9738400384181776,
          0.013194828128605314,
          -0.11500524129782637,
          -0.7531693264230332,
          0.10950265549846037,
          1.0673659420527377,
          0.2330999869165218,
          1.0873746375821738,
          -0.4771095569447518,
          1.033042202930956,
          -0.27970550433330876,
          -1.0004987146834803,
          -0.4539467897367422,
          0.6449100052318242,
          -0.047463252478664154,
          0.264108112411209
        ],
        [
          -0.7427450560572555,
          -0.9209493698320895,
          0.6737569249794217,
          -0.48068351641905743,
          -0.46264711524165714,
          0.41809196123927034,
          0.06618178084195109,
          0.45309291169815563,
          -0.5671763196185095,
          1.0728584852671135,
          0.5260939551784386,
          0.18855362368798723,
          0.3113363497679379,
          0.45026174977146094,
          0.8448050529348503,
          -0.7377797162594713,
          0.9021178597451499,
          -1.1688496832036475,
          -0.47273442036262614,
          0.191550937105193,
          -0.43673539899284197,
          -0.3351588101438454,
          1.373541011620895,
          -0.18350134582309463,
          -0.025877036223104218,
          0.42010143187487237
        ],
        [
          -0.22876651979607976,
          -0.2146872126420728,
          0.1498148642195757,
          0.18654306542114757,
          0.3424077656659616,
          -0.1876715300898087,
          -0.030464470328909612,
          -0.3371394932916855,
          -0.12262771117040536,
          -0.17877863681709533,
          -0.1288101438295904,
          0.26587099011512105,
          -0.09063984445632249,
          -0.012724866507302646,
          -0.07081425416739137,
          0.04866229953552631,
          0.2781473031712508,
          0.5080235871187939,
          -0.4346022158112496,
          0.025171490398492775,
          -0.27451349205407616,
          -0.46230962300072576,
          0.11148467820708115,
          0.00799944529232039,
          0.2316743551271668,
          0.40750021358201094
        ],
        [
          0.042982176635903264,
          0.032900790270894424,
          0.4173614523112758,
          -0.1923800755731007,
          0.19620368894638318,
          -0.1349097049771845,
          -0.3314531330024852,
          -0.574692326902702,
          -0.40932803243622484,
          -0.4841837966519706,
          0.15158177753661328,
          0.15187701770712703,
          -0.22716249795427257,
          0.06340929820807986,
          -0.49771041920183773,
          -0.24531009567404924,
          0.08232510304676298,
          0.0673104645959908,
          -0.15314894937048076,
          0.09093072114234527,
          0.2948151104183961,
          -0.33591580309398006,
          -0.333829814216395,
          0.8197701681021013,
          0.7532995629738914,
          0.6317018982048144
        ],
        [
          -0.5354553327967855,
          -0.23266521686611435,
          0.23444579810747287,
          0.6785483946887899,
          -0.6302425387925653,
          0.2095079429659627,
          -0.9008108000447866,
          -0.22193208419154664,
          0.48646493330705115,
          1.1082261930394395,
          0.13686150468385103,
          -0.28136466647710145,
          0.7967687059067772,
          0.4796229490158671,
          0.08512886649840647,
          -1.086907173774897,
          0.5190129134061073,
          -1.3893503074978588,
          -0.063594859865741,
          0.5186133064367665,
          0.6322981228535682,
          0.8513611800700834,
          0.5930349234222242,
          -1.1256844766660845,
          0.1864298617420402,
          0.5208375070665076
        ],
        [
          0.043202815479342176,
          -0.3782484507089557,
          -0.446755681585407,
          -0.257508927898492,
          -0.1990032020084097,
          -0.07881421740351939,
          0.32452240131550564,
          -0.0356081064772169,
          -0.11763154878446816,
          -0.16312898047685806,
          -0.09875341040947742,
          -0.26676009775803683,
          0.2254015464527357,
          -0.04115581817630586,
          -0.17985565033143652,
          0.5205813423577688,
          -0.2873549681584478,
          0.6931349367843268,
          -0.0717630197865557,
          0.45125923685338676,
          -0.4130611833210107,
          -0.44434416841946067,
          -0.14551800487323358,
          0.19160381633724835,
          -0.2989209678815987,
          -0.012646840639745104
        ]
      ]
    },
    {
      "activation": 1,
      "biases": [
        0.01747625788619868,
        0.12169250183589395,
        0.1959991235153433,
        0.05593486627369526,
        -0.08418367124426941,
        0.2365269032524642,
        0.05551600467447506,
        -0.3127995520041974,
        -0.018644173225502818,
        0.011301567264248575,
        -0.03420496331394629,
        -0.005572446113416782,
        -0.032229475560843254,
        -0.1496388882792694,
        -0.007565500786137661,
        0.103254044507852,
        0.15444179813168607,
        -0.06337290462365933,
        -0.2871820996413217,
        0.012915646358054474,
        0.28830468405659115,
        -0.03282800849041865,
        -0.04496944666630406
      ],
      "cols": 23,
      "rows": 26,
      "weights": [
        [
          0.5669333009581905,
          0.241089399063998,
          0.06655339284748596,
          -0.9816606235989417,
          -0.7546120719681969,
          -1.4213397379781672,
          -0.14163243552109417,
          -1.7022837448576242,
          0.025220467589568404,
          -0.7219315693030808,
          0.12084866216273708,
          0.4651975593336297,
          0.21824380107981292,
          0.9032851401853587,
          -0.21805470113686817,
          0.8549442533779144,
          -1.147083114434239,
          -0.5840352569338961,
          1.564777902982708,
          0.5770366487592943,
          0.789241805156313,
          -0.4964588163111853,
          2.4003267956712038
        ],
        [
          -0.4960755710039151,
          0.4642107796721313,
          0.1091789561004074,
          -0.14635165722464166,
          -0.6482942775638302,
          -1.0677942355845407,
          -0.08301947023639,
          -1.365287187531882,
          -0.36513846699873226,
          -0.3455529494604449,
          0.2988395715681325,
          0.13159669528458193,
          0.3126838130105436,
          -0.009522426535998,
          -0.011074190257923493,
          -0.3855515085038089,
          -0.8401819876068206,
          0.09692985815079898,
          -0.33677990560634763,
          0.8965302088248462,
          0.6227347111826443,
          -0.03573493952989044,
          0.9882185617965838
        ],
        [
          1.1362859863894383,
          -0.11425561626491783,
          1.917140120042806,
          0.36399352518210065,
          -0.866826799410102,
          -1.3499412030088667,
          -0.9093707254618809,
          -0.7466315484823719,
          2.2780161579807836,
          -0.26521145389441886,
          -0.04939183460621951,
          1.364297956603183,
          -0.020164988619045292,
          2.668931152248573,
          0.06546131368276341,
          1.0073171632679807,
          -0.8251575966840613,
          -0.8890480165931701,
          1.0298796074080545,
          -0.7255154181170014,
          -1.3819124438106944,
          -0.4602948351772567,
          -0.7662269173320446
        ],
        [
          -0.25357260359739403,
          0.5950283057916235,
          -0.08692298180723478,
          0.08330591582313392,
          -0.19172387498469634,
          0.8998325046973198,
          0.0012048950129947714,
          -0.7778033047180882,
          -1.1313817230854977,
          -0.09442433693271625,
          -0.12408141189654624,
          -0.3137949180866488,
          -0.5767382020016651,
          -1.449937154513879,
          0.09972882047999418,
          -0.892925761857509,
          1.0647352731083812,
          0.48390619628895204,
          -0.17316085774467058,
          0.5545481064643026,
          0.48083625015140197,
          0.3031402430727677,
          0.4587013221985056
        ],
        [
          -0.2043260803999147,
          -0.14006422295682083,
          -0.31553377677817424,
          -0.2316408965862718,
          -0.11006817754900217,
          -0.37014404474745033,
          0.10131290839933407,
          -0.5202591645423975,
          0.46158904780853593,
          -0.01875558446865765,
          0.07253694702324345,
          0.7953525613421014,
          -0.09256169846342442,
          -0.16378459717800653,
          -0.1302120026905918,
          0.8319161005801708,
          -0.20589318682487961,
          -0.7466591545883993,
          0.1377876223206692,
          0.321276284483862,
          1.0357188862581552,
          -0.5569036218673246,
          0.5235631570249575
        ],
        [
          -0.6553985259212293,
          -0.013755249412904453,
          -0.04703996555659209,
          0.7501691417114998,
          -0.2625512827677489,
          0.749107974647394,
          -0.014505027889090232,
          0.10619101298777109,
          0.07828259787643153,
          0.546794847327582,
          -0.2326698684183823,
          0.13135630985812438,
          0.35588976517774257,
          0.14518615149768385,
          -0.03990435518776414,
          0.1420379870081811,
          0.5501889259832609,
          -0.02296549372462675,
          -0.5858985217262602,
          -0.8224311019982544,
          -1.0110484529110721,
          0.19679320421700486,
          -0.11472570066346677
        ],
        [
          -1.1021702984882944,
          -0.5896938307766252,
          -1.4698941250949924,
          -0.06685974867013206,
          0.8180946658758704,
          0.8485296489219735,
          0.34432160117751964,
          1.0633755092069697,
          -0.44740725322205427,
          0.4228257167728735,
          0.216366114464018,
          -0.5215277084703048,
          0.7189339069319781,
          -1.269874015422288,
          -0.577964104607366,
          0.015792269654263065,
          0.5121560534858134,
          -0.7722285708038539,
          -1.8539336185856279,
          -0.05947355537456344,
          0.732987121556065,
          -0.028650019266048016,
          -0.15870046462187037
        ],
        [
          0.3024025590346564,
          -0.07239546874842795,
          -0.0011092030251790078,
          -0.38172935851245304,
          -0.02079098534868505,
          0.29207296496667945,
          -0.5151609921462152,
          0.07760243909967755,
          -0.5565287107360422,
          -0.15010930137654546,
          0.14029414835239876,
          -0.26486405201209107,
          0.1740412129443629,
          -0.40354139917820997,
          0.5258536402561954,
          0.26707162041481436,
          0.2534223986074305,
          0.17301155564728887,
          0.9875884369752566,
          -0.37158140743440055,
          -0.20900980029897703,
          -0.09361057180144816,
          0.6385358485128726
        ],
        [
          0.02650368701918714,
          0.5358084602670792,
          0.4608644467151139,
          0.06997811999253295,
          -0.8227853192877628,
          0.8630916704617044,
          -0.2767763180990701,
          -1.525563571802985,
          -1.0675717255765624,
          -0.5453360175409557,
          -0.26437666565789447,
          0.07468469118166748,
          -0.6351737927193474,
          -0.0726539470207047,
          0.8239063605867128,
          0.13044047940191503,
          0.7640961042935872,
          0.8327937327463033,
          1.8116219623958236,
          0.32834829797582765,
          -0.4715826702689046,
          0.11807586695708536,
          2.5080142061697557
        ],
        [
          0.852777402038681,
          0.18682423675185106,
          0.36689348629145535,
          0.08777671961218037,
          -0.5240729247694478,
          0.8041159014283273,
          -0.5349982954829582,
          0.6545720869798486,
          -0.7530887787516463,
          -0.49115300770123343,
          -0.9797542494392022,
          -0.7046076332405684,
          -1.0208890964082897,
          -0.8203779371376965,
          0.3575361954322155,
          -0.5609553915874329,
          0.4834028306123443,
          1.1494323478798498,
          0.8764563478247653,
          -0.23540263871779654,
          -0.9387788853474189,
          0.621340486130967,
          -0.10579438213273511
        ],
        [
          0.9028930693062185,
          -0.29462831995942695,
          1.177475550004711,
          -0.1794787043882214,
          -0.44968170206052027,
          -0.15150961935494991,
          -0.3732445812926532,
          -0.5078627605590111,
          0.10956722203029147,
          -0.5358781572829833,
          0.06429894141448352,
          0.20480056879830935,
          0.011209088751748175,
          0.9671302181689613,
          0.5552446528265348,
          0.0938135082259378,
          -0.5393630028310786,
          -0.07452125188218026,
          0.9716742842946323,
          -0.557429428687765,
          -0.9931420950165082,
          0.15262297680789294,
          0.7404731374178037
        ],
        [
          0.25562370456181455,
          -0.6077146252444301,
          0.671375725583449,
          0.09496080949150788,
          -0.05650476836488507,
          0.10247922860567851,
          -0.41616399432073053,
          -0.004638136449691538,
          0.9438302861215901,
          0.5845355653806608,
          0.44153945138622924,
          0.31406038803309744,
          0.45944706286163767,
          1.028211484506986,
          -0.38915420071676504,
          0.01244649698756619,
          -0.1524666471453077,
          -0.8590026062131869,
          -0.4446582683544627,
          -0.48366862720480286,
          -0.21460876076898897,
          -0.29116538303935247,
          -0.9682780128556657
        ],
        [
          -0.04946661177481867,
          0.2932212440747622,
          0.2514812875742815,
          0.42063543333787295,
          0.1434215339874571,
          1.1670024422747398,
          0.2921461102528187,
          0.04288008647494924,
          -0.48889925976829346,
          0.2682562802599886,
          -0.8514770611931808,
          -0.399128124648255,
          -0.30465560411427434,
          -0.5627351298811476,
          0.129978621222037,
          -0.22142491204864218,
          1.1442065988037546,
          0.6050832393869656,
          0.47776960194932916,
          -0.593889360533452,
          -0.46831028841281025,
          0.7444028490312964,
          0.14342520456429456
        ],
        [
          0.7639367065356137,
          -0.11707864179905443,
          0.7305663467285408,
          0.10384385648084207,
          -0.32352713477873213,
          -1.2727903863836485,
          -0.46745489671870327,
          -0.26238782010777495,
          0.8718015470848541,
          -0.29016757504011176,
          0.1140931338234929,
          0.034050028710794024,
          -0.29908423735646056,
          1.2387006801303755,
          -0.2785900239660972,
          -0.06106958599872696,
          -0.841116328613818,
          0.02746868271647755,
          0.4021004127005595,
          0.22568260622169045,
          -0.3418196186666134,
          -0.13929379711311937,
          -0.4248078212881997
        ],
        [
          0.2671605296289673,
          -0.13782573539621443,
          0.7314120679266257,
          -0.04065298953359255,
          0.06721948235580703,
          1.3456626079124503,
          -0.49008104827407384,
          0.5712914995075802,
          -0.06634785993048896,
          0.029712523130877945,
          -0.5523913785353848,
          -0.1008630787245579,
          -0.5519065910832438,
          -0.5360294150238246,
          0.10577422167241245,
          -0.12415551341036982,
          0.9437515042119933,
          0.6208741528303761,
          0.5231184092574408,
          -0.4284579357312108,
          -0.9424005406909794,
          0.5090859314178933,
          0.12806682700796432
        ],
        [
          -0.6580166522579918,
          -0.23411098005460676,
          -1.4889276966556177,
          -0.8739226050883336,
          0.5962289018321492,
          -0.8689870053781883,
          0.37667810231253035,
          0.9422143777838562,
          -0.49210499786402545,
          0.07728738115570336,
          1.1730471610745972,
          -1.0328188473698998,
          0.9938011701003991,
          -1.5710529255951657,
          -0.967343492980691,
          0.22122281008802716,
          -0.7982951916708468,
          -0.6457832929236584,
          -2.0710482374454187,
          1.781839041873694,
          2.8036675361939825,
          -0.38561896060421375,
          0.01386297553659389
        ],
        [
          0.943670806664332,
          -0.108642002112264,
          0.14266743844225016,
          -0.1670999002220753,
          0.48970294423435584,
          -0.19631277399230146,
          -0.10476932235161264,
          1.0964451312926167,
          0.8703567620346033,
          0.015311937768671255,
          -0.05712216341244999,
          -0.16771528132357105,
          -0.5492749334887219,
          -0.25621456679595994,
          -0.11410579308134627,
          0.12010252556027527,
          0.2585592753597002,
          -0.408797400483497,
          0.26006197259716984,
          -0.49027272979736736,
          0.08261642118810032,
          -0.1713556251401127,
          -2.298285221548219
        ],
        [
          -1.846594917837007,
          0.060169779266053054,
          -1.7214625905306962,
          -0.11490238939953264,
          1.0797591503184043,
          0.19587179596738472,
          1.029701718909324,
          0.29324698440422237,
          -0.4151044391758855,
          0.8249107771012798,
          1.1924471037806867,
          -0.7968106593395065,
          1.4271813286949038,
          -1.1176764707402564,
          -1.012544467489524,
          0.4559255215269018,
          -0.03593339809945791,
          -0.8511516227629586,
          -2.9283245854584696,
          0.9069139143239442,
          2.112172975658725,
          -0.44296068694662166,
          -0.07759873253234431
        ],
        [
          -0.6501819890651185,
          0.23864449733131723,
          0.5505226351586172,
          0.09540225239205757,
          -0.5922337819285466,
          0.7072489905174204,
          -0.17396939598181044,
          -1.5805909697831808,
          -0.23706249103595997,
          0.4925303198781347,
          -0.18189613027069193,
          0.5510934566666715,
          -0.30990372507446384,
          0.6156840355831296,
          0.45435769903456447,
          0.1689892449528984,
          0.4176419150489446,
          0.47694623415358295,
          0.1597959832752413,
          -0.49021890719639855,
          -0.2898043249438696,
          -0.10283819278832759,
          1.663539458103913
        ],
        [
          -0.7703872828806596,
          -0.08366743780084557,
          -0.8726014514601818,
          0.795952755542966,
          0.6704649481469129,
          1.6260981939561936,
          0.7070050114592498,
          1.151868888054413,
          -1.3496274818735738,
          0.7477863840754165,
          -0.5851266588233771,
          -0.6193860689061902,
          -0.3162962336055502,
          -1.8346063793961238,
          0.09253426365096527,
          -0.8464663532684149,
          1.5573605133847228,
          0.6553671625261365,
          -1.8496923847721762,
          -0.2286365111265276,
          0.3988356418027588,
          0.7120127028725735,
          -1.5880902397278183
        ],
        [
          0.6596405017573365,
          0.7003411409903705,
          0.12157386440423232,
          -0.5969135756410721,
          -1.0035327164466996,
          -2.0415349231070126,
          -0.40078466485329406,
          -0.7552111552693511,
          -0.20818919097013816,
          -1.0321797731885205,
          0.02526178130760229,
          -0.6985130502572853,
          0.0980962728718835,
          0.5694351969160002,
          0.038479999643299255,
          -0.6833082951584565,
          -1.4209528843440797,
          0.010720597550856224,
          -0.49354565364942843,
          1.0415943869389905,
          0.5459947027751635,
          -0.2197215607233972,
          -0.4531625616018383
        ],
        [
          -0.6916758863663628,
          0.4826969362880519,
          0.919060841860558,
          0.8503218684639834,
          -1.1420113465050254,
          0.9417546364469176,
          -0.013172424060717327,
          -1.9601394357163016,
          -1.2939064243569782,
          0.4834341710429692,
          -0.6047210768659194,
          0.26136952680409187,
          -0.42857923522906877,
          0.051277624457114174,
          1.0620404815330546,
          -0.9415732424469907,
          1.0940254764645787,
          1.3027986551642705,
          1.131645119630667,
          -1.1414165086350005,
          -1.540790491558325,
          0.3838593232963419,
          2.36820811994256
        ],
        [
          1.0961117034117167,
          -0.5109459638460094,
          0.7148606806399247,
          0.37724642431486227,
          0.09078952765296286,
          0.585696840247703,
          -0.8073612491390236,
          1.1198908081535093,
          0.6960619981595342,
          0.38660934266123975,
          -0.9173252897505398,
          -0.26284867881182417,
          -0.25232010888343653,
          0.24901140133229194,
          0.5684310066804783,
          -0.3248231312020063,
          0.26238965004702824,
          0.2269403764856986,
          0.3218997002068616,
          -1.3081471303340244,
          -1.6815687553968977,
          0.7525693966411316,
          -1.4424924751342394
        ],
        [
          -0.45553309763983524,
          -0.31799996932156377,
          -0.19645084986263242,
          -0.2911879546537327,
          0.8523997117681312,
          -0.8383416760030227,
          0.7206900272894184,
          0.2815043599744317,
          1.6705858789936685,
          0.2472730732458431,
          0.5281122665735063,
          0.7728826549147568,
          0.6756138604857665,
          0.06939852656568735,
          -0.8375896695449137,
          0.8873959719966289,
          -0.7323214982705634,
          -1.5310429782944024,
          -1.5304137380126057,
          1.0589942161460177,
          1.581192178390238,
          -0.8605737058301401,
          -2.2416844125820266
        ],
        [
          1.081977745763698,
          0.8042144570548605,
          0.6609246666920923,
          -0.7257569949680405,
          -0.7897032075032431,
          -0.9992164570682669,
          0.0073886225689365585,
          -1.0228365894794993,
          0.8912457790563578,
          -0.8338287842481454,
          0.5186500512393247,
          0.5746603227271402,
          -0.1789866618279189,
          0.0912957276029166,
          -0.40868549954217037,
          0.0912991225194468,
          -1.1993929557993293,
          -0.05388138178714416,
          0.6268292496900592,
          1.2736650259306441,
          0.7395954403374013,
          -0.5484835012038591,
          -1.0149201207869178
        ],
        [
          -0.14132083238419668,
          0.10502893317186489,
          0.047237125555799384,
          0.36219039928971125,
          -0.2829986740597336,
          -0.10842372385417887,
          -0.039783572095065986,
          0.8953878860017711,
          0.14407066541948516,
          -0.13426057452103823,
          0.17024137653042806,
          -0.7057678081171807,
          -0.2077919935390368,
          -0.22366709137720342,
          -0.021770141402756245,
          -0.42293866472793895,
          -0.1873492121055405,
          0.3051208477391147,
          -1.2188057756956274,
          -0.45146128648462414,
          0.05527690937765317,
          0.46970444494245267,
          -1.8101803524978317
        ]
      ]
    },
    {
      "activation": 1,
      "biases": [
        0.9104692967770023,
        0.12082884968353783,
        0.22934621549528328,
        0.05558292640242508,
        -0.20245927518060922,
        -0.46898622186655836,
        0.2731840957834133,
        0.1960046522889885,
        -0.13443285840102284,
        0.3799491153276282,
        -0.09438066846546188,
        0.07006296551504079,
        -0.46528155875534744,
        -0.4864775003615321,
        -0.8876602050941933,
        -0.2597018996256258,
        0.09734893200415919,
        -0.14863093858971307,
        -0.5532582574304425,
        0.3669099788993107
      ],
      "cols": 20,
      "rows": 23,
      "weights": [
        [
          0.046039762193083165,
          -0.7058128739110049,
          -0.5735488783474139,
          -0.9360511295222064,
          0.13650557265930793,
          1.3095359876329544,
          0.9712224345156714,
          -0.26201261356996236,
          1.494728870367507,
          -0.6000198132363049,
          0.0838159511897403,
          -1.3557575783503246,
          0.01711310901287199,
          -0.08480979733241006,
          -0.17300737053101645,
          0.23945610428178532,
          0.1820711644450642,
          0.38416848851807167,
          -2.6474818261482067,
          0.4374438700487113
        ],
        [
          0.8217668935555189,
          -0.4608532928805609,
          0.5748059321120697,
          0.5046306404250761,
          -0.13235722821586796,
          -0.6794933047712904,
          1.147853884740684,
          0.6129260875913913,
          0.7186069108603274,
          0.28477508705789956,
          -0.25514723431115643,
          -0.21458034785449234,
          -0.7171538780627725,
          -0.3232434841187833,
          -0.8000751649993344,
          0.10868299181398933,
          0.20738570202685075,
          -0.19426756233561002,
          -0.4128248787624755,
          0.1320275733663268
        ],
        [
          0.7400669347960882,
          -1.2647496230016573,
          -0.44063214674730206,
          0.7752283440383879,
          -0.07666289426437782,
          0.5775001954257359,
          0.7795302756897161,
          -0.15285683653531915,
          1.153596513320827,
          -0.5682697063514262,
          0.12036845130432591,
          0.2706801951798002,
          0.9458923999106406,
          0.008935823594380951,
          -0.5522501840589443,
          0.4834335314054243,
          0.8075440493933459,
          0.11609567315213949,
          -3.1535182442268836,
          0.0936901286244574
        ],
        [
          0.503146499540707,
          -0.35746831536219414,
          0.03399225148740732,
          0.2006175551691988,
          0.10038035596264369,
          -0.4843200730506918,
          -0.08575616949257772,
          -0.029898674193685512,
          -0.8660224622528673,
          0.04088529201128447,
          0.4954571822481557,
          1.8060877006321407,
          -0.5401244349850185,
          -0.6433370794062792,
          -0.6565885578643905,
          0.2134411794811322,
          -0.26267228225571987,
          -0.06368850532131705,
          -0.8085277433504489,
          -0.12069189094254631
        ],
        [
          0.1837634366368649,
          1.522721600703845,
          -0.6362474738471002,
          -1.15477635726123,
          0.3432979183538723,
          -0.09641908315310034,
          -0.7723476989997006,
          -0.04983667132972454,
          -1.0028313234725055,
          0.10863608176684633,
          0.5488284007813465,
          -0.008674352398202141,
          -0.36751408377513006,
          -0.0950573853744778,
          -0.18646905357613952,
          -0.2834587608242558,
          -0.5650522108099372,
          -0.11806552340940195,
          1.558237293063983,
          0.24817317311056372
        ],
        [
          0.7614209170498766,
          0.971570120039551,
          -1.0954251218221098,
          0.28821672546159066,
          0.09493089918681226,
          0.06216753792615086,
          -1.5120996823629227,
          0.2155560528356327,
          -0.6211830693871806,
          0.9478210225691149,
          1.4004260504534531,
          2.572468599693577,
          -2.810056685131517,
          -0.08876807682186252,
          -0.49672802249068243,
          0.283144314256391,
          0.07657847654513257,
          -0.05708638145222991,
          0.288574598569752,
          0.3515735801720444
        ],
        [
          0.003363183256001834,
          0.5958172103195035,
          0.3769894391066033,
          -0.5215581350420802,
          -0.10547262210384904,
          -0.9171727779841703,
          -0.10535235335295322,
          0.5997550111259163,
          -0.17665884409478935,
          0.4452192421695106,
          0.22564843635829357,
          0.18609408262201096,
          -0.0983877601610839,
          0.09837678132951211,
          0.06132218454014639,
          -0.22161502854353893,
          -0.32586336856402087,
          -0.4654578289101787,
          1.3514426461212117,
          0.1902851257383364
        ],
        [
          0.31734999761241345,
          1.4570116640728845,
          -1.0103098210949004,
          -1.4838126677185246,
          -0.0445362071893457,
          2.3597198190313162,
          0.16063521833002414,
          -0.7037071761796118,
          -1.9838015414937997,
          -0.3694905266195846,
          1.169771624415047,
          0.6190286292768954,
          -1.1648294330189644,
          -0.2449937410039905,
          -0.37423915127390617,
          -0.6112762549624204,
          -0.1911387394523407,
          0.44429840302643075,
          0.8398840334455827,
          -0.11008189720374846
        ],
        [
          0.4049182647758795,
          -1.0133071051420548,
          0.7801321429070495,
          -1.4649362175750642,
          0.10065433652433164,
          -0.8350986768807451,
          -0.8499602809946676,
          -0.4001774810397671,
          0.01802685603621409,
          -0.5843925075487287,
          -0.00796248987011349,
          -1.0634955553343655,
          2.890319319613906,
          -0.303578901694496,
          -0.7856320649158379,
          0.05064394718881531,
          -0.09607022439031196,
          0.015063582330840148,
          -1.9687267155825021,
          -0.024779828799319337
        ],
        [
          0.8256369993949012,
          0.5382575440419576,
          -0.4415969996075994,
          -0.1643931919497631,
          -0.41311564834093534,
          -0.6571484918266747,
          -0.8026531595041609,
          0.1302292225308598,
          -1.2604559108004332,
          0.6382642565227679,
          0.6094323305760211,
          1.168454624834922,
          -0.08303206152753803,
          -0.06648086040713996,
          -0.8661612315667906,
          0.15260719254057376,
          0.2384081344025957,
          -0.38371176811638175,
          0.7919447818170835,
          0.32741892770834263
        ],
        [
          0.15818677083133356,
          0.6639604544402433,
          0.11135459832282521,
          0.1761293336670928,
          0.04494413481977612,
          -0.8198513372733395,
          0.30144835757400207,
          -0.17050453433080717,
          -0.18295184048403199,
          -0.08871498969669751,
          -0.7022423930741313,
          -1.3231063075924798,
          1.1842766007811312,
          -0.3056847339780935,
          -0.734738588465301,
          -0.23686035382317042,
          -0.3114416408084184,
          0.26018235778934645,
          1.350800599894829,
          0.3898156249839896
        ],
        [
          0.2592780468954854,
          -0.17455903879765672,
          0.8748894112369415,
          -0.25776992575821195,
          0.19460735929738932,
          -1.1508980814436738,
          -1.3098585108206493,
          0.4898330314858414,
          -0.097992438011118,
          0.6843092279073907,
          -0.5433081161586134,
          -0.877241704983197,
          0.5838835413627488,
          -0.3363775108341932,
          -0.26611428504076895,
          0.3615059325086132,
          0.3243341061107853,
          -0.011799182788313125,
          -1.5662373958947011,
          -0.015505256353296295
        ],
        [
          0.19928254867004414,
          0.5464984461201576,
          0.4083932905346072,
          0.13687578007251855,
          -0.12308594098161316,
          -1.0642824572726606,
          -0.12621339353870403,
          -1.0921364906447004,
          -1.2505939739154337,
          0.3032528531420596,
          -0.24554387605858963,
          -0.9623243632330003,
          0.9460204047380252,
          -0.2328037609322596,
          -0.5792282650478996,
          -0.502508070250462,
          -0.48335969720566263,
          0.27489093917122986,
          1.5615928886938257,
          0.3812957005558459
        ],
        [
          0.4898605909848947,
          -1.603983000891128,
          0.9417406942162879,
          -0.62702054473516,
          -0.3512754025536294,
          -0.8776185397467936,
          -0.8081630145337698,
          0.46852090217394576,
          -1.7008102026101435,
          0.5261785650643304,
          -0.9509237147406953,
          -1.7051216884567222,
          1.837395803578793,
          0.14868885463408885,
          -0.44295799358800536,
          -0.040868753740891925,
          0.0030591606215725374,
          -0.5870687369141961,
          -2.660253006328292,
          0.019270634329912096
        ],
        [
          0.7825669230915504,
          -0.4648511357767705,
          -0.22480408933898458,
          0.2955793955549912,
          0.14619222191370296,
          0.3234468192921054,
          0.2896987053230647,
          0.33861728466798374,
          -0.2895751742480704,
          0.6409677963120628,
          0.15269961255374576,
          0.505964029273936,
          -1.3297471913600358,
          -0.41019883326838535,
          -0.6935842347515297,
          0.1218787579644295,
          -0.012855572383248672,
          0.06950243468539079,
          -1.9032436220202316,
          0.4842969565585127
        ],
        [
          0.6799397767417366,
          0.29623441578002846,
          0.530069124870635,
          -0.767890756736126,
          0.09437889914116976,
          -0.6708482116198616,
          -1.1987915803717941,
          -0.4583435071004956,
          -0.3013438563872942,
          0.17863506443018834,
          0.16839483727284968,
          -1.6512790909076707,
          0.9004135821057401,
          0.031508587836006345,
          -0.3712561266536101,
          -0.10442364013338659,
          0.2439904609403093,
          0.02265532316849448,
          -0.24439926992409758,
          0.43334905582184413
        ],
        [
          0.774969073580072,
          0.6571848512144935,
          -0.15350374744714165,
          0.2823951660393033,
          0.22633791794581054,
          -0.005513656685525398,
          -0.9436370588279064,
          0.4382555933732277,
          -0.5772864136548433,
          0.9620233437563771,
          0.9723080146565635,
          2.551975709813617,
          -2.4417356145310283,
          -0.026272411546856788,
          -0.7450290058500327,
          -0.1839843814569452,
          0.1207332332798425,
          0.04278638302949277,
          -0.11792337550373966,
          -0.1624170012004034
        ],
        [
          0.2557534512060824,
          -0.6544228608332265,
          -0.29083212104960565,
          0.5850747203619859,
          -0.3521400078726805,
          0.7295255358477142,
          0.9546387821534719,
          0.2422893134487442,
          0.49173758153930497,
          0.3605268517449186,
          0.331946503426926,
          1.2723958712799746,
          -2.4979686299061115,
          -0.057518394898701676,
          -0.10278535019643877,
          0.05737981603293243,
          -0.10207584449203587,
          -0.3646771727365824,
          -1.1333171627930336,
          0.20928608857895367
        ],
        [
          0.7073260972947659,
          -1.6268532707144305,
          0.42901048452955914,
          -1.9298290431734475,
          0.44434093718748197,
          1.1221146932336117,
          -0.6539007560274168,
          1.31994482740822,
          -0.3617085330722569,
          0.6414458174980645,
          1.1301766420790573,
          -2.337423723430708,
          -2.0312244223676923,
          -0.13533026896248104,
          -0.12049943450442016,
          -0.5379465177416679,
          -0.544372950700696,
          -0.2591139450197041,
          -3.518426618612147,
          -0.15560173031842311
        ],
        [
          0.43376765229576925,
          0.8444073615299926,
          0.7493235824486797,
          0.8065846993113811,
          0.057258293060510425,
          -0.5897584301911852,
          1.08091182944747,
          -0.061623508284749266,
          1.8042272352319497,
          -0.09487312097738743,
          -0.8648898894015674,
          -1.872487712436069,
          0.9037378185920123,
          -0.351991912819504,
          -0.2118651632597109,
          0.0513716043144431,
          -0.010472120194463376,
          -0.2783169296414777,
          1.4176861159461602,
          0.11291742704483926
        ],
        [
          0.48916017132456835,
          2.0585647516477126,
          0.6301378085780813,
          1.7534287851669843,
          0.04590297715276078,
          -0.5475876358317759,
          0.9070174368860516,
          -0.8774251366707998,
          2.2339817422219834,
          -0.7221057646340003,
          -0.5720217102709049,
          -1.380813184873613,
          1.6228413302308224,
          -0.007035999833547018,
          -0.4034975532077934,
          0.2535832240303157,
          0.3848553865424054,
          -0.03081036009258181,
          2.3726024298028157,
          -0.07511885627336214
        ],
        [
          0.10201420338836284,
          -0.35308876837120656,
          -0.6784859762458939,
          -0.2591029773439739,
          -0.38158448022188207,
          0.3048020890293988,
          0.653127677773088,
          0.22144103208364102,
          -0.23430530271278244,
          0.31168128929666195,
          0.6730297703411411,
          1.1905657910166114,
          -1.2733230790904082,
          -0.09208229995711625,
          -0.6729333351400139,
          -0.37807320035359704,
          0.35605911347777336,
          0.26881875688434315,
          -0.5713596022773405,
          0.39553254838534585
        ],
        [
          0.5957913856477033,
          1.8578656353282488,
          -1.441884388028341,
          0.1812194645585426,
          0.10138646845385231,
          2.1317516955970026,
          -0.37283977896506804,
          -1.728371296633232,
          -1.9947979078265348,
          0.17701768509625712,
          1.1026578665722393,
          -2.4182118150220884,
          -2.0481626951066585,
          -0.03570042340985493,
          -0.09284151260589489,
          -0.012281602424209994,
          -0.02200943428824174,
          0.28627048673191224,
          -0.2012436367059781,
          0.01842015828297579
        ]
      ]
    }
  ]
}
