{
  "layers": [
    {
      "activation": 1,
      "biases": [
        0.21945853999589576,
        0.7041166890563221,
        0.8162289212184689,
        0.8393701116495347,
        -0.41972069671708284,
        0.15850289033728818,
        -0.910226831119337,
        -0.47843816632162717,
        -0.04666522152438605,
        -0.4241402210924186,
        -0.11937190539551805,
        -0.8314545129017002,
        0.8154048588352503,
        0.001131802493467904
      ],
      "cols": 14,
      "rows": 12,
      "weights": [
        [
          -0.3884370531196736,
          -1.1830240601088586,
          -1.4108870259788424,
          0.7557272423497278,
          0.1460711359601643,
          -2.1506410571437105,
          2.4321975880184588,
          -1.8293313597517433,
          0.3340466350985142,
          -0.8834901340241501,
          -1.5251298428690925,
          -0.6712261724855798,
          -2.6122204958590225,
          1.8517250733650632
        ],
        [
          -1.7616057589145417,
          1.0901839656925536,
          0.45920296718371606,
          0.7709729965561679,
          -1.8944391804660048,
          -2.3936039268531397,
          2.704623632544071,
          -1.209312285532558,
          -1.379216008542129,
          1.3541227250291283,
          1.388079038218861,
          -1.7203352020733134,
          -0.6057468165203067,
          0.1590871303461464
        ],
        [
          -1.0960826896607763,
          0.8323989698232729,
          -1.9498106668780257,
          -2.328521659995497,
          1.498018260472564,
          -0.010057580696654328,
          0.03768926517671036,
          0.09274855885241937,
          0.16567994747157616,
          2.378197119959984,
          1.8310500542473331,
          -0.2553730907093687,
          1.2034598514467065,
          -0.9378658810043662
        ],
        [
          0.3052867045567182,
          1.205023935223042,
          -0.7794503441056961,
          -1.5707227516348528,
          -0.7484369703630835,
          -2.1756358986527218,
          1.396246112148803,
          -0.14433858301621555,
          1.3226154986517942,
          -1.7436286703790715,
          0.9280438565982825,
          -1.1098661926408855,
          0.8315488648213215,
          -2.5982940308547944
        ],
        [
          -1.7618047690454055,
          -0.6601684611247669,
          -1.6636124972379787,
          -1.6423289359966486,
          0.05615677878202704,
          0.03332553035925571,
          -0.5418183524772126,
          2.107619098492527,
          -0.004506826750007585,
          0.814752192831671,
          0.29596663394858275,
          -0.7730298749595772,
          -1.4021702622938417,
          1.401869985120925
        ],
        [
          -1.6746135675272362,
          -1.8426179899552297,
          -1.8245667214800128,
          -2.3925735127627443,
          0.6164356773233939,
          2.1673383364321865,
          -0.22537725395191285,
          2.565746316163258,
          -2.0005212840593676,
          1.997111868637218,
          -1.53186615439001,
          2.3840996346848002,
          -0.6926350369703832,
          0.34064995869405673
        ],
        [
          0.26099283028231796,
          -1.5582715247487162,
          -0.6676534837995044,
          -0.7406866324843917,
          -0.454571527877548,
          -0.6932489906731967,
          -1.2521739685181876,
          2.1161967287992596,
          -1.2393575707091673,
          0.6142464868522591,
          1.4191008797297384,
          1.4088102596657766,
          -0.5009152806338187,
          0.5096751666206928
        ],
        [
          -0.3691430513087331,
          0.45178137923653366,
          0.3748808754594316,
          0.4305389114231322,
          0.05258798767559562,
          0.049370158580138365,
          0.20897508229503667,
          -0.1514255617874445,
          -0.3207630602200911,
          0.22084847361629026,
          0.288085379027625,
          -0.06698910634347086,
          0.3204431662480815,
          -0.27419352008487685
        ],
        [
          2.8999880362345407,
          2.8219885522349433,
          -1.968341557928667,
          -1.0895447371573534,
          -0.8662752955468798,
          -2.6620370128785145,
          -0.48459453041576017,
          0.6066235755397151,
          -0.7043105009124337,
          2.32283081309224,
          -2.074223198721438,
          -1.4870932556105483,
          -2.2007604801601723,
          1.9324862781941679
        ],
        [
          -1.3219501051406488,
          -0.9913173296240319,
          -1.4091444914533031,
          2.7741878179122956,
          2.4191612292153404,
          -0.37117189137858964,
          -0.9064160202279752,
          0.33766718844040433,
          -2.852157269214477,
          -1.7609976243528274,
          1.7403978236618813,
          2.0408648160658607,
          -0.9517761309136716,
          -3.3220588088933405
        ],
        [
          0.47053120058116255,
          -2.3656537761548733,
          -0.0008747506946675352,
          0.9587380212005054,
          -1.0817809570634433,
          0.13731849869873694,
          -1.386084231768971,
          0.4629269492306227,
          -1.847117266697617,
          1.4149790966979567,
          1.6253646344121024,
          -1.0874346585902974,
          -0.02631218244564359,
          -1.263572030478851
        ],
        [
          -1.1597328143202372,
          -2.893465945249368,
          -2.47451673577682,
          -1.8642787316370362,
          -0.4190868199553631,
          1.2182761809511504,
          2.980027728944335,
          -1.197115941090112,
          -0.7196336459427192,
          0.23902262174891242,
          1.1289291674063442,
          2.7410624754172543,
          -2.3141687052961584,
          -0.7651692424341048
        ]
      ]
    },
    {
      "activation": 1,
      "biases": [
        0.43677820292067426,
        0.37614783309040906,
        -0.0798100341540456,
        -0.3948716859739592,
        -0.6058605404206265,
        0.4459732343635942,
        -0.403627017160548,
        -0.3550229277447882,
        -0.5058809597591573,
        0.4664949922852199,
        -0.17539595421428325,
        -0.34184264459462843,
        0.013160088703368895,
        -0.6455169192471761,
        0.0743148049121104,
        -0.38694500248330554,
        -0.39788297573811776
      ],
      "cols": 17,
      "rows": 14,
      "weights": [
        [
          0.7754069585013398,
          -0.6633203389352574,
          0.11441019051874131,
          2.3742208380557335,
          -1.3609830531534517,
          1.551118277835891,
          0.02427423592244528,
          3.477818278988786,
          0.6267995862260821,
          -0.9897270499685163,
          0.3311090517393492,
          -0.37135834498585135,
          -0.08604111150485592,
          0.48080460678927867,
          -0.3076705598848079,
          2.1932031653142467,
          -0.8775363856146866
        ],
        [
          -0.22809685759368642,
          -0.9579744515066079,
          0.5154485912720057,
          -0.1232937820638215,
          0.21164159292582482,
          -2.8558818917781372,
          -0.21375395723297771,
          2.6109203568299577,
          1.0751127786400863,
          0.0030850281063058795,
          -1.7339458994941679,
          0.44804988754249164,
          0.6199763021449569,
          -0.6092156116229817,
          0.38143651485112,
          3.3061082431498163,
          -2.024235771298402
        ],
        [
          -0.9637025941963845,
          -1.28386813580161,
          2.773801746556092,
          1.8426813975419434,
          -1.4492901106744054,
          -1.814209809530613,
          -0.2534669732331147,
          0.5291206119605286,
          0.849492074257556,
          0.876842973967049,
          -0.7135151267261542,
          -1.0763255773831502,
          0.24251146385666308,
          0.7167359443594152,
          -1.3986152000644423,
          -0.25006292564910365,
          -1.8947607727077707
        ],
        [
          0.8326722199780658,
          1.7137879068394184,
          2.2539117251319762,
          2.1122708639929253,
          -1.199154453047648,
          -1.16603035904245,
          -2.713448772901494,
          0.33405849985525843,
          0.7206957587376871,
          1.6345462831643676,
          -0.7996751503224772,
          -2.961976606252068,
          -0.1418477848123775,
          -1.1763025425620135,
          0.01902973382924906,
          0.027179120335013737,
          -1.3789134086514931
        ],
        [
          -1.5144975175530744,
          -0.5403536841944532,
          0.11723247851093112,
          -0.6338187183825372,
          1.919384503323043,
          0.007319007363393089,
          -1.1176372579226623,
          -0.7996776244104359,
          -1.082476675686779,
          -0.9243744890797029,
          -0.19790778220064933,
          -1.9404845292247084,
          -0.5427370279309419,
          -0.8653967804912446,
          -0.3185155763572296,
          0.9555210367187454,
          1.4568006074391628
        ],
        [
          -1.0367820367138265,
          -0.0021682854466871303,
          1.2385175691319665,
          -0.4821562991667689,
          -1.4824841276114105,
          0.9927247123285771,
          -0.30367339457044457,
          -2.7480761379297043,
          -3.8177452846473696,
          -0.9991569896233796,
          1.0503811902224947,
          -1.1036276641223766,
          -0.5229611582968211,
          1.903371003504052,
          -1.3684595065096177,
          -0.9123884406092165,
          1.7740457097558082
        ],
        [
          -0.5081125687164006,
          1.5918489993970037,
          -2.391936442442629,
          -2.314099494757226,
          -2.2076047977440227,
          -0.6613122879373002,
          1.6837784107945069,
          -1.881430017905571,
          2.547499257055649,
          1.3809660318673167,
          -0.10596886429335452,
          0.4399961447447087,
          -0.30952116123906964,
          -2.3494647232506227,
          1.1530315192622684,
          0.2656152643654394,
          0.18822380548409606
        ],
        [
          -0.339143043586816,
          -2.379411044367211,
          -0.9555274015226407,
          0.2966901603811215,
          2.3229579988099887,
          1.5246279803408702,
          0.0005486500921790733,
          0.6167182158966503,
          -2.7745242803325603,
          -0.18060712539821588,
          -1.45165388241461,
          0.7858119076812483,
          1.0061631544651033,
          1.64463623158918,
          0.31780683949924965,
          -0.8169374874800412,
          0.9109353717758781
        ],
        [
          -1.5236248369582017,
          -0.9393380905230684,
          0.6593650508587285,
          -0.2751089685720069,
          -0.3699102109213797,
          -1.1218746483642454,
          1.0214367119096983,
          1.7233624895683852,
          1.9889821093741265,
          -0.9448632466688074,
          0.060675175088953606,
          0.023187308592142734,
          1.3130489714492193,
          -0.1827804329292099,
          -0.2046471290351495,
          1.7524957231280833,
          0.5629989426428726
        ],
        [
          0.19171604662398326,
          -1.5386687141491637,
          -1.35146917057495,
          -1.814017807313894,
          0.42514456539318457,
          1.1170602702669508,
          1.199437866733779,
          1.885709167014908,
          -2.164213834028192,
          -0.48679651414045205,
          -0.7384738655544659,
          2.223939256866151,
          -2.90546075309194,
          0.2347999772659877,
          -0.7191797633347256,
          -1.3266769128555789,
          -0.3162777867517801
        ],
        [
          1.4746831446234852,
          0.23686533128538703,
          0.0036356699558483985,
          -1.3276978753454176,
          2.268833528187453,
          -0.2270023135204204,
          -0.09291065096198935,
          -1.8406836337562067,
          -0.6191688108599017,
          1.6235921276377174,
          2.4451100360461844,
          -0.9725478021442192,
          0.7204315731743743,
          -1.272821504373728,
          -0.4513365773136769,
          -1.3535618012084354,
          -1.826352035689445
        ],
        [
          -1.137809748565592,
          0.025737284695850463,
          -1.4040075521814734,
          0.21710399949550407,
          -0.03447619418137744,
          1.9990460595388955,
          1.277089490353646,
          -3.1208229463456054,
          -2.7586643515071834,
          -0.17183904509275014,
          -0.01746334183052627,
          -2.8103303901352175,
          -0.12408056813002273,
          -0.7496561398523239,
          -0.4351331438327761,
          -0.5633256566599739,
          2.00796946580775
        ],
        [
          -1.2132288102884101,
          -2.186245424954941,
          1.6075530565329694,
          0.31721768953121826,
          0.8223287244420824,
          -2.277031304519411,
          0.27959079161135,
          0.3274233293315992,
          -0.6684634872967983,
          -1.006575964589771,
          1.179662990862498,
          -1.0314905922354882,
          0.40872124531493426,
          1.7174183799777536,
          -1.4907213031854838,
          0.3723821195396478,
          -1.7024930571624675
        ],
        [
          0.6435218404736671,
          -0.31632147007808087,
          1.229391267410202,
          -0.4813527625488271,
          -2.530177413881234,
          1.542057358170188,
          1.187108795428693,
          2.09974254582756,
          0.4017064118907463,
          -1.6904441967707375,
          -2.6148684844310557,
          3.08412393222007,
          -0.3835187783584566,
          -0.04121438556503732,
          0.1691892994300549,
          -1.2416399757631709,
          1.5396961332526962
        ]
      ]
    },
    {
      "activation": 1,
      "biases": [
        1.3344286178502758,
        -0.7731140655261258,
        -0.5438721658277199,
        0.4160864251393861,
        -1.1681895926922012,
        0.02549935916061745,
        0.36211206965870696,
        -0.4997745497440685,
        0.5275919901343857,
        0.4076031078564685,
        -0.7713963296055517,
        -0.1082331721448424,
        -0.0651228408200691,
        1.2021462750159189,
        -1.7286072790275018,
        -0.2359056626081593,
        0.4556850895752913,
        -0.22988460478431413,
        -0.40910908713070787,
        0.8131416146222326
      ],
      "cols": 20,
      "rows": 17,
      "weights": [
        [
          0.4556097502118944,
          0.14905363543038763,
          0.1869317934061813,
          1.1001670504812346,
          -0.5660118332672168,
          2.09058004238309,
          -0.24983124865615294,
          -1.4797286826678913,
          1.4798841248816652,
          -0.7381348951704306,
          0.18031658053400507,
          1.0075557045357921,
          -0.782202833447402,
          -1.044766799652391,
          -0.1259315149637383,
          -0.2611885291221303,
          0.10153127122920483,
          0.26989889979905224,
          -0.8346801688747444,
          0.03129568210039244
        ],
        [
          0.3645673459224079,
          1.3059609820875702,
          1.0190138928983956,
          1.7007588072659003,
          -0.6382934635137076,
          2.3091604167138517,
          0.9443587295965581,
          -2.981909322572918,
          -0.1868568280740312,
          -0.29129298026204814,
          -0.21532957013291662,
          -1.6533742689502198,
          -1.1016719666161578,
          0.6204332683519017,
          -0.6375640972964791,
          0.33834007058209814,
          0.37201256112591513,
          -0.11835257066090339,
          1.0571143204208144,
          0.4029002304725632
        ],
        [
          1.0015151344010047,
          -0.8070924925331006,
          2.007868525351571,
          -0.6032813092264993,
          -0.37879795786895826,
          -1.416110281981608,
          2.1449703326195393,
          -1.7219314623071682,
          0.04453571491104994,
          0.5562044878029716,
          0.18645608522922544,
          1.1768486662958748,
          -2.6231167872323975,
          -1.9350930155442778,
          -0.638919003486425,
          -0.05263198968908242,
          -0.02703159104761975,
          0.26666381424104046,
          -1.1939863213284465,
          0.25906043895735303
        ],
        [
          0.6566352176861053,
          1.1775796115216561,
          -0.8716641769202585,
          -1.7317917623672436,
          -1.1554507714705777,
          0.6666959966958587,
          -1.3545249242462565,
          -0.03338686216952555,
          -1.8743811719616479,
          -1.4659959072108208,
          -1.5959068876819693,
          1.2688424750555756,
          0.14056468973705133,
          0.82380733424795,
          -0.8809727883865391,
          -0.6925105057111651,
          -0.4199733449708794,
          0.6831215004014872,
          -2.0226570840419686,
          0.2395858959387682
        ],
        [
          0.47065143606583026,
          1.8605571899937254,
          1.7370778648694947,
          0.25185437426306556,
          0.6101180380748871,
          -0.14612399562898368,
          2.0801041643205704,
          0.894116969502879,
          -0.4857658212560024,
          0.23808127880822796,
          -0.5774968067033132,
          -2.54547725544439,
          1.7336671652077968,
          -1.8446477455329193,
          -0.36782381159621114,
          0.3329118918541063,
          0.4673117004366629,
          0.37371974163755756,
          -1.1475726580093468,
          0.23325632582151223
        ],
        [
          0.574209993589373,
          2.2994221072540038,
          -0.26462484318357127,
          0.39486904502083514,
          2.766504597692041,
          0.24527923041954103,
          -1.2693112922213172,
          0.020178480839932362,
          0.023081733412281934,
          -0.716480004355535,
          1.325098115805063,
          0.44417181733105543,
          0.28096967091501596,
          -0.7209696366260223,
          -0.6717940557233943,
          0.06414168300586595,
          0.07267130357221682,
          -0.006207493853526313,
          3.3414712662438895,
          -0.04837510320787311
        ],
        [
          1.0353896663749962,
          -0.955890725963304,
          -0.452139847185375,
          0.5968468799292903,
          1.573836055888668,
          -0.6247392975120359,
          -1.3773299850884717,
          0.6857417765191992,
          -0.5085973529065523,
          1.3705090408225813,
          -0.24443479059541795,
          0.5108030839551908,
          -0.05499844739182734,
          -0.7069238177484178,
          -0.9088996183595426,
          -0.7481758898655972,
          -0.6144211111590149,
          0.06716498515870867,
          2.0072125114918737,
          0.4716704910997931
        ],
        [
          1.0253097777099285,
          0.812102478374592,
          -2.1926920422069496,
          -1.2735603706095793,
          0.5295013313010684,
          0.20028870543031424,
          0.7745303816739884,
          2.4973440900964605,
          -0.11625501573190447,
          0.7956953319618251,
          3.636034858789595,
          -3.281170795766839,
          0.33189523396029963,
          -0.7112256466090291,
          -0.9731917320712621,
          0.8521661443189985,
          0.7578099188225146,
          -0.3837603392931541,
          -4.28010306343827,
          0.08865018051975482
        ],
        [
          0.4894480653497647,
          -0.15858469262841132,
          0.7747012534366615,
          -0.03297790369604723,
          0.06385864753072935,
          -0.792466724607417,
          0.3800208025731094,
          2.2225531219416528,
          -1.0091866716638458,
          1.6264284619000695,
          1.5272178073434364,
          1.0518837783837265,
          -1.9515809948978053,
          -3.735360460503342,
          -0.451478436606303,
          0.030037800538194985,
          -0.08738620504448638,
          0.18016585186302853,
          -2.8319017259194403,
          -0.180290834933102
        ],
        [
          0.7417596458737059,
          -1.2460992371636714,
          -0.7755247664223375,
          -0.6179744956853007,
          0.6653093806219723,
          1.49026274138112,
          1.0372966128884233,
          1.4978236601983241,
          0.4732889267435485,
          0.06275960433239715,
          0.7314198950106472,
          2.2300888798648777,
          0.19168582045643842,
          1.5986668042175174,
          -0.8063368471086497,
          0.17254143581189915,
          0.12703262581935681,
          -0.31157260741029214,
          -2.0679789086044145,
          0.5666853752041318
        ],
        [
          0.8715304338176599,
          -1.1753699426822681,
          2.1261231130108453,
          -0.42957223702103303,
          0.7245227589218344,
          0.5467746024123072,
          -1.2686403768925696,
          -0.27233018914761004,
          1.2337750799977931,
          -2.0206683730466093,
          0.5973037432033473,
          0.08496618657803466,
          0.7310172098860649,
          -0.5773537058393295,
          -0.29595341138931236,
          -0.250246765509993,
          -0.3476367472083094,
          -0.3565959311416403,
          0.5506340729375688,
          -0.05692561267138398
        ],
        [
          0.46580126021591545,
          1.0081790622197992,
          1.793118415049213,
          2.1640714686835625,
          -0.2814023539127057,
          -0.9156641305471186,
          -1.2273591971467839,
          0.6491378061012538,
          1.6275495789190721,
          -0.7144191652107152,
          -3.012075272616855,
          3.6014507411073557,
          -0.746934958939166,
          0.08324122743339564,
          -0.436829387998256,
          0.19535630590064043,
          0.13423711935108754,
          0.06375725519469772,
          -1.1923246987049192,
          0.05909982457028693
        ],
        [
          0.2656485887320526,
          0.14658516434378832,
          1.1129578160080633,
          -0.2115254836060799,
          0.29941634574147874,
          -1.4789410928068008,
          -1.0532921408312363,
          -1.4665093400283065,
          -0.6950727585509534,
          0.8244331914446807,
          0.11544223703661019,
          1.333811406131776,
          1.7333730089540864,
          1.0074075081924712,
          -0.4601482179949306,
          0.4497350680860872,
          0.522946792062937,
          -0.13012790332866517,
          -1.7511401312666552,
          -0.12440976647052382
        ],
        [
          0.5640843984803245,
          0.11510997252868983,
          0.1715122653386266,
          0.0946278761334327,
          -3.5909626366428187,
          -0.9550987922938541,
          -0.6862884876662139,
          -1.5575957135690404,
          0.27208758257628746,
          0.537069208984071,
          -0.42081997953782474,
          -0.18897359925877386,
          1.5633243968809367,
          -1.2252585090938317,
          -0.33533344680340754,
          -0.10113353994195003,
          -0.10118949731295791,
          0.1274372404919123,
          -0.4251331668177076,
          0.36175714522580843
        ],
        [
          0.45324552499315984,
          1.700251262994907,
          -0.7515057571404641,
          1.3353526457854694,
          -0.4654786508890697,
          0.8260335007320971,
          -0.8182390830609165,
          -0.6236080860950833,
          -0.43337697287344884,
          0.15720377897510396,
          -0.29683510815050057,
          -0.45440051526910136,
          0.6816092039106909,
          0.36889676537615407,
          -0.5880285701426383,
          -0.1348912287740588,
          -0.06733141762528681,
          0.1970062859804946,
          -0.5344944602182146,
          -0.012469422572437341
        ],
        [
          1.0814937988604452,
          -1.0844535113892115,
          -0.5812793829703026,
          0.25226103528478655,
          -0.08124582173833214,
          -0.21694185852610726,
          -2.661960851577206,
          -1.1002890373379879,
          -0.016896054298305787,
          -0.7936810784789472,
          -1.8550324976444053,
          -2.357519037485493,
          0.25309976957209707,
          1.3687286666539538,
          -1.3372193401204766,
          0.06680648383892955,
          0.07479164741971836,
          -0.2552275805739117,
          -3.1870810495528263,
          0.3343093455424028
        ],
        [
          0.815325080719839,
          0.36393982862579566,
          -0.04475621391086801,
          -0.273561932129701,
          -0.06477788165088623,
          -2.5990809317819386,
          1.1083795802883407,
          0.6240617618430365,
          -0.943003442031314,
          0.5131404711988234,
          1.6722175630110672,
          -0.6872810917673959,
          -1.6985938861673406,
          0.46744358307027944,
          -0.7305588250477122,
          -0.06337389678955985,
          -0.17410241037854166,
          -0.62950534385645,
          3.4190731126830745,
          0.3559215091794423
        ]
      ]
    }
  ]
}
