{
  "layers": [
    {
      "activation": 3,
      "biases": [
        0.4329276984088952,
        -0.5159807109157977,
        0.22185904883547372,
        -0.9517870907297332,
        0.08943143871321733,
        -0.26210016310215084,
        -0.6289111146530194,
        -0.27503566201544727,
        0.001903728825012828,
        -0.039932564270890265,
        -0.46534956912387165,
        0.7181887857983974,
        1.3573845003337264,
        0.4250282715000207,
        0.7172064299441947
      ],
      "cols": 15,
      "rows": 13,
      "weights": [
        [
          0.9099786781691784,
          0.6535825534085054,
          -0.685875305094798,
          -0.5973417788893824,
          -0.054177231273553506,
          -1.0635123030908111,
          -1.992283717054969,
          1.1700228105877726,
          0.7941663806432963,
          0.23320282103564052,
          -0.9930916970339375,
          1.411821341394855,
          0.3917087145022622,
          0.39477401658955197,
          1.1777188428458498
        ],
        [
          -1.087331770539117,
          1.3311563060193234,
          0.32353317092590167,
          1.930960556404695,
          -0.7572148906673527,
          2.3089343557259796,
          -0.5017637346257211,
          0.47769183025767276,
          2.296614976278416,
          -0.8217641419945605,
          1.2602001298004044,
          2.1175784537595805,
          0.3098570933363571,
          0.38533384871024107,
          -0.2961176757820881
        ],
        [
          1.1558611830218215,
          0.00019518180150376876,
          -1.3964448442548112,
          0.2319166687553329,
          -0.00785265668389264,
          -0.9753052965076099,
          0.1250635952446694,
          1.3640959128811845,
          0.58315405017896,
          -2.3895793686479148,
          -0.1148173376364459,
          0.4542452905236798,
          0.908441349994711,
          0.46255650935294856,
          1.1996939312189805
        ],
        [
          -0.33122217911763246,
          -0.03677631462020873,
          0.17861502002815732,
          -0.15306961279038406,
          0.19379077737355743,
          0.766839549956744,
          0.09129212007423519,
          0.5656581447190201,
          0.5866925273274403,
          0.6052293030093864,
          0.2794487261436637,
          0.4852885785165167,
          0.09238257943403422,
          -0.04434492266049527,
          -0.32093042767978597
        ],
        [
          0.4700781764593542,
          -2.190637235124209,
          0.13227439756964088,
          -2.6841245373550833,
          -0.3723868284761249,
          -3.1043815819315257,
          -2.5692927118362032,
          -1.7778887254938733,
          0.7068108404834234,
          0.5593767824232242,
          0.2985613229990613,
          -0.383056050691376,
          -3.6190431586214475,
          0.9251630677934627,
          0.3662605794622383
        ],
        [
          -0.09120108090603282,
          2.8096317806581657,
          -0.6391514820346645,
          0.8802483049501687,
          -0.3651640861615366,
          0.8601492266470436,
          -0.6777925933122838,
          -1.1367706844637926,
          0.6886459262926887,
          0.8459735670732443,
          2.924358187727974,
          -0.576415831911381,
          -2.387606894032368,
          0.4244837419817072,
          -3.588111786489445
        ],
        [
          2.2469166416701194,
          -1.1537980042640268,
          -2.309487801145136,
          -1.533820686018602,
          -0.5485812495139647,
          -1.6704821696438008,
          -1.6341056958429296,
          -0.33000902623923756,
          0.4718727566137743,
          -3.2617498773550304,
          0.9883870176623771,
          -0.78971929216312,
          1.3368185788470353,
          1.879348770726734,
          -0.07726767515231253
        ],
        [
          -0.2360629607547477,
          0.024327490118821852,
          0.21069529869922937,
          1.30030799112413,
          0.5388313762763707,
          -2.0849851108114352,
          -0.20000207310817916,
          -0.9982669820682171,
          -1.3614147192248858,
          1.4617808403194108,
          -0.18027538566627566,
          -0.6713958881355959,
          -2.3347213760504437,
          -1.4448222874719785,
          1.0916197156286234
        ],
        [
          0.36160599793144177,
          0.5035604921256407,
          -0.20296277724601025,
          0.5004117269704382,
          0.4185787691539977,
          0.1348915031388514,
          0.010620533011371535,
          0.05332657131383513,
          0.3943449231497647,
          -0.7735472069677546,
          0.15569961496493506,
          0.5468547569310208,
          0.4372707743572142,
          0.20444919740913567,
          1.1792003804163862
        ],
        [
          -0.2613929606878034,
          -0.5962238032230647,
          -1.3813146029648613,
          -0.23938220393598073,
          -1.2964142242890606,
          0.9882160066193834,
          -0.25083720475522053,
          1.39634874766191,
          1.5019705323274744,
          -2.162754130185666,
          0.4342454237313824,
          0.584759514834323,
          1.4685925494246646,
          0.3157997544511218,
          -0.9120669377486534
        ],
        [
          1.0349507154293935,
          -0.6381906580009877,
          0.17561599215719026,
          -1.171821017809618,
          1.1447268728207525,
          3.0386089233659366,
          0.26899401069531453,
          0.8923889424248913,
          2.0390163069704794,
          -1.2198274337037274,
          0.9262252318030757,
          2.1300252131994655,
          3.5640944026606682,
          1.8357953239757085,
          -0.3043349003653345
        ],
        [
          0.0978567110433299,
          -0.9161215909339907,
          -0.6316215826271857,
          -2.128965074236542,
          -0.9060030001551358,
          -0.1778101606532144,
          -0.11389972845625705,
          -0.3066090981747827,
          -0.6884484481776361,
          -0.8672803995129517,
          -0.12154519144357974,
          -0.5424309349490319,
          -0.7085207831974746,
          0.1783407624645275,
          -1.037253658965044
        ],
        [
          0.8254942420736088,
          -0.14129214865834933,
          2.0480105379385445,
          0.1132556550137552,
          0.8512424398111385,
          1.6404624488246495,
          0.07263921259556275,
          -0.11880132590196887,
          -1.0245476270611793,
          -0.23751403648007072,
          -1.0572066440274468,
          -0.004689475256159764,
          2.377919842427632,
          0.9592432997709879,
          1.0137568627635918
        ]
      ]
    },
    {
      "activation": 3,
      "biases": [
        0.9951432817772364,
        0.8770413105838442,
        -0.4397667846291231,
        -0.590044110139643,
        1.4966905044149112,
        -0.14587527613315207,
        0.060938201560736954,
        1.4056076026578102,
        -0.43444682963280956,
        -0.9461311907203546,
        0.9091610411052082,
        0.5049231589601051,
        0.16382891828505058,
        1.3114996480832812,
        0.4801211839832871,
        -0.30715195132042467,
        -0.27141376352408597
      ],
      "cols": 17,
      "rows": 15,
      "weights": [
        [
          0.11144020342455767,
          0.24667075239318573,
          0.5224041009565016,
          -0.9615085095548568,
          -0.3585821193793306,
          -0.9285648217088012,
          0.4222718002695675,
          1.745285010411864,
          -0.5448512869348433,
          0.4157230618904962,
          0.4340752846271693,
          -0.03615032730153606,
          -0.10911151854522719,
          0.5019483519435467,
          1.5030679287840036,
          0.5346702586225268,
          0.6722498010980716
        ],
        [
          0.9256050884338057,
          2.716542742839237,
          0.42218151710250007,
          0.25610488810711945,
          1.4446664167789391,
          1.0634744149653688,
          0.47032807907824875,
          -0.6926396376662692,
          -0.43612273995807654,
          0.08779096251380669,
          -1.3390788091667711,
          -0.08715659207957752,
          -1.0757737798259832,
          0.1993557230460256,
          0.5829112022632957,
          -1.3157290941284665,
          -0.12192043498630775
        ],
        [
          1.0042715286880202,
          0.7899605253915036,
          -0.5673247727843215,
          0.03330146673394468,
          -0.08362514418138399,
          0.5985617068550478,
          -1.3057296014706612,
          -0.8780935629284112,
          0.6483252826466498,
          -0.2700932848551907,
          1.8634110597483238,
          -0.6687900630874194,
          -0.31345302491158833,
          -1.0978724661317925,
          -1.3544642730467895,
          0.4806096205811883,
          -0.7630732548671498
        ],
        [
          -0.16993504442606785,
          1.044924016781494,
          -0.20590088401321158,
          0.3310658480889579,
          1.5038951776495224,
          1.4495984301706992,
          -0.658183593775702,
          -1.7364472130369002,
          -0.08014770915650272,
          -0.17474463178467323,
          -0.7138739498665505,
          -0.2373683259851285,
          -2.1785673865025474,
          -0.4114646827282531,
          -1.7081548121488206,
          0.16276827873608038,
          0.9132745946403724
        ],
        [
          1.0208305302398177,
          0.40577172225086733,
          0.2630417140150423,
          -0.12761905025252027,
          0.1110139499301902,
          -0.3711433091737517,
          -0.2639433181457957,
          0.12593612978799368,
          0.7108972881086169,
          0.4501101587958133,
          0.5954177091538344,
          -1.0648919725521142,
          -0.5767264922664761,
          -0.7275746427695979,
          -0.6164973320668659,
          0.6542226447516537,
          -0.06847812677464733
        ],
        [
          1.306873778267464,
          1.0503874529100485,
          0.7142879433598021,
          -0.9748813789948688,
          0.2734867038506066,
          0.016324714255912108,
          -2.3049266705680864,
          -2.1790190126630544,
          0.8089802238578663,
          -0.06389046077610828,
          -0.2378942008770414,
          -0.7645890335778517,
          0.07612481106535575,
          0.2632429091891998,
          -1.2734481463508658,
          -0.3328664085081874,
          0.17305590845990146
        ],
        [
          1.0882558200699122,
          -0.5801183470067249,
          -1.5696485553494797,
          -0.7934324479867686,
          0.9408974537207568,
          0.4560220535631361,
          -1.5725379152108585,
          -1.2298543170160365,
          -1.2409844856195567,
          0.2737116264903402,
          -0.8073687658115831,
          -0.30761312903467813,
          -0.3263491535170988,
          -1.4085263151081864,
          -1.6426440103780446,
          0.10395181785307706,
          -0.4373961546211843
        ],
        [
          -0.05755140936915614,
          -0.10562162721665731,
          1.23301954629831,
          -0.44887341151415894,
          -0.9317341921331312,
          -0.332782759135823,
          0.242044604644668,
          -0.19908182654768528,
          -0.04258497788331504,
          -0.49551686354098995,
          -1.560524781465591,
          -1.2042877751140473,
          0.18821321497584934,
          0.02630138184774571,
          -1.0004265142400093,
          0.6258969167460039,
          -0.18636567408963933
        ],
        [
          -0.5998318105519661,
          0.6634256232205098,
          1.444902131102059,
          0.7977853205703851,
          -0.25548368376232233,
          -0.7342279711228383,
          0.30188041115294867,
          -0.789330844203831,
          0.8170477309547891,
          -0.2588247912378313,
          -0.8879847234978505,
          -0.9756289538222493,
          1.3101365301879868,
          1.8306448786949026,
          0.5930303643899159,
          -0.31796680512135544,
          1.1033357081041921
        ],
        [
          1.6696775384020694,
          0.2575447135976077,
          -0.6248652410868317,
          1.4491539370647595,
          0.12414160074235288,
          1.0885773082228658,
          -0.13910362870664644,
          -0.9561532715958412,
          0.7709270718444313,
          -1.0745554190184585,
          0.8322023528162711,
          -0.3087147140548324,
          -0.8140825292791789,
          -1.062775665327801,
          -0.981886036877432,
          -0.9562328354373941,
          -1.3992400336971456
        ],
        [
          -0.0001347253899977207,
          0.6008194439471681,
          0.2186145570746176,
          0.773768813778441,
          1.7891768972877757,
          -0.254905593639767,
          -0.6853968262023481,
          -0.6197563527077133,
          -0.06101977666061536,
          1.1745294411752405,
          -0.1667612466408497,
          0.7956994201094615,
          0.19256670653295463,
          0.8707054140904033,
          1.3692732146038524,
          -1.5043063429802717,
          1.7796592500863584
        ],
        [
          0.08987679381760441,
          1.4171659551838507,
          1.2486111477023134,
          0.1126194595985204,
          -0.2617067883258743,
          -0.0340009347239058,
          0.06770468894731435,
          0.6094798943327842,
          0.6694926816782101,
          -0.7841258534900196,
          -0.6190521359741147,
          -1.700560704285725,
          0.6003898510360235,
          2.3808829449036244,
          0.12871596216008957,
          -0.1890037632009513,
          -0.03303636133293591
        ],
        [
          1.1502802369954463,
          0.12301309941394196,
          1.6704325332328778,
          -2.4287413359125183,
          -0.14924755700193915,
          -0.8917559182632632,
          -1.4648073775013348,
          0.13471283991300897,
          0.11737477148829428,
          0.12654805975459446,
          -0.37694929084726453,
          -1.4974594563823709,
          -0.4891895737781836,
          0.5760788311153558,
          -0.8272614036556696,
          1.3737877000477259,
          0.5402540735961769
        ],
        [
          0.04180294292555501,
          0.793108453666506,
          0.3461733148419885,
          -0.9539956282866793,
          0.6891616144305646,
          -1.1372070738191433,
          -0.16074508048717276,
          1.1767913154390817,
          -0.061310315222306545,
          -0.006129557491616044,
          0.8442356281364521,
          0.09841050140521891,
          0.975250008852727,
          1.5549394572090995,
          1.4854006144203546,
          0.10312760200153305,
          0.9166995819451358
        ],
        [
          -0.24459782544685765,
          -0.16884828319782552,
          0.13417300380253444,
          -0.08236534532351686,
          -1.5328737596076858,
          0.607029186221335,
          0.9065277433437492,
          1.4989859957892333,
          -0.14835550803864098,
          -0.4229340281611923,
          0.09423720943651388,
          -1.7161746145228312,
          -0.5336313228669212,
          0.22044050158746717,
          -1.3686756529641224,
          2.6971090324132323,
          -0.5206491145814347
        ]
      ]
    },
    {
      "activation": 1,
      "biases": [
        1.9731581134957925,
        -0.3557033580563968,
        0.047496614336228184,
        -0.7991807815001721,
        0.04468249274805019,
        -1.1552509669730149,
        -0.7680775002972515,
        -0.25123505438480626,
        -0.22089930841207905,
        0.5735280020205009,
        0.5050616832444504,
        -1.0592342458085875,
        -1.2830012974403826,
        -0.7565034791958767,
        -1.9516590277205836,
        -0.5156613258885895,
        -0.09632945831843787,
        0.10413887693393996,
        -1.111936084140462,
        1.153756908038002
      ],
      "cols": 20,
      "rows": 17,
      "weights": [
        [
          0.8384817548632034,
          -0.45254113964175474,
          -0.29332692562217394,
          -0.03599693678568021,
          -0.9858658007381009,
          0.12544039497158385,
          0.9820322859934684,
          -0.26570330732266473,
          0.44484411027985243,
          0.9218067782549431,
          0.35396141338564535,
          -1.8322333009375715,
          0.8801111261490812,
          -0.5676120815973399,
          -0.9989631182676042,
          -0.42865935023340823,
          -0.18735517331076432,
          0.1428282119142865,
          -0.331984556784475,
          0.2592467704935876
        ],
        [
          0.6961672398305934,
          1.3273294038868273,
          -0.6713940830198311,
          0.7143405905744143,
          1.57241152688857,
          -0.07927735832144879,
          -0.6767247328980567,
          0.7041000401470097,
          -0.3526027042371617,
          0.6370196087433557,
          0.3839692451734032,
          0.3422955049240999,
          -0.9490444300120996,
          0.3769370239442448,
          -0.47186107476996597,
          -0.12025175491451937,
          0.01322948003041086,
          -0.022385291109489787,
          -0.2846722449085346,
          0.1268206268604923
        ],
        [
          -0.2837086503915404,
          1.087416914434162,
          -0.07173262405429028,
          -0.5199624947748325,
          -0.7265591050438123,
          -1.3160519264432335,
          -0.20942543323382487,
          -0.7317120260628792,
          -0.7826972744309508,
          -0.11895632617033063,
          1.0904588651311422,
          -0.3671389767303238,
          1.501209673996729,
          -0.8682118795632101,
          -0.2091160780850265,
          -0.3592637266058483,
          -0.28404914930107783,
          0.28910220593489666,
          -0.3737656828971394,
          -0.24936084451434873
        ],
        [
          -0.9013255136698313,
          -1.65544651984427,
          -0.22991258447357574,
          0.01690702249746996,
          -0.06806752121340934,
          1.4882526054608558,
          -0.3353436418640598,
          1.2032597003979444,
          -0.1750991062446469,
          0.6669915655496303,
          0.006575090915510716,
          -0.2872883680985384,
          -0.8399302766923459,
          -0.16136055599475815,
          1.141494953742694,
          0.11928303441631473,
          0.13747107536779554,
          0.14569378683367581,
          0.8836768059080145,
          -0.2220270344281177
        ],
        [
          0.5350341440152718,
          -0.2519167039180626,
          0.06951514327602464,
          0.7486097671814793,
          -0.2691659830487211,
          1.2553345895706391,
          -0.837477418916498,
          0.38263045800908746,
          0.6701296975698703,
          -1.0179592913808035,
          -0.08018874443199266,
          1.1019622350568876,
          0.9647073079282683,
          0.8991987823948405,
          -1.0527708509590388,
          0.3311525524904045,
          0.27292638649096074,
          -0.2986244296393754,
          -0.004527349939154858,
          -0.06271423905469935
        ],
        [
          -0.3552786096999207,
          -0.4527024912971011,
          -1.0675290686275547,
          0.277000331566593,
          0.1922615219572266,
          0.5618674663567415,
          1.0508423365451434,
          -0.18509551696542656,
          -0.327566067370257,
          -0.10530422167465754,
          1.3461163366413866,
          0.6338993831025517,
          -0.35389774263223245,
          0.8060837604905565,
          0.5445857206401804,
          -0.3725729261244884,
          -0.4976481952043802,
          -0.23256857489873142,
          1.5408542962141738,
          -0.1974006298910745
        ],
        [
          0.046958797108511974,
          -1.373241548938694,
          0.14229640675943384,
          0.5046038908356917,
          -1.1938896686610856,
          -1.602275817554948,
          1.2308260577166308,
          0.6247004724917818,
          1.0799467960766578,
          1.3306752385181584,
          0.6797735845126357,
          0.3108580647639033,
          -2.191069464600652,
          -1.1556998068028814,
          -0.2324487939708537,
          0.060012130226595975,
          -0.0655049349729624,
          -0.26484137124745405,
          -0.9926074344027492,
          0.14094593836696714
        ],
        [
          0.10505622769758456,
          -1.0554971258824684,
          1.371576635355058,
          0.16780293303985572,
          0.4174481364701027,
          0.6756467047777863,
          0.5871849047610791,
          -0.8449909063412898,
          0.5088699147943576,
          0.13245130458274532,
          -1.3303989258003723,
          2.2284579229011117,
          0.6793174765887211,
          0.5387636785886377,
          -0.13429366385959976,
          0.05379306991756904,
          0.09981177217046834,
          0.21641658553414034,
          -2.427960771898026,
          0.007814270640480321
        ],
        [
          -1.0589391591167658,
          -0.25946544289070755,
          0.00942372055403266,
          -0.8554040533810843,
          -0.6077530794123976,
          1.5124319869578082,
          0.9609094152113327,
          -0.12127153571774103,
          -0.5331697828500048,
          0.016184059378469662,
          0.3862872773566938,
          0.2919456109770587,
          0.37013515977818046,
          0.5813858004622596,
          1.1968687226324393,
          0.015303314797665361,
          -0.2333728547075248,
          0.2124761640490718,
          0.293468214081488,
          -0.42678029693039937
        ],
        [
          -1.035217576352576,
          0.8388379415067108,
          -0.02374415592296791,
          1.0392528602382747,
          -0.2989764861673295,
          0.5837187138317563,
          1.3282678855736525,
          0.6429779741594909,
          1.0039025244155688,
          0.18733393326880227,
          -0.6406070408021451,
          0.22601094979120176,
          -0.21176875090043287,
          0.529460874499818,
          0.954825366849561,
          0.13862989476938628,
          -0.04123088992355224,
          0.3796568089428398,
          0.7749677017451502,
          -0.6084053112232792
        ],
        [
          1.212530517744541,
          -0.769533782845763,
          0.15442652751711225,
          -0.13053178225403386,
          0.3661258663157871,
          -0.0448900197548631,
          1.6839278236352282,
          0.44113453518415247,
          -0.8734532161495726,
          0.736793251383685,
          1.9978515754358797,
          0.08599652380461847,
          -1.6173243156506445,
          -0.204703003392687,
          -0.823916835141368,
          0.40192663125623845,
          0.3922709385277845,
          -0.5135802418726692,
          -0.43216184159159277,
          0.22395689007882924
        ],
        [
          0.38842750113212726,
          0.003139140893273309,
          0.24338456852218696,
          -0.18135177030535088,
          0.22403857198050783,
          -1.618242938240714,
          -0.2175780557367846,
          -0.5162628205633064,
          -0.7306300116953007,
          1.436727964794354,
          1.9611044791390833,
          -0.7138571797432479,
          -0.5236304561582613,
          -1.6337409418708553,
          -0.7817069333500096,
          -0.050827810945109,
          -0.14527212399831244,
          -0.26252599568077734,
          0.13823752227909888,
          0.19473519504046088
        ],
        [
          -0.2374863556682479,
          -0.3446129753072204,
          -0.2591747676960816,
          0.822786469142584,
          1.0538457329220303,
          -0.038012900324519316,
          0.18089773036476356,
          0.6586787389811954,
          -0.08606125706382237,
          0.2811076854884606,
          -0.4249344265514784,
          -1.4542111502864312,
          0.7099303330357267,
          1.4592367958319816,
          -0.34035523659208644,
          0.09367789920506042,
          0.019911523551773613,
          -0.33934553029562187,
          -1.1315878821832395,
          -0.03406289578655639
        ],
        [
          0.6686712139656631,
          -0.006446856064448917,
          -0.8557022422791216,
          0.26873449405955996,
          -0.01595068698964408,
          0.5118906649633156,
          0.06331496817397222,
          2.1120574786787074,
          0.9746845846888637,
          0.2458833896669152,
          0.13857277025543357,
          -1.8448155873449381,
          0.8499042331564608,
          -0.440015241404198,
          -0.6069398715222836,
          0.6661942647048088,
          0.5192259533890923,
          -0.22931856813058812,
          -3.1347573421301287,
          0.051900114815831275
        ],
        [
          0.8078945203572211,
          0.29370922499748675,
          -0.32010738255080085,
          -0.5928105805239948,
          -0.8533066745332775,
          2.8874537637263122,
          -0.44483599051700495,
          -1.521787546061487,
          -0.4949161464027088,
          -1.2387580739037796,
          0.7093260205656331,
          -0.25651687256831857,
          -1.7114926913709454,
          0.07021519658634438,
          -0.41726406030934693,
          0.12856002162319502,
          0.3073981968768114,
          0.16773110705357705,
          -3.109693355955836,
          0.02148992793384827
        ],
        [
          0.7722403919037756,
          -0.3352780133276717,
          -0.7547353297804846,
          1.868741135775096,
          -0.5633457531405702,
          1.6779059778696441,
          -0.8588566746997802,
          0.36836116253781953,
          0.09078873388697838,
          1.1681124944815497,
          1.605812770715963,
          0.12953351516032147,
          -2.266758229431223,
          -0.9260718771811931,
          -0.7060094546943045,
          0.10405750221955622,
          0.0868796479468543,
          -0.23849001018868643,
          -0.3885881211384566,
          -0.006562085455213235
        ],
        [
          0.6885009941994816,
          -0.2762674248056467,
          -0.8833633178437802,
          0.22976587995146244,
          -1.1360357513731933,
          -0.07180124094054248,
          0.196767079308805,
          -0.26279693569719226,
          -0.9451992927399682,
          0.7117927184833331,
          -0.018388550843157995,
          2.2849584288055467,
          -0.6345659442090366,
          -0.4904652312669975,
          -0.05571086027601211,
          -0.4091680322219675,
          -0.20601692676523697,
          0.1845030839749358,
          -0.6580712691429342,
          0.19425055950995138
        ]
      ]
    }
  ]
}
