{
  "layers": [
    {
      "activation": 3,
      "biases": [
        0.2528341132421518,
        0.3168096806851294,
        0.5372473389684069,
        0.34341536527855676,
        0.11183682308433843,
        0.08760227834903135,
        -0.33614651262056594,
        0.04684596560316715,
        0.12277303634129483,
        -0.17444106748278196,
        0.35839598029770847,
        0.2910169388097718,
        -0.11393964570387388,
        -0.06413533970781347,
        0.10533449876967989,
        -0.1497305203828693,
        0.14016599562314266,
        -0.21142077445632018,
        0.027800291275282656,
        -0.1562495291142756,
        -0.1777363658565594,
        -0.4215228585697377,
        -0.05745562686207712,
        0.1733606052449639,
        0.39685822276752186,
        0.31369630363384116,
        0.22945359645210858,
        0.18540350749743204,
        0.0972549562753948,
        -0.15420650147498025,
        0.4210991591926946,
        -0.2048589162113398,
        0.28888521098711284,
        0.075030507397131,
        0.23038663749419466,
        0.1557870326340131,
        0.09574685907475677,
        0.29263435283701505,
        0.5681401115030998,
        -0.229146188059401,
        -0.19091005858834917,
        -0.18026512925162352,
        -0.049521526033669674,
        0.18719341585962335,
        -0.16236634864432217,
        -0.07158921379743616,
        -0.14259059981013886,
        0.09246419390459558,
        -0.3008656943143038,
        -0.09607124551472564,
        -0.15728566419402554,
        -0.22091727690644847,
        0.05207654617268313,
        0.3648383718419352,
        -0.1470568286936534,
        -0.07775750210705362,
        0.07342776821780729,
        0.05895315154417028,
        -0.0541926697736639,
        0.13375293329351268,
        -0.42137240577034074,
        0.07024928607120653,
        0.008709368922140042
      ],
      "cols": 63,
      "rows": 30,
      "weights": [
        [
          0.08057992643588173,
          0.04253735588352519,
          -0.32152500832306,
          -0.2823870022596884,
          -0.007975196611951018,
          0.513587793525534,
          0.3423411526813279,
          -0.058223590281294514,
          -0.38190839064642157,
          -0.06636791609213166,
          0.04841860662823712,
          0.6116924271570252,
          0.31907664505273065,
          0.2993630494091136,
          0.3288360032220325,
          0.43191601925962675,
          -0.18036439536302992,
          -0.20632139348646678,
          0.42765504201062615,
          -0.3865737871308159,
          -0.15198322929794014,
          0.1009264579289356,
          -0.17229508884868455,
          -0.05783796820653432,
          0.14779223686773352,
          0.16306385874765023,
          -0.29268998765970056,
          -0.10072795058305108,
          0.12184982940895488,
          -0.1301046975089265,
          -0.3267675507038408,
          -0.3521309988968591,
          0.08085116970001999,
          0.08351219913991957,
          0.13413195418606397,
          0.18065180355142652,
          -0.11400048963176362,
          -0.06256850298641754,
          -0.30812349475185924,
          -0.0871880672840049,
          0.008761998497836345,
          0.2508229018725281,
          -0.04019342362069697,
          0.4215482210664374,
          -0.2930740261202867,
          0.43191848063395893,
          0.543130723994437,
          -0.029249648573410548,
          0.30256552701920664,
          -0.24259704286938258,
          0.3398508804676871,
          0.13893087620964698,
          -0.07927163991927884,
          0.06795876315881637,
          -0.5170951607914872,
          0.22314283788781106,
          0.06903213465952523,
          0.05832756671918966,
          -0.22245211450460545,
          -0.32883772503996006,
          -0.27703987857364337,
          0.40996095560221985,
          0.024781897890747993
        ],
        [
          -0.29658306557415615,
          -0.15347270670475593,
          -0.67071941764235,
          0.2029724627508137,
          -0.5997304855719208,
          0.31573480460373154,
          -0.007863655161007115,
          -0.11774984335415303,
          0.014590398606322113,
          0.12488852937165981,
          -0.33130832500359664,
          0.07378633354568116,
          -0.15571208631613154,
          0.041296005449761905,
          0.14041614618021356,
          0.25946724269859406,
          0.27186826335108194,
          0.5029641494476419,
          -0.09406564991731753,
          0.3287546658684901,
          -0.438460665282301,
          -0.2851082131113763,
          -0.09947442756303683,
          0.020236487650802718,
          0.3285400267833118,
          -0.466877149438355,
          -0.4845899162471175,
          0.05266464724017249,
          -0.2250528402833492,
          -0.16830977888792759,
          0.1726716877834809,
          0.05875654328030401,
          0.26905514382949197,
          -0.555895813525686,
          0.1139510421728982,
          -0.18136688549306418,
          0.055545497212740255,
          0.12341743581050313,
          -0.2970531784055205,
          0.2126199316978687,
          0.007372257616721947,
          0.05944958709004625,
          0.12037695967917644,
          -0.07389655656239151,
          0.06182367606699706,
          0.14156785371084538,
          0.08164661748149345,
          0.11635173715316557,
          -0.2836361799331059,
          -0.24166576074332388,
          -0.06208074538213155,
          -0.13678562611982922,
          0.17417323079335095,
          -0.3080237150812574,
          0.2877314427935071,
          -0.03191434164511986,
          0.0735078544985135,
          -0.2188437200646174,
          -0.09560033354171452,
          0.2840580222486408,
          -0.03838210605247236,
          0.23957148126377265,
          -0.03065327712849543
        ],
        [
          0.3002898063897331,
          0.22762729540119958,
          -0.01023104142055405,
          0.2748547387203585,
          0.06978451064666479,
          -0.195187991088383,
          -0.12800231073306498,
          0.06084776530577258,
          0.020222547834133103,
          -0.2095876858037543,
          -0.04065109184057119,
          -0.07848933108347025,
          -0.04204152278335093,
          -0.1820498796244061,
          0.011781529511796337,
          -0.23912433751966636,
          -0.36770518835421606,
          -0.16701916210999562,
          0.059126727455127606,
          0.1316874492404987,
          0.09487954641085516,
          -0.1968164584037504,
          0.116296132464346,
          -0.038209922395152224,
          -0.10079658641347264,
          0.043417757090546225,
          -0.24639424387244352,
          0.2690439537210243,
          0.2797188341406136,
          -0.23339761878059911,
          0.021288725682740275,
          -0.11709638502959824,
          0.13858893789443158,
          0.04113134693474497,
          0.19579791188910847,
          0.2711040777876317,
          0.06379234907558856,
          0.01851101567364753,
          0.24459524678895458,
          0.19389286663493588,
          0.10839224366708897,
          -0.09733102749943404,
          -0.07512676524996179,
          0.0466316169567511,
          -0.05579750023658484,
          0.14678929107656344,
          -0.16616588036106258,
          -0.387963377679232,
          -0.1710896567686489,
          0.24714966286217394,
          -0.2812029794114181,
          -0.10740968539943388,
          -0.14470363497356412,
          -0.2972412953718409,
          -0.20661154008428742,
          0.0004077122442553564,
          -0.15166969398737812,
          0.2271799948287289,
          0.09753433310989068,
          -0.09544086709916719,
          0.2794611599646394,
          0.020518442054241033,
          0.003352863937727821
        ],
        [
          -0.06477416320854101,
          -0.5032876745287559,
          0.338121443191356,
          0.46301737925984715,
          0.7670048639880027,
          -0.030481026108264954,
          -0.17647300496564122,
          0.039027815759884704,
          -0.436890286343503,
          0.00469033374493115,
          -0.3465876687364869,
          0.26590938197188396,
          0.4173594442273998,
          -0.06464731042493015,
          -0.3721011620970724,
          0.01595846329650225,
          0.6220028314719045,
          0.16351633359911477,
          -0.1656891613441745,
          -0.4638321282273116,
          -0.5425227644071386,
          0.21658378575134457,
          0.4144615673223451,
          0.24335777983768725,
          0.10695139251361224,
          0.30548184512028903,
          0.47558890388988956,
          0.033431293229326295,
          -0.14658149215211433,
          0.49343670903962755,
          0.13814963597986676,
          0.41700162357677356,
          0.08235099759041954,
          -0.5230650858603876,
          -0.053011422270154054,
          0.42571103588447734,
          0.16006652734608073,
          0.47250444702506206,
          -0.04391370315514569,
          -0.4240302161727167,
          -0.13645877308360863,
          -0.16219731715836092,
          0.5367721306084725,
          -0.25825487563371324,
          -0.38622943669084014,
          0.305733851357034,
          -0.06151102248251007,
          0.09817232193126478,
          -0.3615571024763501,
          -0.25646203791315425,
          0.3157895085888019,
          0.09103528734685065,
          -0.4074066108464169,
          0.23465936496443734,
          0.23015166515235147,
          -0.39955651914610363,
          0.07703722350152237,
          -0.34455432302271793,
          0.953015573388804,
          -0.24221679213936215,
          -0.23708586844904775,
          0.1483191336774513,
          0.28919660369682393
        ],
        [
          0.06903453005185682,
          0.20613896240046162,
          0.7150355910397387,
          -0.60441370903449,
          0.8384597593364138,
          0.4247334307128678,
          0.3662358509280594,
          0.3125508481710533,
          -0.22738427741744632,
          -0.026053111169762257,
          0.6919682501992535,
          1.1014252684133015,
          0.5954205007960434,
          -0.7495264610408435,
          0.23144517000028897,
          -0.08210834821110354,
          -0.5169454864390218,
          -0.7242948993088929,
          -0.10802903683288141,
          -0.29667616944738623,
          0.6034517673423527,
          0.09468779033883473,
          0.6460376353466162,
          -0.5189333061208115,
          -0.25297579295155603,
          0.2952115364388303,
          0.604422431284868,
          -0.39450872808999876,
          -0.12621847902273564,
          0.11364517891473175,
          0.30426415441021176,
          -0.6111718574380053,
          0.13866017920885504,
          0.9625267237743725,
          0.6640697773412934,
          0.6770471185724694,
          0.33848806243990137,
          0.8470651623247399,
          0.18800079875501033,
          -0.6218823164108341,
          -0.547392859509018,
          -0.48098510214708007,
          0.19783028051171062,
          0.4181752714586967,
          -0.21061813029886078,
          0.5142041295441965,
          -0.08125690797882795,
          0.1274006143606923,
          0.48921711089211994,
          0.4976942529085864,
          0.27236984802335085,
          0.5499701203484758,
          0.4617982229247497,
          0.36661932617499937,
          -0.2971443946103565,
          0.713478935975673,
          -0.1415749743721656,
          0.5869071638249868,
          0.5901074644397528,
          0.3497191414707088,
          -0.43796715404797726,
          0.4767201126163591,
          -0.025299050629076583
        ],
        [
          -0.028328964577863682,
          -0.22280361778792976,
          0.10657601949728022,
          -0.10284771438084706,
          0.3888223376134025,
          -0.15903848944419394,
          -0.08360423720689704,
          0.23658548700654136,
          -0.18998225920595524,
          0.0058930495394252744,
          -0.010271409473248094,
          0.4413454620699074,
          0.3900036131960502,
          -0.20061582640732817,
          -0.1988731135624933,
          -0.2501753401664192,
          -0.39132481397782376,
          0.15053947378122445,
          0.3029178100287246,
          0.0542028589491843,
          -0.19361623821966523,
          -0.05555946995090616,
          0.014433938502674602,
          -0.07800165879304928,
          -0.043574909906297726,
          0.16833705967553225,
          0.37129285235097415,
          -0.17986235859785588,
          0.024728896408892084,
          -0.33430004297165705,
          0.3438300190502882,
          0.06337057377383179,
          -0.12203492918435986,
          0.3732935093487239,
          0.1871743308942512,
          0.47380713559422544,
          0.2929643969489144,
          0.5349040356905959,
          -0.14105514486714132,
          -0.46629414707059863,
          0.22527927166375464,
          -0.43979542517829506,
          0.17625321359947912,
          -0.1112229721500079,
          0.20255336912518215,
          0.26449308399691807,
          -0.3098023583628434,
          -0.19459140121683008,
          0.16084175190071495,
          -0.0008788213566222733,
          0.05800774066354448,
          0.31945058392979614,
          0.008097585397301403,
          0.09550188534949343,
          -0.13773206528835952,
          0.37490681766252126,
          -0.02998216866086408,
          0.2551969233479239,
          0.09912230916319942,
          -0.11196643120512757,
          0.0889382531857815,
          0.0520359512684593,
          0.25584095210339625
        ],
        [
          0.21552197467326634,
          0.16239167912853741,
          -0.18921085854220845,
          -0.4097205984176276,
          -0.29088489864813427,
          0.28526598840971634,
          -0.00592289924750963,
          0.13868232090073054,
          -0.2963880411786902,
          -0.014805580757310331,
          0.07598759814690227,
          0.5437010631117364,
          0.2833553454594531,
          0.07319367382536568,
          0.3241903458090806,
          0.46053522968987903,
          0.16157292020106845,
          -0.002793427916004444,
          0.5513422714757424,
          -0.3281296655175258,
          -0.052534390160704617,
          0.30159575165903824,
          -0.20626676303129288,
          0.24872156467046555,
          0.14608130140038122,
          0.21744542070639036,
          -0.10534397677359007,
          -0.06531780795425476,
          0.05607511399171596,
          -0.013303737298471294,
          -0.310682485410439,
          -0.24831360309548262,
          -0.31204124326963695,
          0.027431908782298967,
          -0.0016298769300255795,
          0.37183580785335413,
          0.08072578459081246,
          -0.19138260704456259,
          -0.21181375963077687,
          0.021610083965974327,
          0.09016895846338982,
          0.0597126692738551,
          -0.22440661012506252,
          0.3492141117064111,
          -0.4277609558215773,
          0.49797834026879717,
          0.03997652036884982,
          0.3154465736529796,
          -0.01811029647547941,
          -0.3664782689304384,
          0.08567164376880804,
          0.29748292402960064,
          0.2425821476302873,
          0.17193149905964283,
          -0.4153664249355977,
          -0.03219963501977622,
          0.021100103542637434,
          -0.04006074424988787,
          -0.39522582935264444,
          -0.24798844028634948,
          0.13859405122487894,
          0.2693000350437647,
          -0.41845820888449226
        ],
        [
          0.006635120670841773,
          0.2864537286139628,
          -0.2277909691614061,
          -0.20540641546900285,
          -0.1119240452227685,
          0.06410711948880975,
          0.012086456200224843,
          -0.06209955191567625,
          -0.2767301386541596,
          -0.13439044464304314,
          -0.40271991938364426,
          -0.010331103284514295,
          -0.021137424853180185,
          -0.01434337141530325,
          -0.0730542081292709,
          0.16312822592587278,
          0.05280756943578576,
          -0.06076269536517517,
          -0.15928557884360978,
          0.07456569154542932,
          -0.08735159819023848,
          -0.11800513574631899,
          -0.17906792855927411,
          0.021222729824615573,
          0.23165629654497874,
          -0.3225032245752643,
          -0.2737510997036652,
          -0.07030518907134986,
          0.1341784621490864,
          -0.12499419609899055,
          -0.08544176210699962,
          -0.23222686171296641,
          0.3274182029130959,
          -0.1382730870914134,
          -0.05107835461159556,
          0.1148271356794374,
          -0.2556470222200488,
          -0.1869151762350576,
          -0.05779138494236684,
          0.1237744465000467,
          -0.03606809803944778,
          -0.28655710885587754,
          -0.1955088198560574,
          0.007653349118463034,
          -0.16416100727047944,
          0.05868686208323641,
          0.36381499714679977,
          -0.031239594186189223,
          0.2044915650967541,
          -0.08885192811596301,
          0.25021958070389694,
          -0.11142362913543107,
          -0.04720061201156799,
          0.1530951949109487,
          0.06663728372564633,
          -0.2116547364442252,
          0.22021170268026105,
          0.12913323585549547,
          -0.3401288905851163,
          0.15505203524659167,
          0.0719026610357525,
          -0.12425569290477972,
          -0.11730039195664704
        ],
        [
          0.18319973291243344,
          0.07442470466225073,
          -0.28294084222520677,
          0.270074214768964,
          0.1630096446920021,
          -0.2115891576021977,
          0.12183575573634742,
          0.10933792433254648,
          0.23079729888570877,
          -0.1294891800315132,
          0.19958720535013844,
          -0.09758884197080694,
          0.05169012893575446,
          0.13812114653173985,
          0.35569128994280724,
          0.1117560799971377,
          -0.24943004460384963,
          0.21546748912697833,
          0.015560427434480327,
          -0.03828859043700838,
          -0.004103551770252428,
          -0.06941182490747268,
          0.028401052027212777,
          -0.30853206459565097,
          0.21145168000197628,
          0.04730329588342133,
          -0.028820229420428497,
          0.28343715656345475,
          0.3553531986435265,
          -0.28112572490008286,
          0.0148601942717565,
          -0.010658880017322604,
          0.10684103079158312,
          0.22182184502253213,
          -0.10518422103015083,
          0.4155282561740422,
          0.04117098772146724,
          -0.009012393128491064,
          0.36128101317589734,
          -0.20332484783781313,
          0.01306362832827056,
          0.15662012206616818,
          -0.06484156487457245,
          -0.18842696841880413,
          0.2447693962046334,
          -0.07458777317071724,
          -0.2863598127876582,
          -0.2753795728475588,
          -0.3606206107921306,
          0.2054595796213839,
          -0.4369260967470934,
          -0.14551134811369923,
          -0.1972373060710643,
          -0.2963773089581674,
          -0.2389930701449005,
          0.050492325312246795,
          -0.3059315882057192,
          -0.24393220678045016,
          -0.1626844087361078,
          0.10729204943344268,
          0.0894371063723123,
          -0.16067089067518953,
          -0.19182231272450784
        ],
        [
          -0.5797917507147249,
          -0.4607039873103839,
          -0.22025917344552223,
          -0.2476303447257393,
          0.14954796722099822,
          -0.24919941326583378,
          0.022818726982410907,
          -0.2136280539006771,
          0.049134559984573285,
          0.2696526541789616,
          -0.46471648379471026,
          -0.20562497618170797,
          0.38052056101559045,
          0.05461366384582414,
          -0.3960558810274885,
          0.10094737572852598,
          0.5241727518478332,
          0.19551665276694308,
          -0.21835887913092092,
          0.09530184041044547,
          0.17126812094125363,
          -0.16460785597437116,
          0.2505668180777743,
          0.37491213222585884,
          -0.12197284870185247,
          0.03239604324849083,
          -0.059962869169000343,
          0.1761833846907317,
          -0.37835402745121094,
          0.6680068429630639,
          -0.3293332311926985,
          0.4450644897703054,
          0.23577703894313778,
          -0.4083980489445379,
          0.07284426697595463,
          0.2400118855108522,
          0.22618290720040368,
          0.16384639238133383,
          -0.30649220010298595,
          0.10714531191705345,
          -0.21972946936355311,
          -0.3935725459232427,
          0.012364203785475602,
          0.007215163421701483,
          -0.1736422535617316,
          0.36746506807599916,
          0.16311366535957442,
          0.3108010336280393,
          -0.03151716915059806,
          0.22256447915979663,
          0.3714225393414561,
          -0.05831644274688862,
          -0.37665440317311716,
          0.08391657321794715,
          0.32409567439376646,
          -0.23467117934026407,
          0.3839822911513758,
          0.14372053364820175,
          0.7145994716018129,
          -0.0996062946755183,
          0.18688728595305343,
          -0.006463901131339946,
          0.23222538226161796
        ],
        [
          -0.24313692689489155,
          0.30988040050569493,
          -0.9855992799972175,
          0.7162924004587178,
          -0.13092801408407764,
          0.7144225916167727,
          0.05460917808374553,
          -0.08781269898821549,
          -0.30488343265480605,
          0.13984359335761834,
          -0.8275819431545983,
          0.5721023439975348,
          -0.03900388007747818,
          -0.43423802084316104,
          -0.2413208518250766,
          -0.056689992217195874,
          -0.10825756279556822,
          0.536437113838581,
          0.30002596790352254,
          0.3321650359768589,
          -0.8321441442144413,
          0.14977131554734838,
          -0.01927117835497067,
          -0.8054612411993025,
          0.28311948332714243,
          -0.412283263906631,
          -0.026919564210237428,
          0.49968720621251445,
          -0.27572428097588814,
          -0.021146140794410524,
          0.7563218309355053,
          -0.5585951136647296,
          0.13981171752850377,
          -0.24013451050187848,
          0.34603761838797975,
          0.9541030548650278,
          0.1940286047937938,
          0.5429132931154093,
          -0.22483775291520866,
          0.055119322856543876,
          -0.020930993681256733,
          -0.2762046953163198,
          0.7899700321952678,
          0.13408141975903295,
          0.43058271425837424,
          0.0039299463882981524,
          -0.317985327331278,
          0.0766660887226761,
          -0.3930270837889622,
          0.03614682603926452,
          -0.5305191171899988,
          -0.12478909285228551,
          0.2798996408692572,
          -0.3012009061061019,
          -0.015396853171569108,
          -0.09671563199094439,
          0.18919835630862905,
          -0.29399522831032604,
          0.4626532269191712,
          0.25819588697475193,
          -0.2659361991477046,
          0.012552926183960462,
          -0.10190336188677382
        ],
        [
          0.15376771450382093,
          -0.361055606440835,
          0.3238942960770948,
          -0.20434934756294873,
          0.2353001129433411,
          -0.46900516521648483,
          -0.2339980658012905,
          -0.022159285612021438,
          0.1952140225631023,
          0.06627659864166237,
          -0.11820219484757707,
          0.3303358608277197,
          0.4659763967196303,
          -0.19420044191789132,
          0.011306423665819068,
          0.16273413843116968,
          0.33597904099131454,
          -0.033320113653131506,
          -0.26188994229211127,
          0.013314538954079939,
          0.0019403179512784469,
          -0.1218555539862511,
          -0.09834220242448141,
          0.5069747477473989,
          0.2746640087866576,
          -0.061654222927864114,
          0.24753697478405556,
          -0.2143623803738149,
          -0.4541171754708891,
          0.35332179708022565,
          -0.5257513367197063,
          0.608048932438672,
          0.388704351848694,
          -0.09779097877222999,
          -0.15801203988358634,
          -0.45053703122285077,
          -0.004908165805399973,
          -0.3056008492184709,
          -0.31142919953803055,
          -0.3876794768423433,
          0.06706391731551548,
          -0.39150834863217837,
          0.08181581348394538,
          0.09939529049736028,
          0.12012041319655672,
          0.025664614015058027,
          -0.16804091506063312,
          -0.013883912162845175,
          0.034989471798457066,
          0.1134369170950653,
          0.5411690192285235,
          0.16180571650529849,
          -0.43301212401781586,
          0.15837242670272028,
          0.24387692153716423,
          0.03428551751933145,
          0.08540464361789324,
          0.12231990581180632,
          0.1614910156212426,
          0.10316672904503577,
          0.13525947252129517,
          0.3503601149083517,
          0.29023937239970726
        ],
        [
          0.21182711596084122,
          -0.12769177976866072,
          -0.05525914435371326,
          -0.26793859100755274,
          0.03695769469588806,
          0.5433481666744123,
          -0.03442816444929435,
          0.19709164605240384,
          -0.6058818266546818,
          0.0922861658882344,
          0.2836127457123526,
          0.43126479714134647,
          0.29155851493493284,
          -0.06673511996828975,
          0.304095508118092,
          0.20013664590354302,
          0.06718217985369664,
          -0.16920038268451257,
          0.6318831925799578,
          -0.508937183655445,
          -0.41539463032276086,
          0.10352625602128733,
          -0.02115402696629682,
          -0.10001290744531868,
          0.18890081765197841,
          0.3100377903474722,
          -0.026537212121663198,
          -0.05191251652021965,
          0.14293737156153674,
          -0.1423167254308974,
          -0.2568743756681513,
          -0.1941065522617319,
          0.02104827463306957,
          0.13809830776853071,
          0.4126958488224668,
          0.561970623386766,
          -0.2559408965026585,
          -0.12545253895788536,
          -0.320983309564229,
          -0.44798351487370697,
          -0.02238164900591965,
          0.05822524504563439,
          -0.24044116467965793,
          -0.06198746546518919,
          -0.5862899536006572,
          0.30578895916237075,
          0.3934607141727511,
          0.4725076907921282,
          -0.09317983384593641,
          -0.21304980742366225,
          0.48333645966078015,
          -0.036013825726304835,
          -0.2145923825072268,
          0.23903050504526485,
          -0.3978984815041807,
          0.0037359855075266095,
          0.08288369963471277,
          0.25821291298492,
          -0.03392608953573031,
          -0.31739086858012144,
          0.12030912309598807,
          -0.05524619200955933,
          -0.41669648464478937
        ],
        [
          -0.30916304191400334,
          -0.020414857195283617,
          0.0028516369195943966,
          0.07740975581421643,
          -0.0806025461968038,
          0.2789529136195094,
          -0.06633289546731272,
          0.19742963211467268,
          -0.3655487577008778,
          0.3027871132193624,
          -0.15806665708211934,
          0.036317068432909,
          -0.265362181953752,
          0.13070509296689647,
          0.10272434282801345,
          0.12173945918746965,
          -0.1677447484343558,
          0.0653882809748234,
          -0.1255300769446186,
          -0.015667911166008984,
          -0.22253908940724065,
          -0.269054573035861,
          -0.40239325119515806,
          -0.3348037424201353,
          0.36226210896237254,
          -0.47195276043156154,
          -0.3249546723383532,
          0.04414590947391673,
          -0.18503790684551674,
          0.19275034671669586,
          0.007124822536492215,
          -0.19677638744548726,
          -0.11371798696423116,
          0.056287852883286846,
          -0.09648255093020856,
          -0.16622945215568094,
          -0.15490585330632067,
          -0.02023232050963758,
          -0.3749277452505948,
          0.18209350774567154,
          -0.01063556804624071,
          0.05845725601136019,
          -0.008460708437320809,
          0.2639309488510487,
          -0.14768682269717837,
          0.09839012175786692,
          0.3657407772157079,
          0.318702926357563,
          0.23472010224179088,
          -0.28939340472523756,
          -0.08377368725837007,
          0.0509873497701258,
          -0.04730007745854223,
          -0.26984592064140756,
          -0.07756246320479099,
          0.15275970647425513,
          -0.10562577700840002,
          0.1921778729068171,
          -0.3526782804227951,
          0.1515902034503097,
          -0.23782018634396115,
          0.16879315939667833,
          -0.039865452921334775
        ],
        [
          0.49623246268685134,
          0.17072194636594235,
          0.1660061673863756,
          0.11383896825367247,
          0.20864567615179946,
          0.05396937888553015,
          0.053790884480004936,
          0.28465387773681294,
          0.3164526711288739,
          -0.09981416123485119,
          0.058334178708987106,
          -0.12390391253026765,
          -0.058814541440283453,
          0.058911406218414356,
          0.32388057638455114,
          -0.09407322102220496,
          -0.08629993648343984,
          0.19752902680136655,
          0.10479619113078031,
          -0.33653488067066134,
          0.2010991356422587,
          0.1332656746699777,
          0.10234985390122674,
          -0.3558347773501864,
          0.10649007141488846,
          -0.08313741723398271,
          -0.227706263556357,
          0.11762152900925286,
          0.04677851934756329,
          -0.5015609490142381,
          0.43717810860245204,
          -0.2768274462485307,
          -0.13203318302798595,
          0.2920431402011768,
          0.038411242551522694,
          0.2964595743617203,
          0.007206869752979718,
          0.2085042419372491,
          0.20442310142824052,
          -0.20508705640873753,
          0.20158840698455774,
          0.07667824298946196,
          -0.3046933913552571,
          -0.19007499440782735,
          0.01757108067712587,
          0.1947124614902637,
          -0.29180216719477553,
          -0.22724091270563937,
          -0.2445294559297732,
          -0.1235905610117686,
          -0.35499899205760194,
          0.14221435377477204,
          -0.0969616316719873,
          0.05842974232086063,
          -0.3440312793717863,
          -0.005076112776118027,
          -0.1857637301378357,
          -0.15103336327871827,
          -0.12780771936368157,
          0.10012319485471259,
          -0.07772356455993554,
          -0.19386195127036052,
          -0.30207387643762557
        ],
        [
          -0.3583756648299349,
          -0.4506601851294223,
          -0.29697537244931776,
          -0.6183346004365095,
          0.23245903944748916,
          -0.3297255958889248,
          0.343532748494965,
          -0.12969835657369633,
          -0.2593630007917505,
          0.05529762537526392,
          -0.42380219517047557,
          0.22345976951975158,
          0.3968145246392323,
          0.08012825249397572,
          -0.20305079591007572,
          0.16930046564692502,
          0.07460641226139163,
          0.19595713186417574,
          -0.14317992559778514,
          0.22432727544003658,
          0.08166121763637074,
          0.14630123946619608,
          -0.09341555682913828,
          0.14927756305271803,
          -0.2921628807613927,
          -0.22166065810179028,
          0.15463102827680814,
          -0.23322843181045172,
          -0.47020551296800434,
          0.48207394805737397,
          -0.434128438551347,
          0.4238123459806562,
          -0.0074473615348541015,
          -0.29420957926031244,
          -0.09874343722891533,
          -0.4430023286209129,
          -0.27041991229979634,
          0.03993634022360284,
          -0.7806335350638928,
          -0.08111026123365878,
          0.3628656144242792,
          -0.21739323531626484,
          -0.12013469276222376,
          0.0040139328992071606,
          0.018693965934391155,
          0.26306213892100905,
          -0.2619116226950542,
          -0.17455290681626162,
          0.6420379816057538,
          0.05824994906547423,
          0.3838709761220628,
          0.341752988237047,
          -0.3254829389105487,
          0.09165933572204557,
          0.5220047464851792,
          0.3762411937626576,
          0.24486408077921976,
          -0.16866344214950887,
          0.4666338431916661,
          -0.17633703378071108,
          0.30734919903601343,
          0.06638590208242637,
          0.4772381740454634
        ],
        [
          -0.06114034874915361,
          -0.2904412363671145,
          -0.8340991848303677,
          0.5229068567129067,
          0.12191647749080721,
          -0.072531970371646,
          0.07703249686802834,
          0.1546490362156497,
          0.1738160414391612,
          -0.22162932828025017,
          -0.7233663141965215,
          0.1111196185528133,
          0.20528851528513828,
          -0.30071276970288896,
          0.0738057460554694,
          -0.10098127870601478,
          -0.09125816446685593,
          0.42891998992925773,
          0.4338633719285236,
          -0.22146158144014166,
          -0.6970359393061678,
          -0.08874951618919383,
          0.2803086054019399,
          -0.4260726951912034,
          -0.03255901072949568,
          0.10426335301858862,
          -0.17174543328520575,
          0.08633051929180931,
          -0.13050418318136547,
          -0.2090052776949877,
          0.2883885668358245,
          0.27056977667854676,
          0.16335300570925262,
          -0.3723170931620466,
          0.12600593447624073,
          0.5426331484556974,
          0.021908430548389365,
          0.13448653138212777,
          -0.1386372752088408,
          -0.22483509717271982,
          0.09086885602700098,
          -0.08720483297529082,
          0.28244372722225913,
          -0.1992923311615825,
          0.3575045567449335,
          -0.03482862618792469,
          -0.002449664283485489,
          -0.26186037983710164,
          0.004988846814339298,
          -0.32185854996377894,
          -0.49378841492459596,
          0.12515919060933461,
          0.16551868883949084,
          -0.2748551630143441,
          0.3751191369532827,
          -0.201012116552852,
          0.17387769644986412,
          0.019472099951813697,
          0.2529748648214768,
          0.08716576357676963,
          0.10852297933912776,
          -0.04130267876737516,
          -0.19321861429107615
        ],
        [
          0.10539738131784424,
          -0.10888599071040321,
          0.07246973637680931,
          -0.3274211480710075,
          0.29240855957267053,
          -0.0920314084546431,
          -0.1478444947819926,
          0.04946293487797471,
          0.24419199487031212,
          -0.05220487640010495,
          -0.31618560662850725,
          0.07938481672629498,
          0.46963327808750416,
          0.19928293968860322,
          0.002120576741419414,
          0.1684709377088556,
          0.015624121857030614,
          0.1180803070127846,
          -0.2519580259606198,
          -0.14240961167744762,
          -0.07049510881844998,
          -0.33717624721018646,
          -0.3053035560567491,
          0.20454764819554522,
          0.3481811385130989,
          0.2580605541105224,
          0.3487023924388782,
          0.1585792966006093,
          -0.5401759226901276,
          -0.05275772924233881,
          -0.48018255303853546,
          0.38101034459554844,
          0.4439205035531247,
          -0.11515602603272826,
          -0.1460643435115859,
          -0.14403441505366324,
          -0.14992805526130157,
          -0.10155852486358459,
          -0.4265416582551517,
          -0.3125798679465605,
          0.1341470990645581,
          -0.33887332477916476,
          0.14248082270640908,
          -0.05182398133276146,
          -0.04073149119649355,
          -0.038694636926754775,
          -0.16953960580925578,
          -0.4879775572685252,
          0.3221863828697057,
          -0.09833757634247729,
          0.15171792162677558,
          0.23069580557326086,
          -0.2790930316186366,
          0.12434671494588968,
          0.31729310015507767,
          0.28613878646801666,
          0.5476467803839958,
          0.15663109870780395,
          0.4526698065226578,
          0.07038637006563184,
          -0.27989269140282963,
          0.13538036197443945,
          0.027293334849378677
        ],
        [
          -0.20590805289541456,
          -0.3209932590034957,
          0.23665752028479206,
          -0.3812363707545687,
          -0.05947464531911732,
          0.18502657798585562,
          -0.13880632371806262,
          0.35285507113355846,
          -0.5888540447491404,
          -0.17708074376387514,
          0.10052621102593083,
          0.4924128984203295,
          0.5061371237718466,
          -0.08092867880142339,
          -0.01180492460098545,
          0.09109214461339687,
          0.13406805794514134,
          -0.30662758359350495,
          0.45439481110614305,
          -0.4456179426836499,
          -0.24472005485562928,
          0.38698527359875723,
          -0.1609413797478391,
          0.4446802094199641,
          0.25146974514132536,
          0.2236327587204752,
          0.003654886033279412,
          -0.30428211308559283,
          -0.044884537864678616,
          0.13792946976704168,
          -0.19952939325782865,
          -0.30149771892140736,
          -0.31874048488420814,
          0.17337599990120736,
          0.3328005918528775,
          0.5473534664176503,
          -0.14573434293907944,
          0.31319719595794504,
          -0.28152798256844835,
          -0.25898357918718756,
          0.15981359759905,
          0.10716312968606996,
          -0.1443730106073248,
          0.4085085417226327,
          -0.4553704516744735,
          0.05936106945647223,
          0.220929128789133,
          0.09965111313782439,
          0.23882184252845476,
          -0.006451128576816681,
          0.4974812336592721,
          -0.06654565524861543,
          -0.013035622260703086,
          -0.052911922247745005,
          -0.17921089154443712,
          0.15655606523959736,
          -0.13685388881500526,
          0.01605763156712844,
          -0.2864161885756564,
          -0.043627003842672867,
          -0.27113016459287875,
          0.01944291125051283,
          -0.3651064909623577
        ],
        [
          -0.11338274954032435,
          -0.009532476884281294,
          -0.34078877244838524,
          -0.0698485498794609,
          -0.43206785366850287,
          0.5126968675967875,
          0.10989732818410035,
          -0.1812404267497616,
          -0.14819371218349225,
          -0.039815247998752835,
          -0.21533343741109884,
          0.42732728694136857,
          0.020923466894478354,
          -0.03597074898574652,
          0.24339056986790195,
          -0.017201134602963235,
          -0.01791565913864854,
          0.09920284624644889,
          0.20178306055538944,
          0.297925306087079,
          -0.35790327930348026,
          0.05646605799619241,
          0.005089686832134815,
          -0.10552721733001878,
          0.3171002026311806,
          -0.3965707519723515,
          -0.044658203766369024,
          0.25164632908986523,
          -0.2027720887124797,
          0.04088536025148437,
          -0.13129317600711798,
          -0.11711274178488001,
          -0.031574953191154165,
          -0.07343101728385126,
          -0.05234391377928321,
          0.19445300153720957,
          -0.2968445186556551,
          0.1074405361380423,
          -0.421199974685312,
          0.10637771844034952,
          -0.2578888699822226,
          -0.03816622542024588,
          -0.11312692116901138,
          0.35904435644925287,
          0.1464264276239458,
          -0.1873907661076096,
          0.36858763700846153,
          0.1293196020052854,
          -0.06282832645857687,
          0.02718879309952346,
          0.011771229337211616,
          -0.18262897602753858,
          0.2238221693141837,
          0.12561682412502892,
          0.23391235027775106,
          -0.12657874438520986,
          0.38998281207992236,
          0.042291598041265366,
          -0.14011047274657232,
          0.14234435921605854,
          -0.005513740660358031,
          0.24283512410762295,
          0.2058082979237455
        ],
        [
          0.41851504490846825,
          0.27833839864038845,
          -0.20981671603174787,
          -0.023042765979471892,
          0.2691488829186596,
          0.026963653449919786,
          0.20456691362824989,
          -0.06446602879082494,
          0.3345892819817303,
          0.15997771939499572,
          0.30822825553258587,
          -0.14201381966414983,
          -0.28430944905116123,
          -0.16176171562841585,
          0.09890270144491803,
          -0.059099141202020776,
          -0.3164653955646233,
          0.1376958755278377,
          0.3373092157774063,
          -0.09072635916406666,
          -0.195389039533549,
          0.27579054389409396,
          0.15797904863119597,
          0.11242311652949324,
          0.10845216822056233,
          0.31085204928691956,
          0.058754318282279006,
          0.2593837904311898,
          0.30367356637447906,
          -0.032869424795407325,
          0.09263992408848475,
          -0.1724463349609353,
          -0.1224006073837235,
          0.45762702288215173,
          -0.10005801633820915,
          0.08572797758588757,
          0.14964848120139929,
          0.13825991745071806,
          0.38446543581544795,
          -0.1476929265571254,
          0.18251874516725122,
          0.13837115038278758,
          -0.2735317960165816,
          -0.1060119255660137,
          -0.222950874353436,
          -0.16956127015785388,
          -0.1160502860993738,
          -0.051275394030344326,
          -0.1990079249571158,
          0.19741819206296415,
          -0.34444242753471344,
          0.22957932339303366,
          -0.01937359414796483,
          -0.2906100514416715,
          -0.03389083663537728,
          0.20276473629256275,
          0.01295542814783068,
          0.12141209365892508,
          -0.22790660311267918,
          0.17628715140709464,
          0.2149571239328637,
          0.04518631174786186,
          -0.3972103845306316
        ],
        [
          -0.34739398061231647,
          -0.07790231562273661,
          -0.22062153285549133,
          -0.356635936969044,
          -0.02738457574223919,
          0.22870440043083945,
          0.36176760601073327,
          -0.0785758042167027,
          0.1907505215161793,
          -0.007879901784566707,
          -0.23416277183864517,
          0.10679359764153817,
          -0.17706304282584523,
          -0.21235433354844105,
          -0.2275292015001626,
          -0.053161325773585795,
          -0.27803117120231474,
          0.1471747784416033,
          -0.1823259121213125,
          0.27173768382458396,
          0.36210046129440243,
          0.17236533094704456,
          -0.17880812943349464,
          -0.3520435872116463,
          0.03581625135418511,
          -0.07540334481557581,
          -0.24378368764182096,
          -0.20250726930412533,
          -0.20028688028997024,
          0.09430078182949089,
          -0.34888904607782484,
          0.19538421198331293,
          0.3022355109414673,
          0.03048826814655093,
          0.005396538760479219,
          -0.2931919214546203,
          -0.032345549833956946,
          -0.323976497307739,
          -0.47749951692432885,
          -0.149820337265754,
          -0.07330921712237945,
          0.10105294948416822,
          -0.0748908193569829,
          -0.005116485613472102,
          0.23041337227093733,
          0.0936003506332271,
          -0.19469550617439657,
          -0.22185590949270947,
          0.3618420018800817,
          0.0036463469371778167,
          0.060657205997021936,
          0.1428658525448653,
          0.1553266812477309,
          -0.1179905234167267,
          0.27037935674895947,
          0.2983179665196355,
          0.3584123784623908,
          -0.06513654337611903,
          -0.10793809399402714,
          0.3095448856177862,
          0.128983197859218,
          0.05907772880701702,
          0.046642169484031756
        ],
        [
          0.12583149679813285,
          -0.3299730117913982,
          -0.6952643901500745,
          -0.19576547831659796,
          -0.1315306600451318,
          -0.3334546456172527,
          0.07859660632916511,
          0.13408556561491142,
          0.41752745502531347,
          0.11809033117875926,
          -0.7332941598454004,
          -0.09052804499207794,
          0.16132958518028379,
          -0.28801119576915435,
          0.3479083901236706,
          -0.18762433411798676,
          -0.5403829695048301,
          0.47466546896127965,
          0.4219302880581225,
          -0.2566959386428488,
          -0.15446869686580333,
          -0.20273514788628305,
          0.15733008520781055,
          -0.15651814307305126,
          -0.10843167958297756,
          -0.027612382136363477,
          -0.012018847174569983,
          -0.11482147953675878,
          -0.5081402195237051,
          -0.5377500313162709,
          0.11585387189250154,
          0.15907775704569402,
          0.17871602550168544,
          -0.10556845071973647,
          0.36869993164597753,
          -0.03906733816806338,
          -0.12955495693212274,
          -0.06272485753227275,
          -0.46684555563688257,
          -0.5051228985321805,
          0.11706487027931899,
          -0.04842264003597757,
          0.1774458822516652,
          0.2463818193703624,
          0.2881058533506167,
          0.15745619501845257,
          -0.46546610343124184,
          -0.877237451072473,
          0.25154047926014333,
          -0.051495958977888424,
          -0.2256853390307606,
          0.39219868629737475,
          -0.40821616287358536,
          0.18902504018718916,
          0.36155584194019175,
          0.13140625018088997,
          0.25303159170374234,
          -0.2065148676067015,
          0.11619022111137975,
          -0.33767911320564625,
          0.34036385623141086,
          -0.15197595961527358,
          -0.36915680381072813
        ],
        [
          0.22273640883529727,
          0.017603232475267593,
          -0.46114449434715726,
          -0.10192120608233775,
          0.1575858872468028,
          -0.4045388953033564,
          -0.24745394647515853,
          0.2221058276047994,
          -0.03213201257169616,
          -0.25315972980926765,
          -0.3975567622429451,
          0.0019737411795715375,
          0.010122268593094532,
          -0.11966549230465867,
          0.11892197161121976,
          -0.27744203540930557,
          -0.3211511862980984,
          0.5082074328924374,
          -0.2279474162162052,
          0.07145195623787452,
          0.014793045652693767,
          -0.31365261875668704,
          0.11597535134798233,
          0.2671660368617932,
          0.3201264810086503,
          0.24995436757894923,
          -0.07157422784367927,
          0.121643003445,
          -0.5943651047472678,
          -0.04040653140695699,
          -0.16217150227121419,
          0.1275500069415035,
          0.20900745888255823,
          -0.039662433053365545,
          0.028990150548598128,
          -0.17623798056386003,
          0.13664394910171326,
          -0.06744235821795819,
          -0.3768662246181798,
          -0.2665042188256888,
          0.37285658514393893,
          -0.47284138808165393,
          -0.022615619981648037,
          -0.01273906167034933,
          0.1900593794731475,
          -0.2918308486822234,
          -0.42996032709598847,
          -0.28792167721226825,
          -0.06559798661861381,
          -0.26134983098562975,
          -0.19947982766001413,
          -0.021575375610346892,
          -0.1179782885163711,
          0.3215485952348442,
          0.48346824001764466,
          0.2148341476899147,
          0.5008332126439751,
          0.14666822100069757,
          0.013375909067609245,
          0.045094446883720725,
          -0.1138035901589556,
          0.29315343165960667,
          0.12679963379394857
        ],
        [
          0.11853538316161631,
          0.12416662101353873,
          0.07589071121870102,
          -0.0733976946649096,
          -0.09967599157768255,
          0.41805532484075697,
          0.12786939449800733,
          0.2149352510662675,
          -0.6284527030107557,
          -0.17499756868295632,
          -0.1704386669935165,
          0.4113617793993467,
          0.5176497168255167,
          0.22403312691704821,
          -0.059555256719819705,
          0.2937731574466022,
          -0.11570844241845583,
          -0.07224005027386834,
          0.32864749881455085,
          -0.6383263698510456,
          0.07759289610603132,
          0.18322453724931423,
          -0.2237726018542462,
          0.18808191146702122,
          -0.04981928116079209,
          0.25748041090295665,
          0.1074063486765416,
          0.143642887497598,
          0.14466672151418036,
          0.20807515552196051,
          -0.047469981011794234,
          -0.1455374975892644,
          -0.29072827105205684,
          0.2942231553136854,
          0.2837579758465182,
          0.396256038406346,
          -0.12677888775921609,
          0.20423396514659914,
          -0.025921235803466496,
          -0.4142920789394243,
          -0.2470595798407318,
          -0.023875390497595125,
          0.0639648460964606,
          0.2670456487911356,
          -0.5778228312351761,
          0.27166462242222994,
          0.3651147952309073,
          0.38295003761724805,
          -0.08806037646941939,
          -0.4511898336322129,
          0.35271439241120844,
          0.27967305932609277,
          -0.09334409863609691,
          0.06542382752333212,
          -0.44324489669145,
          0.2910482282568093,
          0.1598897731587122,
          -0.2151890915063233,
          0.1076903679755641,
          -0.3721486513185112,
          -0.015991642601693414,
          -0.06775286695612913,
          -0.24704798189121863
        ],
        [
          -0.45262937184507857,
          0.22243993230896272,
          -0.21178544425914006,
          0.01914962431742352,
          -0.1280793639032568,
          0.27418058796777284,
          -0.03860123660002012,
          0.17939454332237537,
          -0.34249302928038067,
          0.1910754777318337,
          -0.003340756472107244,
          0.2751471848476798,
          -0.015343593578004423,
          0.03556205212799626,
          0.25327259092381627,
          -0.12391195111907626,
          0.2173890164152049,
          0.06491202841430485,
          -0.005020605772152236,
          0.14102530907187136,
          0.07172558100303206,
          0.012102443773995844,
          -0.4106460644538854,
          -0.22159695984086591,
          0.30392478210630847,
          -0.3266214812165149,
          -0.18723559643781915,
          -0.13562283712563625,
          -0.05866889260531946,
          0.2527727353302131,
          0.15804199731243238,
          -0.2619469419878033,
          0.41947977846931267,
          -0.18691913716771638,
          -0.10273459772633403,
          -0.11839432368418704,
          -0.29392383856209425,
          0.05957919178959694,
          -0.3080244436447456,
          0.07497888646875193,
          -0.10250699962891228,
          -0.2919303069836684,
          0.05772043411899393,
          0.3174514365773581,
          -0.05571645284774033,
          0.24139418989363898,
          0.0941080121940297,
          -0.06046924191568909,
          -0.0679664744429564,
          -0.16094834273876585,
          -0.06874307887598842,
          -0.2785893290039855,
          0.11253745182528803,
          -0.04079175955134294,
          0.2619209903795235,
          0.043890581264583534,
          0.3760633757135943,
          -0.18606089229095396,
          -0.14584471673103153,
          0.36204015082957575,
          0.10749553235080017,
          0.18097435983896218,
          0.05387583353535309
        ],
        [
          0.3265007942555154,
          0.2553787347575549,
          -0.18490254382065774,
          -0.0764047538103071,
          -0.1785854324990036,
          -0.25826898488282035,
          0.07072103875206005,
          0.043444283674593465,
          0.2199451971826477,
          -0.021411033465175998,
          -0.017535351832651657,
          -0.15340516469150695,
          -0.12379096153110193,
          -0.1521725949680613,
          -0.005968356112917619,
          -0.0678256120772975,
          -0.0467048239507014,
          -0.17309045691465866,
          0.23834388585581215,
          -0.1412137911000799,
          0.05747874327887231,
          0.06249740263545903,
          0.09816756550594401,
          -0.061839574392879876,
          -0.29379543204338876,
          -0.09176657747808649,
          -0.13535623966252355,
          0.12027529497689596,
          -0.061427528442522326,
          -0.1666631620475024,
          0.04068407429031364,
          -0.05307329109333472,
          -0.26989414229808767,
          0.3673123061484344,
          0.10659350079108151,
          -0.04243574951660417,
          0.06342520473827426,
          0.06213137621267868,
          0.36592340997606154,
          -0.1943293906099592,
          -0.028899905852515256,
          0.1764406224385142,
          -0.144903443577458,
          0.19461783294981444,
          -0.13343868821965557,
          -0.14245591242185265,
          0.17497489530773666,
          -0.13955591097743264,
          -0.17424521097995246,
          0.12412149857217661,
          0.10339012050565949,
          -0.19401720761048985,
          0.2503973849620467,
          -0.07590444425961745,
          -0.28216678993303856,
          0.15655094437079928,
          -0.37122985679637394,
          0.07227607482383061,
          -0.33396720956711434,
          -0.1084887867533626,
          0.2685799412791123,
          -0.07797072592944308,
          -0.37826597006870105
        ],
        [
          0.06923388752401131,
          0.2837395164175923,
          0.0396230770103426,
          -0.19244759792056146,
          0.0468242477296907,
          0.22390407685110542,
          0.17229164251070425,
          0.14827047143520686,
          -0.1554371094691802,
          0.12823639158005384,
          0.20447990189406878,
          0.016461887307837278,
          -0.05349485694375753,
          0.08120431543731668,
          0.21728909387348536,
          -0.0049360454366092574,
          -0.4113580118529829,
          0.11862710556039846,
          -0.23843549124902888,
          0.3395534773088397,
          0.4596717693549822,
          0.24880485504391558,
          -0.2455219980331987,
          -0.2483325056625392,
          -0.08905004998225775,
          -0.4533126955856417,
          -0.1354713205248864,
          0.04702474263567996,
          -0.3484353997647765,
          0.15188585438892074,
          -0.15730613144515723,
          -0.27989564059807953,
          0.4114006292294259,
          0.31030909045746524,
          -0.07321675883806425,
          -0.09198518159402341,
          -0.1184386129626591,
          -0.1610019390084398,
          -0.4432057114576269,
          0.2571066895412785,
          0.059025821453978035,
          -0.1733489636328196,
          0.21894347285208915,
          0.05771506880881381,
          0.38246170736552654,
          -0.1711663048630802,
          0.18003064492645232,
          0.21565375406151885,
          0.42268414675177046,
          0.3053824554667695,
          0.1448770165328248,
          0.251711815402544,
          0.22675173174307564,
          -0.28708695875126705,
          0.284645698078243,
          0.325933160271277,
          0.037287983890008966,
          -0.05093251343381156,
          -0.08413910189381772,
          0.3765912784909497,
          -0.0018768461730477046,
          0.2484991335131984,
          0.13057165072492147
        ],
        [
          0.49879671421527905,
          -0.22706711011491404,
          -0.5534103438163372,
          -0.276371554254509,
          -0.15733011052688956,
          -0.4061328095684594,
          0.09820835758753503,
          -0.14418754271991369,
          0.36514284382857354,
          -0.040305137771237204,
          -0.5355202874263068,
          -0.5043797336593391,
          0.16972863298975832,
          -0.14285244129290106,
          0.11267146644633723,
          0.15819721066662853,
          -0.6305516144477432,
          0.4522941194619541,
          0.5064279345846413,
          -0.3659388175139685,
          -0.21737290947365093,
          -0.36351300204957954,
          0.2367923156615794,
          -0.10161720961208658,
          -0.19891073192071407,
          0.23085581266370617,
          -0.13351276826336253,
          0.19282728652130005,
          -0.36153679681039724,
          -0.6336005955596273,
          -0.023215828494515634,
          0.362191547444025,
          -0.27116583487195095,
          0.29310563866574596,
          0.28041909749345806,
          -0.07710246712700683,
          0.014390928617840295,
          -0.37364281096146096,
          -0.09811995268316136,
          -0.13837150638086848,
          0.38107845797523304,
          0.06355624428929231,
          -0.02545796676651394,
          0.21757496697903256,
          0.28957482048762406,
          -0.35914376163696826,
          0.04512195207223129,
          -0.9394088501183376,
          -0.18703257333606207,
          -0.23706169748354386,
          -0.02135607927823977,
          0.2067576811913049,
          -0.2620323909219506,
          -0.008705648391619396,
          0.06283587806052036,
          0.16582995264696818,
          -0.1986246488435393,
          -0.38922974477579003,
          -0.5166633564115127,
          -0.3465178138721145,
          -0.050380207513498976,
          0.026800067895051807,
          -0.4341475650825582
        ],
        [
          0.27316597939459625,
          0.22818008999748418,
          -0.43640732521543935,
          -0.07358912831316804,
          -0.07621715786936364,
          -0.307680033592959,
          -0.20639929548278987,
          0.07869938985054252,
          0.18019658023285542,
          -0.2605264817001613,
          -0.42617839627613247,
          -0.052128551150856774,
          -0.04702867183470916,
          0.18372242405914743,
          0.13237601404859303,
          -0.2622642854679015,
          -0.33919156539327217,
          0.21823660754850177,
          0.003692311503557283,
          0.25487893682757373,
          -0.054165273776064365,
          -0.28426800324502827,
          -0.2464816096019424,
          -0.004387779072388042,
          0.3077906718676737,
          -0.003512914759732567,
          0.3005169385640369,
          -0.10145020368226922,
          -0.1379314918287221,
          0.05544847311578818,
          -0.08142661170488237,
          0.05069590746963268,
          0.2784409518622141,
          0.11947545263939388,
          0.25720145024402874,
          0.1903890941125778,
          -0.17435994059051854,
          0.326880003811957,
          -0.291843800882536,
          -0.1664399133666791,
          0.17736408143020044,
          -0.4856760541934766,
          -0.10558304943685468,
          0.26788808387277396,
          0.0026324803737580223,
          -0.2198158574631822,
          -0.1845780655627396,
          -0.5469655540354896,
          -0.18331718072333067,
          -0.19599980896935743,
          -0.2938121211643256,
          -0.08662023753682303,
          -0.2584580251634215,
          -0.07415677359884054,
          0.32532440089818626,
          0.16716925687708578,
          0.15297064892114906,
          -0.025798503440147464,
          0.39182352826900707,
          0.11042527851257347,
          -0.012975221037785636,
          0.1653546260986434,
          0.36950328261218574
        ]
      ]
    },
    {
      "activation": 3,
      "biases": [
        0.048481838919210124,
        -0.3270710499148985,
        -0.2706844076026486,
        -0.26816465551423696,
        0.048371965023891295,
        -0.26937646758191147,
        0.3551847195088946,
        -0.016749544944883003,
        0.4724732997181015,
        0.2743179013658028,
        0.21455818991243503,
        0.10481643388656532,
        0.49218104442749505,
        -0.018157001427417024,
        -0.008566825322596136,
        -0.02796484924612244,
        0.3737003923132056,
        0.1992656641158245,
        -0.03373574102047273,
        0.46402103840053943,
        -0.2421333869911915,
        0.3778799023100207,
        0.04826750930430255,
        0.22864917182092254,
        -0.1803541079523212,
        -0.2036712157854704,
        0.4067269854523602,
        0.2137400279726756,
        0.03177137973292304,
        0.19252948451628918,
        0.2392013039941579,
        0.45809985801382475,
        0.15257175781923105,
        -0.14780913374516497,
        -0.04360774617006082,
        -0.21883085505711689,
        -0.20738279774706933,
        0.3039127185930463,
        0.5144894081580575,
        0.4021748109338175,
        0.17239370078605676,
        0.43302544807379817,
        0.09001415606308978,
        -0.24934270770254932,
        -0.10667629372971352,
        0.20659510103870338,
        -0.21199633492594172,
        -0.11559143215348303,
        -0.4526963094282704,
        0.47364599038454863,
        -0.2582728870884208,
        -0.023442922996547943,
        -0.3556182475760286,
        0.39187678893506545,
        -0.024064895921408137,
        0.11403409526395537,
        0.46496291043926824,
        0.08058080791220476,
        0.0018887178135363625,
        0.20688217038927034,
        -0.3677613691795505,
        0.015938101947158397,
        -0.025769369895200227,
        0.3438333362608569,
        0.21323325037074464,
        -0.13318750520974346,
        -0.325184185813638,
        -0.3164300544370999,
        -0.12532581814155974,
        -0.33869474123546717,
        0.04488424070727277,
        -0.0645480656812769,
        0.3497363782766006,
        -0.30201118462482945,
        0.2618033711615489,
        0.15814582702571398,
        0.005873189065546054,
        -0.0503828641170554,
        -0.08109362900641492,
        0.1574749385083773,
        -0.20319741345756595,
        0.25836293547235356,
        0.22677723831271052,
        0.11816086501357825,
        0.2684327294812899,
        0.07485486822606069,
        0.1586419764167329,
        -0.026484939218669866,
        -0.02365120548114992,
        -0.05620649117760233,
        -0.23602802807489728,
        0.1582416640263198,
        0.04688298646551717,
        0.17687215128271205,
        0.4371291314526118
      ],
      "cols": 95,
      "rows": 63,
      "weights": [
        [
          0.16807440383005182,
          0.04658198443990042,
          -0.06356375956737613,
          0.09428816867841108,
          0.19950226254537218,
          -0.22119843316389956,
          -0.06097108172946898,
          -0.10369793178223931,
          0.11122396856842783,
          -0.08363606462602041,
          -0.08969072841297733,
          0.03367833927400249,
          0.31469408702142565,
          -0.24472224802336767,
          0.1100228112087364,
          -0.051235546642171226,
          0.3386373352557228,
          -0.005066770591118862,
          0.3149750387676177,
          -0.03895038377757766,
          -0.06752723477875512,
          0.10500537298174388,
          -0.027358294900129098,
          0.11393011177536864,
          -0.013430641146282845,
          0.253996772576766,
          0.0992388462478266,
          0.08622039576527868,
          0.17588601064155981,
          -0.12829542123179327,
          -0.07165742284027413,
          0.2800156826446921,
          0.19989391083588326,
          -0.35973191093395146,
          0.1492281786156811,
          -0.3283302673824332,
          0.16459425932041613,
          0.24631026062757944,
          0.016795585329618334,
          0.09042830944875356,
          -0.019761489496390217,
          0.03561263728751564,
          0.12693886876067376,
          -0.015503446490808526,
          0.25138318318135805,
          -0.11952998840829866,
          0.05487250329655047,
          -0.0894384371936564,
          -0.282767867478665,
          0.16846543554142684,
          0.18513734226617262,
          0.23521401307323542,
          -0.1616707581079171,
          -0.004331516765649078,
          0.039082835937928086,
          0.12237889837616664,
          0.15992874827625517,
          0.07113523629257905,
          -0.2296487857863429,
          0.21849281382019026,
          -0.32676378489407504,
          0.15315256102616626,
          0.002306289949428645,
          0.3456600245642111,
          0.024720534958786233,
          -0.0809747753950029,
          -0.04835171386138989,
          0.05329197520184091,
          0.03019731683447293,
          -0.09839278584320556,
          0.2099490089486218,
          0.009673599210029298,
          0.05227227957490028,
          0.05603687554224235,
          -0.06875251659594175,
          0.18181593278879815,
          -0.045532075765149886,
          -0.1240718593634346,
          -0.6063020178788529,
          -0.17703117419353256,
          0.09434085182460213,
          0.05090531960704121,
          0.17318028939193067,
          0.10710749764518793,
          -0.10515724379658076,
          -0.2476968038107031,
          0.26139200705709165,
          0.09200910356151044,
          -0.14836489943102052,
          -0.25920686721759173,
          -0.09021504834719993,
          -0.21137767944685204,
          -0.33923391424776345,
          0.0532386821089808,
          0.28450419251854386
        ],
        [
          0.24593101165213782,
          0.04069153787638388,
          -0.31427347464423816,
          0.16425819171956457,
          -0.05267945171204356,
          0.05719883566612273,
          0.20317522119500409,
          -0.06777077315498668,
          -0.037503310023555385,
          0.31922937579626015,
          -0.04195244927073274,
          -0.3489185408781685,
          0.16981380055748968,
          0.14356403117826974,
          0.03023171733836087,
          -0.061305300938998226,
          0.38204579350709483,
          0.062112296822499885,
          -0.025497794154270583,
          0.21926585302595358,
          -0.21536343618526776,
          0.09834754782390369,
          0.10836338924885013,
          0.20908242470865104,
          0.27349346346126713,
          -0.1163233732812406,
          0.2181299758504344,
          -0.10353852256322305,
          0.1831935150425179,
          0.09625869271852845,
          -0.13442657295093313,
          -0.06749228169544702,
          0.09241445264253019,
          -0.026868556695319942,
          0.1601742199048674,
          0.30040034700298474,
          0.030692973680585864,
          0.21847190901752214,
          0.15565027556712396,
          0.16157760158429285,
          0.008967900528419554,
          0.19447534811930303,
          -0.037932623284631976,
          -0.06993987219084648,
          0.18639673207289537,
          -0.12162842972133349,
          0.2535394694101309,
          -0.09930791165264652,
          0.13148729582277566,
          0.1709028086489109,
          -0.07422180930569658,
          0.3242418108426069,
          -0.24029367033631158,
          -0.10567127841863354,
          0.11915070652652789,
          0.04758292809699906,
          0.059394893245807684,
          -0.1764561792876843,
          -0.1255392358506728,
          0.03358074653748197,
          -0.060973941310202416,
          0.2586179471393437,
          0.29572500364805243,
          0.4254300920634079,
          0.02215630175652418,
          0.004370874231475921,
          -0.13642630888317392,
          -0.11966790610969912,
          0.034966857261396776,
          0.06596334708401658,
          0.10872024002663377,
          -0.0029913222859626982,
          0.05315304519795373,
          -0.10889958210062044,
          0.18825714528039467,
          -0.1259354693154892,
          -0.008952679840250263,
          0.12969439567908325,
          -0.14203266281868,
          0.4391209212617018,
          0.06874265290200612,
          -0.21041041048373424,
          0.2802580956772678,
          0.33004878367255835,
          0.13787699438286893,
          0.007055382588642531,
          -0.009981713607506125,
          -0.07228264522069336,
          -0.35684413546143423,
          -0.1522502797369676,
          -0.16318577218462568,
          0.04478060396817801,
          0.17963911884729417,
          -0.022638633198585723,
          0.10132502235297662
        ],
        [
          0.3064555697294966,
          -0.4237248480643991,
          0.083701082964892,
          -0.018836580264124173,
          -0.3239670919441921,
          0.3533181967579157,
          0.1674716373895942,
          0.2689494282315076,
          0.00722028737957226,
          0.3698032921427055,
          0.16107290901615295,
          0.29485730832445356,
          -0.09626914623306691,
          0.21558919445118355,
          0.3964646594042615,
          -0.28259092675570163,
          0.046879889390512575,
          0.1283173257005421,
          0.14984650537623845,
          0.15535668380753712,
          -0.0008090471930640445,
          0.22798961809215038,
          -0.12656125302896454,
          -0.21992570759400074,
          0.3623703928227835,
          0.3084885543203301,
          0.02333019734923662,
          0.07421451188460342,
          -0.02509329404162025,
          0.08557579168521093,
          0.3632314313268736,
          -0.1430881825309477,
          0.2520081075378956,
          0.023552065402968014,
          0.38947769467088905,
          0.307866768897315,
          0.24636254817322228,
          0.09475537797419109,
          0.20327787324999008,
          0.28954895225391686,
          -0.33345404743142076,
          -0.1250455299890869,
          0.317826233346582,
          -0.21701715483025213,
          -0.04894183316378247,
          -0.3440200069768532,
          -0.5490203476121441,
          -0.10425631989907748,
          0.0007889352998791968,
          0.016540135842480732,
          0.10710589716706322,
          0.11101849448981187,
          0.07723125326341315,
          0.21361938370707417,
          0.2663615012831737,
          0.05652821881338839,
          0.015376687593088158,
          0.19395383877804137,
          -0.31675750966563937,
          -0.09100913183080946,
          -0.05522955428292452,
          -0.37852871667675975,
          -0.33469563490131904,
          0.029746956528461974,
          0.13590225408701415,
          0.15960458136348207,
          -0.16736360394059643,
          0.10984872046896023,
          0.3415619409872917,
          -0.26852172837529203,
          0.13578315082006578,
          -0.2010530695886132,
          0.007889883021667661,
          0.11382106136150259,
          0.0110672674725326,
          0.3063494070897594,
          0.29298071398524067,
          -0.36374335390954127,
          -0.1765108742094644,
          0.05650615829252073,
          -0.09220573466312212,
          0.020416043685778484,
          0.28152983673452164,
          -0.20780920056879912,
          0.5309898981610095,
          -0.02468604886776432,
          0.07892299070751685,
          -0.2595327201850367,
          -0.14316621723307096,
          -0.3508087940090202,
          0.21476194040272176,
          0.2711203487676292,
          -0.3042551243086985,
          -0.18372063192902088,
          0.21783580618674764
        ],
        [
          -0.12592767550557946,
          0.1455120492053736,
          0.021555137066447513,
          -0.28345782437194506,
          0.0199476170831183,
          -0.3735814529165466,
          0.06119115960994741,
          -0.06934046488612802,
          0.022794028953131148,
          0.026491076894668633,
          -0.050286626510712466,
          -0.3820595475118256,
          0.1502333456410065,
          -0.1469108699333561,
          -0.15842497082578996,
          0.11984280470335076,
          -0.03468909013541122,
          0.1988213963735799,
          -0.39070226609805875,
          -0.0823126215782406,
          0.300750591285309,
          -0.2467480429789258,
          0.16855628870154374,
          0.14218671918643114,
          -0.3461072498756172,
          -0.17050555478375146,
          -0.1722110718374973,
          0.07524023086742333,
          0.2401403411886119,
          -0.08253814716320851,
          0.18236912766585542,
          -0.2017897201324926,
          -0.15296851152720192,
          0.07689249920170248,
          -0.015778595114016088,
          -0.16806000783285488,
          0.20035637980157323,
          0.31086955704917674,
          -0.04520702100726935,
          0.23206351914243192,
          -0.17601933334120998,
          -0.04540912987784451,
          0.09317263695534077,
          -0.18872942448705787,
          0.14908250120030964,
          0.02641792938313535,
          -0.06051381480920022,
          -0.15017170534667798,
          -0.059834229213032136,
          0.0900728300872222,
          -0.04894995073543331,
          0.33883132499473795,
          -0.06310657511650644,
          -0.04546986928836107,
          -0.11048568891853394,
          -0.07350469048652135,
          -0.1567594840130039,
          -0.06915970327288327,
          0.2611207281631397,
          0.22918957609289092,
          -0.03575053305455223,
          0.14052789993260795,
          -0.39204293594240297,
          0.4973214618487207,
          0.24533307230214726,
          0.18875022943564473,
          0.3642026319107899,
          0.13937903167735546,
          0.08295249246094887,
          -0.44420331892377224,
          -0.13812472982017293,
          0.062285875671190954,
          -0.19782348900480204,
          -0.02332284485629719,
          0.06038969300678712,
          0.17280297384035656,
          -0.023718507207760423,
          0.4212984212326198,
          0.13592565054976483,
          0.25585534233627727,
          -0.23024694339016474,
          0.11108475249743936,
          -0.09231433345476507,
          0.1536460078353689,
          -0.10347324299349882,
          0.3438560735385409,
          -0.2324418131740245,
          -0.0723606345404664,
          -0.23732036135519777,
          0.11402158908017955,
          0.04932789659651552,
          0.31240029369930833,
          0.09166454632640282,
          -0.009117786837422913,
          -0.11211248725004885
        ],
        [
          -0.19345767035739855,
          -0.2484434425095614,
          0.3313061198331586,
          0.22150513720961731,
          0.032475154961563904,
          0.07859371647397934,
          -0.2318199124167892,
          -0.14730736544431758,
          0.05919835339019854,
          -0.14187362437628365,
          0.17156398548648336,
          0.40370836281588135,
          0.07627053989284263,
          -0.14162874896929015,
          -0.123550718287722,
          -0.09156042341385559,
          -0.16412242613250755,
          0.16028732762717168,
          -0.01523559919013012,
          -0.1538643287196535,
          -0.08294463587784298,
          -0.11991746356344116,
          -0.20289161843721418,
          -0.05680626777016805,
          0.16478936640813246,
          0.23840066216820185,
          -0.032166798931825655,
          -0.08985451627585346,
          0.1303906342955998,
          0.10025865236650655,
          -0.18870957479615444,
          -0.026236430241985867,
          0.038996947835042865,
          -0.27066145283986254,
          -0.044938626815309114,
          0.09154878102744071,
          -0.25799436989399277,
          0.027838477290434236,
          -0.2547057939393286,
          0.13993405231636374,
          -0.18837321763302806,
          -0.12725592438044991,
          0.029216922756313962,
          -0.16464870385117894,
          -0.15178280834431285,
          -0.2921946815441772,
          -0.2134138407698431,
          -0.05322452936917647,
          0.24306553904270506,
          -0.13356391197519515,
          0.059151467084347195,
          -0.17411273161716617,
          0.17935953226368812,
          -0.17896921464963617,
          0.2508450263904649,
          -0.008026145570200356,
          -0.05668743992411018,
          -0.02623706795895289,
          -0.36916121564778703,
          0.416653820894744,
          -0.1948006875751807,
          -0.36192571524950345,
          -0.31495829568104466,
          0.012490180061468839,
          -0.031121826455412477,
          0.15619728430552557,
          0.05725335186981554,
          0.20727833151042596,
          -0.030581229626396752,
          -0.1743959165779075,
          0.15830300920279441,
          -0.11985842057928259,
          0.13385619740623309,
          0.26089476342287515,
          0.03966572671799016,
          0.17019489639946275,
          0.40622725603806265,
          0.2114420917301153,
          -0.040404847322935554,
          -0.2571349824956632,
          -0.1707799086628303,
          0.11311289023481569,
          -0.008708640176474334,
          0.19015833523762968,
          0.17647033111121,
          0.01189119864083758,
          -0.16737292782713106,
          -0.01032817232136462,
          0.08645202189537977,
          -0.32389485410803287,
          0.03835336512151571,
          0.11346330560224711,
          -0.2591816007278622,
          -0.19924186717939968,
          -0.19831302758249647
        ],
        [
          0.1928484023117008,
          0.18594975846501255,
          -0.026930781172964508,
          -0.22780012280833328,
          -0.24655846834621878,
          -0.08919064187908107,
          0.19352116544059272,
          0.3136777795986015,
          0.11941611734586478,
          -0.10309234095579839,
          -0.11109838814551408,
          -0.2597217120246358,
          -0.1475741891791908,
          0.05281050328258123,
          0.01067669976240211,
          0.14539262001280537,
          0.1999479411465977,
          -0.13374095040529022,
          -0.3129776640628602,
          -0.16943338439178227,
          -0.3629564902504,
          0.46955980995717156,
          0.003505668776838902,
          0.1420007467164088,
          0.039614694021498004,
          -0.2331475705303335,
          -0.1716869590645253,
          0.21216014883947865,
          -0.29431700048143217,
          -0.07922024402623695,
          -0.13313839799130217,
          -0.036048062119526214,
          0.048317291928258156,
          0.12218514309508315,
          0.025734124969669387,
          0.18719193155676497,
          0.028599625056914033,
          -0.14165974533867576,
          -0.15492965074622259,
          0.2447793476185457,
          -0.07412820789680832,
          0.014872806747903413,
          -0.21147335322627603,
          0.22129960378571303,
          -0.13932997912637543,
          -0.02374050432863784,
          0.2973173776111286,
          0.12699298093126946,
          0.29661172356271626,
          0.0686773234774579,
          -0.2759781055784219,
          0.07103803699307253,
          -0.0006753802557218835,
          0.07802505216895765,
          0.10179326532770092,
          -0.14372018465202518,
          0.042189541241843216,
          -0.19257595400279795,
          0.056077586439301594,
          0.06315501497027755,
          0.2047935040932379,
          0.19859072914054413,
          0.21328026248535736,
          0.24659508338542394,
          0.16264858450110464,
          0.24045108255688835,
          -0.4686663539585523,
          0.15423203071650926,
          0.3436912651813076,
          0.004199950735713839,
          -0.1852891647969118,
          0.12236222731324115,
          0.34829055597140995,
          -0.11969500673909954,
          0.03501596569169579,
          -0.2671035154006446,
          0.29701884491552666,
          -0.02415897640476798,
          0.22667993872048445,
          0.2034555688137417,
          0.07562955917033284,
          -0.12450156513946603,
          -0.11435671514512095,
          -0.14897427174148775,
          -0.12889369993685354,
          -0.058329074989217924,
          0.26653819041640137,
          -0.0683867797113781,
          -0.3817062674358934,
          0.24748912902005316,
          0.025650571198692212,
          0.22450119064113686,
          0.5321639014130612,
          -0.4683561649585747,
          0.08640742452008375
        ],
        [
          0.18084406667798164,
          0.1305637824864271,
          0.20535989455534023,
          0.030783955409823593,
          -0.06895462288891813,
          0.11245409238385788,
          -0.2716901623904507,
          0.13834516586243958,
          -0.10198962572852949,
          -0.22247020338201798,
          0.08252841360799057,
          0.13497576094258867,
          -0.04884717316889869,
          0.07569295043848727,
          -0.0427430784052044,
          0.16663339932267998,
          0.12047660038712406,
          0.00034019098612557484,
          -0.060644843498146736,
          -0.07141000477454947,
          0.10825993123035965,
          0.1881580183773965,
          -0.21416243323505407,
          -0.10306813324210631,
          0.16479911877816056,
          0.0753165513924554,
          -0.10255167319920787,
          -0.10761846707400571,
          -0.015892941593704985,
          0.11605005190360154,
          -0.1476067983018844,
          -0.012520425159658245,
          -0.12498919054761565,
          0.17085287815842048,
          0.061549019654600974,
          0.2785607435972797,
          0.020942171133203208,
          -0.25968544233876106,
          -0.10329251410020959,
          -0.05667732884152798,
          -0.21437416412759963,
          -0.2717011647693942,
          -0.1822305107609505,
          0.2645395763344373,
          0.11672824583168669,
          -0.2806057307800182,
          0.16855718677344525,
          -0.12427923329367002,
          0.4108569776106389,
          -0.0257265041974529,
          0.04554457925124709,
          0.16132880740554145,
          0.1498593560066563,
          -0.2755358241116426,
          -0.006880526917568902,
          -0.1083839989434768,
          -0.05026314945208842,
          0.10795440098549358,
          -0.1022280607468937,
          -0.0244009236596219,
          0.04014746642504225,
          0.1600401737022321,
          0.12895262638861354,
          0.019155684776208045,
          -0.26365419078535707,
          0.27539175084563,
          0.031484322718177436,
          -0.004543004161673577,
          -0.019744828786500957,
          0.21879119812235495,
          -0.11236490390103086,
          0.04611313624352997,
          -0.13174319509400992,
          0.09891916260149507,
          -0.012692318555984537,
          -0.16560814454012596,
          -0.11847986763366505,
          -0.05056448507199345,
          0.13295211761600462,
          -0.17028183497044797,
          0.24580668347387516,
          -0.3076811506385182,
          -0.21122780897632606,
          -0.007899114143193013,
          -0.24951228827740482,
          -0.02215995425179682,
          0.21059310725350952,
          0.08810840613932833,
          -0.1271164713704879,
          -0.026847629135580444,
          -0.13305004914911622,
          0.011328596628519283,
          -0.019913867660688263,
          -0.03145770739550801,
          -0.17712499773475146
        ],
        [
          0.10240394285876353,
          -0.10135000954031034,
          -0.1735916554348386,
          0.10162502707085985,
          -0.11331914389197385,
          0.10453122485408305,
          -0.09115321907266405,
          0.033275166806233,
          -0.12837199999182758,
          -0.11240603526741029,
          0.002966825003986759,
          -0.16265064193037804,
          -0.02648555983510508,
          -0.1916331126748367,
          -0.15039032299487487,
          0.11580956565584745,
          0.1066829509617822,
          -0.0024510417679868414,
          0.01129304308740483,
          -0.06029911236115527,
          -0.25361343125156105,
          0.09534245993951602,
          -0.12153050560357834,
          -0.010616496595348291,
          -0.11930750050543723,
          -0.03041820288105953,
          0.014421327067729443,
          0.09218380667308475,
          -0.1768459655305213,
          0.03642907184157322,
          -0.07548404825937308,
          0.040534660731804804,
          0.16098584600230217,
          -0.25659393343201675,
          -0.12887991353892733,
          0.032381725796634175,
          -0.10745775683553171,
          0.1470591720780219,
          -0.07346607095956523,
          -0.06322281135837256,
          0.10641723417658709,
          -0.13493342053936988,
          0.03814761167671795,
          -0.2132790004210135,
          -0.05164772809825244,
          0.032855013530801676,
          -0.20448101618129547,
          -0.2017940853017342,
          0.20856693764883688,
          0.08159378319015213,
          -0.0030135266446774498,
          0.07222004545106231,
          0.1679119769602345,
          0.20019512842195722,
          0.10343421486813831,
          -0.19201302770481107,
          0.07668228733640077,
          -0.0736268287067194,
          -0.12850446943409957,
          0.02752932407149662,
          -0.21611830892814066,
          -0.07541450587087119,
          0.0014979488468801223,
          0.10741486695696127,
          -0.09492133932290818,
          -0.01609784101808587,
          -0.22309157322127907,
          0.05320426945823563,
          0.17213469601959092,
          0.0279095231374189,
          -0.027238947693009042,
          -0.1483003427325935,
          0.2739083853531138,
          -0.13454271299769827,
          0.2235756204727675,
          -0.06761273149275683,
          -0.060019116447652156,
          -0.04959176169581679,
          -0.25827546590362943,
          0.05911217288649608,
          0.13886303217121673,
          0.1438146679316769,
          0.09543600602474364,
          0.12345709342863814,
          -0.15447485908568717,
          0.07678770745417782,
          0.07514652966270857,
          0.15662575710648896,
          0.08277830313013711,
          -0.12182364792522309,
          -0.04597189007784032,
          -0.08731640093804073,
          0.023867928868340802,
          -0.1315855440588092,
          -0.09893107053525751
        ],
        [
          0.07447300320882815,
          0.15276705370449656,
          0.043783654625284364,
          0.343874006911682,
          -0.19200276196969907,
          0.1065167413568623,
          0.15114717017074367,
          -0.14243247431289346,
          -0.05734572172933408,
          0.15185469344954575,
          -0.2657215730282723,
          0.11001255517646732,
          -0.038760226420610236,
          -0.25439441901957316,
          -0.1600609722927868,
          0.0859506312979171,
          0.08948272636393349,
          -0.16731715167045894,
          0.07540479428140236,
          0.06415706080538915,
          0.31472803592200427,
          -0.31523412345025387,
          0.13372129446311246,
          0.11920672068638087,
          -0.012233527645767123,
          0.3152599925994067,
          0.06695903676023565,
          -0.28800124094324386,
          0.30359553514765913,
          0.1840843520845682,
          -0.1377209332819676,
          0.11209093394583866,
          -0.16982587747385228,
          -0.11570561367367133,
          -0.05713313614525026,
          -0.05786271984457663,
          0.12392822187476651,
          0.0931733454691523,
          -0.160100526668122,
          0.11565218662996643,
          0.039717517260894356,
          -0.20873362368514306,
          0.03279384034230089,
          -0.1029424461100282,
          0.20602945730856448,
          -0.18845529544059597,
          -0.20593167762732534,
          0.2015084508295779,
          -0.4215975669706529,
          -0.18529153972456566,
          0.4381671172216253,
          -0.017983588441144328,
          0.21670598691823298,
          0.01996294122393138,
          -0.19990614323321873,
          0.15492340421933937,
          0.1216389560220602,
          0.16198173814281064,
          -0.038408343536220226,
          -0.11872470445865836,
          0.08915427646446272,
          -0.39568722013540475,
          -0.1190492843960028,
          0.21319643282197895,
          0.1190779455382967,
          -0.09084706570777229,
          0.5571803397929563,
          -0.05472713959074095,
          -0.30446657109206837,
          0.13623002116586339,
          -0.028705307432911064,
          0.1532518412925027,
          -0.31874932687319285,
          0.07763011814999188,
          -0.16650891523205957,
          0.3108335772139338,
          -0.35786143661276615,
          0.19299760154024836,
          -0.02147988710369614,
          -0.21310627260214235,
          -0.16638431626675282,
          0.04044163927004169,
          0.28985118091957285,
          0.11778140202625051,
          -0.16410925371381493,
          0.21955072584246293,
          -0.20275548717940048,
          0.15750079930884875,
          -0.06262080597220655,
          0.04664934208102638,
          -0.16973338509035046,
          -0.1797772583647881,
          -0.5687505831008578,
          0.38687743603787184,
          -0.09191370336712859
        ],
        [
          -0.07971568322542864,
          0.007017406181592606,
          -0.11530472858422891,
          0.028024947543172953,
          0.02058227142942911,
          0.04810293437719754,
          -0.0018220122630313328,
          0.10405420876223494,
          -0.12859569730615134,
          0.15568548373041208,
          -0.11095546343404022,
          0.034700056397815426,
          -0.22301038887260874,
          -0.03705116838219226,
          0.12230607225705319,
          -0.14358325818098383,
          -0.27740338663359043,
          -0.07345232724648952,
          0.12724591472078448,
          -0.2430066776965397,
          0.13155297779870037,
          -0.12856380059755804,
          -0.05700610133342082,
          -0.17941992802090706,
          -0.10558284103432282,
          -0.1322281365996387,
          -0.23008372531306254,
          0.15759645016781731,
          0.15932310791522125,
          0.10847657352413573,
          -0.03617242687603247,
          0.032445887220832914,
          -0.05545324345749282,
          0.07527641592968953,
          0.04158200519996839,
          0.08737512993837107,
          0.0833078380457228,
          0.06301117119170972,
          -0.08324631616117308,
          0.16052624803102997,
          -0.0669292878842167,
          -0.004452752270136711,
          0.16174719505971702,
          0.09673866855468162,
          0.040698401536533896,
          0.17102907817330437,
          0.21647374514775186,
          0.07090601645010308,
          -0.09037201394844628,
          0.041491451227185026,
          -0.11380522202808058,
          -0.14157684905893594,
          0.22044868662088363,
          -0.1916860409260454,
          0.11446064124629736,
          0.10724617016845082,
          -0.0777854262979358,
          0.16322858150636418,
          0.004910559618288882,
          0.00278847944421222,
          0.1011484466705242,
          -0.1745419787014799,
          0.16359623127448292,
          -0.19242414608544364,
          -0.19361839066405998,
          0.0850641683634805,
          -0.06036710618701671,
          0.2169716166552498,
          -0.08290872669940061,
          0.10647226745173877,
          -0.07594734593734855,
          0.02280029873390001,
          -0.01622053819153478,
          -0.12193709240155669,
          -0.198002017902256,
          0.026217529855857583,
          -0.017955840116891227,
          0.17077902282065355,
          0.23715652641458287,
          0.06347334820313284,
          -0.18184534050155698,
          -0.20180475648827437,
          0.026815269597874954,
          -0.04363111138555546,
          0.15265445471854575,
          -0.08061345031453623,
          0.045949774678158355,
          -0.012739606187485444,
          0.06378761407232368,
          -0.023068563215705135,
          -0.14120444576970137,
          0.015910876816316172,
          0.18023372077479677,
          -0.20056944496247342,
          -0.127413713865542
        ],
        [
          0.3834010579016524,
          -0.37337807861492517,
          -0.11286648299918205,
          0.295500154159533,
          -0.43151005225845085,
          0.3526515863479114,
          0.10266361855758775,
          0.34784384114494954,
          -0.01884305176584757,
          0.33446894826074525,
          0.34612966775969395,
          0.20299504109838734,
          -0.1526473104828333,
          0.28819475602985006,
          0.3724110294837504,
          -0.21089199218938265,
          -0.014153897779880152,
          -0.03188702297796027,
          0.2041279887149622,
          -0.08126154359863078,
          0.09954284180079506,
          0.10318183259298878,
          0.04542857894635418,
          0.03239742295480479,
          0.23787772433637516,
          0.4454092984487126,
          0.0553858498104327,
          -0.2689855147373553,
          -0.24854520668974567,
          -0.04592951085310467,
          0.29738741240305255,
          -0.18781932491172526,
          -0.04577310036996293,
          0.2550220930133631,
          0.4328566326366462,
          0.3667029768230261,
          0.16547796291983513,
          -0.0020139858910029843,
          0.11097618269062234,
          0.11966388355281225,
          -0.23641819924532687,
          -0.20367108702834444,
          0.3639124005786552,
          0.015251363852415016,
          0.11002393686381323,
          -0.26819314029725705,
          -0.35115954612630107,
          -0.04203936510289147,
          0.1951018492935647,
          -0.07256718444381306,
          -0.08412910031371958,
          0.38036213411110165,
          -0.02363933614901735,
          0.07333689495869919,
          0.10935266250818504,
          -0.22508762954512965,
          0.0650347839404789,
          -0.01363159493184484,
          -0.20569570221369393,
          -0.0008620076507197647,
          0.13885857820189643,
          -0.09359094112902686,
          -0.2497030377875235,
          0.33123271115576314,
          0.06268127158863086,
          -0.08404390103781142,
          -0.21073527298777392,
          0.12917008218501544,
          0.08096593266506891,
          -0.31650572448968806,
          0.2581685243626869,
          0.21684892302966507,
          0.11059618648145059,
          0.1639951221500532,
          0.014674081182561083,
          0.24504540906820155,
          0.09453850169583936,
          -0.08515592369054167,
          -0.22384679310098646,
          0.3806110459428824,
          0.14341434877082973,
          -0.18134482508963043,
          0.16654025432212316,
          -0.011147940234404378,
          0.07517784104299631,
          -0.22839950675983453,
          -0.031448945685976885,
          -0.05252673687531479,
          -0.27876240318754847,
          -0.20920282849028807,
          -0.23503596092547668,
          0.06470853863005274,
          -0.20973350284391704,
          -0.612625940148361,
          -0.20796375066950104
        ],
        [
          0.06860103768961336,
          0.06044548789754543,
          0.18831126889456573,
          0.231359743240609,
          -0.10063712917054027,
          0.21033234513760737,
          0.08665465613389345,
          0.18796985801034669,
          0.010636461924995342,
          -0.11342258729279507,
          0.14824052226271972,
          0.14348299434779468,
          -0.09455329556099006,
          0.04646583023986516,
          0.12208231455929341,
          -0.33704797403215014,
          -0.26168673362352013,
          -0.021781642586196855,
          -0.2601699710930818,
          0.18410522139299085,
          -0.4648892576102692,
          0.7878091812809525,
          -0.058043935685794405,
          0.06712976022362865,
          0.2543501757175205,
          -0.0845746009471559,
          -0.09391352337074194,
          0.031122144329445798,
          -0.09027471042753532,
          0.09670529081746825,
          -0.33511092301249057,
          0.18437669212435695,
          0.21184695807729484,
          0.09821767841631009,
          -0.12852434294878812,
          0.19821045117373676,
          -0.1033154348213191,
          0.058891423020161975,
          0.1364764811166092,
          -0.1479040718201486,
          0.11946612003320174,
          0.09330839349510231,
          -0.22920259718986777,
          -0.019147585704421474,
          -0.06032335979356283,
          0.149690926846473,
          -0.27899869139048195,
          0.13387922666334415,
          0.18471565628400172,
          0.0878450110390094,
          -0.3282229800454424,
          -0.14349885647982305,
          0.16368208018856717,
          0.1262143411505318,
          0.1433112020529723,
          -0.17831136376153142,
          0.04134662443999783,
          -0.18829943662359364,
          -0.15910227812548758,
          0.4615974425540304,
          0.11109693811012522,
          0.3581171991165193,
          -0.06461189419312363,
          0.05281254189390065,
          0.0518911409752611,
          -0.06298032841393948,
          -0.804480568556032,
          -0.16969006586471422,
          0.2982714189565762,
          0.0986187259603978,
          -0.17376323979142763,
          0.07807655731184197,
          0.7006190587679827,
          0.21568368320647618,
          -0.1128854344172834,
          -0.38694776602064707,
          0.5321885400246874,
          0.16341507438385705,
          0.047829530252057335,
