{
  "layers": [
    {
      "activation": 1,
      "biases": [
        -0.2041853364231946,
        -0.19016630639028523,
        -1.3222746205100286,
        0.4925393919988197,
        -0.12204474214148885,
        0.9803664551823725,
        -0.3501495132858078,
        -1.0765770961730063,
        0.9949264224657614,
        0.6616432743286369,
        -0.2552623147905289,
        -0.2971636593642728,
        -0.31928550059127603,
        2.136332679244336,
        -0.6479826829475327,
        -0.19324368172921694,
        1.3961702956652684,
        0.9428051428456112,
        -0.07843209559732232,
        0.4963178445133258,
        -1.198084921024943,
        -0.7506868704833913,
        1.2357744505869015,
        -0.03114285035317091,
        0.9603941221987634,
        0.654535482838046,
        0.04056020163207754,
        -0.2608042587112831,
        1.1171789371877412,
        -0.9588782350490739,
        1.2274958222086263,
        -1.2372827412307577,
        0.33953658461942643,
        0.5516748091320548,
        0.5356067717883976,
        0.6789815847965622,
        0.926068445476777
      ],
      "cols": 37,
      "rows": 10,
      "weights": [
        [
          -1.2426755059341736,
          0.0003083549327316107,
          1.602455130888794,
          -0.28732465048224026,
          0.6585309601076152,
          -1.1419768891357185,
          1.375534125269181,
          1.610819493188071,
          0.37145254396565486,
          0.4908888070678311,
          0.7739352168038247,
          0.5032755331764015,
          0.8087132659021562,
          -1.6597441814565934,
          1.0368330341321934,
          -0.5197046310667877,
          -1.2126442735770553,
          -0.8501463790637033,
          1.2644181926493343,
          -1.1044000220806236,
          0.8023201579520346,
          0.805553112545729,
          -0.8422877665642675,
          0.45877693357453053,
          -0.8042888040838648,
          -0.9569700781915503,
          0.32626647472515724,
          0.6063452639969219,
          -1.354431323916328,
          0.48738688889913856,
          -0.48087390193302887,
          1.0739212608552373,
          -0.766868524520212,
          0.3499620916678788,
          -1.0519398190146125,
          -1.144259466897224,
          -0.4816675749833998
        ],
        [
          -0.4703051234994168,
          1.5862199997503732,
          -0.09545845795373169,
          0.12199279141183293,
          1.4673835664150534,
          -0.36446231365955,
          1.1462685009137779,
          -0.12584300898227885,
          0.1443941294496368,
          -1.419537573523125,
          0.4118920684431347,
          -0.39672485716816863,
          -1.1305799657490208,
          -1.2245646901198162,
          0.9963467330306637,
          0.2951348114763569,
          -0.33574733078202823,
          0.4761901859912602,
          -1.2520922912619719,
          0.6878792705687453,
          0.36751832034324244,
          0.33865831138652336,
          -0.330698442807568,
          -1.6060223888637826,
          -0.7623011617385853,
          0.7877345962475989,
          -0.28136808395819995,
          -0.9360006565888145,
          -0.8299484678133412,
          -0.3735479422106942,
          -0.6240723859295225,
          -0.6137169309327184,
          0.4896888722771228,
          -1.385476075273011,
          0.3964545521540352,
          -0.32842863989943927,
          -0.42257022419367796
        ],
        [
          0.07205809251969582,
          0.7648627050629278,
          1.8548759715606893,
          -1.9241433030708452,
          -2.1416196693544443,
          0.8510868291769077,
          -2.2656119963690364,
          -1.3374670655126897,
          -1.7965373401893436,
          -1.5193851620405958,
          -0.08421620624723049,
          -1.3650055414323483,
          1.4551847318897768,
          -0.11446607903071833,
          -1.0731505019098269,
          2.6893595717515417,
          -0.4988967355620281,
          -0.66789439392404,
          -0.0878662323824289,
          0.5888383854509739,
          2.727402611642597,
          -1.3414537569449132,
          -1.8665572083125397,
          0.1828775932800407,
          -1.1111117029213753,
          2.0744766201362586,
          -0.6603101891250602,
          -1.423981265915706,
          0.2472249548767732,
          3.2464200699623156,
          -2.9867269869595283,
          2.0627580591446413,
          0.28003445592753945,
          0.8693780701365181,
          0.5858800143297822,
          -0.6910281205799551,
          -2.3950481282119163
        ],
        [
          -0.8708672768860283,
          0.8562899397395436,
          0.0852671755515773,
          -1.2707590324863285,
          -1.8059554789266328,
          -0.25637929553083033,
          -1.2680054783271042,
          -0.17208096336803766,
          -0.2470558413590858,
          0.9158884966616626,
          -0.4562872514965659,
          2.0170909231062257,
          -0.23594866779895435,
          0.4588229419788818,
          -0.9414522923585081,
          0.6304263301319204,
          0.14022684638868335,
          -0.4650481147576671,
          0.6851102158686816,
          -1.7421020307034256,
          0.058109586404901076,
          -1.1869589057629006,
          -0.19334762219152712,
          -0.8435517585355784,
          0.084017758338124,
          0.6395538501598955,
          -0.11216422502185094,
          0.04632987049852699,
          1.5014273863668128,
          0.5469497617625527,
          0.39492762259589353,
          0.20679442901274275,
          1.2699621450427425,
          0.7788260335284175,
          0.48390192620788336,
          0.1937480007767198,
          0.7687682508412051
        ],
        [
          -0.8084343855862586,
          1.0208125027972572,
          0.6884346947295352,
          -0.7680206688222047,
          -0.8201264153302297,
          -0.2813468579503134,
          -0.29183021971094975,
          0.37492629568351016,
          -0.38501154621285694,
          -0.43374968574158623,
          0.5175723361778184,
          -0.011642091787696639,
          0.7275990816193665,
          -0.7620832294462835,
          0.06419534304794412,
          0.2757469784503828,
          -0.1485398698947026,
          -0.9351958780109164,
          -0.06563553226830007,
          -0.5541573033031023,
          0.8714555676980318,
          -0.3543787192081499,
          -0.7438269448951051,
          -0.33952584414397974,
          -0.4976741429036764,
          0.23350270536448242,
          -0.08316505743484601,
          -0.325237794505629,
          -0.5432969666885674,
          0.3145074762766133,
          -1.1523700204612173,
          0.21369869969395386,
          0.5182859671605959,
          0.2528624436968522,
          0.3884557609758168,
          -0.6684245606001149,
          -1.081952872414027
        ],
        [
          -0.12541054831247386,
          0.08024633546346056,
          0.3993283341935725,
          0.5564321038418164,
          0.24910812767473356,
          -1.602066366128205,
          0.3482242069300024,
          1.6306475996454761,
          -0.7658281922322958,
          0.2516414225277072,
          0.7954150484663703,
          0.30913690213432116,
          0.01146347562585396,
          -1.9105611827017872,
          1.053169270887488,
          -0.019098773207708784,
          -1.4756737624932967,
          -0.5096782382756911,
          0.3981893491251651,
          -0.632306994170728,
          0.0651196116763699,
          1.1387834250444546,
          -0.6138137296781034,
          -0.4347169603569515,
          -0.8334764334738153,
          -1.3913942819080927,
          0.5508125362018099,
          1.266707954788336,
          -1.1335700946252723,
          0.22870816998917587,
          0.0012371964334442235,
          0.5171181775532255,
          -0.5271003288719743,
          -0.49381888886388325,
          -0.6796491630105064,
          -0.925361138378696,
          -0.34941971873736316
        ],
        [
          1.0504907924765503,
          -1.3053806033881639,
          -0.40462594355576315,
          0.7405076769447085,
          0.9734219499700127,
          -0.2942688506720821,
          0.15531919001324399,
          0.1036060366122483,
          -0.04934098555102286,
          -0.208825028053126,
          -0.19773990657774992,
          1.3552202171625947,
          -0.49213670574673885,
          -0.9258886868638881,
          -0.0191582396603133,
          0.43612220675026414,
          -0.2236003905534969,
          0.430756323939047,
          -1.1662117842314375,
          0.031916252559419996,
          -0.334914730914108,
          0.6643862995968374,
          1.021583250551556,
          0.37517367479746433,
          -0.2850565512380053,
          -0.8393648380170923,
          -0.5480309769633603,
          1.0684365497574995,
          0.3016675855709605,
          -0.6836794381114604,
          1.271647518615175,
          0.17496407083716603,
          -0.010788943356992596,
          -0.7036478297311931,
          -1.0902094901728148,
          1.3964120650590335,
          0.8403776022261328
        ],
        [
          0.2787358826329918,
          -0.4376855694160161,
          0.148831950339853,
          -0.8890585058771223,
          -1.9511020457678192,
          0.41735354376338996,
          -1.3166793527854408,
          -0.33088902039944246,
          -1.1524898537515325,
          0.07191215849879133,
          -0.2030105927239908,
          0.5988381224532928,
          0.7536818894144034,
          0.18700087474992236,
          -1.5673025734378194,
          1.5017809678433989,
          0.10354922721512876,
          -0.45718230497746093,
          0.5918192610246233,
          -0.7505525072419833,
          0.9522885559506127,
          -1.2870834522857377,
          -0.2922632553669447,
          0.2731765843607908,
          -0.0719969822350892,
          0.1831838029587073,
          -0.5444712361013987,
          -0.4602568558229846,
          0.9786836668179506,
          1.5524543440096072,
          -0.24578384947250764,
          0.9819759930624056,
          0.5171730538723852,
          1.3250240863180054,
          0.6674421354230707,
          0.6277638259567877,
          0.27459945581003364
        ],
        [
          1.9048632890000852,
          -2.0216436911643534,
          0.8169795273659363,
          -0.43544807569062394,
          -0.6909255160840095,
          1.4481426819613186,
          -1.3555368254048004,
          -0.6652201647826075,
          -1.3359144580050661,
          -0.218638040409225,
          -0.04632320267781547,
          -2.9457578975001195,
          1.6935996539566054,
          -0.3507566237820655,
          -1.1202085222287692,
          0.6589433410476425,
          -0.9010028579100154,
          -1.1153157801629012,
          1.5626502747521152,
          1.9177854323008676,
          0.1181482118626284,
          -0.46603228794953666,
          -0.1616412601235613,
          2.3085766938879266,
          -0.6303672926421107,
          -1.331780277793606,
          -0.9852667707368031,
          -0.39837837421019895,
          -0.7102253324565387,
          1.4470320915306518,
          -1.651131488820793,
          0.6832710359415899,
          -1.450663282556245,
          0.3904166917793126,
          0.9645684284993217,
          -1.2123405606115296,
          -2.214530552419071
        ],
        [
          1.1299898505706285,
          -0.5747570753042962,
          0.08542621711873008,
          -0.20384106719573294,
          0.4784323554276464,
          0.6911824254884239,
          -0.37454639828025693,
          -0.3068102089902441,
          -0.9846221236231012,
          -0.5230707743572116,
          0.00407679713367643,
          -1.8300957270851461,
          0.42872340286808275,
          -0.4432357687432447,
          -0.3423231788723629,
          0.4633007276463255,
          -0.32864193684933485,
          -0.6253204726976171,
          0.5970514764218774,
          1.5101763517515916,
          0.5755236450683,
          -0.24882899902702768,
          -0.5624935854540395,
          1.2295880795522998,
          -0.7885654535728015,
          -0.8001931162873052,
          -0.47314043063418787,
          -0.3222903679788192,
          -1.1268603926630965,
          0.4018302165058893,
          -0.7256471089712173,
          0.18332606283903055,
          -1.067210093210324,
          -0.18203177824750755,
          0.6936219952520694,
          -0.7739998124320262,
          -1.0198622426653812
        ]
      ]
    },
    {
      "activation": 1,
      "biases": [
        -0.15991716210376927,
        0.20643377639988622,
        -0.047841482557703825,
        -0.08061725916521642,
        -0.11256849523475233,
        -0.3477826034300011,
        0.031233853245149514,
        0.0910621653577371,
        0.07948745345027101,
        -0.10379374030704107,
        0.07956586123876185,
        0.3468251465856647,
        -0.25316750609606536,
        -0.080609329670227,
        0.1764943915264476,
        -0.02795477826849852,
        0.04011865213397909,
        0.05080956199968056,
        -0.04354935917437709,
        0.08450216458598195,
        -0.20555492042075538,
        0.09411637610792752,
        0.042338064067299994,
        0.023310093655255305,
        -0.22000532458035593,
        0.03743665011521044,
        0.23063829956731535,
        0.27357423490473476,
        0.038870350254997854,
        -0.02358939667321453,
        -0.2538201656215478,
        0.21024604753476742,
        0.06435646035722875,
        -0.006784932794941631,
        -0.04569981414601808,
        0.0324179707269615,
        -0.15930628539028066,
        0.012088332603191004,
        -0.15483657002873008,
        0.0881429303392092,
        -0.02296091285277557,
        -0.2119310666271195,
        0.0010975157719181712,
        -0.007519057003195961,
        0.22070924406000236,
        -0.08821604297566465,
        -0.08442457413005076,
        0.10335053241663222,
        0.019713332673712308,
        -0.19098794921420906,
        -0.16726695004709646,
        -0.004783047660825096,
        0.07271207361549296,
        0.0869859547687302,
        0.023678818708903985,
        -0.402000603557301,
        0.025116094374141487,
        0.06174738464621183,
        0.10367349995272894,
        0.29405693541537126,
        -0.07792240408856922,
        0.048728311082636144,
        0.04250737120745975,
        0.409725477221355,
        0.02186571930668793
      ],
      "cols": 65,
      "rows": 37,
      "weights": [
        [
          -0.296235003069033,
          -0.05354608433713752,
          -0.18710991650312006,
          -0.028931048080502612,
          -0.555278148839449,
          -0.2157516779963318,
          -0.0021924243058074233,
          0.009124977809690543,
          0.7283632227559862,
          0.22547048170920658,
          -0.28551889401965447,
          0.2412629631515808,
          -0.4434458368282337,
          -1.0331964268314455,
          -0.05203336399577457,
          -0.017074500416319624,
          0.23693694894666012,
          -0.1332280960647438,
          -0.21667362205140867,
          0.8081968185965341,
          0.03661257810064777,
          0.8325385292177848,
          0.10288833573184664,
          0.3461557721347336,
          -0.46691983020328254,
          0.621785876494069,
          0.14297608424114092,
          0.057837261069154045,
          -0.14894721797286947,
          0.06624907726942328,
          -0.3173571237573092,
          -0.1659022016977436,
          0.8577428040185516,
          0.3832872081763498,
          -0.6019624051981053,
          -0.23697230652764267,
          0.4451269246315129,
          -0.5778421560098037,
          0.029898802117309203,
          0.08928023430038642,
          -0.509699917384565,
          0.3838268796591579,
          0.04228654217158669,
          -0.024337856059138265,
          0.4950665745497079,
          0.5439388437598178,
          -0.2603085632148649,
          0.6665717962653167,
          -0.3662576978876227,
          -0.8119420372090502,
          0.044774130163916494,
          0.787761263631958,
          0.01532894589280499,
          -0.003736168631071939,
          0.05927641892569837,
          -0.4750587201140336,
          -0.42493940430298077,
          -0.1718268110634129,
          -0.28779156583575455,
          0.13925897638799037,
          -0.2750611114994662,
          -0.3450774486431089,
          -0.2486028024627755,
          0.35661576003357465,
          0.05427961891648282
        ],
        [
          0.23686275502836196,
          0.04397186362874465,
          0.21433760829572543,
          -0.1887219284808443,
          0.34909926040142814,
          0.11158942043523713,
          0.6429085125139901,
          0.30874960905511273,
          -0.41948631240077433,
          -0.44097184440671694,
          0.10769208220277363,
          0.10158315569438407,
          0.4537086594502325,
          0.7132989167080547,
          0.742381729162466,
          0.18267414570076287,
          -0.37793482282311835,
          0.4768767086944625,
          0.1177600485930985,
          -0.5698116549892018,
          -0.013215086528769097,
          -0.7236360990282178,
          -0.11539648994682676,
          -0.766727459632054,
          -0.07375872537559465,
          -0.4391432550686229,
          0.486501087508731,
          0.36360108280227776,
          -0.17816630459349814,
          -0.4661511422122715,
          0.24152200492302875,
          0.26121930198020793,
          -1.0528178106380253,
          -0.5698879381829801,
          0.7195231760654462,
          0.3898230983103448,
          -0.35612361939394666,
          0.6923649358122245,
          0.09146190879944979,
          0.3633304290798768,
          0.18609685981823426,
          -0.9479239389130887,
          -0.34417202169264566,
          0.2319846554966551,
          0.12620252314867222,
          -0.3965646746566342,
          0.09586807492875599,
          -0.19799083005455997,
          0.035237052473065356,
          0.9079697526196308,
          -0.016849772868181467,
          -0.4655877245932861,
          0.2553475728382165,
          0.4844696943054956,
          -0.19185110932783175,
          0.11470146403436954,
          0.538950656279246,
          0.1038079719154216,
          0.7523813808933483,
          -0.08187389433462122,
          0.1835976853796021,
          0.00216272511735396,
          0.35262212509865787,
          0.33438266864006494,
          -0.3655128050377106
        ],
        [
          -0.1632681198308186,
          0.4599525884786263,
          -0.3089904573674285,
          0.28126517826502423,
          -0.032220121961325864,
          -0.3892290869594983,
          0.22955292644360395,
          0.35255106802642283,
          -0.018255831150324763,
          0.1190421792676405,
          0.8760748144364512,
          0.29563531369156126,
          -0.6841832273016151,
          -0.828300208936095,
          0.17072166015697254,
          -0.3015352854273349,
          -0.09192861950379415,
          0.22428051823460624,
          0.05777973264261877,
          0.4381528388910713,
          0.4016783425967058,
          0.17779517344102794,
          0.06591524956375347,
          0.4121483957196673,
          -0.37532416407718067,
          0.09947084788164741,
          0.7743240311350967,
          -0.6158193371472416,
          0.18836203743852334,
          0.30568702687770605,
          -0.3612027609271417,
          0.30433652426816565,
          0.05804203646797164,
          0.11812413461576447,
          0.43864873482409134,
          -0.1438903105674213,
          -0.5207579806152904,
          -0.18244087975709514,
          -0.24052479331743631,
          0.5485763865082891,
          0.4779582341228988,
          -0.04470804659145668,
          -0.1762023240019045,
          -0.5402672305028065,
          -0.12484498694148398,
          -1.1427091156696123,
          -0.331903095828924,
          -0.6861224863813884,
          -0.12763709859559802,
          0.8596818131377358,
          -0.6299526946153813,
          -0.021306654702781702,
          -0.17769142860110212,
          0.2285589501955714,
          -0.2643281282309429,
          -1.4147720567648459,
          -0.3125512692781031,
          -0.20855036260554216,
          0.5154536687242155,
          -0.15239246120927502,
          -0.5129090157529488,
          -0.2728311217414266,
          0.5219455263032471,
          1.4465778456577756,
          -0.41806654548127736
        ],
        [
          0.10704909019740937,
          -0.30174118827192636,
          -0.20803523838219673,
          0.16947862718596388,
          -0.4321915134441459,
          0.5695629332777085,
          -0.39039026477974337,
          0.07889112916869905,
          0.2165492209944538,
          0.26242752317327056,
          0.06795323978477502,
          -0.7816561773082356,
          0.20497537042293082,
          1.0762465790335844,
          0.028706211098997934,
          -0.007503218739861582,
          0.4378769307776702,
          0.22226845668860798,
          -0.10258350275667819,
          0.30067987076954894,
          -0.5744721284071594,
          0.12444124459811749,
          0.27587352700308515,
          0.26089264638134496,
          0.08706231439058916,
          -0.25481694821815004,
          -0.46533642321617097,
          1.0674153899144088,
          0.05712144044961362,
          0.2437841722460339,
          -0.09172971057672015,
          -0.49915930927063124,
          0.5788615362782912,
          0.09150097168293607,
          -0.6041164871878594,
          0.3177789227957771,
          -0.24670812876470571,
          -0.19365401609907865,
          0.2671397718160562,
          0.16501481750767416,
          -0.462027722432639,
          -0.21728717473802267,
          0.302441089224745,
          -0.09172510919318233,
          0.22360883830553416,
          0.2281037464730283,
          0.017239592360445123,
          0.2790615006647024,
          0.16744559667175704,
          -0.7955675704267329,
          0.5102205006424296,
          0.23466820303168,
          -0.318576268920651,
          0.03946274208421838,
          0.07286679417599853,
          0.6871491559622781,
          -0.21579827101362514,
          -0.22387054893167216,
          -0.20845702177757328,
          -0.3547051409215287,
          0.2517888398556005,
          0.25558030947896027,
          -0.1698623332815617,
          -1.4081482244107772,
          0.03672617256992989
        ],
        [
          0.208908066115734,
          -0.7316849548837486,
          -0.7872570661371598,
          0.11462636142180926,
          -0.4585990321257123,
          0.8171857038088512,
          -0.054940502590484774,
          0.45967755523533266,
          0.7002495863523145,
          -0.04575159229339506,
          -0.05419963504513986,
          -1.1282505676288157,
          0.19111499364523804,
          1.533956848404023,
          0.6800443305436339,
          -0.4197180055822524,
          0.1930956472612427,
          0.39728818263096205,
          -0.36109995472523787,
          0.5141216149997071,
          -0.9586348261877697,
          0.4967026658667055,
          -0.16520829055486466,
          0.8878714527176033,
          0.23341431599035342,
          -0.5070378588251034,
          -0.38618760652237694,
          1.464634280754681,
          0.21921700687601678,
          0.4614936770827358,
          0.13602443818217524,
          -0.3918416772404054,
          0.46136999576782023,
          0.43563564821613754,
          -0.6806087192874454,
          0.45166113760029747,
          -0.6269651277977097,
          -0.23404052550263413,
          0.5902069520318302,
          0.1565937908977207,
          -0.1198235265915065,
          -0.5023384842634276,
          0.4299778300811438,
          -0.12210477470401222,
          0.6090414432080279,
          -0.5382119250964563,
          -0.15025267598510822,
          0.5448492143206547,
          -0.07408208465460384,
          -0.6052543500491286,
          0.3103336597619407,
          -0.13275231613177196,
          -0.9588677888257096,
          0.054745572290106806,
          -0.1714364448377266,
          0.7988235660383217,
          -0.3871193072592849,
          -0.16122180993778062,
          0.3320935317293983,
          -0.6440747939592971,
          0.40288560642666466,
          0.41161251848449887,
          -0.03771462138908893,
          -1.7728548796752268,
          -0.37088435318730945
        ],
        [
          0.05620467579822165,
          0.033685130938171534,
          -0.10327235083621178,
          -0.5124887865912959,
          -0.5575345917514655,
          -0.7029434964711021,
          0.43591535534612363,
          -0.43816282396053885,
          0.03321113060970342,
          -0.01698612460525019,
          -0.7078269593835681,
          0.9697324556912316,
          0.26565990034223164,
          -1.0402496572025737,
          0.15713345883485716,
          0.6924572912773455,
          -0.3998345011399633,
          0.2664606344859452,
          -0.32677349998820565,
          0.06740383088220187,
          0.1102301081807968,
          0.3033801460676446,
          0.029720662754266533,
          0.40523704873635097,
          -0.4835694296972786,
          0.6829691124619671,
          -0.1390802995383357,
          -0.24528758937327222,
          -0.20694040495502214,
          0.3109272041585119,
          -0.07554323022718809,
          -0.08534104916797038,
          0.1815457874115348,
          -0.11197478533941795,
          -0.37175102501321455,
          -0.43726767224491675,
          0.6602774495561711,
          -0.05674090466663299,
          -0.13207984730453537,
          -0.2791300542347072,
          -0.3597832957174842,
          0.09525077855629828,
          -0.026376102186573745,
          0.20117807513507677,
          0.9251344311268869,
          0.8935625368534607,
          -0.43083201615679423,
          0.5284243419785664,
          0.05713534956398247,
          -0.5912145210324895,
          0.07507078543457295,
          0.5775181124394799,
          0.6008024730460062,
          0.10476009926612014,
          0.20261589790889054,
          -0.09851159093930696,
          0.049750114521310014,
          0.4823474387567688,
          0.1359049461506914,
          0.5952845464583895,
          -0.12101793030198599,
          -0.003782897521205172,
          -0.12899358512453613,
          0.7433335651463935,
          -0.05074957821208481
        ],
        [
          0.08880953496492197,
          -0.3503870658477298,
          -0.5273130923524494,
          -0.3343537571969118,
          0.03448833225661379,
          0.5322027017259325,
          -0.31074306832309523,
          0.5168865240580814,
          0.23723700715000418,
          0.31874725872162546,
          0.379235827778233,
          -1.0406462155310352,
          0.41686959827607734,
          1.4409414021663316,
          0.2413003713363517,
          -0.22993454515194323,
          -0.05558347894479705,
          0.27750779584914576,
          -0.48102276036406877,
          0.15059085740761755,
          -0.7368158631857294,
          0.022124104103931664,
          -0.14497861235098106,
          0.45673151435803105,
          0.491563379515842,
          -0.6410480320333218,
          0.07115741701123889,
          1.14092418913542,
          0.3418543839206907,
          0.2493063830633946,
          0.32205498436965285,
          -0.3495365475970983,
          -0.13860695524907407,
          0.5062973154112723,
          -0.15094458338651895,
          0.6687891076581396,
          -0.7641497595426151,
          -0.019513235767464693,
          0.5797005557387866,
          -0.01361205199204383,
          -0.07290164320491693,
          -0.7142430576740456,
          0.4501612930164328,
          0.049045249064040425,
          0.39855907309900535,
          -0.879879226607135,
          -0.28326268946247335,
          -0.051259042967610566,
          -0.08951708388506725,
          0.1859515603636168,
          0.5403302471004123,
          -0.11188488503872786,
          -0.8924770752632784,
          -0.32669823681300447,
          0.06770821367565773,
          0.709884351028543,
          -0.008165193834201556,
          -0.1421952281487189,
          0.08888613902655601,
          -0.6149342882811408,
          0.41537616017648016,
          0.2209939020916273,
          -0.14471350206528022,
          -1.5951623505696835,
          -0.01035360516707059
        ],
        [
          -0.017949440263078105,
          -0.0983920913887685,
          -0.017313712932909186,
          0.4911740434439218,
          -0.002017361938236815,
          0.13306217293175512,
          -0.30525282713784424,
          0.6306713016647786,
          0.09239259349579504,
          0.34134506660783537,
          0.9154636772627273,
          -0.6207045884918305,
          -0.2810575082948166,
          0.8320167844716675,
          -0.018731474550618785,
          -0.8240988440737284,
          0.43239743625669547,
          -0.2217586795965132,
          0.28738737337014214,
          0.14617044095590198,
          0.11533334971290098,
          -0.13645181065157966,
          0.5069042102590382,
          0.32072344324781565,
          0.4038381320485283,
          -0.5533155088968046,
          -0.1782731047114526,
          0.17352663791546943,
          0.6330311414784314,
          0.03645647584957873,
          0.35087122383580677,
          -0.3231006240462145,
          -0.0368541459089872,
          0.21044552190322463,
          -0.12134106865685286,
          0.29884584822449034,
          -0.7359984705805822,
          -0.3643410297994589,
          0.11084806221837966,
          0.09865460069783562,
          0.6047802738023799,
          0.144879078434208,
          0.203817151594369,
          -0.2569344486905199,
          -0.42147448512191227,
          -1.1238434278477605,
          0.1595698331477241,
          -0.17667986791115314,
          -0.02158239294742165,
          0.5438763784302243,
          0.10755484693651086,
          -0.367328864200126,
          -0.7418988114155702,
          -0.48324658577124086,
          0.24948528282925797,
          0.0014351670963784285,
          0.08186667501023176,
          -0.02281307051521013,
          -0.03484313795997246,
          -0.39549061299172983,
          -0.022738605312344534,
          0.22927485955851948,
          0.15969082222245198,
          -0.24014870336246932,
          -0.1190266139357408
        ],
        [
          0.6010110982945743,
          -0.2682337283129527,
          -0.5309806444712115,
          -0.5469909736131852,
          0.17540448310189788,
          0.18555222056183457,
          -0.34871250294077816,
          -0.3370098729631203,
          -0.30875031154310023,
          -0.20609630285114824,
          -0.2275740483231549,
          -0.12288076541062476,
          0.9345542343472655,
          1.4057019728874638,
          -0.39776377923769823,
          0.2977201854902307,
          -0.18874642647737722,
          -0.17431684657799645,
          -0.45718355911282427,
          -0.2957659412041353,
          -0.39295117208432395,
          -0.013873094835291793,
          -0.19832075578036845,
          -0.03385208773895672,
          0.2777351822943074,
          -0.3741434552100236,
          -0.40225337998367017,
          1.1844072139479467,
          0.02677762140080642,
          0.3071456827101686,
          0.3730475486420639,
          -0.49311483437533854,
          -0.2425049380078283,
          0.0638507662137023,
          -0.2170052367680556,
          0.6374439230589812,
          -0.33172398339337283,
          0.3311134506540495,
          0.36681835649271793,
          -0.15259817867702277,
          -0.4408395696346068,
          -0.14501593602634116,
          0.35655997522523014,
          0.2964915017751849,
          0.022132218501097936,
          -0.19020525095150903,
          0.09111176128081244,
          0.4366681607657277,
          0.35903972877768014,
          -0.1333390730441977,
          0.3780255429451163,
          -0.48050668803736485,
          -0.2753895705267553,
          -0.06888085862775827,
          0.045222057775755505,
          0.778142078165647,
          0.19110133786909875,
          0.04116471024457402,
          0.16086530370832838,
          -0.35130778924916206,
          0.1794979617629188,
          0.5375462377282045,
          -0.3126656572208063,
          -1.3605341067955579,
          0.4103373223708735
        ],
        [
          0.11657407664705641,
          0.007552925115183424,
          0.037404537208394636,
          -0.1661359105315814,
          0.3020672125971417,
          -0.07603642499831748,
          -0.682324115733745,
          -0.1985221497232069,
          -0.5124204606555207,
          0.2279514367330514,
          0.14890340287056875,
          -0.3716191833345136,
          0.7132173629839115,
          0.4434670530026814,
          -0.8331054695090476,
          0.2704989854306674,
          0.14421023699028046,
          -0.7931662893506579,
          0.07131993971145956,
          -0.24937260713058973,
          -0.10685721248041656,
          -0.11441303629859709,
          0.6585137646315453,
          -0.1234286111277799,
          0.13852365348086232,
          0.2300487233522243,
          -0.2527873620380874,
          0.31114677539382485,
          0.35069911435630613,
          0.14409768068330436,
          0.47278462582187764,
          -0.38527117920859977,
          0.1662608363104782,
          -0.052292802398278354,
          -0.35284311005342456,
          0.36741454740646234,
          0.1499742561210433,
          0.03764939574033984,
          -0.07178583558556217,
          -0.34684131709665844,
          0.05967564699524906,
          0.430064267623451,
          0.3023582555921137,
          -0.02262883913569758,
          -0.46972144657964143,
          -0.17432863963860368,
          0.05447419405400179,
          0.04675237321471121,
          0.34090513311616666,
          -0.17258363471318908,
          0.27394512806895727,
          -0.22602796127329225,
          0.28553070720764273,
          -0.39487680096841865,
          0.2814783732185943,
          0.5830739707976058,
          0.034838491478942045,
          0.23104521458828017,
          -0.7152252041628999,
          -0.010077135910067328,
          0.12567068237453227,
          0.5367257088378201,
          -0.48306707648217095,
          0.013264782187462423,
          0.62110118949418
        ],
        [
          0.05872870536027851,
          0.35829332812110193,
          -0.19407017148880287,
          0.13159433931968095,
          0.1107956719770748,
          0.15483273014879997,
          -0.19974141687705546,
          0.4377754043605392,
          0.10251797638525423,
          0.06202274701343475,
          0.5062416867884529,
          -0.16550740804407793,
          -0.17272645450366372,
          0.24366186075983562,
          0.5273774658597328,
          -0.3029611832384421,
          -0.07606631308136207,
          0.19478254332384945,
          0.26977422162741166,
          0.33019243895776457,
          -0.03202887622886609,
          -0.03935200825740672,
          -0.18836856305176777,
          0.0375922510523894,
          -0.3052321969239885,
          -0.1643131851955407,
          0.25286080227669405,
          -0.051145757815323,
          -0.06933536501109502,
          0.29734479791442864,
          0.1264784364310373,
          -0.035050290178166334,
          -0.08743304605657129,
          0.2278290392021117,
          0.24230469117108877,
          0.0642976522526694,
          -0.20859293265948092,
          0.024178272414104286,
          -0.3113038852103377,
          0.14499348917263816,
          0.042403585019858546,
          -0.40186202623167416,
          0.1100681579732795,
          -0.00042168320986314944,
          -0.20785299725563788,
          -0.592870544774096,
          -0.40947963253459,
          0.03818672894224983,
          -0.005397658578017099,
          0.3858384538800096,
          0.02484361719662288,
          0.07894489935864125,
          -0.41313521201680264,
          -0.1505240002987133,
          -0.0012380213840124292,
          -0.3581691242822995,
          0.046469993421280276,
          -0.25192544360868074,
          0.1762138200524934,
          0.04311914377196849,
          -0.07877807515883439,
          0.054035335344026166,
          0.0045776023713767775,
          0.14587285489135582,
          -0.048425666859454666
        ],
        [
          0.24805650785861325,
          -0.2711170662584238,
          0.06089888593163502,
          0.5337572175485175,
          1.0172952642163222,
          0.6357480948572918,
          -0.29114984811525396,
          -0.13802221723582636,
          -0.649800583235424,
          0.4149001898624864,
          0.24673114584216826,
          -0.19875428815295576,
          0.3382398976586927,
          1.1187166349961684,
          -0.593680048314886,
          -0.33568437293345005,
          0.14416284419891467,
          -0.20825229570417128,
          0.15868468923318974,
          -0.7938424446403702,
          -0.19171169917893968,
          -1.4432301762033992,
          0.19760335108866992,
          -0.8380940618354525,
          0.4683639401349615,
          -0.8742607689745255,
          0.064810510798727,
          0.6750671939558891,
          0.7010286022437147,
          -0.4120529966079046,
          -0.28836239108455003,
          0.06366855461601514,
          -0.1020824624066355,
          0.06530438018212054,
          0.1378792127157358,
          0.9962028191482554,
          -0.19168701550285702,
          0.7019201527788932,
          -0.019889207849579635,
          0.06621081937555726,
          0.33025211540263577,
          0.4389037517286479,
          -0.3702187209685458,
          0.5596880742369323,
          -1.160409879400113,
          -0.22178592202019962,
          1.041391183774785,
          -0.5347444446243871,
          0.307752075547788,
          0.5170255552947863,
          0.47739204610101943,
          -0.8964612914543684,
          0.3052980191326304,
          -0.10381213712446528,
          -0.14124733332609724,
          0.11243542919451825,
          0.7814477621732764,
          -0.23982665433581948,
          -0.6030804074031817,
          0.37729475927983674,
          0.2321423133107349,
          -0.53298625756871,
          -0.5795776004877977,
          -1.2518519235252423,
          0.28771474712801715
        ],
        [
          -0.10396685761558398,
          0.6390573662786306,
          -0.013593012752948169,
          0.03669863297414074,
          -0.1988141798292409,
          -0.946737048074361,
          -0.23898396327077973,
          0.1961805059331864,
          -0.07801575118644102,
          0.029236097716894987,
          0.3855927886305418,
          0.4694471300574642,
          -0.589314632463092,
          -0.9332616028193338,
          0.042852057044156226,
          0.14846592787994103,
          -0.21611627305539247,
          -0.17672235899621716,
          0.09726732066454628,
          0.08549559087822421,
          0.2910288096395815,
          0.44118699988855287,
          -0.026657583041506352,
          0.3056497927298365,
          -0.5636051060257253,
          0.5494372931955884,
          0.23364512712802887,
          -0.8348409477553986,
          -0.1629772988620433,
          0.2707053393776712,
          -0.1147337868762259,
          0.46812424234347605,
          0.18227271738647688,
          0.02721423413514012,
          0.24019248529127868,
          -0.5078375365583165,
          0.020613871473063268,
          -0.5163888155673392,
          -0.18926449320432912,
          0.16663419332428248,
          0.11300194262137106,
          0.2903652431872023,
          0.19947626803088703,
          -0.21050022225451667,
          -0.1486776220709399,
          -0.3809252498819625,
          -0.5876574518623081,
          -0.2961811096154026,
          -0.24780213495700495,
          0.16893371714447292,
          -0.7063301412298036,
          0.3086418887951235,
          0.3011298557361309,
          -0.20421775121535318,
          0.2634492705429261,
          -1.0680071555929993,
          -0.12694692838406435,
          0.2491873300227815,
          -0.18071818092785574,
          0.11461888427583493,
          -0.39253514935361095,
          0.04319768060027226,
          0.08597739748517946,
          1.3711523821092204,
          0.006643393653066976
        ],
        [
          0.44814545352129825,
          -0.14761428073870148,
          0.23757497774108627,
          -0.659894017501401,
          0.18425743862602403,
          -0.7727758425863662,
          0.31689676483532303,
          -1.1983279624593937,
          -0.742069952840897,
          -0.5588089025643571,
          -1.0480916474408077,
          1.2959619023429279,
          0.8916448411853043,
          0.055582468527819104,
          -0.6015060976502362,
          0.9738566930449521,
          -0.32107158797598456,
          -0.4091407247827724,
          -0.1607277110320834,
          -0.6076274594771849,
          -0.525200080635208,
          -0.33892035852169267,
          -0.08586519339874049,
          -0.7402090075820563,
          0.057266017166459286,
          0.21324195447552075,
          0.25576828271345464,
          0.6179586362599523,
          -0.34574882868451845,
          -0.2509888792540485,
          0.0058525156394817045,
          0.22679470689448453,
          -0.19845515453673,
          -0.27463063720906444,
          0.05202693588962655,
          0.18540425216539727,
          0.4197262988697578,
          0.5759440153224559,
          -0.12728552288582792,
          -0.8708099380879141,
          -0.6468980209755152,
          0.3216768528016627,
          0.19256294373039723,
          0.5501186441972483,
          0.2252593969881935,
          1.2109781887827662,
          0.2812156348766318,
          0.6451892375133744,
          0.39610435222464346,
          -0.5677089226328017,
          0.08548531986538987,
          -0.16977145845110245,
          1.2432316925766267,
          -0.04879134211162712,
          0.33253057448726575,
          0.30371778980387404,
          -0.18472811047727675,
          0.7246633869000787,
          -0.20460563689980446,
          0.6589186980369279,
          0.1400281980310545,
          0.35389518839637624,
          -0.05337355679957388,
          -0.33672140011089985,
          0.24038961940171014
        ],
        [
          -0.17252671150813179,
          -0.2868162656569257,
          -0.4334022290751264,
          0.02335928186555634,
          -0.2416474174568666,
          0.47763369840506226,
          0.06636900309066204,
          0.3790863905273247,
          0.19720241052448198,
          0.24657637585975034,
          0.6674879833358522,
          -0.7431265391330355,
          -0.12851824700408215,
          0.9993717584156679,
          0.6877041204249719,
          -0.4332446476127371,
          0.32310420796881467,
          0.3829840553962439,
          -0.07852597165165512,
          0.14336611788364573,
          -0.5110676931197713,
          0.021871413359441674,
          0.07295744066774276,
          0.35910259157312385,
          0.32953282059260497,
          -0.7383697566043013,
          -0.0944372049261678,
          0.8679174709299294,
          0.3131743361781613,
          -0.018501608781925454,
          -0.09096582749323154,
          -0.16089659587681077,
          0.032507690279019334,
          0.37918625911733395,
          0.27488904924547053,
          0.30634811581294186,
          -0.8621908285721321,
          -0.08136281588696802,
          0.22818380072734235,
          0.4063271891255531,
          0.14070985882256684,
          -0.5623249970031193,
          0.23097632072496113,
          -0.01260194674699361,
          0.19058753412731272,
          -0.8998969459060602,
          0.016489325841134665,
          0.099818246173434,
          0.146603786664113,
          0.23496019749167124,
          -0.10354583998161081,
          -0.3115717547892248,
          -0.6862090771226952,
          0.13618511534779856,
          -0.08660025604035643,
          0.14807245749479006,
          0.031024713485481643,
          -0.15635673220203092,
          0.4332409348443618,
          -0.5307168170239078,
          0.15766262761742184,
          0.3378808163236167,
          0.056235975400835796,
          -0.988880234259211,
          -0.38983142754159417
        ],
        [
          -0.701721558445352,
          0.5685396497200731,
          0.5416423842866659,
          0.2650084531438861,
          -0.049974454159534,
          -0.4396120307866746,
          0.44802455500039423,
          0.04726004577662979,
          -0.05131019363862164,
          -0.3136002130835238,
          -0.16778877548096474,
          1.2833231231765023,
          -0.9742652358116082,
          -0.9101920395792367,
          0.2319868120856346,
          -0.12793390205164298,
          -0.13382410184070445,
          0.2986094846966772,
          0.23032657390427688,
          0.045008159580753514,
          0.12960488479691587,
          0.12006926802728217,
          -0.22321207928329986,
          -0.22985533083558665,
          -0.5899301261629204,
          0.3499896312856333,
          0.7156381790474405,
          -0.6722240968462331,
          -0.41831831634786487,
          -0.4542575418438055,
          -0.952669580457154,
          0.8633510337666493,
          -0.10310500154223456,
          -0.10950103782605032,
          0.340462832246427,
          -0.5043483853332531,
          0.06452676419673124,
          0.2307762956863579,
          -0.29675990080924497,
          0.16414112958444807,
          0.01637235054246892,
          -0.08862909693976438,
          -0.42914117121572554,
          0.14022783218824497,
          0.26097209482544337,
          0.11488688750202396,
          0.1407046086152513,
          -0.051350554157458005,
          -0.23073197712965132,
          -0.1891155482986544,
          -0.6177094458302542,
          0.1356485568991243,
          0.5555405897349798,
          0.08097323259461817,
          -0.31240871986883084,
          -1.3266893450772912,
          0.10685326555133424,
          -0.05353709394918734,
          0.21665772211983433,
          0.9056074646931075,
          -0.19365647456130364,
          -0.43349962354789295,
          0.16745218520366528,
          1.5319054818562585,
          -0.13732152116095986
        ],
        [
          0.19577969843090948,
          -0.40303823681622514,
          0.21736702424627188,
          -0.43627394623588184,
          0.04466733794396975,
          -0.19179451954168167,
          0.1928931312456643,
          -0.8164582846079123,
          -0.46017730145897157,
          0.007532111415771482,
          -1.023066238996275,
          0.6576539301487022,
          0.6537703445188576,
          0.1329303013956851,
          -0.20374403742746208,
          0.6891881603829606,
          -0.3847024688286627,
          -0.0655832494477579,
          -0.19471672607203086,
          -0.18432947783543055,
          -0.5366696251355646,
          -0.22822871020328991,
          -0.17573519383717592,
          -0.3308979206248183,
          0.048927577475146936,
          -0.06173779842610148,
          0.10847313880184985,
          0.7028307977432801,
          -0.1369149360865418,
          -0.20134677703043205,
          0.2571164089639057,
          0.12146221078322328,
          -0.10451680866985812,
          -0.36139257291891946,
          0.0671569365146941,
          -0.07432638614831874,
          0.4602095726320952,
          0.5542340611006431,
          0.3117959850541568,
          -0.6004907778641809,
          -0.6435239738321923,
          0.24114199565849562,
          0.14947559703806226,
          0.3883783427643477,
          0.5053785088020569,
          0.6165149766917792,
          0.055248038773762144,
          0.6384753022855951,
          0.29326446779055365,
          -0.5462578237364599,
          0.23287095768813365,
          -0.15159706043633359,
          0.7650740727218848,
          0.24039964700772526,
          -0.037200668283848076,
          0.5537583197609913,
          -0.08602574485155447,
          0.1710924417961424,
          -0.28634110383995853,
          0.561209414837806,
          0.10785987519353926,
          0.3151293537587888,
          -0.3847570591214434,
          -0.7525454911193352,
          0.4502667189815795
        ],
        [
          -0.03368782102354568,
          -0.18397767569562865,
          -0.14813855678692633,
          -0.46282767287637894,
          0.21461212907394606,
          0.1954104706185073,
          0.3660502907668483,
          -0.27364069876132135,
          0.03095727381307853,
          -0.18142766460008264,
          -0.5352788353178309,
          0.15225092590976544,
          0.5529761455740293,
          0.6145625459519579,
          0.0876499508075372,
          0.12552179518759302,
          0.06676132872560044,
          0.0507886830689738,
          0.012307380992694156,
          -0.18696191459407127,
          -0.617329236509989,
          -0.11308897990283888,
          -0.09257520372874144,
          -0.03843971562640981,
          0.0018338798486596081,
          -0.33874462949048667,
          -0.12856076581147294,
          1.1341560481227364,
          0.21711088693920738,
          -0.01845272859991576,
          0.01736481538128704,
          0.16703696598661358,
          -0.046607876798682585,
          -0.27409642582243615,
          -0.5423796782413647,
          0.3047408875633529,
          -0.24137671765550336,
          0.1611585010562549,
          -0.0020746959478260764,
          -0.23372629796411212,
          -0.31310876851408675,
          -0.25851255077204294,
          -0.12878427826167754,
          0.5113628247479071,
          0.5202947545767992,
          0.5826349888371063,
          0.27261339110518995,
          0.3614497732739133,
          0.38329948885806986,
          -0.7485106950376467,
          0.4572827165917367,
          -0.1322395271793236,
          0.1028724292934547,
          0.1644102615058368,
          -0.13273395726264603,
          0.6152915819458645,
          0.023219783121726206,
          -0.1153482708551034,
          -0.221910960055401,
          0.4038820244318761,
          0.19349950484098544,
          0.14147794236366326,
          -0.060221494378918064,
          -1.0531383720153003,
          0.04979755964989528
        ],
        [
          0.27346291758576047,
          0.2824009719811984,
          0.1704327849628168,
          -0.013531597172016987,
          -0.293672912442653,
          -0.9136357796439706,
          -0.7223983276075968,
          -0.16969899479164008,
          0.03510956334303163,
          0.006878480895702671,
          0.5870415724137005,
          0.192240885885023,
          0.1614865229240625,
          -0.6284361965505745,
          -0.17736659116944217,
          0.08223713005451759,
          0.08128507350320036,
          -0.4937372845674626,
          -0.17256950264808388,
          0.2192464913658662,
          0.4940879491293835,
          0.5035440851913423,
          0.21297794231748696,
          0.08058814892700868,
          -0.3280219434828044,
          0.4809559817039987,
          -0.13292197281921178,
          -0.603828783269994,
          0.15748114087984252,
          0.42762046635494005,
          0.20647478506911596,
          -0.0323341914690648,
          0.3755290926226008,
          0.0100712166446252,
          0.06273119557156956,
          -0.02485651936552131,
          -0.1920376166174025,
          -0.4096662110142601,
          -0.02076888517199361,
          0.020088316066821668,
          0.10080696434007029,
          0.5393286302719866,
          0.41329009615488743,
          -0.1142540776556511,
          -0.30597096822963726,
          -0.7566682328609114,
          -0.2945159186609664,
          0.07212598668644664,
          0.2152988301658719,
          0.19175591813828616,
          -0.6096764515878489,
          0.09982500181708111,
          -0.06978080842113726,
          -0.5020010202263848,
          0.3963374868748528,
          -0.2617942793137176,
          0.03412744727791036,
          0.3128256681062337,
          -0.14203252152653784,
          -0.3715680483748476,
          -0.18321123758647473,
          0.5332906300277638,
          0.053024182139222345,
          1.5915755578272435,
          0.22071635120972516
        ],
        [
          -0.059443446680856424,
          0.19169838215908233,
          -0.46401645180712764,
          -0.21958836875151663,
          -0.7612403917029422,
          -0.3723395923724825,
          0.36007190234728476,
          -0.2435298629936755,
          0.8387150929704162,
          0.0380789863799429,
          -0.28732375513275576,
          0.4351074847446068,
          -0.432810345813519,
          -0.7378282741683503,
          0.6184815566328172,
          0.20890787949900314,
          -0.14095330123679786,
          0.4423314422806649,
          -0.5488263697400184,
          0.6046118614609747,
          -0.23386480284736444,
          1.198259152632921,
          -0.3773206179427433,
          0.6113560559813471,
          -0.5154414211931452,
          0.2952385098067681,
          0.03231195509600391,
          0.09352725190324683,
          -0.22710364632302338,
          0.4380562551547014,
          -0.03325242724612569,
          0.1739317277147741,
          0.4202796833238787,
          0.11435173085451363,
          -0.6158174888331137,
          -0.6450061116239646,
          0.3955456136240439,
          -0.47644892146766754,
          -0.014306446753395142,
          0.12024934757948035,
          -0.37922357486308556,
          -0.8451084358875538,
          -0.015255295615044453,
          -0.2536280614249175,
          1.0417299852512751,
          0.7866360789115044,
          -0.6497094184616675,
          0.8284049180445567,
          -0.12160054748240709,
          -0.827754607333467,
          -0.11483895411721351,
          0.9288950932877188,
          -0.17298569475029188,
          0.0009282700142447479,
          -0.19611627473663057,
          -0.3174881824786528,
          -0.7242512351796593,
          0.038860183634120034,
          0.2616042071310289,
          0.08344628720765249,
          -0.07872074568404593,
          -0.0786526124198867,
          -0.04983890514573086,
          0.07706470343329427,
          -0.13963668730611342
        ],
        [
          -0.689787549893787,
          0.6611118462010146,
          0.20918934966746414,
          0.27385062353577655,
          -0.13063161909245768,
          -0.8149145161174447,
          0.11643931497878943,
          0.457957464707712,
          0.31064692886118134,
          -0.11802736290954483,
          0.5591968659408145,
          0.9935391100226029,
          -0.6673787704748785,
          -0.8169336691588183,
          0.46254498143278383,
          -0.14169424282833482,
          -0.32881568745042233,
          0.3641467745703972,
          0.12288183165044803,
          0.5059625460609983,
          0.4084181137915977,
          0.11794337529854916,
          -0.3075697882996255,
          -0.13282695890117488,
          -0.5565107063923282,
          -0.010878363033762032,
          0.9438466721756535,
          -0.4778580652660895,
          -0.32554377330382467,
          -0.020508889867258885,
          -0.7387108344373003,
          0.9015447761687688,
          -0.4179918289713823,
          -0.15539392128953905,
          0.24517173633204975,
          -0.3198109543909695,
          -0.3780633583210577,
          -0.18777803108989818,
          -0.503324763372776,
          0.48300139439135115,
          0.22140566715497378,
          -0.3903760134537017,
          -0.3134214674460725,
          -0.41872693496877705,
          -0.017141357927954425,
          -0.6876286056840905,
          -0.14026126253055474,
          -0.6003542681314035,
          -0.18916741061069023,
          0.7172583255681692,
          -0.6112638671492377,
          -0.15807851236810572,
          0.2002187038895635,
          0.39225410214392165,
          -0.44448347331772936,
          -1.6561961254693476,
          -0.18555907143854145,
          -0.20873004826841154,
          0.23800856490169178,
          0.28472034394043483,
          -0.4572956244106582,
          -0.2374319269554886,
          0.3984580512908969,
          1.6156331158364947,
          -0.531655593699067
        ],
        [
          -0.3362808207392627,
          -0.1876311460676283,
          -0.2992808526883083,
          0.37029886359751857,
          -0.2842877301718802,
          0.5343383063248984,
          -0.13185250311837565,
          0.5834327805614452,
          0.3909179658530114,
          0.3407989547282634,
          0.4369800107990574,
          -0.8148497998105977,
          -0.3534483307478143,
          0.8550213335691719,
          0.5475716232398125,
          -0.6650586752759282,
          0.10470191115332966,
          0.2623762587464984,
          -0.2912028291633039,
          0.1749917258559116,
          -0.5004018158123581,
          0.032465753700815336,
          0.16126973059281044,
          0.6306826494104452,
          0.0003753336753063939,
          -0.31377673027660796,
          -0.1366688671636576,
          0.4690720636014866,
          0.3308233741827597,
          0.3065702137774933,
          0.022910755098666784,
          -0.06686383515836876,
          0.24660541337764996,
          0.257491070420816,
          -0.1380710000304243,
          0.4695685066507935,
          -0.45007540041969635,
          -0.4403027983443721,
          -0.12108121037849942,
          0.3551111107318819,
          -0.1403808393032332,
          -0.27849791396852586,
          0.2897285099804761,
          -0.352439687789847,
          -0.1306864007862914,
          -0.5554855128592299,
          -0.08403405447865527,
          0.18701601462245132,
          0.1860111601128095,
          -0.28993768396164593,
          0.20566688864058102,
          -0.3368307188128151,
          -0.6030516160682411,
          -0.37447725728853304,
          -0.021011412305362454,
          0.23156790394988727,
          -0.3201832286351144,
          -0.5427894532306761,
          -0.037963478572563665,
          -0.36278380619904665,
          0.2205855905464089,
          0.053665012500148074,
          0.1977657616961484,
          -0.9546453981221535,
          -0.080371487794827
        ],
        [
          0.15131909106587701,
          -0.5374299743587917,
          -0.2929485490260074,
          -0.17664237974132238,
          0.16898563460289695,
          0.3580967986485336,
          -0.4360760092715756,
          -0.22801456107546056,
          -0.1948238957914402,
          0.3236877044379494,
          -0.6132118883101679,
          -0.006912921637672336,
          0.2691987906978626,
          0.35908798551347526,
          -0.24106498149922756,
          0.4298243642441433,
          0.06099316729192434,
          -0.29439166815567913,
          -0.28824292999233675,
          -0.3472707571201043,
          -0.4704899789495117,
          0.003961446708850706,
          0.30960531035620387,
          0.2685176279527987,
          -0.021139379592127305,
          0.27125002032723333,
          -0.33788474020298187,
          0.6648120778496328,
          0.17984753422237457,
          -0.2658278839725243,
          0.12714958530783899,
          -0.40564407803052716,
          0.32613133045509124,
          -0.21351439567912112,
          -0.673145347603233,
          0.3833161338590593,
          0.4032567112181864,
          0.16133714619698838,
          0.3157265763249809,
          -0.25556934240783363,
          -0.6975379198858819,
          0.06964709610958232,
          0.2783786139050407,
          0.5319874669838883,
          0.18301232306638607,
          0.569789676363857,
          0.38285140373572063,
          0.7617227610815511,
          0.11769512573175608,
          -0.9899346935295655,
          0.43263516894970766,
          0.016681247607261123,
          0.4042809283705998,
          -0.2910705465537489,
          0.4732598711390878,
          0.8636115215561652,
          0.05778633071025647,
          0.19890273516186682,
          -0.3399360380479264,
          0.00727105767510887,
          0.05266425158248518,
          0.20987959342827303,
          -0.5121250588015464,
          -1.3182000154402707,
          0.5628242556957799
        ],
        [
          -0.25708239547845596,
          0.21513759781599429,
          -0.17847336098985045,
          -0.0934480152205209,
          -0.2588268030049957,
          -0.4696091260660519,
          -0.5902003779830556,
          -0.22447953548842106,
          0.16850828856436925,
          0.16254336302636613,
          0.46358545300476184,
          0.3711350647832687,
          -0.4916038133171593,
          -1.088979320994512,
          -0.29780016621296196,
          0.06455944405967147,
          0.0071015389375270205,
          -0.11606037689958733,
          0.08041241551096806,
          0.47568959761412766,
          0.2793358133588195,
          1.1443039111495816,
          -0.04691625857072008,
          0.8821241770456747,
          -0.04967438709312908,
          0.7237769865604113,
          0.18384187035133787,
          -0.38357935500330237,
          -0.1842720609151872,
          0.5915441449837301,
          -0.25639489476936694,
          -0.05609065703634574,
          0.8084648774838021,
          0.48351555872684115,
          -0.6700978509180463,
          -0.5591037936385387,
          0.16472460563181862,
          -0.6351276761097906,
          -0.3165805394474252,
          -0.21721848851489775,
          -0.34089682025182855,
          0.602879783192145,
          0.45844275984852956,
          -0.1042419257864712,
          0.1864552786373093,
          -0.004619942125737834,
          -0.6091972624960447,
          0.0011348269465358217,
          -0.3405032902580414,
          -0.5272954205182675,
          -0.5263606784248195,
          0.7264936627664222,
          0.10080381184332887,
          -0.3035951404192251,
          0.5989988607412335,
          -0.7231398627971164,
          -0.3103934752437931,
          0.18621425399760416,
          -0.3809333958121853,
          0.16116988270819724,
          -0.04750987638124078,
          0.321561558771285,
          0.16744003320378356,
          0.5287652832263907,
          0.17083975102032833
        ],
        [
          0.377404890343896,
          -0.2805995523711205,
          -0.037117761672547316,
          -0.2117949422891942,
          0.11222399347650691,
          -0.28290539889379474,
          -0.22129875415828995,
          -0.5067955566325534,
          -0.45337600687174096,
          0.07812242386655231,
          -0.7122298631736952,
          0.2532700835839371,
          0.7184660832616756,
          0.517560838233577,
          -0.5634535331045676,
          0.589611049920892,
          0.02561159446904148,
          -0.4099985540746529,
          -0.12261116544612236,
          -0.4336647061022296,
          -0.2307636386325993,
          -0.24164309420992042,
          0.3466707343696107,
          -0.12032209616260928,
          0.3584171147167429,
          -0.21700284953781418,
          -0.17601016729012947,
          0.45965694925452794,
          0.16587374118857892,
          -0.17605270611707657,
          0.21202373936181687,
          -0.30349903434353775,
          0.10367531880424903,
          -0.2805707762076928,
          -0.40006916045140317,
          0.24788263062689264,
          0.14213969328918924,
          0.3665368674132798,
          0.2302063057964006,
          -0.481417357216968,
          -0.4271756018057055,
          0.026991681744562224,
          0.08882337433455345,
          0.5765392949560763,
          0.1543476707875632,
          0.48997770970688026,
          0.23281868746474876,
          0.4790592838402273,
          0.08439852864465289,
          -0.31999493197476037,
          0.23885235310801728,
          -0.17879028730066018,
          0.5808502989284928,
          0.12947158746564075,
          0.3905524174339365,
          0.4905610415133741,
          -0.02337189264366378,
          0.42301625923286557,
          -0.3681995259383018,
          0.2886042544214982,
          0.4170559979194115,
          0.09536029269453895,
          -0.280643299889277,
          -0.5978157070840348,
          0.5666628166145893
        ],
        [
          -0.058462959366616725,
          0.38292261823716667,
          0.21805348999211427,
          -0.40717969853731883,
          0.35330209043235566,
          -0.6536208004739515,
          0.9102713873700146,
          -0.2516574266887087,
          -0.3015223885571617,
          -0.6466859329283609,
          -0.3419092042316578,
          1.366316126951138,
          0.3582638282105809,
          0.13208777279190195,
          0.46560395120633247,
          0.7005901069646463,
          -0.37997817461373107,
          0.40410505606427183,
          0.024249975388734198,
          -0.6701519456181568,
          -0.34341265359106804,
          -0.42627851149554824,
          -0.5875242231355514,
          -0.8381748673834608,
          -0.34920943708425645,
          -0.26360116530543853,
          0.5500789204840314,
          0.4196140065262937,
          -0.5176876807464121,
          -0.3824776138086253,
          -0.464643946273639,
          0.6856191888111077,
          -0.6536937100476331,
          -0.5606204169183734,
          0.43134082277046554,
          0.09079795678693885,
          0.033255046009213717,
          0.4842960288761935,
          -0.03499246781119547,
          -0.3630807452312982,
          -0.10916928955354711,
          -0.5954925932241683,
          -0.6279890273590303,
          0.4634759862197639,
          0.20192305894560644,
          0.4235847744651724,
          0.36491455557389885,
          0.19013450212289237,
          0.19021300012629055,
          0.3338370651162641,
          0.22691511716387538,
          -0.4204789831063,
          0.8904103519994758,
          0.397651296986319,
          -0.510958213843514,
          -0.5610575790874658,
          0.5584636258511244,
          0.3644806543227626,
          0.3587435554806281,
          0.774237605879709,
          -0.11852487406807825,
          0.08201608653428634,
          0.12016768353989421,
          0.6874132305722304,
          -0.07812468256158485
        ],
        [
          0.051298352349048476,
          0.21914719202057809,
          -0.12221081141246953,
          -0.2195437135363122,
          0.028331936329808956,
          0.04588003996989782,
          -0.008146460007903289,
          -0.23948689180711244,
          -0.09545802495679806,
          0.15904682180657329,
          0.38383616487329497,
          -0.4568072371305753,
          0.3194825987229028,
          0.6876534394460525,
          -0.047699884174160864,
          -0.24945533174395357,
          -0.04002277105408148,
          -0.1273199869669225,
          -0.08423136961453206,
          -0.14365999230855353,
          -0.01976998712619455,
          -0.2237664440615921,
          0.17590597420706747,
          -0.22568027903617208,
          0.19559764526808207,
          -0.33900315462321723,
          0.12998856901647,
          0.6726362380196088,
          0.15906023371897735,
          -0.1790272179755567,
          0.05890815510219472,
          -0.09564039467512152,
          0.12076104308801446,
          -0.11632299073699819,
          0.17311914110654442,
          0.1217326935165504,
          -0.13771302025744578,
          0.21164631287633373,
          -0.24647309772931852,
          0.1382231994136768,
          -0.051321858556154974,
          -0.330586772763192,
          0.37142658295969416,
          -0.12308577137132112,
          -0.06192253396806427,
          -0.24054997710353093,
          -0.05556817827729217,
          0.1133305000352495,
          0.24125848550072454,
          -0.041899014891226743,
          -0.05883975689686365,
          -0.3527088857443665,
          -0.26417227197691656,
          -0.09314431091578264,
          0.10038737316131777,
          0.33003357311271125,
          -0.07891080953785194,
          0.17662999934480986,
          -0.034426207783951814,
          -0.2171956166783802,
          -0.020124479729323786,
          0.4637783375899948,
          -0.19751860358555864,
          -0.2606495816549217,
          0.013079397043679723
        ],
        [
          -0.01062771066489169,
          -0.28676101851775176,
          0.003934604656544145,
          0.6114756629067587,
          0.23388723192061184,
          0.4570418347146183,
          -0.5190699028746786,
          0.42486867921483357,
          0.30527826326252927,
          0.3370255444257404,
          0.5173304962057235,
          -0.7626393728273602,
          -0.3193652767980038,
          0.4876205542677477,
          -0.4359054012152591,
          -0.29119472637804544,
          0.33011499760111707,
          -0.10854379036876931,
          0.12979547499767277,
          0.12491338672171261,
          0.08777598884560256,
          0.1847312626773351,
          0.47277371249202604,
          0.13798011510738403,
          0.2915725231776231,
          -0.19632037734918065,
          -0.24055106098317441,
          0.6996474601066313,
          0.5386034960585606,
          0.020284939448556857,
          0.17308970636655024,
          0.051122306577046535,
          0.5630145426826375,
          0.2120754570168955,
          -0.43402022899341275,
          0.5377895918506578,
          -0.27661304856254004,
          -0.22461785529639136,
          -0.06326237607239836,
          -0.06286834156289306,
          0.07565730953154544,
          0.40559351772835295,
          0.507851451383015,
          0.04141640475248133,
          -0.45313810162768514,
          -0.3555565847412019,
          0.13216370165782373,
          -0.23132345692023748,
          0.14866532890125544,
          -0.24577917246718126,
          -0.10360818334892255,
          0.0631927984020372,
          -0.17053696722331602,
          -0.3775028229641928,
          0.27767249143705663,
          0.3029327231717453,
          0.2423036946668929,
          0.02374971711932909,
          -0.5124268709423881,
          -0.05517511198101441,
          0.024005553940876244,
          -0.1936271659484851,
          -0.08778228365911452,
          -0.6088093835674072,
          -0.04435891635333719
        ],
        [
          0.22071763108466852,
          -0.18206261262766352,
          0.5328161248333566,
          0.0017829383428276436,
          0.33454324966202514,
          -0.4553242976410305,
          0.0552338331500175,
          -0.7998341567522561,
          -0.6391537544007857,
          0.05912392159618396,
          -0.49319316545509767,
          1.0514137031641235,
          0.3505331545018428,
          -0.07574539126450107,
          -0.8757293157956536,
          0.7063246965583048,
          -0.03588571974505705,
          -0.4028482151607251,
          0.019993229677099753,
          -0.8018234720332846,
          -0.1525350441675227,
          -0.6287163099422008,
          0.2134447041864588,
          -0.7875679700353588,
          -0.2484428681051259,
          0.07909900740167349,
          -0.16776055735361411,
          0.6373609390341632,
          0.24254437701825204,
          -0.5038922714048474,
          -0.010211298266855465,
          0.11811534108604284,
          -0.23621793031525445,
          -0.4598424715641317,
          0.04486712593205484,
          0.20233529788375762,
          0.4334461154309625,
          0.533856539566016,
          -0.18005881303028445,
          -0.49644763541129683,
          -0.27031354703299776,
          0.3659738802558533,
          -0.32982866979167547,
          0.41996937109487464,
          -0.005562426831353773,
          0.9940991862526175,
          0.7070427055293418,
          0.16281292230573163,
          0.16060231572247713,
          -0.5345928951203328,
          0.05738328546097912,
          -0.13498199820386814,
          0.9856989574305052,
          -0.02223571191504336,
          0.07556005098049491,
          -0.0034643707050383264,
          0.1382532051371566,
          0.16710069874834774,
          -0.1698343173797924,
          0.6991713149018861,
          0.16332239433067058,
          -0.2587742792095628,
          -0.5409282934431077,
          0.1136719685875616,
          0.4113052963722744
        ],
        [
          -0.734042133609035,
          0.8782428470606992,
          0.45012525762595523,
          -0.07917703869082408,
          0.09992378626496676,
          -1.0334493055809764,
          0.379419736652983,
          0.33212501672493683,
          0.30613987111302454,
          -0.36101894169945237,
          0.5586072288634414,
          1.3925226078327122,
          -1.1839791614540858,
          -1.6252927310271739,
          0.008062629331302274,
          0.08019137508400213,
          0.18158357651744716,
          0.31410108416360855,
          0.234089411416936,
          0.3289882321864809,
          0.5943957563317229,
          -0.02354780269020684,
          -0.21553471042891723,
          -0.23426111268499655,
          -0.5206289159797723,
          0.5476016010036102,
          0.604965346161353,
          -1.1555275193505825,
          -0.19569686509421458,
          -0.0923164722475006,
          -0.6970133012581059,
          0.9534954467849734,
          -0.06062074443387712,
          0.052600498636417845,
          0.18162804753911227,
          -0.3387433833872349,
          0.2849948317901285,
          -0.31412614293861657,
          -0.7397856587701888,
          0.00977147203753742,
          0.3236375983045719,
          -0.015907018467770876,
          -0.3220609169919793,
          -0.36354464494646,
          0.08465238699821151,
          -0.17911792683683728,
          -0.2736358807385122,
          -0.5679873993254528,
          -0.3537343101537712,
          0.3606360908058403,
          -0.9551644081440656,
          0.18058406609909952,
          0.20433674745820898,
          0.005651137792285625,
          -0.3276250698209976,
          -1.4769618096578243,
          0.19111427716882656,
          0.21922843205490758,
          0.20701983211569816,
          0.2862693042908135,
          -0.4889181586317456,
          -0.10358934186601927,
          0.2500325076543162,
          2.5335936339560954,
          -0.13469956178502407
        ],
        [
          0.061553945944452466,
          -0.47490500396980007,
          0.04501133513028439,
          0.17119165881419274,
          0.3665960658515768,
          0.7375792660455244,
          -0.41802087335368837,
          -0.37381727607863047,
          0.040206609858331396,
          0.32123898789237787,
          -0.3326750613317146,
          -0.6865962863892469,
          0.7756894644059302,
          1.0159754704034198,
          -0.5956301611239546,
          0.0072071192470589025,
          0.37670820604895594,
          -0.6506277905441427,
          0.0030767080963751362,
          -0.38160452433490644,
          -0.7305644510922317,
          -0.5487185392318277,
          0.46731730208172917,
          0.004592149722753219,
          0.4833977772416914,
          -0.31989282300786964,
          -0.30197143220263745,
          1.465648818250216,
          0.510852638643981,
          -0.3936543946963953,
          0.5982900556040532,
          -0.5110410602605955,
          0.16878928964043932,
          0.2593735083839737,
          -0.676884897391092,
          0.6683147498976865,
          -0.0604291990532622,
          0.42334418797013984,
          0.336516009076565,
          -0.5049105409839261,
          -0.5918187170751836,
          0.5765390802782788,
          0.41308824693875046,
          0.6463691579430515,
          -0.07265736752388617,
          0.04964972292044343,
          0.6198952015985177,
          0.6528883664030787,
          0.16310076512505292,
          -0.7056432153714544,
          0.7652701496688091,
          -0.5684200198713879,
          0.26928401399507695,
          -0.3696612873985012,
          0.5088624878660102,
          1.2709875798984673,
          0.3040926326895365,
          -0.32328567667290603,
          -0.6680128783038191,
          -0.0743522552561546,
          0.29721714240797115,
          0.16249051718886223,
          -0.5846117197746052,
          -1.9570591908951276,
          0.4958986414191594
        ],
        [
          -0.46973048448587795,
          0.6693484251530883,
          -0.0722057194114575,
          0.47802298558119793,
          0.14751520391099412,
          -0.557435916607682,
          -0.22397160039711717,
          0.6041776466960052,
          0.11829136062435297,
          -0.22071509816938964,
          0.8784101777161426,
          0.4504399877445223,
          -1.0824738147496555,
          -0.8990108312878785,
          0.36014154094015544,
          -0.21530045344664037,
          0.004141396904186967,
          -0.01817165675446505,
          0.20731573493287112,
          0.2434593577163936,
          0.0885693205791591,
          -0.12322837330612828,
          -0.22113518344692015,
          0.018300692281085478,
          -0.22164325510262356,
          0.21398520150586586,
          0.7250929483836452,
          -0.6521940962199388,
          -0.18373475812552834,
          0.23079732163927724,
          -0.8751880935002297,
          0.5334608443025374,
          0.05287870733763835,
          0.3232787274288532,
          0.010657823967238519,
          0.015953845492164942,
          -0.19442164543032447,
          -0.2385515849257283,
          -0.3528231968223712,
          0.2214156657098958,
          0.3392032252622152,
          0.27663763902396704,
          0.011985972555478253,
          -0.44416051339539336,
          -0.4805123503023804,
          -0.857899044972088,
          -0.1633834745383144,
          -0.6643678260971138,
          -0.18669697307119718,
          0.10581024483407239,
          -0.4159239064276494,
          0.009687276370946813,
          0.1053363312186787,
          0.048106648235748846,
          -0.3786162190915651,
          -1.5664871403300342,
          0.04454968004119869,
          -0.011362965799098703,
          0.3239490146786739,
          0.2886605465779049,
          -0.4186902928282176,
          -0.34971213499161846,
          0.3152297105970119,
          1.56028029954986,
          -0.4514711814078607
        ],
        [
          0.26007305974300887,
          -0.15474782744572965,
          0.49942306010218607,
          -0.10559033801780605,
          0.3256524183337327,
          0.16220216671220397,
          0.22482626146139847,
          -0.25930902865770894,
          -0.558924194240579,
          -0.03424051199703813,
          -0.6061287467604171,
          0.31759131494759,
          0.4715407701893803,
          0.2500023833970516,
          0.1787159955950706,
          0.0739094883031384,
          -0.11425322053253514,
          0.022682843979430573,
          0.1548053079658368,
          -0.5765796065373352,
          -0.24415512403303646,
          -0.7849146751024948,
          -0.05043414212690754,
          -0.7555425665324613,
          -0.0010634015243681993,
          -0.4733045775113467,
          0.11070491267477466,
          0.21150907598821136,
          0.18019881782673844,
          -0.5995139362536065,
          0.05088246460685875,
          0.2594972004114393,
          -0.7030198897246388,
          -0.22406426365132107,
          0.44396484507089007,
          0.07036958508525482,
          -0.029607145931673174,
          0.7772015869222958,
          -0.1563878243135743,
          -0.20847814286326355,
          0.2620464835615694,
          0.009740102206615498,
          -0.28145595309590665,
          0.41804506176157824,
          -0.13807449589068288,
          0.2458264890838241,
          0.508545036800598,
          0.09428895026348662,
          0.06382131206919679,
          0.022786003732034946,
          0.09232946126447743,
          -0.3796656486296086,
          0.5316448776868008,
          0.43648666550173454,
          -0.1541617775427909,
          -0.032098079003076464,
          0.5232939382960364,
          0.2534202719734129,
          -0.126426335446925,
          0.6249191575953319,
          -0.0141106077223947,
          -0.039329744995561404,
          -0.11978605459175644,
          -0.026184481141032553,
          0.2996509564938997
        ],
        [
          0.25557542202603045,
          0.22107827404147098,
          0.12499130145307892,
          -0.3897523496333391,
          0.16645091733612896,
          -0.9166703005265636,
          -0.17168887870578783,
          -0.5051513782089259,
          -0.502019267761457,
          0.15387064728137584,
          0.05448647879903522,
          0.9792246246726256,
          0.26297077965454296,
          -0.7296327412261668,
          -0.6569739048296679,
          0.3823598510318794,
          0.14830878033911693,
          -0.1472316574404157,
          0.11903662785107946,
          -0.3353194211786349,
          0.3451562213701904,
          -0.3167530650748945,
          -0.004319903227203106,
          -0.45591133675829904,
          -0.1358881669280508,
          0.3821033247464868,
          -0.009401653154426363,
          -0.3141035479921392,
          -0.1428961486366573,
          0.2020502199162812,
          -0.057432123194116697,
          0.10769032644557835,
          0.12253784377219898,
          -0.3865605908409817,
          -0.11257785915639942,
          -0.09971093527274846,
          -0.12077190724318289,
          -0.12486439788649041,
          -0.20063747600264092,
          -0.5199368082225153,
          0.15394954194157529,
          0.5766068091785965,
          0.1154670390709612,
          -0.07388309523731187,
          -0.10836200942669463,
          -0.01648965782947402,
          -0.01753917492476462,
          0.032080111274792524,
          0.212280213929299,
          0.08373602515769984,
          -0.3994432063274418,
          -0.05787698481210167,
          0.48741119573820346,
          -0.10383719281475082,
          0.47357852716132065,
          -0.36390247597672,
          0.29289428101982506,
          0.24406817777203782,
          -0.2639962242391823,
          0.1857671961425685,
          0.003371478173137057,
          0.1239038845050119,
          0.1299355890314475,
          1.2022382782992687,
          0.36452975132059745
        ],
        [
          0.17215850043744674,
          0.09415685166923964,
          0.27540954617454466,
          -0.1549164096663858,
          0.0713412898930112,
          -0.5936257358759396,
          0.31554273291267354,
          -0.2607613441168163,
          -0.25503851198606364,
          -0.05481452987172165,
          -0.47744350704852656,
          0.5464834359452395,
          0.2407335432901488,
          -0.7072569568460877,
          0.1201695617519716,
          0.34809413234767783,
          -0.08546046598641079,
          -0.0572852433142541,
          -0.07553460155595008,
          0.04935201635953489,
          0.09701163287544495,
          0.050488055822408645,
          -0.09869482597336665,
          -0.1831581449802316,
          -0.42057314078684627,
          0.5720111153027493,
          -0.1853007199608998,
          -0.6066540055496096,
          -0.39143141578173085,
          0.12187547864195244,
          0.21645163622477134,
          0.09689474538940669,
          -0.3212917235797083,
          -0.495594070122467,
          0.21229196829837005,
          -0.553729314444274,
          0.21696626416984616,
          0.31429659829579054,
          0.0504389574706866,
          0.08193354507024862,
          -0.341183430081715,
          -0.4668896539913355,
          -0.25197055306343485,
          -0.10306733706703818,
          0.646939738150633,
          0.6590021851502997,
          -0.1823879178343109,
          0.35174526376456483,
          -0.1906732750026979,
          -0.3559847951735404,
          -0.3322797691914884,
          0.40619950055639303,
          0.25830187297989593,
          0.40561717846687106,
          0.10682470814489128,
          0.07908399473728377,
          -0.07112051037171825,
          0.4082503209406617,
          0.030292083065536796,
          0.0749369905876305,
          0.027097296433699198,
          0.08604518169725156,
          0.19720047719767353,
          1.066310683247199,
          -0.030752156356114987
        ],
        [
          0.14885243017297073,
          -0.4224004019242541,
          0.013564762455190053,
          -0.17844980272172278,
          0.45277507627195634,
          0.19481811519480377,
          0.1062681299414835,
          -0.4974004813588551,
          -0.14057063083027072,
          -0.1111353654057923,
          -0.5251579436362773,
          0.6500133761062693,
          0.16479182459971456,
          0.16256142441690266,
          -0.5095535537889916,
          0.47671626615406787,
          -0.1127521556107197,
          -0.2333459988025935,
          0.20472824713202573,
          -0.2392350100580901,
          -0.6386409529005239,
          -0.40885254004485894,
          0.19750002604753208,
          -0.5269049383948691,
          0.000369535914735086,
          -0.012018924395995364,
          -0.18515412774604698,
          0.8390065735991691,
          -0.024046054568579764,
          -0.3978439366883585,
          -0.22699949001522685,
          0.229648033416638,
          0.36928287776936486,
          0.16969714790351173,
          -0.26159723139970914,
          0.08641621281568262,
          0.359615961900364,
          0.4374879479234288,
          -0.1603144728002594,
          -0.3208213747420446,
          -0.40462417628110176,
          0.5974274441558597,
          -0.16454912224982074,
          0.30662468688590017,
          -0.06867380814006559,
          0.6473538346941187,
          0.6522734373529699,
          0.30875701091836194,
          0.22424069226318763,
          -0.6047638599720827,
          0.14392059144989944,
          -0.00597635855536072,
          0.32960932515120345,
          -0.1775930183480494,
          0.08744657232262358,
          0.36725388155215477,
          0.26224005308681164,
          -0.023526501000605986,
          -0.2007953380702158,
          0.7202427196741535,
          -0.011260398111700905,
          -0.38980508216500415,
          -0.4548283476792659,
          -1.1141923957759463,
          0.06307800867257435
        ],
        [
          0.3011010153185845,
          -0.648191654328646,
          0.11203745607301094,
          -0.0007458873133084243,
          0.707557095467849,
          0.37585163908893865,
          -0.3545726236101126,
          -0.33224026676829815,
          -0.23903013483803023,
          0.29206899847338885,
          -0.358292872143665,
          -0.0962924707069379,
          0.5697946960336504,
          1.1688834617547974,
          -0.6997236709733898,
          0.21148945351645032,
          -0.04525498931110939,
          -0.7005115794912038,
          0.08388752400472219,
          -0.7483125802720358,
          -0.5642624110180184,
          -0.8752950347918111,
          0.14774234111122211,
          -0.19388889424526157,
          0.5880881598285728,
          -0.6571397660789794,
          -0.5232202660412786,
          1.1499338158523489,
          0.540294334388661,
          -0.26354713175240224,
          0.45097016325403205,
          -0.3665209524636392,
          -0.02080896524459701,
          -0.14060844849409562,
          -0.5829446712398451,
          0.5259731280598546,
          0.06207676858546516,
          0.48689709128903963,
          0.06367740392959775,
          -0.36487279118207505,
          -0.4632528019917123,
          0.5561071233023118,
          -0.030025717354518464,
          0.7951094340406515,
          -0.550371254626455,
          0.48959413377002337,
          0.37860864071147043,
          0.5859609079656106,
          0.3067732957295831,
          -0.3289241172384042,
          0.6083930295573393,
          -0.3092977252463851,
          -0.013301277471561722,
          -0.1873374850642076,
          0.30926972305513606,
          0.8817001346545718,
          0.379898924945387,
          -0.077826428209135,
          -0.4878821977982312,
          0.10445828257889304,
          0.3046143809242763,
          0.20661619455621602,
          -0.7284467558944153,
          -1.5493279209324873,
          0.2508318854617729
        ]
      ]
    },
    {
      "activation": 1,
      "biases": [
        0.35140768131202865,
        0.3951207196223215,
        -0.15795270999568725,
        -0.20039649230592446,
        0.09440856910460378,
        0.08887761976258836,
        0.17555773755217752,
        0.05130028327070216,
        0.32311574083444633,
        0.3908415274955782,
        -0.09649636595538598,
        -0.07846202711355656,
        -0.04994501395367368,
        0.1006262111955941,
        -0.06536394913876326,
        -0.027707256130500388,
        0.5540879011429447,
        -0.3617400234120735,
        -0.3856116270694531,
        -0.009853787471491552,
        -0.003769157076771426,
        0.35967900956035614,
        -0.3859450851505735,
        0.06046787867754328,
        -0.36965726232400375,
        -0.37568995064876065,
        0.2907704348456402,
        -0.027426487690897786,
        0.06083039045092279,
        -0.39400019353272164,
        0.41844068121317,
        -0.016400351240189976,
        -0.3723547273327386,
        0.38439147746509394,
        -0.35860609845001573,
        -0.06768327120374745,
        -0.004674333778601076,
        -0.24890609783541523,
        -0.38667826889656953,
        -0.14508715469397873,
        -0.07350341527306636,
        -0.021280868482487898,
        -0.012706420064307257,
        0.08125800687622714,
        0.10329459314003192,
        0.05237026637919607,
        -0.3488284614840346,
        -0.14396472855444345,
        0.01282807334244288,
        -0.014947029253294249,
        0.038001328443453705,
        0.04681690660812849,
        0.019842582134330787,
        -0.39684669146994644,
        0.4120200986728277,
        -0.03129774091649555,
        -0.35790513294796816,
        -0.40061513396431825,
        -0.11002542344548637,
        0.03045559314434649,
        0.000715642809762386,
        -0.015967752558867822,
        0.09838379579243073,
        0.07282683924638925,
        -0.3722914950370351,
        0.3956892519998822,
        0.04375570077043682,
        -0.409043724363636,
        -0.38204672317098987,
        0.35311500913308863,
        -0.4149534383852165,
        0.3770860391861614,
        0.07757243053647483,
        -0.3642425249234237,
        -0.3943324608331524,
        -0.06129577050658987,
        0.05244592221532364,
        -0.41045196253702304,
        0.42896657726179427,
        -0.3596003219068541,
        0.38566389000292817,
        -0.01007103190478723,
        -0.3802656149238491,
        -0.3651933490952911,
        -0.07951121293522788,
        0.06451882945637821,
        -0.3780619129862811,
        0.02970964062709872,
        0.002780343094786638,
        -0.03419604784525883,
        0.0028901660537188085,
        -0.3939942496345846,
        0.0026199995380058803
      ],
      "cols": 93,
      "rows": 65,
      "weights": [
        [
          0.3609087024805514,
          0.21710113810170925,
          -0.619421435398633,
          -0.3035167271723241,
          -0.19286138781064638,
          0.5216316261734151,
          -0.06287264648871618,
          -0.10405075211181064,
          0.4941780816861734,
          0.31624923503409585,
          0.09789661713389472,
          -0.13306682342751688,
          0.48754855383311596,
          -0.1959181398261376,
          -0.40218513335543354,
          0.12228717327086137,
          -1.0214380168939248,
          -0.2985917695082361,
          -0.05777345275215348,
          0.18623892366706882,
          0.08753141737175664,
          0.16042977717178356,
          -0.031674874106055975,
          0.17368603559609427,
          -0.009829310799752383,
          -0.2317321306608082,
          0.2224348680879477,
          0.16401418969416787,
          -0.23653663246289303,
          -0.27611079485981715,
          0.08615489356037848,
          0.0970148839106037,
          -0.0222172476450226,
          0.07291295658244426,
          -0.35372411537653886,
          -0.060653169879590525,
          -0.15934016538525,
          -0.4155910923392746,
          -0.32924154423731405,
          -0.015744150251036333,
          0.04670828627986165,
          0.06444458982819039,
          -0.10658280284718241,
          0.10353898370771193,
          0.0637280357284426,
          0.07887970964073567,
          -0.00733931211903994,
          0.12446408422073262,
          -0.10784066218482834,
          0.02690212251925193,
          0.13991259778667775,
          0.05616768304005575,
          0.012553529845876234,
          -0.2629125217660857,
          0.15930307657097548,
          -0.07739445208479885,
          0.0055381873178942005,
          -0.04638559166067413,
          -0.20611402364740714,
          -0.07404606983300427,
          -0.05699164508720126,
          -0.008418764270507601,
          0.2511952835411021,
          -0.015622824297244554,
          -0.330012305660963,
          0.22548448458944367,
          0.0921663612303739,
          -0.06875738938721389,
          -0.25695974784746517,
          -0.0006536467512416604,
          -0.3703587672128226,
          0.11398705511739449,
          0.16191960345595233,
          -0.24972595113734278,
          -0.3929144979583293,
          0.05099910126344796,
          -0.08948391939656715,
          -0.2553231635873227,
          0.3393701646031668,
          -0.2668697870636508,
          0.15961631151526362,
          0.0799891380459616,
          -0.2828151980909499,
          -0.2805212208991394,
          0.028126772028655572,
          -0.11396246258080595,
          -0.33223519950592184,
          -0.013708654609503098,
          0.05922848417707359,
          -0.15487564300957013,
          0.20604403143425143,
          -0.38589677529429656,
          0.11471482612161159
        ],
        [
          0.319159856165334,
          0.005472038076336925,
          0.30568589649903094,
          0.7967887444784814,
          -0.36527594546541026,
          0.050666621444422195,
          -0.18527177061895594,
          0.05148641014923731,
          -0.045619047081939215,
          0.09866221674998059,
          0.07330475562165627,
          -0.014907501737404745,
          0.30273533874822817,
          -0.1556204773262258,
          0.4152466083560301,
          0.07609139945867711,
          1.6274984691747436,
          -0.32543293070115775,
          -0.03321951224799279,
          -0.20364481830034,
          0.09734014411287918,
          0.21841019058126793,
          -0.3568600963902655,
          -0.05561450064491085,
          -0.07872221709871063,
          0.014246894821192424,
          -0.34032056738979793,
          0.18539505450697205,
          0.24202429437384884,
          -0.14719013278690476,
          -0.013034082691664079,
          -0.1803165017110071,
          -0.2571297830019679,
          0.009416020486396138,
          -0.03923987304121627,
          0.10547251448036095,
          0.34042369356221847,
          0.5475532290301224,
          -0.34441463548104984,
          -0.09651383224534969,
          0.12128826632556709,
          0.06581387964330558,
          -0.13274308356381784,
          0.15925720171095833,
          -0.14323652692330058,
          -0.011382762066530399,
          -0.031674381701059004,
          -0.009471391466344308,
          0.010061950485266235,
          0.04012703418181526,
          -0.056194200247560396,
          0.13774818032702937,
          0.07870200565393305,
          -0.1284805365384321,
          0.02455804683197612,
          -0.09495583612409142,
          -0.10732049177730757,
          -0.25473453174562694,
          -0.04149268305303823,
          0.12178359543639648,
          -0.040470833350253026,
          -0.09235654983277906,
          -0.07034233108187181,
          0.04878448897553034,
          -0.20989841538226775,
          0.2764929184496339,
          0.10161244234180902,
          -0.08545271716972531,
          -0.06962627188727308,
          0.13607500364822264,
          -0.23911622770887578,
          0.18793360881949459,
          0.16662418161406367,
          -0.0017346828144760465,
          -0.037695496108330034,
          -0.03600875764828568,
          0.06158200613222696,
          -0.2091252824465787,
          0.13042090239757553,
          -0.2381905347065702,
          0.2544808749850913,
          0.12914817408345536,
          -0.10807686714131644,
          -0.21391576681571753,
          0.0428193456682773,
          0.15992030130001056,
          -0.26771049877774333,
          -0.18268344495154018,
          0.03311149334234835,
          0.33641659962685366,
          -0.11188753500615133,
          -0.29566675999857034,
          0.05144286907452075
        ],
        [
          0.19273051210274852,
          0.3698764894800036,
          -0.05168080789519119,
          0.19972593583468118,
          -0.6284174055419461,
          -0.41057281076233426,
          0.4708066143343135,
          0.03596181173841933,
          0.8351203863917327,
          0.2216284690318734,
          -0.11259536330533133,
          -0.6401859478734685,
          -0.10193042124734977,
          -0.27576188712474653,
          -0.03298736147558696,
          0.12576663828180468,
          0.5934206822452144,
          -0.03230879580404086,
          -0.3005681699955209,
          0.21736877423853176,
          -0.04812502312740887,
          0.1838751917592509,
          -0.2486716330718469,
          0.0808811676724583,
          -0.1359353114811723,
          -0.3294354443986259,
          0.17738893803406325,
          -0.7802669232240753,
          -0.2535231060268453,
          -0.2009856483121084,
          0.36720988844709584,
          0.1140298337662376,
          -0.18525695418914556,
          0.08664458788622538,
          -0.2458067259255385,
          -0.3721452015744574,
