{
  "layers": [
    {
      "activation": 0,
      "biases": [
        -0.3409849048105781,
        0.2513650602923003,
        -0.010627778413323378,
        0.3310522759584342,
        -0.11399618434971064,
        0.018861303702851315,
        0.01809375852779454,
        0.1923129577347638,
        0.14618134878085076,
        0.4776326062311088,
        -0.45615529098579005,
        -0.0633697251502851,
        0.08874625850738746,
        0.4109020957997432,
        -0.3276199326561112,
        0.3161074984428937,
        0.1604052582080419,
        0.6589256210399627,
        -0.5542529517287734,
        -0.4672703659981889,
        -0.0810145601969087,
        0.06738911714315493,
        0.08853939058771829,
        0.21546426067787272,
        0.10572175174071902,
        -0.06798756419612965,
        -0.27694246511290865,
        -0.06712419741469426,
        0.1329424353437666,
        -0.0070118051688662164,
        0.035190804519361414,
        0.10842492007672157,
        0.23057343977348038,
        0.05052660511429727,
        -0.007857258042351444,
        -0.3021547835646832,
        -0.16658942186682504,
        0.14987312538044906,
        0.24175894619858673
      ],
      "cols": 39,
      "rows": 12,
      "weights": [
        [
          0.5059610691544951,
          -0.11408851356188228,
          0.6191180072603857,
          0.162274096766946,
          0.003771142305578828,
          -0.7099366830730478,
          -0.731467111029656,
          -0.26380748894626904,
          -0.3209220007059766,
          -1.2732081270772313,
          0.04775115091010819,
          0.3633708734337849,
          0.3997733287159609,
          -0.8447723030143417,
          0.3742908191795645,
          -0.2667740111665976,
          0.3296624977536647,
          -0.986500968841606,
          0.6292736986910916,
          0.4303041568463062,
          0.05527372799713351,
          -0.17048953871075745,
          -1.170839809153272,
          -0.3754705226086608,
          -0.5703499149413604,
          0.6696884571371998,
          -0.0021277055362941754,
          -0.08019893848483492,
          -0.26960219676986746,
          0.37170856942508373,
          -0.5863239371511197,
          0.2946397262016001,
          -0.23723729479338432,
          -0.240230684986384,
          0.495411516555133,
          0.09043800362008012,
          -0.016530611935049306,
          -1.0933039977125276,
          -0.5685537609824874
        ],
        [
          -0.31951189006713726,
          0.20296761701548652,
          -0.3214580687549418,
          -0.34268722370278903,
          -0.15183980466499097,
          -0.3009926927847244,
          -0.035355448204862285,
          0.24922166360402326,
          -0.18206000308068943,
          0.12011635679640852,
          -0.3205446818173659,
          -0.1398190143331424,
          -0.1161450431868855,
          0.1391181122068546,
          -0.20737376139149874,
          -0.2048226780307668,
          -0.3302617626272087,
          0.26273571063514783,
          0.09673749100315493,
          0.24327700189065377,
          0.1941098794746271,
          -0.3338822488720806,
          -0.16754633728967996,
          0.1709599541767409,
          0.25677124900978787,
          -0.20279011514729253,
          0.3070307625626445,
          -0.2991246631034068,
          0.11275756328252909,
          0.2336916550386032,
          0.32107374001459094,
          -0.27492016688681675,
          0.06302727978615973,
          0.22124610399859726,
          0.17056781829815776,
          -0.042626238596044135,
          -0.20100415497195143,
          0.1967666051710699,
          -0.33007547677018045
        ],
        [
          -0.34427056612215323,
          -0.02629954013350036,
          0.5315151873576733,
          0.25295636049166154,
          -0.15837133719978738,
          -0.4456709342836128,
          0.004367657994156879,
          0.013202825445653663,
          0.2500563839565744,
          -0.3001813910737609,
          -0.3926351224234767,
          0.3939413461134393,
          0.4000146329293048,
          0.28332107851336535,
          0.11935639447630991,
          -0.35348640384470453,
          -0.47987988973839923,
          -0.1136042600880806,
          0.09732233211684381,
          0.30103713849338304,
          -0.33085673934378135,
          -0.3201608578391362,
          -0.12332271105387241,
          -0.5120163832578598,
          -0.12464323645132784,
          -0.22674538062436517,
          0.2689148630463343,
          0.48467778370450815,
          -0.4204125929981721,
          0.2696291317378788,
          0.07950181402953495,
          0.5036049233289865,
          0.2904709950379049,
          -0.4234242258649133,
          0.02232150467660127,
          -0.2171593892356452,
          0.26474307395121266,
          -0.2876167291400183,
          0.09742351921379826
        ],
        [
          0.5735922961125594,
          -0.38174034366332343,
          -0.4271102187712594,
          -0.7749723192882121,
          0.02841813074937044,
          0.20357211232136616,
          0.25465716905295366,
          0.1328400378547912,
          0.25917348047587074,
          0.8269094233919388,
          -0.03412439035994953,
          -0.5893077433231787,
          -0.6502925301524104,
          0.3621857179773166,
          -0.21450815796056016,
          0.007161086121910667,
          -0.7701383795078582,
          0.1482915773160903,
          0.5545734106976884,
          0.1452888040429285,
          -0.20631356922349,
          0.3763247931818871,
          0.6716164786247892,
          -0.4326727323716558,
          0.02199209149859746,
          -0.22009753083097156,
          -0.32362808067320886,
          -0.37420596739072465,
          0.1388177798624163,
          8.417993605039146e-05,
          0.722879659868193,
          -0.42172865316165964,
          -0.6496408734696942,
          -0.2743600516216199,
          0.12330835230718874,
          -0.3019545804965232,
          -0.06216469612515269,
          0.24120293629777068,
          -0.44151189448966843
        ],
        [
          0.06652759350243032,
          0.08785503534412183,
          -0.4812775076863189,
          -0.5565645966753809,
          0.19648746616911766,
          0.09858447330568576,
          0.47502742931635134,
          -0.4955563594622544,
          0.46572562398459666,
          -0.3249905235432386,
          0.24585024930940108,
          0.13898733011553033,
          -0.05646203798252818,
          -0.0402683315818839,
          0.06893860581277962,
          0.1777734473425292,
          -0.10398001231170899,
          -0.21245410141072615,
          -0.3372112979505562,
          -0.26788282105238553,
          0.24237013325317588,
          0.23502909365259547,
          0.7046656285372632,
          0.5309687102855422,
          0.5875922990254175,
          -0.6546925050909714,
          0.3440511475653403,
          0.005708824864392855,
          -0.3170364377920998,
          -0.294030149627063,
          -0.2254391666344283,
          -0.2365439925122294,
          -0.051241929409987105,
          0.32090998570523255,
          -0.47938932509869403,
          -0.4096064295911302,
          0.1312439483411885,
          0.4601391458085552,
          -0.5548331533713914
        ],
        [
          -0.4220118071912628,
          0.1660368615306075,
          -0.03251777455863151,
          -0.15402092557906763,
          -0.19315196041813354,
          -0.2740526059786781,
          -0.27279455907277994,
          0.24864727591228605,
          0.3328747555327243,
          0.36660851962632723,
          -0.4265231822297569,
          -0.32877800938933754,
          0.3909134185619668,
          0.6851856260142343,
          -0.24919903134376065,
          0.5089463358450529,
          -0.2214050165586368,
          0.29336037427657835,
          -0.5989967624664692,
          -0.6213589342260379,
          0.003253179010053786,
          0.4719882887170212,
          0.0786351086010123,
          0.365469324482184,
          -0.07025459514719347,
          0.1856887186881578,
          -0.1604339750587894,
          -0.4089459402890584,
          -0.0931198978594521,
          -0.2041811193456517,
          -0.07980332309575214,
          -0.1415162314244023,
          0.20186867468897454,
          -0.3090336453076129,
          0.5249128328499275,
          -0.33658003933020336,
          -0.44438099447538404,
          -0.12047395733741002,
          0.06518021210658213
        ],
        [
          0.05827786491422519,
          -0.5022230634437712,
          -0.2217599418719447,
          -0.29589407073846896,
          0.1708920451222107,
          -0.6470479683604425,
          -0.140250994457042,
          -0.5715670369485574,
          -0.6796592659828982,
          -1.4738795415542048,
          0.6170128598291823,
          0.14305614328343794,
          0.1426966709545408,
          -0.8692362462876478,
          0.44691875379555956,
          -0.24485929777009002,
          -0.21733663466569933,
          -1.2129137514936803,
          1.0874368815726094,
          1.041074511694744,
          0.1060726553175988,
          -0.18906920311852687,
          -0.9760106814033248,
          0.12516156101396203,
          -0.6282720767575485,
          0.12594789149001429,
          -0.003469890191210651,
          0.2872204163141503,
          -0.8681511487641287,
          0.15827892934495238,
          -0.7839014032582123,
          0.16241906717167892,
          0.24578223268162516,
          -0.014768397440543157,
          0.0221415046408667,
          0.5559289910584799,
          -0.0034584410669149875,
          -0.7088536944147928,
          -0.8789269204070069
        ],
        [
          0.8189618765315907,
          -1.0002936417636474,
          0.2173496500703785,
          -0.4314761338267847,
          0.23245091269938478,
          0.2601564623465135,
          0.27240212090433025,
          -1.1954969270961218,
          -0.35165813975386323,
          -0.7222112420313302,
          -0.16237879863085553,
          1.0608351665923388,
          0.6827341690391562,
          -0.653218034979636,
          -0.572494466596991,
          0.1260280479320157,
          -0.6470189298129454,
          -0.29106618535296797,
          0.983122855933725,
          0.4727767997271803,
          0.334287035120638,
          -0.13499062702267783,
          0.1687321614218315,
          -0.6642290403570494,
          -0.5091715649586179,
          0.59199965021196,
          0.7377195713135233,
          -0.4985367597107893,
          -0.46594635401466106,
          -0.30580902599242865,
          -0.7110437834744001,
          0.686563360191837,
          0.0937270597494224,
          0.02285156219889106,
          0.12627779917426457,
          0.017397730440869164,
          0.5185311123650775,
          -0.3515052144299965,
          -0.15373374587293917
        ],
        [
          0.23592804396540648,
          -0.05420132566725982,
          0.2228251663858777,
          -0.09869307339534904,
          0.1857557138496213,
          -0.15450935591789947,
          -0.00799614396969606,
          0.2782333537570921,
          -0.23311514707406994,
          0.024204992787636753,
          0.24713402781302912,
          0.23693469489963856,
          0.014204419583190561,
          -0.26352126111466856,
          -0.1630207076018811,
          0.07771246048199376,
          0.32513316439843115,
          -0.059104728527046235,
          0.015934929271740467,
          0.030703057936322685,
          -0.022043382764687404,
          0.24414821590693048,
          -0.1990527473542891,
          0.2804690019001983,
          -0.28361773447024585,
          0.053943533260062126,
          -0.034752225388841367,
          -0.23473227692681653,
          0.0673326753432606,
          -0.10928205917236856,
          -0.0458808278467189,
          -0.23639944306071203,
          0.23238102883290243,
          -0.3156195160805957,
          -0.07109061290108346,
          0.28782821771509004,
          0.3066889836839822,
          0.3044584865271278,
          0.07301712264771079
        ],
        [
          0.14790595847989638,
          -0.013797736436009799,
          0.024168463413749036,
          -0.058021398058747696,
          0.23835427558773684,
          0.6922298240447161,
          0.42126104613944787,
          -0.07994684039176338,
          -0.38992984633318983,
          0.5861207972697927,
          -0.3940465490554763,
          -0.44543454342493966,
          -0.6322158564498955,
          -0.37162198032165983,
          -0.3591923237595539,
          -0.22839197618294876,
          -0.4474654006760628,
          -0.04993329705896447,
          0.5539271836341108,
          0.3945728116647432,
          -0.34865096042027516,
          -0.3562462792096833,
          0.6148261772900532,
          -0.7094971093262874,
          0.24542396865351485,
          -0.7982005197832047,
          -0.7999754552907996,
          0.0004951179771313427,
          -0.3687808926531879,
          -0.7572220034112391,
          0.0631394689232315,
          0.3363897038831251,
          0.6069538656489039,
          0.4145670109694169,
          0.39285080181869203,
          -0.259085412929476,
          -0.13378774825474002,
          0.812848074478928,
          -0.056514453062041475
        ],
        [
          0.12073506462145056,
          -0.19462569400228125,
          -0.2679262167201207,
          -0.052901000486911647,
          0.09663007753254474,
          0.16706702250437236,
          -0.4002956143364637,
          -0.26437903750048364,
          0.20680431345894176,
          0.6551574862101499,
          -0.14026623837974816,
          -0.28314102795364987,
          0.14293018887207723,
          -0.29595619702040726,
          -0.1514659870036575,
          0.49234080204479935,
          0.44638920873845994,
          0.6169603902256701,
          -0.3111643649367706,
          -0.4953134394153665,
          0.3841973159473372,
          0.42268476886644823,
          0.5213869211682219,
          0.44378909193659644,
          -0.281299191338104,
          -0.21885372472147163,
          -0.09011038979594266,
          -0.27932286742090956,
          0.4043392058938176,
          0.25865521320603024,
          -0.13497338293621033,
          -0.4164447964527136,
          0.15365440342848433,
          0.49807946067918346,
          -0.13087907645159683,
          -0.107916419719316,
          -0.21264191014005696,
          0.21796453761285053,
          0.1734756015098238
        ],
        [
          -0.27484867285015374,
          -0.14985225916994355,
          0.2673195073443172,
          0.5443363177008643,
          0.009179257924848137,
          0.26295835184934857,
          0.00818317450006587,
          -0.21556074302229986,
          -0.3586832660501815,
          -0.004190101811628646,
          -0.3834048415261383,
          -0.18504306927170616,
          -0.2945808897240183,
          -0.09224424112623804,
          -0.4008634414137436,
          -0.34513796613266756,
          0.3952167966767957,
          0.2132128544392362,
          -0.2751596445266719,
          0.014680259997137362,
          -0.24972980777357948,
          0.0962868354111483,
          0.19020031537075724,
          -0.240282317703207,
          -0.3550493737536395,
          -0.32017200569684623,
          -0.22427919283998238,
          -0.027640000222822647,
          -0.06370147357054384,
          -0.029244298361151052,
          -0.4074202237240263,
          0.3069151719297249,
          0.2358086446641451,
          0.35985506731968153,
          -0.42230641416104797,
          -0.10446683292151528,
          -0.20870956144986774,
          -0.08666552393344333,
          -0.011137728948397001
        ]
      ]
    },
    {
      "activation": 0,
      "biases": [
        0.11233496723929227,
        -0.11586477179413454,
        -0.07828822926102201,
        0.0645909136536203,
        -0.09456201379882452,
        0.0624584312371176,
        -0.3902709870687377,
        -0.06822192338869632,
        0.13821315203496962,
        0.00013798437896377617,
        0.001686300990172705,
        -0.049674866294206727,
        -0.18157426443748964,
        0.21061794824228422,
        -0.18614752333006684,
        -0.19696324331918422,
        -0.04638145184031401,
        -0.04960898638589045,
        -0.053408386643797844,
        -0.3470624083342653,
        0.12973383377431483,
        -0.005116780722413314,
        0.04558942955956621,
        -0.17431374054028898,
        -0.07385839260092475,
        0.429687898793646,
        -0.042766300493813234,
        -0.29244875863211334,
        0.2038979763234853,
        -0.07463561037901167,
        -0.15405803221181769,
        -0.28145766488086393,
        -0.2732168386561271,
        0.28520320494807044,
        -0.05372222241151101,
        0.22283612894177135,
        0.19560390030438174,
        -0.06084182120392637,
        0.0027390996030311936,
        -0.14040313159238693,
        0.30848487912844386,
        0.004413341125924982,
        -0.12520385405891687,
        0.027273932111048876,
        -0.24268298790719728,
        -0.39145612847769806,
        -0.05900337435769514,
        0.247653503487108,
        -0.10013040902667338,
        -0.1198523656973456,
        0.06051153854010376,
        -0.1342847480857392,
        0.05540979418447431,
        0.4291634313628985,
        0.09484754374211962,
        -0.2300680163283655,
        0.10392173770846193,
        0.12434130351179519,
        0.07612461277180588,
        0.20130189877568627,
        0.09602937907178484,
        0.1323641259838394,
        -0.21127787736034415,
        0.08191194062617552,
        -0.059255443727241966
      ],
      "cols": 65,
      "rows": 39,
      "weights": [
        [
          0.1238442136436765,
          0.05557212932243825,
          -0.03203399019722775,
          0.33327658063907667,
          -0.16468661055797987,
          -0.13325990245377767,
          0.3711756079769239,
          -0.26335117472970276,
          0.08362668565365587,
          0.13699224099441884,
          0.0684028654774164,
          -0.14142346340410544,
          -0.2287034519327795,
          -0.06648846498762816,
          0.09224856577671978,
          0.08559075816373385,
          0.09516986473545691,
          0.13939766626032785,
          0.12667522660319944,
          0.273846603146782,
          -0.11376385341517496,
          -0.04912987263357191,
          -0.2616352527405089,
          -0.23037889555506338,
          -0.1356714996472713,
          -0.1889439700874555,
          0.05090431898570533,
          0.3792088984147464,
          0.26304334292073894,
          -0.048816387832500245,
          0.35072946246319453,
          0.16381176937730935,
          -0.09602147143566743,
          -0.005202210664152863,
          0.2169873135983777,
          -0.1930482795357116,
          -0.20201437548839507,
          -0.22440303461272945,
          -0.054807458305260064,
          0.25817195069080917,
          -0.18471790390436885,
          -0.4030317750430924,
          -0.17970577662804696,
          -0.292604752080191,
          -0.1555072100849717,
          0.19203633478574914,
          0.03417558514443583,
          -0.2643137883853726,
          -0.009437678844656091,
          0.05300802330212064,
          -0.3646534039123071,
          0.06893427765813345,
          -0.20074107686141202,
          0.09605129560748671,
          -0.35270209393019947,
          0.32044740687524415,
          -0.00449620653501725,
          -0.10319561297629239,
          0.03693278083310717,
          0.042625164546152255,
          0.2628179504492646,
          -0.09858278874848006,
          -0.23278923732724296,
          -0.2369208226342196,
          0.21445212714342934
        ],
        [
          0.19419263473783976,
          -0.20336305563519386,
          0.22375949899138184,
          -0.3117999752697701,
          -0.07727801684344168,
          0.32642733557994147,
          -0.056417468294424886,
          -0.09123949726691774,
          -0.025446326383980332,
          -0.038791534175887425,
          -0.11444823315588422,
          0.31462015336949706,
          -0.19006258919430372,
          0.0845756265202993,
          0.025043399681363373,
          -0.25989992454399596,
          0.1327216008786323,
          0.014091654461230669,
          0.07570959371522747,
          0.0499576700804973,
          -0.25128841903768717,
          -0.06430373250450121,
          0.23640770938170394,
          0.16734475601058682,
          0.2450465469616219,
          0.14512934123354246,
          0.29808855131926126,
          -0.2707465934120671,
          -0.09785750255798495,
          0.18794690610240686,
          -0.15269511191101903,
          -0.03347808150171669,
          0.17300054092462558,
          0.179111653251386,
          -0.11610069798594813,
          -0.19815612395544613,
          -0.20075690956471368,
          -0.15088235492886545,
          0.10554231676651513,
          -0.22670051697475435,
          -0.12515698524682703,
          0.015135383822163053,
          0.09533272974035353,
          0.2854099965703444,
          -0.12178873865136826,
          -0.1554564259094875,
          0.08638685542947284,
          0.06447867272047662,
          0.31009599176869523,
          -0.01785296997517977,
          0.1942222487575836,
          0.07425912836714868,
          0.054308445082033294,
          0.1780513604020211,
          -0.06147201218424677,
          -0.22716747805096563,
          -0.1500643107562702,
          -0.1784515584747487,
          -0.2082971701776341,
          0.07267046789497392,
          -0.17361750696365835,
          -0.1596464133866005,
          0.059132623020547136,
          0.04034053259258303,
          -0.1774910576679939
        ],
        [
          0.2157497193768972,
          0.06090358770117674,
          -0.23257973180818678,
          -0.1189486661357674,
          -0.18180506697645313,
          -0.354920217004298,
          0.15428938008394455,
          -0.018131657080787553,
          -0.12470166520784819,
          -0.14028472507725828,
          0.2549121616155343,
          0.03052676312864034,
          0.07109178625217441,
          -0.11298864912894743,
          0.03467699611215548,
          -0.15082220298103247,
          0.003560275679914491,
          0.04962442915531949,
          -0.279357202797056,
          0.23046831472467755,
          -0.09054195147977,
          -0.31154206962663233,
          0.15554196296449263,
          0.20668845249659348,
          -0.25195064907497455,
          0.2365593420431649,
          0.07989251665087488,
          0.31998774710402583,
          -0.18263731883973464,
          -0.23860060864336669,
          -0.13911217432624692,
          0.15188508270177123,
          0.11434431554540182,
          0.06339089762016595,
          0.15392699344076355,
          -7.21768641865845e-05,
          0.32546157541897314,
          0.24192582557104833,
          -0.18429287127086097,
          0.03793987058672273,
          0.05374981750051185,
          0.02613634026879227,
          0.15018812991792382,
          0.14330741352292717,
          0.2256800572544644,
          0.13770853732009308,
          0.07584022371238958,
          0.2742591036870257,
          0.1920413278340728,
          -0.17943905693973952,
          -0.027277190505310637,
          0.12011843612651756,
          0.25123086643538706,
          0.2886919565625881,
          -0.032486655706544396,
          -0.37578592176903236,
          0.08844034177311778,
          -0.1587588559999954,
          -0.1395509547855129,
          0.06196948690491823,
          -0.1957158788316148,
          -0.09023982134811231,
          -0.3460007149218186,
          -0.050420475061576334,
          0.09594285876202965
        ],
        [
          0.193991654219458,
          0.05466024918730779,
          -0.15071506277492935,
          -0.08669769345925464,
          0.12430941069074027,
          -0.2721993920774048,
          0.08650645034608753,
          -0.06611323016833498,
          0.041436861495894074,
          -0.10876429919333618,
          0.02376124223104423,
          0.22490884881371115,
          -0.010323275755514913,
          -0.23589876284724456,
          -0.005354369868721803,
          -0.07773708831809063,
          -0.15148750164785074,
          -0.028784444803304356,
          -0.37726613462269665,
          0.009532806300036785,
          0.21452731590272775,
          0.0950351315074592,
          0.03996724826582331,
          0.4117859465867233,
          -0.13309543393279527,
          0.1608046641406568,
          0.04429604773985379,
          -0.28127568771788514,
          -0.23600802894056097,
          0.21590108297733812,
          0.06904790777848636,
          -0.0114560906609945,
          -0.24392912495343996,
          0.07400151621416302,
          -0.043178557798768245,
          0.10789939973498472,
          -0.008614952509123105,
          -0.02289262600263436,
          0.06928321227940518,
          0.3196758332928619,
          0.17858999562264447,
          0.15736542300948256,
          -0.15794679954079002,
          0.13781710480006987,
          -0.1004556858336878,
          -0.23371347815160118,
          -0.16391568567191356,
          0.15093826335499438,
          0.36937926857774267,
          -0.5548497401888441,
          0.13510110879662535,
          0.044376994372742694,
          0.21962101332316064,
          -0.059233315958871685,
          0.23838777136229744,
          -0.24123203231043658,
          -0.20666321272698718,
          -0.07228989480815788,
          -0.12706815308340985,
          0.15357204693732182,
          -0.14567452620146146,
          -0.180551174527956,
          -0.15478445214811623,
          0.17457330613658206,
          0.17665234939750132
        ],
        [
          -0.17818894605893118,
          0.2029543670239592,
          0.061111236456251085,
          0.22041569402551495,
          -0.13773660599250448,
          -0.17796410862658182,
          0.2657470861459167,
          -0.20820335325918887,
          0.011742954314312529,
          0.154484315162442,
          -0.191284572072896,
          -0.047674922710829605,
          0.1750318427321274,
          0.003184513637984626,
          -0.06805717374822705,
          -0.15299993681823484,
          -0.13657577031313156,
          -0.005371595729565021,
          0.12406895597578567,
          -0.118490663632206,
          0.0708568566267708,
          0.27072519829089176,
          0.2334495664591714,
          -0.21468635353641752,
          0.13842518655304134,
          -0.006758184045383465,
          0.13200732768195503,
          0.2015922052022523,
          0.015091636392678564,
          0.20648670144555684,
          0.098837752480681,
          -0.13240464153232537,
          -0.12349015341080007,
          -0.07656610803697347,
          -0.13192388988622122,
          0.2572588151441985,
          0.143598904258335,
          -0.23428811233768698,
          0.06816697427494826,
          0.21256166338615887,
          0.11947214566402627,
          0.1356434489120251,
          0.14770044609155106,
          -0.0836778955835045,
          0.16827192381312578,
          0.04242257870353028,
          -0.20537431366732967,
          -0.17111761881732973,
          0.08471594614524973,
          0.18797837498867523,
          0.19676931198139175,
          -0.018554829055862358,
          0.0761683485404664,
          -0.12520552614452712,
          -0.2860011065374088,
          0.13686593761662166,
          -0.17694216531600124,
          -0.007980449487513759,
          0.13689386937546247,
          -0.28000682788277365,
          -0.08139338095329146,
          0.22281986816104263,
          -0.17925390642114908,
          -0.13919299696448967,
          -0.1438872318238878
        ],
        [
          -0.25249926540126405,
          -0.23719490540924543,
          0.2576802658421734,
          0.027939090367386926,
          0.015564501718409833,
          -0.15670275183275859,
          -0.09630009860383106,
          -0.14058690620327646,
          0.10128621627764779,
          -0.4111347573848799,
          -0.03339696278598867,
          -0.17558634604677817,
          0.24343982365173722,
          -0.04751948662572994,
          0.01071717188225611,
          -0.15354628336884674,
          0.13214992892901362,
          0.08026606523858466,
          0.1991761082518866,
          0.0927437427426379,
          0.1296401949188928,
          0.4865950461937134,
          -0.22743426293038466,
          0.02937153206468449,
          0.051217284737995375,
          -0.3692461194649792,
          0.27506895160887734,
          0.13958673145813588,
          -0.03140743536586929,
          0.11510888926603587,
          0.10974897955462752,
          0.15347730537948948,
          -0.1849129923979185,
          -0.05340802697493501,
          -0.07357473439884366,
          0.29674920659420656,
          -0.2030267178431597,
          0.029242296885396937,
          0.08429433745563658,
          0.06257184869553199,
          0.09669983546556697,
          -0.08107421465888336,
          0.059583006150206494,
          -0.14894604515332377,
          0.08959700623407212,
          -0.20051232966108745,
          -0.0977006948738559,
          0.15472414385736386,
          0.363866013234562,
          0.05029615837462962,
          -0.0765849984350995,
          -0.17722817726490747,
          0.31324119469413625,
          -0.15341618631075332,
          -0.2923763003362949,
          -0.08488693790325437,
          0.030280045437698293,
          0.06378368596662294,
          -0.19108625559137182,
          0.04798586419563804,
          0.20019089261094372,
          0.2141474251840841,
          0.07785720104173419,
          -0.24914592226255428,
          -0.24021246438153787
        ],
        [
          0.1540192726726213,
          -0.16267767375475736,
          0.014436168536124432,
          -0.11097697892563442,
          -0.08011772754830511,
          0.01502848423220296,
          -0.13067932983467298,
          0.08351228780132187,
          -0.002776305228116856,
          -0.15256679126928485,
          0.02990768396474416,
          -0.06146570988831276,
          0.16309790461143386,
          -0.07482670690320431,
          0.1095279929889431,
          -0.0502810374979046,
          0.13563739337442288,
          -0.07182455842404709,
          0.28963869355129757,
          0.14745797250048262,
          0.08070962558031201,
          0.3992028048777716,
          -0.09623775447558484,
          0.15868065504386922,
          -0.3325287297147876,
          -0.0855359119716434,
          0.2111992109675338,
          -0.10070477447250657,
          -0.19418978301902284,
          0.16143322735497667,
          0.039771984517339834,
          -0.14758466493480435,
          0.2540640154570658,
          -0.29992142283985007,
          -0.08745851666452213,
          0.11976119865357639,
          0.06881651681487709,
          0.24046347567374107,
          -0.2060276293236885,
          -0.17465852149467434,
          0.20560734226564678,
          0.29186321099267915,
          -0.005639815675997238,
          -0.08413139796546434,
          -0.023005403536407218,
          -0.10275256987548438,
          0.3079855269728903,
          -0.001802929144366178,
          0.227462872696651,
          0.08621297594124284,
          0.12420277984818445,
          0.05901973371309127,
          -0.06190530745944223,
          -0.2721445428675875,
          -0.07585666879107605,
          0.302454177955992,
          0.3127422019314369,
          -0.1749041131768855,
          0.14377935222579422,
          -0.3407255555497844,
          0.05652893581338267,
          0.12317932815750335,
          -0.046171795930262105,
          -0.17202553923292266,
          -0.16721479144559726
        ],
        [
          0.26376437932760216,
          -0.07411926209176181,
          -0.09730548143172825,
          0.08759162685569362,
          -0.11664416148337912,
          0.14102943044892455,
          -0.19826552395591152,
          0.15977682301194665,
          -0.0446407512775617,
          -0.1255513557708066,
          -0.0436038703126643,
          -0.039227111936538175,
          -0.19940671729280118,
          0.00835059330306665,
          0.2295114219059348,
          -0.05138207873803739,
          -0.09264307138714752,
          -0.09332717692092314,
          0.0489749677149672,
          -0.08973957424774147,
          0.1311540400620908,
          -0.1815677636527395,
          0.12146599399808203,
          0.26099783094278967,
          0.30980760232782906,
          -0.062124944647217455,
          0.18519739445657576,
          -0.09242808142356342,
          -0.29437205414155104,
          0.3472256413205635,
          -0.07021613927958686,
          0.040727401727232965,
          0.12246031247867414,
          0.27567099036144954,
          -0.24771530676966297,
          -0.27334524462612797,
          -0.34737662133207114,
          0.2116140937534634,
          0.04832497730972662,
          -0.14977637401063332,
          -0.3585164827313458,
          0.26511658957053014,
          -0.07972120942780407,
          0.10935637163337569,
          -0.010420466896406601,
          0.35435722224875604,
          0.16808956986092483,
          0.29811837710073186,
          0.3701226245024986,
          -0.17141143638829545,
          0.037695419260071035,
          0.0896840527436692,
          0.36226241370347645,
          0.09152612260700434,
          0.392521478549777,
          -0.10815790267169682,
          -0.3495405194682163,
          0.1996089068865297,
          0.11699776054419965,
          0.013469112289607598,
          0.21029522078444557,
          0.2862716745743893,
          0.18261053430942598,
          0.047503955775312696,
          0.23530625589020654
        ],
        [
          0.2777339463819257,
          -0.13642444030849116,
          -0.07078604358912015,
          0.03149618958462833,
          -0.1770333784272433,
          0.18443165102219777,
          0.14437694198748333,
          0.11281422601990201,
          0.060585931268510376,
          0.26017866399097106,
          -0.13584998177498844,
          -0.007107201380256028,
          0.029424264281541667,
          0.17144770064265555,
          0.24546275658936728,
          0.07796280774375564,
          -0.2103337617498905,
          -0.20801321586586807,
          0.05024188201080254,
          -0.06828406255355292,
          0.20418161789221748,
          0.04377521707981465,
          0.18051745291662671,
          -0.2573637033556386,
          -0.18533127959981835,
          0.289432717552433,
          0.08446823340002178,
          0.06976461456184721,
          -0.31818385455120896,
          0.17965985714283475,
          -0.09504168131406042,
          0.008905674203395308,
          0.14724867977914677,
          0.11587016079511282,
          -0.22853206158035824,
          -0.02062647223483424,
          -0.05923517207925234,
          0.3114280566888315,
          0.09704450828065918,
          -0.17164101624078346,
          0.33818768318658127,
          0.142681309570476,
          0.050809945384380883,
          0.13571221005988413,
          -0.06862601556527859,
          0.1406664757964149,
          0.019553648764848126,
          0.24000038021561457,
          0.003975548430084347,
          0.1342553586864103,
          -0.07966477280181902,
          -0.05391340054947768,
          -0.14073921670327816,
          0.1621733703121739,
          -0.20411581604379833,
          -0.1086090319529067,
          0.1299295507725946,
          0.24794891295374943,
          0.13027305825576346,
          -0.033199545712669865,
          0.40111334065462595,
          0.1007830453205346,
          0.013980644276991312,
          -0.07103348728613972,
          0.14923998522276927
        ],
        [
          -0.11667297694146711,
          -0.3131554584031924,
          -0.12679700676193906,
          -0.0038181414857981185,
          -0.15007822431129866,
          0.07118165476493211,
          -0.33363045040208283,
          -0.08194344735797368,
          -0.07826375142241031,
          -0.17142315870386954,
          -0.14100386948748908,
          -0.26753061240681103,
          -0.041693808207896824,
          0.03972232249458483,
          -0.24685627124683565,
          -0.25758189967445905,
          0.04618883695793023,
          0.10179626578556013,
          0.38652245098776294,
          0.1569028960892806,
          0.1642155290756045,
          0.303834296290113,
          -0.2909327075993878,
          -0.05194267306147203,
          -0.05775888913775407,
          -0.2914000674835245,
          0.43471461224063,
          -0.34863212344868033,
          0.2935430058293626,
          -0.007018083365958629,
          -0.20251346814964447,
          0.2838072765659751,
          0.025942455854519837,
          0.4658636568033267,
          -0.10568648867608016,
          -0.2420046232599013,
          0.062059470034209835,
          0.266328840199873,
          -0.05158505044366021,
          0.2155527146341435,
          -0.036661245622799266,
          0.21286149172377802,
          -0.3068701181350106,
          -0.05196937731036027,
          -0.3647717073916113,
          -0.2807075930900847,
          0.07031272084096642,
          0.2324178866096672,
          0.40967244595557817,
          -0.28118820239002995,
          0.02005477441897633,
          0.15384094373471735,
          0.20933701720854117,
          0.35617675522720416,
          -0.28583591827184235,
          -0.09167662402969483,
          -0.16864045554677892,
          0.12373681276803117,
          -0.13135259026744936,
          0.3523570314123152,
          0.49164272968142586,
          0.5924241141239338,
          -0.15296985956686102,
          -0.05236278343184618,
          -0.024868447144943327
        ],
        [
          0.1821975650906745,
          0.2663186988887476,
          0.22148319456530494,
          0.028157137173617622,
          0.21047903126433318,
          -0.06025230444896768,
          0.3293696010098892,
          0.032608376241498066,
          -0.32098649381066724,
          0.3073820658396032,
          -0.1380261018875066,
          -0.013897303454607652,
          -0.0008079952225490745,
          -0.2278041373417692,
          0.17938458299279927,
          0.0659658698638779,
          -0.0014364937167614352,
          -0.06146354353666983,
          0.2864056894888582,
          0.1281566331074323,
          -0.07722054708129701,
          0.17311168369621274,
          -0.05435500299409456,
          0.19344522371336564,
          0.18386333970078036,
          -0.29357006871162367,
          0.09698627701447976,
          -0.10723265365215688,
          -0.2022565574965107,
          0.1168876856340449,
          0.2209090848960393,
          0.2567763099909022,
          0.3405440197846621,
          -0.12672824167886843,
          -0.030000730509705666,
          -0.14903174421666934,
          -0.21513020220137244,
          0.14081703061356618,
          -0.0006235495645358933,
          -0.13678836473780193,
          -0.26237183069579856,
          -0.10909808822840092,
          0.03558051004732477,
          -0.09643264295809865,
          0.13787243529544693,
          -0.031097923727158625,
          -0.024216402944041534,
          0.029430272056923334,
          0.08411397292525215,
          0.36709478555565483,
          0.17700059610467794,
          -0.0005265047913956574,
          -0.0049217256545018425,
          -0.42211406859332085,
          -0.2154629608183937,
          0.24963088836005912,
          -0.2262610053057118,
          -0.06164319914847584,
          0.18428260285719594,
          0.10043629027761444,
          -0.10246192055979161,
          -0.278279378412578,
          0.4813510134781244,
          -0.027074241401251847,
          0.21165393942849295
        ],
        [
          -0.044725184816747976,
          0.16213044792321044,
          0.04219622634386939,
          -0.3150166742343799,
          0.2651822903886378,
          -0.3499986327434148,
          0.3079441604757943,
          -0.1389530135564482,
          0.1693359993542518,
          -0.0898076612781733,
          -0.18304104948063135,
          0.016797747150223138,
          -0.0494224812468036,
          -0.0061646381725088,
          0.059030522649184854,
          0.006221478054673612,
          0.0525223098070919,
          -0.0498933194709593,
          0.15499424232597475,
          0.038271086080638464,
          0.07075249237828335,
          -0.06542893986643236,
          -0.16361294154041556,
          0.18842911982511196,
          -0.2156602421722856,
          0.18438707041755067,
          0.1468355139215552,
          0.2598571521705085,
          -0.012324676429377159,
          -0.30497420076059606,
          0.03770690542544474,
          0.0166255545612881,
          -0.2829792225599932,
          -0.3511518781148061,
          -0.059466231026465574,
          0.055194967303238834,
          0.2947721168452477,
          -0.07642915135373944,
          0.11396850328614631,
          -0.00045039932455626634,
          0.09077671174511319,
          -0.053886538893189014,
          -0.16527556397344667,
          0.30875374551201673,
          0.2667579031572981,
          0.17355109092769852,
          -0.2077909347653251,
          -0.15112103283654962,
          -0.04038933295458806,
          0.21008730722851204,
          -0.010845614112150523,
          -0.06748150745946861,
          -0.14249861978876988,
          -0.3574750726288979,
          -0.1491607217750937,
          -0.09815830299048658,
          0.20604739948080558,
          -0.2520184551476116,
          -0.2475308509150057,
          0.06530294876262989,
          -0.12217168330803575,
          -0.28664881356474464,
          0.08632305022858364,
          0.05537912772091106,
          -0.06278488757086172
        ],
        [
          -0.22010822087169415,
          0.03355729141366683,
          -0.017785232544735987,
          -0.2470867410641898,
          0.19328624147447132,
          0.13176154413051244,
          0.17002826907019614,
          0.182412254859381,
          -0.07887461841639133,
          0.1631934865085167,
          0.10386601070618505,
          0.06575577507962772,
          -0.23708824559515393,
          0.04616021897180776,
          -0.13809869586147897,
          0.033540856127732326,
          -0.2516714988946954,
          -0.10584021324364673,
          -0.06167844606083123,
          -0.32666885126691597,
          0.16205264935629324,
          -0.09705743212262603,
          -0.15922064292705063,
          -0.18512653788450878,
          0.03291529086913697,
          0.22164134332505525,
          -0.034940219472121725,
          0.10577415824155059,
          -0.18231759157871927,
          -0.04492550947286149,
          0.28952567505928273,
          0.009172343932927806,
          -0.31300139619239165,
          -0.21605826392532218,
          -0.05970324513080321,
          -0.1943922238980159,
          0.26197654473311427,
          0.08531011026318733,
          -0.15656192429427007,
          0.0014768869504687282,
          0.27620112652454626,
          -0.04189664956098849,
          -0.3087682383936296,
          0.21888395275671788,
          -0.12760726465645789,
          -0.01610023609256178,
          -0.08563530590533516,
          0.23394375516787252,
          -0.026553989097300012,
          0.22638433200592492,
          0.1628074254922349,
          -0.16958288920384673,
          -0.19483447214987268,
          -0.20872188965332944,
          0.22311295096621314,
          0.11867590620627759,
          0.26466059230313876,
          -0.04616663398483698,
          -0.2366831877513482,
          0.07425570211995697,
          -0.12700582783571093,
          -0.3862289002570414,
          -0.3153883554656896,
          0.17531248156274792,
          -0.10874999531916575
        ],
        [
          0.3198008349211674,
          -0.03659778310122705,
          0.24587975133676304,
          -0.19000151637037835,
          -0.21443197976466163,
          0.142450208424703,
          -0.1765603479847531,
          0.2462404036335466,
          0.25197357287648947,
          0.18328211139972633,
          -0.18597693781984823,
          -0.28559656332230215,
          -0.021213646675594694,
          0.289099433233806,
          -0.1084426127206426,
          -0.1717223016492183,
          -0.2320522795225862,
          -0.11294212913887454,
          0.33853281821603365,
          -0.2596083330251673,
          -0.19818452111129484,
          0.10944802950304935,
          -0.11574567121366698,
          -0.18375638491615337,
          -0.2392515107449914,
          0.16375922027436182,
          0.31519241642640455,
          -0.1957196929096446,
          -0.32062034230452496,
          -0.04565614024149123,
          -0.08185954645248557,
          -0.17018161542913804,
          -0.10371571130230117,
          0.30199201190969494,
          -0.09832860477853059,
          -0.2511617954363727,
          -0.1755616189835698,
          0.2305442913852836,
          0.1193365724573315,
          -0.3565533169643001,
          0.07025149584998726,
          -0.03518150277464789,
          0.15040167145971817,
          0.1355656908967632,
          -0.1709687846755445,
          -0.057107161148332024,
          0.1589173904906478,
          0.27131189205128703,
          0.30284030299270126,
          -0.014868272030341695,
          0.2431526497713975,
          0.1304489357294216,
          -0.07855096588773383,
          0.06911242080186791,
          0.2601719845881265,
          -0.2891549270034838,
          0.03289134049673534,
          0.051780439514880795,
          -0.01328562848283964,
          0.06676374574492076,
          0.2423393277557711,
          0.08834410350713465,
          -0.11397165210562273,
          0.18215863704283686,
          -0.24014040279354285
        ],
        [
          0.26286290549839364,
          0.21819128070938087,
          0.002926956660186153,
          -0.016655169354367425,
          -0.15846620169459744,
          0.2838498014690658,
          0.23237260573826132,
          0.22307645442634844,
          -0.21934341278771408,
          0.31381453689293964,
          0.14484525177177038,
          0.2983484212455519,
          0.01670162531023672,
          -0.031138448448239427,
          0.2482765143347688,
          -0.11467053807365549,
          0.12246777040844858,
          0.02817422972247572,
          -0.030307186502507997,
          0.164766607454781,
          0.02812946121089522,
          -0.2660905366120907,
          -0.09981756560674604,
          -0.08060198647115341,
          0.246291491054896,
          0.19680904734255694,
          0.05047823504974306,
          -0.07477952341713243,
          -0.25783368945977525,
          -0.030986611507301413,
          -0.2558310093521245,
          0.24829915513783654,
          0.15782690542716774,
          -0.23222201031270856,
          -0.05218067429026756,
          0.015995703667008924,
          -0.32348214829933863,
          0.14374646706453634,
          -0.1852457692031258,
          0.2204523911739392,
          -0.2666940285516562,
          -0.12286542500711002,
          -0.05836291120242156,
          0.18965297257314004,
          0.0978200589626199,
          0.31039553575538276,
          0.1069764129098715,
          -0.11247905042929154,
          0.09816052850254549,
          0.08556463787453628,
          0.24759868845229588,
          0.33520185542550657,
          -0.11764111059691781,
          -0.33375314769991177,
          -0.007905451857614819,
          0.05551195463426853,
          -0.2951874846691058,
          0.07252381663601105,
          0.15445097527716217,
          -0.08503483743117411,
          -0.08273179542540768,
          0.00193410714062628,
          0.3549466853109701,
          -0.2019879730220954,
          -0.004645059649559507
        ],
        [
          0.04054741355443544,
          0.13022611615964272,
          0.1935829868665377,
          0.14469083405695576,
          -0.06950408987486222,
          0.24038802573934342,
          -0.23607949422302338,
          0.012699556948020685,
          0.015225452395788616,
          -0.11514024266172837,
          0.12696400243714304,
          0.11299618128754098,
          -0.17884617659888583,
          0.31263737900395727,
          0.10536475395010307,
          -0.2943963349908106,
          -0.16122174919252105,
          -0.15597676727761547,
          -0.0035931652311039274,
          -0.1614467296014352,
          0.07729181667820853,
          -0.013327307142514172,
          -0.25086182607703095,
          -0.3097638975107539,
          0.1894954479961774,
          -0.11123461773740037,
          -0.24261397491421335,
          0.020143083730347844,
          -0.013120097520601087,
          -0.024002830694980014,
          0.09297982816880924,
          0.0869668519413083,
          0.12173025429277777,
          0.31043147064112725,
          0.09835443920890148,
          0.21029797301482778,
          0.26439330714323966,
          0.02750573480517987,
          -0.20840472066814378,
          -0.22544718005643527,
          -0.14421888138665676,
          0.11099516745433624,
          -0.2251840276212081,
          -0.15700151029789264,
          0.027281904170212992,
          -0.2387542243164728,
          -0.25616179535141353,
          0.195415638635943,
          0.07348263573863056,
          0.28133394356834274,
          -0.1185434005846681,
          -0.12399818939168959,
          0.014529431237668563,
          0.19294768596698247,
          -0.132426097814916,
          0.004783918653595552,
          0.15896752498952824,
          0.12022540898368023,
          -0.21862956046928222,
          0.3103870755814726,
          0.28665457012706386,
          -0.18158242815647538,
          -0.0002674330890536143,
          0.02772634022032893,
          0.12510646912808537
        ],
        [
          0.05183148921826208,
          -0.17034752849012091,
          0.16842162272320352,
          -0.3601578358464636,
          -0.0393764286559378,
          -0.042746199118675686,
          -0.15452089613246284,
          -0.22911880876149654,
          0.041854398434299396,
          0.18150208887231778,
          0.10831614544291922,
          0.45448749472353706,
          0.045710027112611545,
          -0.2558010769461238,
          0.18324760008704044,
          -0.01644433992631469,
          0.12011156640716825,
          -0.16418634516112715,
          -0.4350393948659927,
          0.11226319589737034,
          -0.1370167292790088,
          -0.16612933358139867,
          0.136526968244096,
          0.1207142821655576,
          0.1267937894329599,
          0.17534029151661584,
          -0.18734364699739767,
          -0.20703784386895144,
          -0.11923331854905526,
          0.1125637669034973,
          0.21548357098390528,
          0.14180345970008149,
          -0.2067187522923296,
          0.20824271085704663,
          -0.3527704609316284,
          -0.20223716701710734,
          -0.12963221800502644,
          -0.14409561727146702,
          0.16971364718553245,
          0.36660346455458254,
          -0.12187392007396486,
          -0.23617829320419012,
          -0.2534263323435576,
          -0.08354360656401646,
          -0.18109282748337,
          -0.09239592198866875,
          -0.3403652732805905,
          0.294990198787961,
          0.21545200264636788,
          -0.23507766668284388,
          -0.08257239733191983,
          -0.15401877990979337,
          0.19759034841456402,
          -0.04014787332551111,
          -0.1563623952962888,
          -0.049080982959927355,
          -0.3308127579161632,
          0.10568411777212,
          0.005212188973324072,
          0.18795118591425866,
          -0.10338604091222031,
          -0.004064414046723879,
          0.3036080659671869,
          0.07587430848681173,
          0.06925024309052195
        ],
        [
          0.1715727851643602,
          -0.2242415809365232,
          0.056757493691655996,
          -0.22278255362312266,
          -0.057698021568960485,
          0.015549070535325105,
          -0.211120249256499,
          0.23586055045505938,
          0.1111129701307673,
          -0.036533694676670087,
          0.0883298683578979,
          -0.10973983117591844,
          0.18160690622962417,
          0.13941387037289385,
          -0.29236869512049835,
          -0.1600053798101068,
          0.10255982337614819,
          -0.2770007088832985,
          0.14914478205006546,
          -0.29594451881925615,
          0.151824091884367,
          0.20237731883281562,
          -0.13146206138849084,
          -0.11760409083738091,
          -0.11828912135931376,
          0.15624834533934398,
          0.36331556262080184,
          -0.27999472377453827,
          0.09338030469612342,
          0.10347869382818924,
          0.04376105148933497,
          0.286586995843789,
          -0.03865439730063362,
          0.41152958310463433,
          0.08403646926141889,
          -0.12144957878746954,
          0.3275926045688753,
          0.07428321341629208,
          0.3284336333118939,
          0.11218722329331032,
          -0.016334846428893417,
          -0.20731537881060147,
          -0.2952805433372321,
          0.03881795101647775,
          -0.2592128357495894,
          -0.37316323968830944,
          -0.17371635303309632,
          0.23239575259419276,
          0.4308269508578309,
          -0.1093238018276963,
          0.029041065886192593,
          0.07735532553563187,
          0.22901291530322637,
          0.4156635528067667,
          -0.12256767690654978,
          0.05629545326181343,
          0.17527651227494187,
          -0.051929823150322546,
          0.008431914484063673,
          0.36268221568637743,
          0.2374600616734244,
          0.09832858002644336,
          -0.22439554907775075,
          -0.12314036979470784,
          -0.15864234433463395
        ],
        [
          0.017304530667861907,
          -0.17646438787717847,
          -0.3075047095299311,
          0.34914121791019614,
          -0.03917796460827147,
          -0.15785307830838036,
          0.0721170488537136,
          -0.24825194373185977,
          0.07554897561529517,
          -0.11314666354708353,
          0.17774436518963238,
          -0.31712193888261747,
          0.15449216151704076,
          -0.24488853167923427,
          0.0025717571062019518,
          0.2675295632560593,
          0.03276823852525925,
          0.09358772408970416,
          0.2768159430173583,
          0.41204642147043136,
          -0.2537883819529896,
          0.16199463252666685,
          0.04580678459299678,
          -0.037783888614586245,
          0.13193928247243267,
          -0.3789124287108082,
          -0.11003783994360096,
          0.29797424145725315,
          0.103979020123938,
          -0.2859223309922467,
          0.30830554907270163,
          0.25765416035095123,
          0.06834458488857785,
          -0.19344717940524594,
          0.3206371716695364,
          -0.15482737816145148,
          -0.3050633590192876,
          -0.0619113681778455,
          -0.30659020625890954,
          -0.1540318672606166,
          -0.025905127486649467,
          -0.1660726568313554,
          -0.1341304743878309,
          -0.45604445997587695,
          0.1194287647081414,
          0.23965771317626103,
          -0.035721629583177365,
          -0.23159445722882657,
          -0.23620561927295555,
          -0.11582487034788427,
          -0.17810768524972295,
          -0.2058585331326067,
          -0.08549613675717309,
          -0.31817267779341274,
          0.23365319528363582,
          0.22453236363391652,
          -0.09980379054885409,
          -0.3703331780015288,
          -0.10979479682065031,
          -0.4291810378006023,
          -0.31427534342444574,
          -0.31243401337493,
          0.10697473784479865,
          0.1354630926295029,
          -0.05970552860879427
        ],
        [
          -0.035030965029759636,
          -0.22031222840810433,
          0.06897372392934324,
          -0.04592101865122944,
          -0.07805126613630205,
          -0.061110403510959116,
          0.01909479813253819,
          0.036106721836128466,
          -0.04614465426714014,
          -0.26704167837253456,
          0.3051750250872934,
          -0.14305472416984114,
          0.02200781280966065,
          -0.2482838523148847,
          0.08969052887668226,
          0.2676638614603416,
          0.2337265269508235,
          0.3218697710878244,
          0.07611734074654349,
          0.08179382607810412,
          -0.18515045415763767,
          -0.1885291915291804,
          0.11895894232154051,
          0.38757318342904723,
          0.24982906860492185,
          -0.38337532761612203,
          -0.01924549885489528,
          0.3439893184667346,
          -0.1677551085051845,
          -0.00648982051374244,
          0.007505192499985836,
          -0.08635663847800715,
          -0.01085556423761176,
          -0.4679428229923859,
          0.3175995124759182,
          0.05950054465026142,
          -0.11078693504128975,
          0.06886580998977532,
          -0.2551506017545782,
          0.14137487085855813,
          -0.1330300926464167,
          0.13274373148820373,
          0.027695541228074858,
          -0.14728568723081648,
          0.01214143968995018,
          -0.03109186367823707,
          -0.13862325263510547,
          -0.3326484679442801,
          -0.16538223914244568,
          0.1984194198525926,
          -0.09020404073541413,
          0.08394550010747805,
          -0.1743380649648878,
          -0.3016954677052781,
          0.20641531219811296,
          -0.12539858935538128,
          0.020571650418889843,
          -0.22223779146832762,
          -0.0692580508332789,
          -0.35292431078797876,
          -0.14913222935839943,
          -0.2778795306177579,
          -0.18162440701446642,
          -0.23241189701596832,
          0.20637239669211813
        ],
        [
          -0.30186719933453676,
          0.06390200706941443,
          0.2883095839628643,
          -0.05413963073719976,
          0.10075184061501007,
          -0.11777502845781888,
          -0.07388569461352765,
          -0.2053897513449689,
          0.013357064908827357,
          0.02526499844272595,
          -0.15844415479535615,
          0.2925864114802708,
          0.07987569464610034,
          -0.2253093533950341,
          0.0391548391003625,
          0.0031827437583249667,
          0.1675022753327138,
          -0.10442352563501757,
          0.1519269517665636,
          0.12229905791532363,
          0.07526626074354982,
          -0.05917294966050812,
          -0.12352241874175847,
          -0.2924869684903276,
          -0.045749569430097975,
          0.10770070003327886,
          -0.262396885455677,
          -0.13295083155326307,
          0.17927569905133142,
          0.14850294829421556,
          0.3300520764261669,
          0.3099682905836035,
          0.13960348558050023,
          0.06063695657221284,
          -0.09836250052524442,
          0.05262441699687201,
          0.08445202233692463,
          0.137962823839752,
          0.12835120560122606,
          0.12295380119451363,
          -0.01792465641111675,
          -0.17629754901561429,
          -0.07271051258849053,
          -0.008940806406418185,
          0.11517952448753427,
          -0.07636473869837339,
          -0.09923435111323212,
          -0.19753611295545714,
          -0.006881942640010089,
          0.3039694192948323,
          0.1614321272974877,
          0.026922555574237575,
          0.1471840728814199,
          -0.13382435729450948,
          0.029333478589541783,
          0.24189897259541726,
          0.2021234701057539,
          0.07927420472163431,
          -0.01412119251592864,
          -0.02384659749537628,
          0.16075517222985394,
          -0.11128474948924337,
          0.07486667624195982,
          -0.2688075234987543,
          -0.07295668982547344
        ],
        [
          0.2046752749357272,
          0.04869548761526002,
          -0.050618528009246835,
          0.0670331421388927,
          -0.06528183803166125,
          -0.10602364748497566,
          -0.11702999114364636,
          0.06572854440436879,
          -0.029969326099054165,
          0.17967203105715607,
          -0.1731645911833055,
          0.008657223338813797,
          -0.19261770428128588,
          0.27342559709202074,
          0.14423506543622439,
          -0.004170638089507006,
          -0.1317636256242248,
          -0.20753075081041789,
          -0.20259652896524996,
          -0.17886355612217067,
          0.11043934235364493,
          0.02049650205884918,
          -0.08086565915788245,
          -0.2674534450035316,
          0.16355832560792766,
          0.22334289137118762,
          -0.13783771420170673,
          -0.17840775033073913,
          -0.02682348037778891,
          -0.1960515279320378,
          0.2599507852719353,
          0.09951137667769068,
          0.0073486688063880415,
          0.2460428506542359,
          -0.03593103659367322,
          0.13395250681221738,
          -0.20364991311296626,
          -0.2103203565154327,
          -0.05872009328828241,
          -0.28219082188305306,
          0.18951605951634937,
          -0.23818991144451943,
          0.19500768584835454,
          -0.30494705015153784,
          -0.27388839227416034,
          -0.10705696683456106,
          0.015702409595848236,
          -0.18705277198856382,
          0.04802506128018661,
          0.13340069956767625,
          -0.1862097518912346,
          -0.18415022667519462,
          0.1313559224873436,
          0.21490280862423994,
          0.006724007096682494,
          -0.11716199019169767,
          0.2652764794429315,
          -0.04775419389359399,
          -0.059835538975622646,
          0.13552848966091807,
          0.028852777059285684,
          0.2600021701683162,
          0.09813179417029899,
          -0.1837145992087679,
          0.13733333231897157
        ],
        [
          0.26374065302557925,
          -0.1760725463284046,
          -0.13915229344997126,
          0.018170954504815796,
          0.16978575433328913,
          0.04528267310314264,
          -0.019821008027798848,
          0.019219143213430788,
          0.31315514381412907,
          -0.2807846581385626,
          0.08712430289761795,
          -0.2533493362377557,
          -0.19754680019858867,
          0.19211639459357388,
          -0.020260886149683792,
          0.06419006894729253,
          0.21965528796004324,
          -0.2730977382043345,
          0.14475828559346512,
          0.1414611967108973,
          0.22047135236118273,
          0.36033362587944967,
          0.14490966101727415,
          -0.18174288176902853,
          -0.38649348013039764,
          -0.282641517252348,
          0.2594946204661543,
          -0.20005178997224773,
          0.3966954630766451,
          -0.04630437824572911,
          -0.04691422529020643,
          0.1815881390631457,
          -0.1732177135429387,
          0.30352970866215284,
          -0.28238787420564204,
          0.10405406263755006,
          0.2207928999952678,
          0.1586694403970178,
          -0.0953131504708976,
          -0.0118707444441097,
          0.06063108615259047,
          0.20922129807320936,
          -0.09992790790213606,
          0.13797028075618675,
          -0.010062689467164135,
          -0.34492340312007497,
          0.25991819864168275,
          -0.190713593865356,
          -0.12266712798604268,
          0.1253963408928234,
          -0.19259343995151262,
          -0.23858152092732338,
          -0.0312851545918551,
          0.01888522740922205,
          -0.4984038126310091,
          -0.03917824379156407,
          0.3344249712639961,
          0.15731549230531472,
          0.262570471090591,
          -0.11852260623500314,
          0.4376554508189058,
          0.49481713470759275,
          0.2229615105431151,
          -0.046501150642192464,
          -0.2240821857735539
        ],
        [
          0.19447255610972158,
          -0.060917330936103624,
          0.30346787627213345,
          -0.16009985313192623,
          0.15643082956716345,
          0.34763409833321773,
          0.10154578158049903,
          0.2403560559248563,
          0.20304580786993168,
          0.39802526639452207,
          -0.19754156187298372,
          0.43862126121092687,
          0.18803877488215337,
          0.15758376002556973,
          0.0332461806409698,
          0.1592200995502782,
          -0.16438381766508192,
          -0.3182366310409783,
          -0.09103243620525588,
          -0.32620082634176384,
          -0.07530655050681602,
          0.1292366011959202,
          -0.17081196803480586,
          -0.24912968765073373,
          0.2688054365085433,
          0.2925207344321229,
          0.03236116065026706,
          -0.1874589186275766,
          -0.018834353705911203,
          0.10690439047715196,
          0.15068374164833875,
          -0.20292652579265588,
          -0.13188485214693046,
          0.20144103723817233,
          0.01840691674070509,
          0.20377464437235437,
          -0.09401485876743339,
          -0.11353974712674648,
          -0.12874867209423552,
          -0.0902471092498407,
          0.24476037775084375,
          0.17234471874808505,
          0.024814209892928922,
          0.1521744559619913,
          0.031297270245509115,
          -0.17882509812367856,
          -0.34539509725476486,
          0.14053427055058046,
          -0.10030244644717118,
          0.360287278547719,
          0.037552135545049194,
          0.17853591332636992,
          0.23049307876472921,
          -0.25008286952138725,
          0.016137021635479795,
          0.027850692941955385,
          -0.2377781142825456,
          0.15168329454730195,
          -0.2553696495217169,
          0.020764469037765954,
          0.11396058576975027,
          0.06880043087285921,
          0.479889174029897,
          -0.008511309362270921,
          0.1957370461832864
        ],
        [
          0.03751357536985703,
          -0.0737916870224403,
          0.2456375814848909,
          -0.1647188823457954,
          0.18401587893451393,
          0.10159868959052831,
          0.02895636962775151,
          -0.015656315956793156,
          0.217345293088605,
          -0.14939799652924923,
          -0.14546242861665074,
          -0.20043771201546695,
          0.21663117764788853,
          -0.21735779895206989,
          0.2786590618847156,
          0.26067111485553646,
          -0.19998505516448525,
          -0.2327597312076945,
          0.09507780603706092,
          0.13882864047387897,
          0.005506072726920929,
          -0.01546490540655032,
          -0.12835108265415526,
          -0.19767083274268904,
          0.14063286666414831,
          -0.12001831917780821,
          0.13410267158050387,
          0.0036780246611101248,
          -0.07802345596041516,
          0.032124851443418805,
          -0.3439540571940137,
          -0.14564222441906455,
          0.09885546425041483,
          -0.18504392864995572,
          -0.11744546459588867,
          -0.18225292143853944,
          -0.18158653447133583,
          0.12370765483002075,
          0.21194110819420997,
          0.08162825207688869,
          -0.00028110294283804227,
          0.3713835662838114,
          0.140050302689824,
          0.04957054807597838,
          -0.1773935924112225,
          -0.1758911795534209,
          0.15415881925757138,
          -0.13073855845333762,
          0.27914408352811254,
          0.008784955088969197,
          0.15069249371262194,
          0.22578341455237377,
          -0.06459333924432728,
          -0.024301325367119018,
          0.07189643272780637,
          0.00826943796832468,
          0.22503896678800372,
          0.24835394627793062,
          -0.05857533077492176,
          0.193682524951838,
          0.22755778018819225,
          0.3204900350204745,
          0.2563902329964973,
          0.1626157634301315,
          0.03371331910910657
        ],
        [
          -0.025088056628670228,
          0.0805272741050806,
          0.2210332963023669,
          -0.13773262530701344,
          0.24070434894940917,
          -0.2800862767740652,
          0.2607133631031664,
          0.21902964496654853,
          -0.1566946710067843,
          0.36002883660192886,
          0.047474852693297175,
          -0.15608598018321682,
          -0.2414900811251285,
          0.17529778330229415,
          -0.10561385393019969,
          -0.1141395409475187,
          -0.13477603900468257,
          -0.0843048927883079,
          0.07231437303121635,
          -0.1636983573633458,
          -0.15282201091873665,
          -0.38890264799734264,
          -0.16795800643657818,
          -0.015397491653631794,
          0.30901934686417776,
          0.06571658403960468,
          0.1122273142085611,
          0.35048582306391163,
          0.10998443218391235,
          -0.19956734832185336,
          0.3358915804142595,
          0.3515903439446067,
          -0.2655839201015806,
          -0.017759001377941872,
          0.2041354760782085,
          -0.3931475204107664,
          0.19642640856706192,
          0.06450699729217557,
          0.14465868788325978,
          0.04934106297177359,
          -0.3524818857279461,
          -0.1255915681119441,
          -0.02796327375210253,
          -0.09931783240537802,
          0.27695500586382177,
          0.4847125514360504,
          -0.20189133888912933,
          -0.09932542315747551,
          0.12820194072583166,
          -0.12501396978793003,
          0.06217610143123547,
          -0.178641676317422,
          0.1623972897846279,
          -0.17106516954141687,
          0.3400214999197053,
          -0.015761945855879582,
          0.149645770570737,
          -0.14446639258306107,
          -0.17547602839617435,
          0.34793895314045303,
          0.11275380714280477,
          -0.041584813426318534,
          0.014530672365310218,
          0.046792981829755956,
          -0.13666119366409155
        ],
        [
          0.09060993501280239,
          0.23877923993248362,
          0.34061320814941015,
          -0.31127569682158923,
          0.15380721340377243,
          -0.0047933648152625845,
          0.3351895549125786,
          -0.18365831119890502,
          0.04825105879361014,
          -0.0637520350682782,
          -0.24589577863661577,
          -0.04691510789735442,
          -0.16580312991104945,
          -0.13594982858937815,
          0.16255757149430786,
          0.011602927209832912,
          0.21865530149072618,
          -0.22248151815897654,
          0.19024678934117148,
          -0.15659902396977102,
          -0.1968073103886506,
          -0.15273049335683717,
          -0.06761099768068046,
          -0.09189777124584603,
          -0.30445072306900856,
          -0.1526551291610929,
          -0.2819791054247383,
          0.18606203077736524,
          -0.06763024964648293,
          -0.1586915095832079,
          0.03715966129943053,
          0.18131465533754296,
          -0.0802250363626239,
          -0.28674825560323436,
          -0.06608241391413777,
          -0.30269232533094187,
          0.07181705581249878,
          0.21710473154598542,
          -0.11997718209188901,
          0.060186687168947116,
          0.024028599992565014,
          -0.07374904794268589,
          0.01676559831080935,
          0.344061857071553,
          0.3067548253794317,
          -0.0911395823751728,
          0.04142795769842545,
          -0.1291312976360659,
          0.20115880993146776,
          0.21985357490472981,
          0.16722034725478288,
          0.030229280615648613,
          0.07453476514471591,
          -0.24565313266861583,
          -0.2653700142394308,
          0.2013054056887526,
          0.1982820972133096,
          -0.2529951746848707,
          0.017655604620077817,
          0.20181630930758884,
          0.1455348736036829,
          -0.3611939392723983,
          0.04241075179136977,
          -0.25275528577062134,
          -0.2918765158765132
        ],
        [
          0.17158542875908178,
          0.18516510788557808,
          0.12172092019983277,
          0.10843326978558654,
          0.24771720807032,
          0.23026091711283783,
          0.12417827863479632,
          -0.13629714714404598,
          0.01317277402406385,
          -0.1747797345780203,
          0.16528261507013994,
          0.15980714728404408,
          -0.09020814184325376,
          -0.2986413559897612,
          -0.05898123368006685,
          0.22003309556975714,
          0.2369689363032058,
          -0.14450213096632122,
          -0.053722544195754944,
          -0.045362793505391345,
          -0.081955510792731,
          0.16817488426914248,
          0.21844808725714498,
          0.057050240496894,
          0.015365023035846033,
          0.016237195587274246,
          0.4089330084884495,
          -0.2403102639390558,
          -0.33234386600061555,
          0.014019812892672349,
          -0.15685459824106301,
          0.06992575627422754,
          0.278542324372076,
          -0.34183464547674947,
          -0.1866469772320941,
          -0.10179273349780782,
          -0.21372382188279684,
          0.13206721508243535,
          0.04133198305404164,
          0.017232164237698043,
          -0.259612272746674,
          -0.132085909201024,
          0.12183039285113907,
          0.2976628270265027,
          0.1669392091053997,
          -0.04985600002212576,
          0.2355034312534214,
          0.20665936085512232,
          -0.07223841308462733,
          -0.031463501392118995,
          0.31165771953680577,
          0.2050156318781117,
          -0.11063503251300093,
          0.05741856332188261,
          0.15409842436089471,
          0.06212131235007472,
          0.1476412390110579,
          0.12270330441304442,
          0.06541514495230617,
          -0.09499439659176603,
          -0.34580070139830427,
          -0.23928258273814018,
          0.11187208903074922,
          0.017107356939777517,
          0.195854865916529
        ],
        [
          0.06591072586391308,
          0.2067919461278832,
          0.17189205290173148,
          -0.05529113854761067,
          0.3117083507968068,
          -0.0010059979162302171,
          0.06211610532583382,
          0.03750989750781305,
          -0.05888351694599755,
          0.06996578905154381,
          -0.2411243533452195,
          0.15460680890825731,
          0.20871161009886088,
          0.19456538174225882,
          -0.16346050812270438,
          -0.2597177995853867,
          0.15401037149538163,
          -0.16934920899643574,
          -0.1098486994414935,
          -0.07296278009773967,
          0.13865868690459746,
          0.16111527771311174,
          -0.09948846976848205,
          0.1980824869721083,
          -0.08769965590640647,
          -0.25771116372579106,
          0.06735275945797856,
          -0.023117258801360292,
          -0.28135172629415245,
          0.2103028752720817,
          0.2781881415301032,
          0.31820011312348223,
          0.1725891471271265,
          0.28320655869476935,
          -0.06546827114586007,
          -0.24945682930223687,
          -0.16875073820665054,
          0.25993440753829894,
          -0.0008806219997925323,
          -0.008412379686606453,
          -0.2927742171718323,
          0.058373430369215,
          -0.2662429006220271,
          -0.22947358520879946,
          0.1485808723941073,
          -0.020783995129714863,
          0.04374816494366285,
          0.15935708642448487,
          0.4169980188828628,
          -0.04528047579152491,
          -0.20869353512241148,
          0.18872808611552985,
          0.02764049762426688,
          0.14670979898290698,
          -0.1984395584747469,
          -0.24827392024653736,
          -0.23285176369112454,
          0.2420667479436311,
          -0.22096301729269385,
          0.1413233365645858,
          0.1478988483881667,
          0.2438080639061308,
          0.0027911687552009423,
          0.007573974430113481,
          -0.029672927225997046
        ],
        [
          0.1978259928580013,
          -0.056877186096249026,
          0.05993975296962717,
          0.06143211476449989,
          -0.023995168146181918,
          -0.047776440121171944,
          -0.10791374652067698,
          -0.06790320736760973,
          0.044542426663726965,
          0.18150448517346718,
          -0.19353661728426563,
          -0.04119792443551608,
          -0.12676343838985765,
          -0.05465304421630001,
          -0.16726062471645822,
          0.06575779757612517,
          0.12916912385393303,
          -0.06713885904452856,
          -0.38806988769754547,
          -0.09283686488872325,
          0.04074940698095114,
          -0.235720303408917,
          0.17009868032613035,
          0.04710798065465719,
          0.017217106164441248,
          0.1977880802076894,
          -0.3076717690237106,
          -0.13988594124529144,
          -0.015094469518887137,
          0.18408885947849615,
          0.007346409862075381,
          0.24575567940771478,
          0.03999487154029501,
          -0.18394368144924853,
          -0.12343547347354525,
          -0.21308036962468596,
          0.09851537176313574,
          0.09489021981472148,
          0.1816846920897,
          0.11217776796855058,
          -0.061648806858896996,
          -0.3032667281009263,
          0.08392585226395231,
          0.1481137610169016,
          0.048484295853447344,
          0.27403650354400805,
          -0.10650311776270432,
          -0.07681663994290087,
          0.32036066810908287,
          0.14356817352211276,
          -0.03098604544868336,
          -0.13259861879976656,
          0.22067385916255894,
          0.07250703717306439,
          0.09799787375941828,
          0.0811803015135771,
          -0.1445703634637429,
          -0.009002189336462362,
          0.004371899257006584,
          -0.05762770126151588,
          0.16131562287856008,
          -0.21140046788067096,
          0.17956962993123848,
          0.08130142426749508,
          0.22283970355763433
        ],
        [
          0.09071893186347074,
          0.07166039427531122,
          -0.19119922376906112,
          -0.20280616197998144,
          0.26820919048071284,
          0.2621633731950593,
          -0.00085586013947523,
          0.07297772446763535,
          -0.009977434198051766,
          0.12425754418547034,
          -0.1343329278337994,
          -0.21265338467755474,
          0.23140093141893558,
          0.14985580990149688,
          0.07820990034006932,
          -0.06599426529695965,
          -0.09825771049016402,
          0.13491584982937563,
          0.26152942387560857,
          -0.01878754355946978,
          -0.26745999562010137,
          0.09241577093449958,
          -0.23186625857091658,
          0.12131377603970464,
          -0.1515408830837055,
          -0.3879583996421339,
          0.4505807744482576,
          0.11956174694332752,
          -0.21510031373671204,
          0.31525659160649466,
          -0.24393510434452265,
          0.22748931299326086,
          0.2215836582087648,
          0.32075888292623456,
          0.13076944071174088,
          -0.41236867780944303,
          -0.2603489645630116,
          0.04503332897797849,
          -0.0779006577229604,
          0.1762071310098032,
          -0.2677941033626405,
          0.1101357548028073,
          0.1271723260963217,
          0.00020183300809852134,
          -0.13006654860001915,
          0.16146544925896622,
          0.1369574166714771,
          -0.24654712903540393,
          0.15428620271411517,
          0.07358596161562347,
          0.21898846585471368,
          0.21642294878694293,
          -0.004740766790149585,
          0.20574679946342372,
          -0.10376841678051173,
          -0.28062360078445403,
          -0.29368254738868926,
          0.08545875857164473,
          0.18370818456674537,
          0.24722075778644806,
          0.33783041092492966,
          0.23384889637891199,
          -0.032790904028087625,
          -0.04298403931084175,
          0.0018516985664638421
        ],
        [
          -0.06666989832265356,
          0.006774308655017086,
          -0.2429728473093113,
          -0.026753328978406713,
          -0.2315694473264379,
          -0.27416984303527225,
          -0.08655620945579556,
          0.11727350050880676,
          0.14268407493931062,
          0.04445196489489697,
          0.3511335391494056,
          -0.08895381783620006,
          -0.1976926677035595,
          0.11378345424400459,
          -0.003121665002725393,
          0.09516956114567525,
          -0.16222423486481566,
          -0.16241847456987044,
          -0.14695342761303828,
          -0.03779191709142269,
          0.07642497755941621,
          -0.05860620859492549,
          0.006256835520103505,
          0.34871352085074897,
          0.04235252200095369,
          -0.22123389840229093,
          0.07880874671339702,
          -0.09719135902167184,
          0.24637692548502244,
          -0.20972724907675394,
          0.1617196820329811,
          -0.008347560243803056,
          -0.09316818183841942,
          -0.04519020107060321,
          -0.008820521896840282,
          0.32760452557485625,
          0.15267674328929337,
          0.08231949103118108,
          -0.1283806004044174,
          -0.07228072371300938,
          -0.09481597778437734,
          -0.105673111383178,
          -0.023752874012575725,
          0.32616005918503654,
          0.3726536452094844,
          0.13160320088589425,
          0.06987347128559836,
          0.047341179999712185,
          -0.13525479223746031,
          -0.18475829921607126,
          0.2721781437284852,
          -0.27748063506802434,
          -0.2244174947904509,
          -0.00027319794632235276,
          0.23481798670022705,
          0.03520390657694861,
          0.27603688803497783,
          -0.1657473666107953,
          0.027457794380990705,
          -0.17130361104807323,
          -0.23099664179701504,
          0.04161171176089468,
          -0.41997840862376484,
          0.1016310498068835,
          -0.172122033473115
        ],
        [
          -0.005286404805593767,
          -0.2539355799389338,
          0.1986338174161573,
          0.18940179222234765,
          -0.016370151637339285,
          -0.20445177041300872,
          -0.04729819146482544,
          -0.12691971798554164,
          -0.13066320825649985,
          -0.22926882049677957,
          0.21692153185671925,
          0.18501890702823165,
          0.24153028187264372,
          0.02986101284863675,
          -0.06121147695159611,
          -0.23291944803151912,
          0.0018514477391021749,
          0.022777288689850024,
          0.19625209383717557,
          -0.33626067208474175,
          -0.1154955739964205,
          -0.06895794669163284,
          -0.03181178858119061,
          -0.07990605471626851,
          0.1139035010098486,
          0.06579768117853478,
          0.21682095127134876,
          -0.24449664208487418,
          0.15197852282154162,
          0.15761474857992483,
          0.1367753246597107,
          -0.19985113794163648,
          -0.06909753933569027,
          -0.22086586052090307,
          0.25585072447739,
          0.4856390718428511,
          0.3525598716098376,
          -0.08262255050916005,
          -0.03015760552128506,
          0.13427913759078255,
          0.10038868060406778,
          0.046436343093150416,
          0.03821056104953127,
          0.0537880814401414,
          -0.06479423848914635,
          -0.39741130957159826,
          -0.09381142718296867,
          0.31671996426744276,
          -0.19131065954222548,
          -0.34244145064254033,
          0.20147174864156908,
          -0.06126652543481781,
          -0.012799938340921836,
          -0.18214398058757952,
          0.20857731851185887,
          -0.225388348122031,
          -0.018810132791946616,
          0.13641627226998818,
          0.08291581589721186,
          -0.08309052636784872,
          -0.301697340838175,
          0.06411599101554527,
          0.04252706157222028,
          0.20489332470564786,
          -0.2692685018447742
        ],
        [
          -0.19472345498004012,
          0.0333005532578545,
          0.07922433446471897,
          -0.004704731031901491,
          -0.2181201346999362,
          -0.09103743561331408,
          -0.09108943153139758,
          -0.17007356250390265,
          -0.13004703979683496,
          -0.2953700449837808,
          0.02280327023454723,
          -0.015426437424324018,
          -0.10861631331672783,
          -0.039418203849159325,
          0.05372898891561234,
          -0.10601516324101334,
          0.24219890238510958,
          -0.06471752730245584,
          -0.3117276652894352,
          -0.20944735331615477,
          0.057510539955127234,
          0.3898206716342208,
          -0.18230313882806182,
          -0.09428088966238303,
          0.1753333726451105,
          -0.02964042289065109,
          -0.004506281958112722,
          0.17323691379376988,
          0.06303370781741152,
          0.07220994890526526,
          -0.012344748182848489,
          0.21262726872145762,
          -0.27931032440410897,
          -0.2188588471193924,
          0.10424901733719859,
          0.20692230711611098,
          -0.18219241954758048,
          -0.2520983938105016,
          0.3031634351779653,
          0.3413592226904901,
          0.18537448136220092,
          0.17544950846001472,
          0.055406846416750255,
          0.1571997195064653,
          -0.06171151692763288,
          -0.4126921137705975,
          -0.2325696960578471,
          -0.2547570511305748,
          -0.015634978167029214,
          0.10318171910409671,
          -0.07767472424583283,
          -0.1233033843404356,
          -0.006271606441501499,
          0.08159793626112258,
          -0.10390742228427345,
          0.1396441803127645,
          0.015183266949760027,
          0.18763573233186373,
          -0.1646047505479045,
          -0.016980169922346144,
          -0.23598190322470572,
          0.3800866848588601,
          0.27231328146882394,
          0.142634323049617,
          0.06625230596271094
        ],
        [
          0.0922986633097386,
          0.10502173466928008,
          0.02839593797894143,
          0.326220404072738,
          -0.18384874424858816,
          -0.19999583490783282,
          -0.03444934028099763,
          -0.1348383155497478,
          0.06781251516339673,
          0.2081151621404818,
          -0.06383349600501678,
          -0.011426745550961868,
          0.03195523155424305,
          0.1405034407223255,
          -0.16482567904187548,
          0.038543631091787,
          -0.3458076693535446,
          0.31781136936276716,
          0.33872653997850416,
          0.17932406762853992,
          -0.03829413220466367,
          0.05794860043232503,
          0.047096451261301624,
          0.07010007242554438,
          0.32070920737947256,
          0.2460958594209675,
          0.04432610114809021,
          0.1410378605546754,
          0.238146429476828,
          0.210552423404697,
          0.09927848346107382,
          -0.1667464612040958,
          -0.06144613707126795,
          0.34771481869181775,
          0.34848327101971616,
          -0.05533446429565371,
          -0.10246304363527847,
          -0.06426991297538868,
          0.16984771621641048,
          -0.06396125853453619,
          -0.05846798130669398,
          0.1857202889626778,
          -0.2226362352143552,
          -0.35949613798866575,
          -0.06174420816838586,
          0.20456894585404525,
          0.24861264927172538,
          -0.12438335399729328,
          -0.18871008917266344,
          0.007121862572540599,
          0.13797182092026836,
          -0.080598137420655,
          -0.12014967922360513,
          -0.017863217821509715,
          0.31072342458344776,
          -0.1261585167018195,
          -0.2026969764469276,
          -0.2237443980526688,
          -0.2757163893756053,
          0.01804516959250741,
          -0.030858713254052088,
          -0.03238704325708112,
          -0.3834148544046978,
          0.17718943514500343,
          -0.13908219876548256
        ],
        [
          -0.1606515863513529,
          0.22484175678105195,
          0.21764976988634582,
          -0.015853526361105794,
          0.2185496490440072,
          0.07393579746175458,
          0.15644220644888324,
          -0.00794232670278211,
          -0.12567173971121412,
          0.1834973508870593,
          -0.16491158455987814,
          0.25183970620838814,
          0.09906241629361784,
          -0.18194867040897875,
          0.06966576510200988,
          -0.08201165388490433,
          -0.060002181595752345,
          -0.21474190791953235,
          0.00610997487137079,
          -0.014967176860331412,
          -0.12184309181660119,
          0.111649620238755,
          -0.12486366256917589,
          0.30121070274106027,
          -0.022630251797267808,
          -0.11336703748256785,
          0.3093633289499278,
          0.21118980353662842,
          -0.035599416099118715,
          0.05041567159890281,
          0.22122785432638248,
          0.3207871280694177,
          -0.12406086476226282,
          -0.30811792906333224,
          0.09093952323587288,
          -0.02843154532411902,
          -0.18544878243080978,
          -0.11426339098103822,
          0.1819352732929781,
          0.24860482258244204,
          -0.2403871120763316,
          0.08761991978481372,
          -0.20751438671714295,
          -0.19644207223362012,
          0.24491059185282535,
          0.147307745659634,
          0.16916714814100134,
          0.1000905348742005,
          -0.05167076882325967,
          -0.13723607473029786,
          0.12181508878308273,
          0.17278089998500903,
          0.26037943937386415,
          -0.3326545065377754,
          -0.0991250550530869,
          -0.07313707574973358,
          -0.29856789649813936,
          -0.11888861806586425,
          0.009399985135502387,
          -0.21395711467518413,
          -0.06976360546210679,
          -0.2820740986825782,
          0.278637853504178,
          -0.20178400165343646,
          0.20523010457929264
        ],
        [
          0.224161212907207,
          0.22409426814140826,
          0.10476860741504442,
          0.14063382323218038,
          -0.06951634408912251,
          -0.09862706643777105,
          0.05573463769005302,
          -0.24456288784826316,
          -0.16458775575508408,
          0.05593082501467658,
          -0.07839623207072231,
          -0.23788273937273194,
          0.13109750864498665,
          -0.287308530210627,
          0.15317511487188692,
          0.002923458232871279,
          -0.10877058578380101,
          0.024538342693731452,
          -0.007894283554709721,
          0.22733268403522688,
          0.1619821493913554,
          -0.1833435870721298,
          -0.16928397713385027,
          0.31069117044795674,
          -0.24533614542915913,
          -0.33438060219294663,
          0.021477990852037304,
          0.23849462076097494,
          -0.07540199050787447,
          0.1502550144789414,
          -0.06317852205823318,
          0.19829361785634667,
          0.1571564315671113,
          0.014749635651884335,
          0.12120268425520384,
          0.04068342270530424,
          0.22362423840731319,
          0.1162401151779352,
          0.09111880241284302,
          0.11830272243541212,
          0.12486557401781057,
          0.14928219665600267,
          -0.10966236662839131,
          0.18130400105298408,
          0.32102698036110827,
          0.20684396261071689,
          -0.006441509529793143,
          0.03494634743104997,
          0.24729730192369576,
          0.10520879464502811,
          -0.23519521346719777,
          -0.11587712807019201,
          0.178857002714649,
          -0.10301053154097976,
          -0.09625115482236508,
          0.19296047197397975,
          0.10030250122749183,
          -0.20116036146243263,
          -0.03528173918553094,
          0.09116450086161372,
          0.11450773741721984,
          -0.014130771964069888,
          0.19088866404385046,
          -0.09880228748743525,
          -0.30833651120661076
        ],
        [
          -0.11790949168662375,
          0.2083288845630912,
          0.2434740642306644,
          -0.240809098471309,
          -0.04955202583438525,
          0.0918651580834275,
          -0.19673188921279325,
          0.24607377658413848,
          0.22163734835905166,
          -0.22855583904806637,
          -0.14594722777919744,
          -0.22869736867444176,
          0.33509274004846124,
          0.2302415668944904,
          0.07913296476558562,
          -0.05788815427378666,
          -0.07481001661459338,
          -0.2099579001618981,
          0.1713966128519178,
          0.16697433433308945,
          -0.2090667969780897,
          0.3152254367365816,
          0.09206629833494116,
          -0.14631064935185692,
          0.07678379439587517,
          -0.37326757007892303,
          0.46734793259946067,
          -0.15829131926781873,
          0.2040337575465642,
          0.10857852334210394,
          -0.2482093168047004,
          0.22693394535797626,
          0.20436638537121826,
          0.08466671188998366,
          -0.1649001819721958,
          0.2834808901359631,
          -0.1519792512162807,
          -0.03453922067403606,
          0.15361832557932054,
          0.2281235695813773,
          0.048460138391568805,
          0.1854148135328873,
          0.1383936562930174,
          0.006200905210186146,
          -0.18530047901128113,
          -0.43938807721307466,
          -0.02388930414829416,
          -0.27098272411967433,
          -0.06343854374962589,
          -0.21142848092172817,
          -0.09313635630279654,
          0.07923368080261493,
          0.2830036550770536,
          -0.05132367604179273,
          -0.12284979381903642,
          0.1842203821970763,
          -0.21601323005974163,
          -0.07200958121958066,
          0.17268472559472584,
          -0.1959289924312148,
          0.15903431897067413,
          0.3111683186220531,
          -0.06615520656855056,
          -0.1557149849466828,
          -0.18452343803642426
        ],
        [
          -0.15978916228596873,
          -0.01774921611604286,
          0.16306960218637626,
          -0.3300620778002126,
          -0.01601501424784841,
          0.02706199585846646,
          -0.15545040821200817,
          0.12993840727137745,
          0.27112682367770546,
          -0.30009576098312807,
          -0.3193963795800033,
          0.16673048837758528,
          -0.11216183711297759,
          -0.1587092542985486,
          0.18417432507902257,
          0.13234161436116917,
          -0.21679227750715108,
          -0.24870830962602863,
          0.23913432758801018,
          0.0820320229823667,
          0.03649124973700243,
          0.001340802991821985,
          -0.11211924125786353,
          0.38601812808898206,
          0.16154469708894714,
          -0.25782355443841626,
          0.48550741908651873,
          0.00431564564629813,
          0.07278406460590588,
          -0.04635352572519643,
          0.146106258746903,
          0.10322186463581567,
          -0.18353878961515116,
          -0.07403784575354214,
          -0.3571925495912038,
          -0.11881888333794353,
          -0.06163011248485988,
          0.09583349195115694,
          0.38950513516988927,
          0.2921765229514351,
          -0.0986692874242009,
          0.31265342647214217,
          -0.45428561634101194,
          0.2150710082870594,
          0.08668226576918642,
          0.10186048552908207,
          0.04968959875321255,
          0.35525611709676835,
          0.2300351430988649,
          -0.40051112462224303,
          -0.07360146998678692,
          0.15906664377112947,
          0.10514614042865629,
          0.0372444027791426,
          0.19868943885812174,
          -0.05821394197232622,
          -0.17440901533167152,
          0.07123458193872945,
          -0.10645280388966255,
          0.37959183470557506,
          0.12254715255131675,
          0.10982773083647837,
          -0.05308738561308013,
          -0.16193603784796073,
          0.2032956273315483
        ]
      ]
    },
    {
      "activation": 1,
      "biases": [
        0.4065246473620304,
        0.29303862462560115,
        -0.0066719355474133156,
        0.05614923491057926,
        0.275910728767594,
        -0.03348834057212465,
        -0.08011505293988053,
        0.05434092311937451,
        0.3045367154686471,
        0.1379024131244987,
        -0.06778232061569316,
        -0.10149207222865306,
        0.05045274925165049,
        0.016167587987349432,
        0.1582480984817631,
        0.18031152827887034,
        0.2620812628262509,
        -0.3725328234093344,
        0.013683429638994745,
        0.04482864015670836,
        0.004895278357742793,
        0.32913074537608916,
        -0.29365474274247666,
        -0.314079389372641,
        -0.3169194241493918,
        -0.3516721914085243,
        0.05370976046242239,
        0.04394990201491812,
        -0.07057877787425385,
        0.09527514710937443,
        -0.32751113751133265,
        -0.12989500339028948,
        -0.32804046928499675,
        -0.4353538598946116,
        -0.3498958603238368,
        0.04001931775416146,
        -0.07001556309267805,
        0.1643244297834971,
        0.06826805060193737,
        -0.14261515126600255,
        -0.10572864169220383,
        0.22844815152439726,
        -0.11642170497532958,
        -0.05280314106525666,
        0.05404592758239928,
        0.016558881293666727,
        -0.3938453994046361,
        -0.11822427089110991,
        0.007731366030390918,
        -0.06998085897974288,
        -0.036208198392375414,
        0.038955457187658006,
        0.12147189471704904,
        0.1229955099231917,
        0.11847406958072773,
        -0.07487808135964408,
        0.034660943342185495,
