{
  "layers": [
    {
      "activation": 3,
      "biases": [
        0.39267053124000906,
        -0.2367153508386301,
        0.11797374096190577,
        0.4097065642812032,
        0.44814780624915157,
        0.22428092345944514,
        0.22259347133433793,
        -0.3092648533082401,
        0.19864525808507677,
        -0.521795239716082,
        0.2982631977452456,
        0.21963983278796062,
        0.12133900302315523,
        0.11202088866523176,
        0.038488771903483016,
        0.16392242286676453,
        -0.24611974274123735,
        0.05336027101149526,
        -0.04757655385234281,
        0.49847848199889266,
        -0.13761532165098805,
        -0.09761142651751267,
        -0.09557515745602765
      ],
      "cols": 23,
      "rows": 30,
      "weights": [
        [
          -0.4769284296543544,
          -0.2848768043439518,
          0.12971379057972462,
          0.03128098261314294,
          0.0982774627989843,
          0.49020960853213524,
          -0.4273275546868827,
          0.1174983953167306,
          0.40738840174668384,
          -0.3721203093855763,
          0.007659455513011641,
          -0.22168483303965575,
          -0.29033339994357144,
          -0.043510498624861,
          -0.19676718240387528,
          0.1134573042056361,
          -0.17336139110632834,
          0.13372156306547597,
          -0.050199679192139246,
          -0.13550288442372488,
          0.23083102521720147,
          -0.04368388208511237,
          -0.14149852476054744
        ],
        [
          -0.378313146460983,
          0.3666279500137725,
          -0.4662584349666669,
          0.15968570705297105,
          -0.022849795672351216,
          -0.384245268229712,
          -0.0622758268104436,
          -0.12654670489083425,
          -0.37494528064038224,
          0.1981781541367897,
          0.3387521016484446,
          -0.1982805411252203,
          0.19568972938113985,
          0.07981491774684706,
          -0.08314287644158065,
          0.15585344910084636,
          -0.2730713723520521,
          -0.07449952760845993,
          0.29850057817287845,
          0.3186857177888885,
          0.10440861090199319,
          -0.37047009413766996,
          0.3977380361707174
        ],
        [
          -0.36995213517007464,
          0.20898325372976573,
          0.37825502084949175,
          0.1117113271061451,
          0.30205483085044627,
          0.2868968486860809,
          0.010654183306157413,
          0.263413623437268,
          -0.19968139942712368,
          -0.00035845928128171455,
          0.17909468951549973,
          0.11700952923868911,
          -0.15041084916240163,
          0.0036952492883333917,
          0.16311032549927743,
          -0.30651814899024765,
          0.08569102191131811,
          -0.10300565001771249,
          -0.18796874305721484,
          0.021221069283590053,
          -0.1299507843466613,
          -0.18588155591673405,
          -0.2717551832373681
        ],
        [
          -0.023148528562320206,
          0.17239074495860227,
          -0.1313229375433468,
          0.3627629482406247,
          -0.0185970378932306,
          0.2886505708950816,
          0.008182643075351763,
          -0.22058877394139453,
          -0.3480720982521702,
          0.3549321867276762,
          0.5047064646852577,
          -0.15444739981424374,
          0.07592137601562432,
          0.46469072455389865,
          -0.3181488815682886,
          0.1714518317091872,
          -0.06635288374012771,
          -0.05944145226522296,
          0.3308682777639126,
          -0.07205480581348768,
          -0.3474664791040335,
          0.05886965244904823,
          0.132284243396079
        ],
        [
          0.06475591152328117,
          -0.022783142716294752,
          -0.24189229417266842,
          -0.3475206810653299,
          -0.2581844264588002,
          -0.26910226900913425,
          0.35767316450849634,
          0.3401350928308967,
          0.44946429176964403,
          -0.336678109815584,
          0.1742623207560314,
          -0.051207998711747665,
          -0.03055405507450577,
          -0.11941099700484868,
          0.03460385513804591,
          -0.15048221534322015,
          0.43709625911431327,
          -0.06301207143918403,
          0.29902130096928353,
          0.12068857205451206,
          -0.42110600620266253,
          0.17945972197879767,
          -0.018916477081981853
        ],
        [
          0.03699909429272696,
          -0.1163910151497734,
          -0.06875581850035702,
          -0.16757458097696945,
          -0.19437132122236808,
          0.1210883360712397,
          0.24296743276190175,
          0.021651235244564977,
          -0.2539971878595497,
          0.09317120820662532,
          0.32879991588311336,
          -0.17403324280794855,
          0.4299691845343623,
          0.4114520205960347,
          0.01891329429924859,
          -0.3519691384742767,
          -0.3290035503949614,
          -0.04791986275613528,
          0.04452382990797538,
          0.027855534290466503,
          0.09096658663713747,
          -0.248307551447589,
          -0.3405885568825556
        ],
        [
          -0.2794687171686459,
          -0.1555511061822316,
          0.4151560598564639,
          -0.04130297944158298,
          -0.05278714758721419,
          -0.050625223963946836,
          -0.24745764131492623,
          0.23068540352180686,
          -0.14396164006335355,
          -0.10890082846081117,
          0.3378977223604628,
          -0.30087177601622345,
          0.1114906407878944,
          0.0049815509964529605,
          -0.3048163499067868,
          -0.10974283361194202,
          -0.29116749050117013,
          0.2676393622757434,
          0.10122520290840012,
          -0.32628503722150215,
          0.08923635487761822,
          -0.020804299698415435,
          0.3482553313995412
        ],
        [
          -0.04920815531232229,
          -0.03779982384296725,
          -0.14856169582384035,
          -0.22135787474895827,
          0.037494116616090326,
          -0.39847261679664725,
          0.0988281696483077,
          -0.06242437849318728,
          -0.2386059674768077,
          0.37447861718546555,
          0.09148948732766556,
          -0.3799888433973319,
          -0.2061451261110709,
          -0.2932520686535823,
          -0.16468740173392102,
          0.4234399860231959,
          0.0920252391850596,
          -0.41071958256531305,
          -0.03501210307254171,
          -0.08167216982070846,
          -0.13517030136953728,
          -0.18103706598752242,
          0.1935340102861931
        ],
        [
          -0.49983563774855966,
          -0.09605965303231546,
          0.2879980175604358,
          0.382350549299021,
          -0.27156755873224,
          -0.07193579480869075,
          -0.30371609060549176,
          0.25581853990531295,
          0.07894766900583763,
          -0.22279881944080485,
          0.00737583642955457,
          0.16880476576629144,
          -0.3045671608316269,
          -0.15576165649298473,
          -0.29603525586796864,
          -0.3100812561779099,
          0.3254735537907103,
          -0.2857307803416239,
          0.21846984212621412,
          0.30957655206605106,
          0.34261394192078803,
          -0.28126660744146964,
          -0.10625639843488516
        ],
        [
          -0.34320999974194666,
          -0.34956156783389913,
          -0.20045529662041664,
          -0.009237284941142156,
          0.286353073710349,
          0.280545899865523,
          -0.17787030200509094,
          -0.22457484908941863,
          -0.29004999805808845,
          0.13433810125487253,
          0.18234517119148988,
          -0.21315765977446652,
          0.20788874375487484,
          -0.1864145087553827,
          0.10670182493215183,
          0.05968291697944926,
          -0.2769523668939201,
          0.36999398522567983,
          -0.4320344561495618,
          -0.09425436239249593,
          0.25311960973567826,
          0.17801628200954558,
          -0.2129220903776495
        ],
        [
          -0.03666034446659598,
          0.3443873666189998,
          0.23745637167429465,
          -0.09425088154945753,
          0.2856848281086725,
          0.31521628642636224,
          -0.17575369652822598,
          -0.23945437976633754,
          0.251728277481664,
          0.29313584429768846,
          0.009073403810557292,
          0.057009849569273165,
          0.161396834529085,
          0.2545763804501582,
          -0.2179038907769292,
          0.293378859121713,
          0.031720381866586544,
          0.22750577196015237,
          -0.13419271440885527,
          -0.26653962020486405,
          0.09870030931626071,
          0.18718825031857944,
          0.1205488199262754
        ],
        [
          -0.320611196666652,
          -0.06698046874868452,
          -0.34023261586094294,
          0.0704930211211079,
          -0.42087011440071126,
          0.10178132237701851,
          -0.32470061735796224,
          0.3850461677428445,
          0.0023587006008637976,
          0.217049807122599,
          -0.2781265361844799,
          -0.21112335106801683,
          -0.16913497573430508,
          -0.20674492381893292,
          0.17501939481784243,
          0.09223123154630374,
          0.27432114102143895,
          -0.22672737272943372,
          0.11446278063472735,
          -0.3828253476952945,
          -0.06269769326526561,
          -0.2869892586507475,
          -0.011596250786730556
        ],
        [
          -0.4113786704809862,
          -0.15639947893493464,
          0.14039808841224444,
          0.42188776256882027,
          -0.20953799043809343,
          0.4375487706215018,
          0.012685501284798706,
          0.03025096602818803,
          0.4723890272647333,
          -0.42323789878325974,
          -0.18319255558650419,
          0.15899395778997324,
          -0.09310106260934864,
          0.21347470720270798,
          -0.2145223791008411,
          -0.19330417246546208,
          -0.2970463725853559,
          0.1846608680837508,
          -0.041357627712555745,
          -0.21223923662016075,
          -0.2995156853910731,
          -0.05407997071643874,
          0.08559823833276294
        ],
        [
          0.1442901279640714,
          0.4527494251423654,
          -0.3662886620781033,
          -0.2939678469103952,
          0.317856762585881,
          -0.27614882915710803,
          -0.28872191030699157,
          0.057216071159707005,
          -0.03632241289066237,
          0.4446576657124438,
          0.10661336556797368,
          -0.0592851221629922,
          -0.22505175319674744,
          0.03024604718086621,
          0.28801606260667995,
          -0.05388532290224557,
          -0.16441711624734018,
          0.09147501959905151,
          0.5773882327974599,
          0.22311298177592082,
          0.25595025148490935,
          -0.2634473325155408,
          -0.023879788545452692
        ],
        [
          -0.0928155114407048,
          0.3176803115787703,
          0.1654431910881146,
          0.01517054045430059,
          0.24381721410983417,
          0.20361294049701412,
          -0.1917794583893359,
          0.21877059663979956,
          0.1250186751000566,
          0.10121266178551676,
          0.23396528701334235,
          -0.17019897457226238,
          -0.24437201288127322,
          0.24276471675508227,
          -0.22146577939091464,
          0.05146783583572318,
          0.07380577502556797,
          0.17893647020532324,
          0.042155122848815944,
          0.05020649666088609,
          -0.28823302344510754,
          0.0024725888783960516,
          0.14939736345301396
        ],
        [
          0.05439142502281008,
          0.10906182723111768,
          0.2152482479142939,
          0.045582128381351804,
          -0.15863694729774772,
          0.37569238438730085,
          0.16648042071107644,
          -0.1401853882246466,
          -0.09397571069884793,
          0.0421785588628496,
          -0.19917823109711788,
          -0.29569428692705996,
          -0.2684964935060345,
          0.23610871644808948,
          -0.1653205763996811,
          -0.142837637696824,
          0.09778852123275608,
          0.01554696815050468,
          0.05361658586460292,
          0.12498833796847673,
          -0.32738628643630635,
          -0.15648068691415376,
          0.31839728660289357
        ],
        [
          -0.15557086457610195,
          0.4505108381988562,
          0.056565447680705434,
          0.18745694251411316,
          0.3196058513554642,
          -0.24385742707305932,
          -0.19670884801477323,
          0.3187100991661364,
          0.147265862687585,
          -0.29471213006471636,
          -0.06478104707473749,
          0.03425206646447933,
          0.20316542988744254,
          0.07399216067827062,
          0.07588714672969918,
          -0.08656688317336268,
          -0.12362362249231099,
          -0.16562732987523104,
          0.46401769480236266,
          -0.2408122738893652,
          -0.22665928019874096,
          -0.17567574428297883,
          0.25222436396469344
        ],
        [
          0.40124460985725746,
          0.5211295770479226,
          -0.4197636504316986,
          -0.11394103754707509,
          0.5097311097579753,
          0.0026909566100793585,
          0.12539453606294806,
          0.21160221305675697,
          0.09832009166525257,
          -0.20221079709516968,
          0.009971660262716873,
          0.21738900895876742,
          0.3129350771193155,
          0.6568896748029573,
          -0.6913736548396592,
          -0.24206740447192737,
          0.1097606126906117,
          0.15037701610392984,
          0.8491942112873522,
          0.3582799948692811,
          -0.031963942412853254,
          0.12359769248297792,
          0.14795477870296794
        ],
        [
          -0.3957020624754179,
          -0.383359458309094,
          0.1182071499356799,
          0.2230884037116131,
          -0.01663259039335411,
          0.5301569261409484,
          0.07853021150360244,
          0.11905057423825685,
          -0.07591307890670065,
          0.10430756857508294,
          -0.02876504270591928,
          -0.07922298783708437,
          -0.06131125457142739,
          0.2207107275389837,
          -0.28820410199320207,
          0.13143812905341407,
          0.20334766635065785,
          0.2699714355467264,
          -0.273785358182239,
          -0.23628887572366805,
          -0.31098453003262766,
          -0.019186843111653362,
          0.3452048536275528
        ],
        [
          -0.5214559097024255,
          0.14399864202181162,
          0.05708940566638559,
          0.03992179114734433,
          -0.11368688686867626,
          -0.28761975974082177,
          -0.33564495399741234,
          -0.18166007680827118,
          -0.15101202352178345,
          0.39531127212324696,
          0.4499075348024831,
          -0.24554426879669325,
          -0.1672853195983163,
          -0.27377876852995414,
          -0.23356081043840055,
          0.1817538703107761,
          0.07833501381461609,
          -0.10039194517146152,
          0.1889550277091449,
          0.2169613416299669,
          0.3927389742975999,
          -0.25473361265828276,
          0.12633410847282853
        ],
        [
          0.015751588755594292,
          -0.263775185896152,
          -0.12587489623765985,
          0.026534474841656535,
          0.09803065737947732,
          0.1418315266384928,
          -0.035992168795999716,
          0.2903233650343486,
          -0.31408989888938305,
          -0.1955433683087717,
          -0.13958835378240658,
          -0.08303219013693795,
          0.21148397166851032,
          -0.1287671878857699,
          -0.2089132176326855,
          0.08580391578612075,
          0.2225242050466111,
          0.12499624313601437,
          -0.3415568832336938,
          -0.007461626899369201,
          -0.17488571179426712,
          0.11735998530403562,
          0.25281652325131
        ],
        [
          0.3433536380686613,
          0.11693146078455344,
          0.10350352951357472,
          0.20882358600476303,
          -0.20888844909577883,
          -0.0029724322842791698,
          -0.23231279649723122,
          -0.2782126109944581,
          0.38544853707049953,
          -0.17535539828364913,
          0.17982749707652762,
          0.09831191908675388,
          0.28308145951153685,
          0.3787908163596519,
          -0.0850958727360411,
          -0.26370983169891776,
          0.23798786792131163,
          -0.16097462024813347,
          -0.17038513966280192,
          0.1188202441539392,
          -0.29879716781459154,
          0.03623185264954004,
          0.2739782754606908
        ],
        [
          0.16358180600020078,
          0.4480175623387669,
          -0.3380370208358435,
          -0.055732497403226985,
          0.12293885973308834,
          0.08822671246980242,
          0.2878071292190251,
          0.03262937705509898,
          0.2452413413838925,
          0.16876086145035096,
          -0.26758940009902554,
          -0.09147960940395108,
          0.015289491412910052,
          -0.10584997176711862,
          0.19730337093776396,
          -0.04246326688023168,
          0.05507263591244874,
          -0.03089035814355462,
          0.46578959981075707,
          -0.0951494681343671,
          -0.03437798035386758,
          -0.31109130308195526,
          0.29368905161299924
        ],
        [
          0.5701385930303094,
          -0.035755562422286134,
          0.148706095811841,
          -0.05481106673492592,
          -0.10195030295938777,
          0.10760395637900895,
          0.23501871757779078,
          0.3552587324525527,
          0.23095446182563065,
          -0.29714726974164996,
          0.244256567284044,
          -0.18748100326113912,
          0.4042097853667763,
          0.04632168028910964,
          -0.6601178057216516,
          -0.11499202895559663,
          -0.32166204861068276,
          0.2264115862511298,
          0.10973381592760817,
          0.2632622480342668,
          0.03179366145277968,
          -0.1798022949231671,
          -0.05784226227244843
        ],
        [
          -0.3518794158648321,
          -0.02654647664302436,
          0.042358263887301933,
          -0.10101890162589153,
          -0.009701743775282006,
          0.5863428656029246,
          -0.19228090815823984,
          -0.33528826691851354,
          0.46440413821577947,
          -0.38824682305830827,
          -0.23789540342553142,
          0.10034832579774973,
          0.03861033729927627,
          -0.2780290124867978,
          0.02064536407351948,
          -0.20075535677782141,
          -0.08238382523894361,
          0.3400527145458378,
          -0.004651993180691414,
          0.25986954046820065,
          -0.21251609558475362,
          -0.1756001262873016,
          -0.11020312613407406
        ],
        [
          -0.12189932276812422,
          0.3646604283216157,
          -0.14520845149655465,
          -0.2641989142741446,
          0.0887775285598825,
          -0.31492540016808973,
          -0.16578042302457802,
          0.41123654572982676,
          -0.27291184689211295,
          0.49566651701631675,
          0.08480874764221084,
          -0.2520395730005122,
          -0.17667717842721103,
          0.06078706921831435,
          0.07146873183952301,
          0.2578001437267803,
          0.022138364295948103,
          -0.3140576605418999,
          0.34691927045035736,
          0.15602370634117593,
          0.1174705831380111,
          -0.059380072997265845,
          0.3608361218936997
        ],
        [
          -0.0561666803707687,
          0.02105032276472858,
          -0.03412427949552178,
          0.37135792621926705,
          0.049694889235141204,
          0.09887238020057054,
          -0.3964681302568743,
          -0.15783755362763993,
          0.10986015568075487,
          0.24417442372514178,
          0.11545641809115421,
          -0.31561496945909384,
          -0.1514971374104562,
          0.3005457340740228,
          -0.07816971262258143,
          0.01654753073733428,
          -0.22332266065200504,
          0.05796923415518172,
          -0.2384925118214606,
          0.16878778212235127,
          -0.2878429387661191,
          -0.27417581578895944,
          -0.2836711617230845
        ],
        [
          0.3941807652386306,
          0.3071892682948793,
          -0.11002182645440052,
          0.000450900656232289,
          0.33239227429741075,
          0.4269971649423748,
          0.36551201163325,
          -0.33887819861050483,
          0.45435062538432014,
          -0.3894114810870293,
          -0.2694059588596029,
          -0.29363357982243926,
          0.30935130481878037,
          0.22617350651321644,
          0.13193606233517619,
          0.0061123768424701155,
          0.01918045597738636,
          -0.19256852501081945,
          0.4048751133003022,
          0.22348833134914997,
          -0.372625323074621,
          0.2071726542709407,
          0.26026263905180763
        ],
        [
          0.06833269903309412,
          0.2776569693397817,
          -0.005966263418528698,
          -0.1134566355591791,
          0.12041151159617894,
          -0.44017771253724525,
          -0.12568027307335075,
          0.03829991638973194,
          -0.2692368183704174,
          -0.08366886877344062,
          0.014240452253591801,
          -0.1701294037323725,
          -0.08764906479628366,
          0.08544677396727549,
          0.03838586481962946,
          -0.09230690516804532,
          -0.09878500744985959,
          -0.3127927697253471,
          0.1390688204093235,
          -0.4147420563238025,
          0.16530423755398496,
          0.18658424823194958,
          -0.05565055691172111
        ],
        [
          0.5311762150802556,
          -0.05358685450290065,
          -0.24923063230450426,
          0.21871026333582982,
          -0.24777209773402736,
          0.2345435511081735,
          0.5072761127790325,
          -0.02798820247051688,
          -0.1785616538169669,
          -0.13873857767083497,
          -0.18040882958047905,
          -0.15439383673474696,
          0.5159921884353238,
          0.3607583733975706,
          -0.12542303213269199,
          -0.15451406613009042,
          0.1989331765163975,
          0.4047820314116929,
          0.13452431564925768,
          0.3018240938235894,
          -0.030940252555188393,
          0.019099019591134334,
          -0.5095067981503766
        ]
      ]
    },
    {
      "activation": 3,
      "biases": [
        -0.5892114857402925,
        0.2412911239843496,
        -0.14909096668904603,
        0.06871057082873042,
        0.19785864281251103,
        -0.3735228999993378,
        0.33397746545177226,
        0.10564806615911507,
        -0.1320423735078038,
        -0.027131354332405763,
        0.47676616396493204,
        0.5328743272229631,
        0.2803367689380232,
        -0.2827086349857106,
        0.2340140360211001,
        0.7050492595967519
      ],
      "cols": 16,
      "rows": 23,
      "weights": [
        [
          0.40762550440106576,
          0.08847019095140661,
          -0.3110738772290615,
          -0.5896305668150383,
          0.7733136361632036,
          0.2435713563777387,
          0.7506002352559324,
          0.15797442908746126,
          -0.5997484846739166,
          -0.3196371924440255,
          0.21159069743327616,
          -0.4083489420373901,
          0.16053814611716616,
          0.21069505843877284,
          0.27319979156587654,
          0.16016789146841143
        ],
        [
          0.3701058645239117,
          -0.6002913553668148,
          -0.2391662563562499,
          -0.3544653108905226,
          0.3131600663686802,
          0.3518682035043031,
          -0.21391973792680294,
          0.6836661850908756,
          0.1503991018046628,
          -0.10108865044513941,
          -0.17103022277027882,
          0.40438347364470995,
          0.2210857754305795,
          -0.14267534002868332,
          -0.5869734737775953,
          -0.05500622490394753
        ],
        [
          0.11969675313672949,
          0.3846827309364126,
          0.016685728430722264,
          0.41989216927792344,
          -0.2112891984401632,
          -0.07708239852249472,
          0.41282501944362654,
          -0.2284681854756482,
          0.2575394309608109,
          0.24347867693880704,
          0.1909913438575554,
          -0.07217133988830547,
          0.012298210947344833,
          -0.4028674175791504,
          0.4748796163168984,
          0.11971761681283942
        ],
        [
          -0.2578256269962024,
          0.32595701121087534,
          0.1681887052282185,
          0.17554552607292515,
          0.10753998093633976,
          -0.27106727436561684,
          -0.3256996734336209,
          -0.2923628450787271,
          0.028397123696732893,
          -0.20812252486193542,
          -0.14385385415644367,
          0.34666236718406146,
          0.17712831912622937,
          -0.3483030340135677,
          0.47142903241607476,
          0.09052563289903967
        ],
        [
          -0.45129748868958847,
          -0.07640415393648575,
          -0.2641616296443348,
          -0.4175448027351272,
          0.2959057611641857,
          -0.26808632946930194,
          -0.10911549170664067,
          0.3514055127918231,
          0.05686255004950572,
          -0.017966082068238538,
          -0.023041423047082576,
          0.007216809703273603,
          0.30400043283534206,
          -0.29359704661012315,
          0.045197830806660205,
          0.45567480426404555
        ],
        [
          -0.2682180109750454,
          0.541523389883618,
          -0.18853890936581325,
          0.2048552388833246,
          -0.2684886382617441,
          0.4656154547460507,
          -0.11331593610358626,
          -0.5825302599663057,
          0.28943266302924986,
          -0.5638628143774365,
          0.29132043163919996,
          0.21999475972824195,
          -0.31946432718919815,
          -0.5170427021518681,
          0.5385240956831655,
          0.20704743423463537
        ],
        [
          0.249298600866035,
          -0.21746771049877073,
          0.12072052470971831,
          -0.46234571120886914,
          0.5227565187481599,
          0.057190093119237145,
          0.5773304326138969,
          0.06751817320325905,
          -0.4708572078616595,
          -0.5286472163680115,
          0.36011750598419817,
          -0.4093344059084778,
          0.17580886229658244,
          -0.26456494564205535,
          -0.09290164524814275,
          0.048274147277603464
        ],
        [
          -0.04599190517937659,
          0.13238028584115943,
          -0.33546245603958386,
          0.1754042208411175,
          0.08513882702959344,
          0.4880321841298049,
          -0.3800516413512772,
          0.2969287951154681,
          -0.32094176294194793,
          0.1423745438346322,
          -0.32686586954670305,
          -0.39319209231933455,
          -0.09292280671079055,
          -0.14984340252211154,
          -0.34109160408995814,
          -0.49187926342137844
        ],
        [
          -0.0793253083468242,
          -0.2281760734579746,
          0.1819554724526859,
          0.13169651447517067,
          -0.12541561264932174,
          0.5137103333156293,
          0.13842510414461914,
          0.14651507134694816,
          -0.05426636407090409,
          -0.38247032855776786,
          0.37965947722604587,
          0.0542963083629315,
          -0.6595548986657479,
          -0.12172392168517619,
          0.5753857871324035,
          0.34098588058091284
        ],
        [
          -0.25322663877066415,
          -0.43765103103744335,
          -0.3138308571780483,
          0.12769439895494336,
          -0.26204476955587236,
          -0.22671706276537962,
          -0.20325789386183504,
          -0.23695027027403276,
          0.35158923788816265,
          0.3088970319131925,
          -0.3562166505751452,
          -0.10616818903905134,
          0.5488626339901529,
          0.4804230067838778,
          -0.8688216371461082,
          0.0808331192302996
        ],
        [
          -0.2656540295622444,
          -0.20383346555329676,
          -0.2839495211699053,
          0.09449162430331222,
          0.38587921896130795,
          -0.016397392008776945,
          -0.4305242475804961,
          -0.27669036556391113,
          0.14698279003625025,
          -0.21518116377876464,
          0.3999103351312867,
          0.5078885853493611,
          0.20321967000938718,
          -0.3536217106251258,
          -0.2545032755428347,
          0.39593322518118124
        ],
        [
          0.05700969642232012,
          -0.15284524895432774,
          0.045323610758036544,
          -0.28220508986659154,
          0.05996695910730483,
          0.0017400372074772778,
          0.6092946245124933,
          -0.29796327827101204,
          -0.32393797145531583,
          0.04594370671307204,
          0.18084585969045797,
          -0.00037583495171852936,
          -0.06031478990619234,
          0.20376686664914231,
          0.03695201959031137,
          0.13400179047366084
        ],
        [
          0.11458574203559199,
          0.29211590221917105,
          -0.16219473167375023,
          -0.5380310090191197,
          0.6083235569526362,
          0.3392916786952573,
          -0.094828977860898,
          -0.08702987195519771,
          -0.38100580180092275,
          -0.34182013435789665,
          -0.20115018560974396,
          0.33568678618623937,
          -0.18470970652008162,
          0.13027235424504058,
          0.38479832054081936,
          0.11161840115604776
        ],
        [
          0.1585607316841689,
          0.30375282081199256,
          -0.2726904950879966,
          -0.014622702812673295,
          0.5265933024264224,
          0.17068754600256708,
          -0.38531926590528903,
          0.15745938868166667,
          -0.20095402885695265,
          -0.5107950202433714,
          0.2399304159429044,
          -0.16339839316132032,
          0.27371390283461305,
          0.0036253539642723863,
          0.5392111979269103,
          0.22929282872252787
        ],
        [
          -0.03243059962037873,
          -0.34455369710842587,
          0.5438914205490438,
          0.27656999987311803,
          -0.0643918791768361,
          -0.42672563038678,
          0.6798750939915198,
          0.20626802978631456,
          -0.1946125248791381,
          0.3348551210301389,
          -0.24832741090382057,
          -0.3772596077282457,
          -0.4755102335858452,
          -0.1866869851132084,
          -0.6620033475404415,
          0.012923589605744107
        ],
        [
          -0.48498618966631835,
          0.23850332755137935,
          -0.25051585149823535,
          -0.052572597283389685,
          -0.23456434207369353,
          -0.51266030202938,
          -0.054821646336435284,
          -0.2578255523823294,
          -0.15832759142673744,
          0.4251486178726487,
          0.09701575883421726,
          0.012348305775095747,
          0.4318100051567402,
          0.03328226157678048,
          -0.4228124030019201,
          -0.005012463040084865
        ],
        [
          0.22257099623879117,
          -0.2564853423001578,
          0.057410836680076904,
          -0.1576470115997627,
          -0.029952097419400206,
          0.4302901522672086,
          0.18240129750640133,
          -0.0184190276047004,
          0.11932676534707584,
          -0.02901835049198279,
          0.03119453051437794,
          -0.2418937003489482,
          -0.13376988619645988,
          -0.05107840468915988,
          -0.46997102363713633,
          -0.006926001343043563
        ],
        [
          -0.33507490195881445,
          0.14739046774272704,
          -0.39368758116140745,
          3.6980649739989577e-06,
          -0.2838745610332579,
          0.05377643065405315,
          0.06905291209371274,
          -0.24993548435266597,
          0.19678769213254085,
          -0.39399014118876685,
          -0.2006118659540756,
          0.2353170711725346,
          -0.3484003982498088,
          -0.401967587679071,
          0.6958179188993516,
          -0.18463363097698568
        ],
        [
          -0.1844479934688663,
          -0.5462412816197935,
          -0.3369242840503634,
          -0.585174103751601,
          0.5386990081510477,
          0.5166999332460629,
          -0.7739817121093882,
          0.6056366734658573,
          -0.38193207146430924,
          -0.07196884917866528,
          -0.06082487061688243,
          -0.10267155567324053,
          0.2125508979663528,
          0.4000746501290559,
          -0.38827652263698026,
          0.22285390196935062
        ],
        [
          0.04498664924546785,
          0.2842275404866366,
          -0.4762943034190019,
          -0.35403415629996327,
          0.16075027775249073,
          -0.34632439015476907,
          0.21328031535682604,
          0.08756554426292784,
          -0.018738197349615016,
          0.21594649966141738,
          0.19113280329118684,
          0.5582191610793568,
          0.4582613775639557,
          -0.2065196140919926,
          0.22773735939222928,
          0.17114319356749338
        ],
        [
          0.09314293569700259,
          -0.24293040245625053,
          -0.1295298073662899,
          0.05450253515237892,
          -0.3249893168144046,
          -0.3880838088760527,
          0.24315543433132839,
          -0.2982314245758149,
          -0.014837983231716348,
          0.17468009761573433,
          -0.14163072118640752,
          0.036137726404370935,
          0.4666782033431704,
          0.1488522879267346,
          -0.5482784746585246,
          -0.32258180942871406
        ],
        [
          -0.33659319913430696,
          0.09547952127712145,
          0.3715808634750015,
          -0.050112212192605594,
          0.1300464996304447,
          0.018629798567821293,
          0.10013503666566821,
          -0.29476474478761067,
          -0.30929404165614377,
          -0.09736932246415568,
          -0.23079488169216217,
          -0.050161384289934656,
          0.02063951443440356,
          0.17408914200248188,
          0.3496719567742906,
          -0.25391595257668026
        ],
        [
          -0.3407541608461544,
          -0.308085197038994,
          0.06721442711995057,
          0.029943083539825638,
          -0.2637646705641495,
          0.025049084785858766,
          -0.4031108481420666,
          0.5919382460729986,
          0.4196272844983165,
          -0.023891204923076257,
          0.06509879997524373,
          0.4577397112392747,
          -0.33848045205908817,
          -0.24760790147512915,
          -0.21741773833831865,
          -0.18071721522090942
        ]
      ]
    },
    {
      "activation": 1,
      "biases": [
        1.270496051720895,
        -0.028570711937466575,
        -0.09245069865917872,
        -0.13758787402579334,
        0.026547029034719307,
        0.16859658082618664,
        -0.062304149788073374,
        0.6220439349883811,
        -1.0702765977593942,
        1.2237030662016462
      ],
      "cols": 10,
      "rows": 16,
      "weights": [
        [
          -0.12107924375348797,
          0.29202512329588715,
          0.2504472532876944,
          -0.28400118338443425,
          -0.3360308073377558,
          0.04435196023125842,
          -0.35969103148648296,
          -0.5497832580520023,
          0.867705453188282,
          -0.8614209187641911
        ],
        [
          0.6944510646926997,
          -0.07336844399728779,
          0.4674144773322076,
          0.5507777393645658,
          -0.5138376614142741,
          -0.19230359869507116,
          -0.32705553073040095,
          0.24810744166482288,
          -0.13246073518709786,
          0.473179840333419
        ],
        [
          -0.29307683527751555,
          0.13726572304291512,
          -0.4999953114764718,
          1.1042727658639468,
          0.1334160199395421,
          0.42169401925137884,
          -0.20731033513770372,
          -0.49292372874379214,
          0.15512819306995834,
          -0.6772351214706971
        ],
        [
          0.3037079469892268,
          0.12678364986904128,
          -0.016010342112355202,
          0.8910174946617363,
          -0.40004551054827325,
          -0.8162536635452412,
          -0.2785501652534743,
          -0.002780375624032811,
          -0.27970050239417127,
          0.2539220285881656
        ],
        [
          -0.028792222364099486,
          0.5309420801869476,
          0.14797118156167927,
          -1.0420995183749595,
          0.3830228082888537,
          0.9894205024116418,
          -0.11461856254813114,
          -0.025683799936795967,
          -0.044084490901863005,
          0.023493555271073125
        ],
        [
          -1.02415320100413,
          0.07028861619027016,
          -0.642394322702592,
          -0.7154396224685785,
          -0.3899773430584239,
          -0.22210558906077943,
          -0.21766666600711623,
          0.2193794923437685,
          0.5717399683650882,
          -1.1308827511231792
        ],
        [
          0.035031004620521514,
          -0.1203315166226998,
          0.8796769202815993,
          1.0496198090047943,
          -0.17143938457779265,
          0.8726192433800376,
          -0.06346651716835083,
          0.25734521459008863,
          -0.22886608331753935,
          -0.339006790122905
        ],
        [
          0.023304386985320592,
          -0.37343568799301996,
          -0.6913011997773143,
          -0.7520221794778049,
          0.6453931392403596,
          0.2374960355585955,
          0.05985778450999455,
          0.012813650126603226,
          0.1788131369887367,
          -0.44464225944297026
        ],
        [
          -0.08286392882384727,
          0.2751733562658353,
          -0.6721422003923209,
          0.4860364724181558,
          0.10163768706857687,
          -0.8157618712110101,
          0.05711775546522734,
          -0.002776780065708085,
          -0.3011599443220237,
          0.3579857003097611
        ],
        [
          0.01852720343272009,
          0.16868509068382267,
          -0.05158388927566622,
          0.8466736010272482,
          0.8349529806617725,
          -0.6593249359653567,
          0.1371966040126846,
          0.22685958656213656,
          0.09948802691601612,
          -0.599891369731024
        ],
        [
          0.39812838010697404,
          -0.3641356329016676,
          -0.09610039507818868,
          0.03083958750245627,
          -0.4607934205536705,
          0.5019919987673753,
          -0.3780248814086693,
          -0.1141454083822159,
          -0.8205078550554971,
          0.4352478482335423
        ],
        [
          1.2129379862554117,
          0.02671628512518996,
          -0.4715405726036765,
          -0.09813469411020843,
          0.4739141586127583,
          0.23735935776467795,
          0.04211456799983157,
          0.5843242160087524,
          -1.0727179619804827,
          0.3068972759276264
        ],
        [
          0.4389445932199039,
          -0.16427530552898847,
          0.6607314744672294,
          -0.6082183704144805,
          0.6480320771681456,
          -0.7533657723333657,
          -0.313347453441901,
          -0.2151682428524826,
          -0.5551519922906247,
          0.7172862514408246
        ],
        [
          -0.7771164172159768,
          0.14237374778255532,
          0.09479140307962233,
          -0.0574446587023006,
          0.6659770470071563,
          0.40470772023797663,
          0.4366599270646462,
          -0.18950537773703602,
          0.8861206026462828,
          -0.33575240395280664
        ],
        [
          0.4228627622198404,
          0.06835387939180643,
          0.9796007581136493,
          0.0558626677778526,
          -1.3422839105297897,
          0.21411507126714052,
          0.38409556701499825,
          -0.07916035989814398,
          -0.33335801496467604,
          0.5622622340338275
        ],
        [
          0.8374142994907213,
          -0.037200038079573734,
          -0.4202407559905707,
          -0.13371014780169393,
          0.08260644268656714,
          0.33553244510018937,
          0.24464438903062058,
          0.47609659067885146,
          -0.6755726934967071,
          0.7431707192366699
        ]
      ]
    }
  ]
}
