{
  "layers": [
    {
      "activation": 3,
      "biases": [
        -0.537685632821716,
        -0.1230864507613359,
        0.4922835797816742,
        -0.18574180822633057,
        0.4906184453961654,
        -0.21534938944107648,
        -0.564597548700295,
        0.35207300031589445,
        -0.41579807565816107,
        -0.06063257335569853,
        0.1669019950744964,
        -0.07825051300723607,
        0.37895916803455626,
        0.19846570882146056,
        -0.4266298652276185,
        -0.24939092317437114,
        0.04392784857641823,
        -0.5344925489930414,
        0.09077459120819995,
        -0.14017078982329673,
        -0.5139659546892649,
        -0.11377096960905383,
        -0.1477450458228962,
        0.22317025608540944,
        0.05730694973404634,
        -0.8433491875253328,
        -0.5045737685392342,
        -0.1727596069261418,
        0.48824644197897316,
        0.02527491824752779,
        -0.38951407749480055,
        0.517776004699698,
        -0.03484967780268893,
        0.6831434016047695,
        -0.43537309534117996,
        0.6806088176228616,
        0.020827794071508903
      ],
      "cols": 37,
      "rows": 30,
      "weights": [
        [
          0.38511099455574654,
          -0.26197218173026593,
          0.04333605629216611,
          0.06516105162737364,
          -0.3540443703155016,
          -0.33587869610391824,
          -0.5149623575347454,
          -0.13018617564686927,
          0.0008723238431029292,
          -0.16757396817256184,
          -0.16118786192497725,
          -0.21181086235819024,
          -0.1890077242994515,
          0.19186543049827734,
          -0.14058179407721574,
          0.343619457555311,
          -0.18269912890432058,
          0.3567862582360944,
          -0.02131100187107912,
          0.2902448393026402,
          -0.013815534532051399,
          0.5867439672232269,
          0.29454943091870217,
          0.16486408608141692,
          0.15149422772771026,
          0.3805902176015664,
          -0.17292384437469205,
          0.04120556114198825,
          -0.5543972991721328,
          -0.44864988556382335,
          0.2081150936883072,
          -0.3078148895279415,
          -0.41300643037974727,
          -0.028826957623624316,
          0.28246332393066237,
          -0.16945012177077406,
          -0.30075593839799625
        ],
        [
          0.7092689655466312,
          0.3725966466900912,
          -0.5756821239174242,
          0.12687384168538748,
          0.06853794200932996,
          -0.41687757280021515,
          -0.12302816515746803,
          -0.022405564176865768,
          -0.11309318655516801,
          -0.09740002904319292,
          -0.09285066367767279,
          -0.11916294357688505,
          0.0693110859673896,
          -0.3380987228617588,
          0.30685609120373925,
          0.006154083875222185,
          -0.2678639476241955,
          0.46359383505446855,
          -0.38267130064080424,
          -0.19103949203596315,
          0.4155811188628572,
          0.2269212190077504,
          0.2291671045398196,
          0.14579408779655106,
          -0.24994797461432883,
          0.6058340572520339,
          0.609202049176938,
          0.08660402623762087,
          -0.04198323284858437,
          -0.18711548596824046,
          0.009110268321260991,
          -0.3385045361286894,
          -0.24586835906646848,
          0.22731122074612467,
          0.12008331465725659,
          0.3167418923475817,
          -0.16713882243009984
        ],
        [
          0.4134565352763189,
          -0.04204972796491359,
          -0.12926388395600558,
          -0.1178882406149775,
          0.2052418769778995,
          -0.1725733309092562,
          0.03716351077243957,
          0.02029210994493646,
          0.36087954461224525,
          -0.23098991256773518,
          -0.18001946769080224,
          -0.3664649871691064,
          -0.07038502390176195,
          0.13623547158904206,
          0.0680530867931926,
          -0.014141816838871543,
          -0.001771718156576301,
          -0.06596478567331075,
          -0.12048274991712485,
          0.37349561302746087,
          0.07269604669929594,
          0.46588519008676416,
          0.09506404112261495,
          0.3275066373754912,
          0.005491276523635133,
          -0.02921684267642053,
          -0.08246431364524169,
          0.005845919948769741,
          -0.1275023885690344,
          -0.049153553970290795,
          -0.11658911137449418,
          0.011126419310951421,
          -0.04464608253236777,
          -0.016615552984579608,
          0.1622855633563708,
          -0.2953422606635364,
          -0.055084542222311184
        ],
        [
          -0.07601630525781218,
          -1.2126012057048208,
          -0.059125360215349226,
          -0.69838108648011,
          -0.020103511815231158,
          0.22869634765524982,
          0.11729167599582227,
          -0.25019774523892996,
          1.1899478271010568,
          0.03676174486559659,
          -0.6995587534696707,
          -1.2201265528496694,
          -0.018402005392632776,
          0.03116548612107763,
          -0.626550063202443,
          0.6458114222947243,
          0.14701199556314723,
          -0.3267380012956652,
          0.6904218207335212,
          1.3207235167105993,
          0.35388973764346665,
          0.8140104899029336,
          0.3358867274716538,
          0.5777428568167949,
          -0.1833811955735693,
          0.8103367679303268,
          0.48381814839143406,
          -0.5732107603267474,
          -0.7136356760480996,
          0.6494007951861467,
          0.7286988542546472,
          -0.1604078127622752,
          0.16063165819340358,
          -1.8427839494850542,
          -0.04038944245280016,
          -1.081285727774201,
          -1.2188785990862778
        ],
        [
          0.5908807763374369,
          -0.35511356526454196,
          -0.7968598356915637,
          0.29874678858750686,
          -0.38178271451741186,
          -0.4922067946350962,
          -0.3188832247376766,
          -0.7186497043532184,
          0.01616257705160957,
          0.04663217815070998,
          0.0018382764582238957,
          0.12271826966727767,
          0.03323633442889304,
          -0.7015002970702506,
          -0.08422384523072228,
          -0.21257085568623366,
          -0.4278118417635524,
          0.4895157854640615,
          0.07038900840177549,
          -0.9552556717292644,
          0.11208148979137857,
          0.4677091051145695,
          0.10499584943532593,
          0.7154408335220381,
          -0.6956407947695487,
          0.689034399217711,
          0.7957129537213392,
          0.1032555043978131,
          0.6629378181798288,
          0.20849120386895367,
          0.3001462933920638,
          -0.8546175566584526,
          0.000656341794539453,
          0.5035702559899377,
          -0.6403240147488864,
          0.22769744654255827,
          -0.6784512697568618
        ],
        [
          0.24762257604353755,
          -0.6856156294247533,
          -0.05558723286889349,
          -0.08968542422011214,
          -0.3972845409089683,
          -0.13106103720710102,
          -0.020934758068366872,
          0.1387600963005444,
          0.1950447836848621,
          -0.1792511408620373,
          -0.1568872387835986,
          -0.17015883244126528,
          -0.20705374856964728,
          0.18497108146995936,
          -0.5860561127095198,
          0.18509264627238053,
          0.1202756053155158,
          -0.456582666559154,
          0.22556558589975398,
          0.22501175778769603,
          -0.41169804958081596,
          0.5200522693661012,
          0.3895414556126033,
          0.3603772589277199,
          0.0366187073161588,
          0.47987924671464705,
          0.3116135237830113,
          -0.41307678369245077,
          -0.3437375055095282,
          0.4721756899201858,
          0.47937594651232524,
          -0.03051896722607058,
          0.2999960083613021,
          -0.7811066499694409,
          0.200487815964948,
          -0.4955866985984003,
          -0.1305998162728739
        ],
        [
          0.37788058207613645,
          0.07231484609115137,
          -0.13638480587711163,
          0.23514254345236812,
          -0.2452498208550593,
          0.018790530843237722,
          -0.6590538121357195,
          0.1329401899862349,
          -0.12757531918494514,
          -0.5841740488187576,
          -0.023408521612959372,
          0.14654366356024304,
          -0.19383972170152572,
          0.12065074684378545,
          0.0833231756504285,
          -0.10532000559669683,
          0.1507281527303945,
          0.2671682593062386,
          -0.3742210991912513,
          -0.21131006606827013,
          -0.30567014680240334,
          0.3615745293787281,
          0.19838978709416777,
          0.3118563720272788,
          -0.1691419557532599,
          0.4430828178364842,
          -0.1174780424528668,
          -0.38944602161910963,
          -0.5022776417346614,
          -0.5308412805663959,
          0.40555558874047515,
          -0.06272085580450783,
          0.0775288762813845,
          -0.0672365682845479,
          0.21787940638527015,
          0.18315920839032973,
          -0.12345470495781564
        ],
        [
          0.6558357435572191,
          -0.013443656151449985,
          -0.3705804174194212,
          -0.005148433059849919,
          0.3303599459584111,
          0.023563415603319985,
          -0.16897650183950969,
          0.23869695326293394,
          -0.1863956800030008,
          -0.4920599489226754,
          -0.13159724658487046,
          -0.2276777329647951,
          -0.31120928296236616,
          -0.05234522482106406,
          0.38200251918233674,
          0.0433015352151515,
          0.04662596790787931,
          0.6900693216975599,
          -0.24934106304790912,
          -0.141956478638972,
          0.10374390186922153,
          0.38513254666806757,
          0.1783649946663471,
          0.3673567603617983,
          -0.15030108820932297,
          0.47412824141368304,
          0.3363262382927352,
          0.038330002143240366,
          -0.12013138971465208,
          -0.4702013805328699,
          0.2242066217386761,
          -0.15057551836114735,
          0.024570620333401925,
          -0.23344022283825144,
          0.5330132821533923,
          -0.17384388165312414,
          -0.05345088925967953
        ],
        [
          0.16834053677967972,
          0.23339496039601554,
          0.2188650504954478,
          0.09574241008631042,
          0.04537625786743479,
          0.2896539209125177,
          -0.008770916078213085,
          0.010222762934082346,
          0.23397904796265903,
          -0.26027125504963994,
          -0.2659580067837089,
          -0.11494802171578263,
          0.17041273537374216,
          -0.27319071225153774,
          0.15639982804935,
          0.1734435109356212,
          -0.19594017433378869,
          -0.055950190409165025,
          -0.03389747406508888,
          0.28567935659859606,
          0.08972129247542097,
          0.14252537475664417,
          -0.13072768907883153,
          0.21106664519669185,
          0.30601156753415965,
          0.40759357237963145,
          0.32473016309559855,
          0.07785076654991674,
          -0.3763099453219168,
          -0.14675995859647006,
          -0.14473485676463568,
          -0.09930394596417834,
          0.11354966110970796,
          -0.23795436602158174,
          0.27212100216487883,
          -0.2177921175412455,
          -0.2744000353801591
        ],
        [
          -0.46169551182515367,
          0.17236066289299518,
          0.6599026373533385,
          0.12879204048256176,
          0.22327515587879057,
          -0.08456941838502542,
          -0.27040153685308355,
          -0.6478245581848279,
          -0.18179571506508532,
          0.019735275104482766,
          -0.1772116461583689,
          0.23608617906336046,
          0.17978787649509387,
          0.7595612812130147,
          -0.0348392154023466,
          -0.04659388477427518,
          0.1396058734406962,
          -0.3407967122935299,
          0.1212707857039639,
          0.33453100983692075,
          -0.6413718906052734,
          -0.1393021836711594,
          -0.2916347616523415,
          -0.02005391987438833,
          0.8237752894101137,
          -0.4717114671441866,
          -0.2695005019948881,
          -0.5944439703208735,
          -0.2907031013666651,
          0.08278953363213461,
          0.04243650410141785,
          0.20456285596712467,
          0.07761195772990999,
          -0.1479997225492483,
          0.1548984752904875,
          0.38570694381013093,
          0.538747519527479
        ],
        [
          0.15436559556410773,
          -0.8665175100854586,
          0.05851586418950611,
          -0.012285612664563723,
          -0.36847525212771254,
          0.26230785642497906,
          -0.2194793462072989,
          -0.04601383733962216,
          0.43738404407054443,
          0.3897035482742923,
          -0.18065183331847778,
          -0.45682266217278006,
          -0.10920733714559762,
          0.5111051527427632,
          -0.2262099396054424,
          -0.11239624398223194,
          0.6366940445640271,
          -0.5934887770884114,
          -0.01799674436418147,
          0.7684107036300983,
          -0.7349605492457625,
          0.6884466641031378,
          0.3149216096268311,
          0.031546687650453833,
          0.6830324405410295,
          0.3664678454919978,
          -0.23062532077334924,
          -0.9253229499762446,
          -0.5612141039305697,
          0.5742524169045391,
          0.42795160417726247,
          -0.041151505206228414,
          0.49696343270957216,
          -1.0307840522254381,
          -0.3102434480754198,
          -0.23329094957455784,
          -0.439515815561022
        ],
        [
          0.4619749928775433,
          0.16365490498149554,
          0.12689573569574283,
          0.19982406908697203,
          -0.13150135295262144,
          0.10223099508465305,
          0.3101088409448688,
          -0.02910270054985492,
          0.06098259472691955,
          -0.0727664732870846,
          -0.15797849187436563,
          0.4336623996166936,
          -0.15647839366525212,
          -0.17284509088817673,
          0.23821747993479475,
          0.0837295868924556,
          -0.17763548212032026,
          0.4972866010709484,
          -0.330100093041624,
          0.18986829480367318,
          0.3616421357440538,
          -0.18511424542256902,
          -0.09427327181694892,
          -0.2391869936383417,
          0.42491692664564534,
          0.4904100157403828,
          0.3897039676674577,
          -0.09903120781282651,
          -0.10685842658558274,
          -0.1957369048057072,
          0.17168853044844348,
          -0.16995708889644526,
          0.06979924526324294,
          -0.049760472285811076,
          0.45331029144254564,
          -0.172372838988206,
          -0.0351156475687535
        ],
        [
          0.49814529540113023,
          0.2852758026409892,
          0.002978318052039984,
          -0.04238569657033009,
          -0.30561397025867076,
          0.10486800922675507,
          -0.586553661495797,
          -0.17442777764704517,
          -0.22425572977638297,
          -0.6699723081247099,
          -0.07036463413928085,
          -0.19827877150512657,
          0.02508164621173791,
          -0.10828415894125594,
          -0.008436627809055778,
          -0.23907780406499013,
          -0.0226486388116865,
          0.22762095753162723,
          -0.05469962241835884,
          -0.07082791623814437,
          0.2249881099816232,
          0.2608610561442976,
          -0.12167348139733446,
          -0.012158325844436876,
          -0.014413432413393644,
          0.5909095864923259,
          0.1355996579013112,
          -0.31964474311018226,
          -0.01262660957564603,
          -0.5758168723334138,
          0.35035717627330676,
          -0.2864758925820119,
          -0.035337449071504816,
          0.27857334573041675,
          0.4538891586510441,
          0.23745755860919152,
          0.3367571899377131
        ],
        [
          0.2357495953439924,
          0.25477757704448056,
          0.20928725607291,
          -0.2816071901808888,
          0.23249309665214965,
          -0.16011687191682047,
          -0.3840960947784258,
          -0.22350491660122793,
          -0.34014911748233345,
          -0.03611360438581931,
          -0.3499926603523195,
          0.05552366269990873,
          -0.28308017641636507,
          -0.034976273259536915,
          0.2304124445605869,
          -0.06437020726823567,
          0.02548250697710456,
          0.3810323760038857,
          0.12271620046592116,
          0.04454917457808693,
          0.19361654554811816,
          -0.34341134361366293,
          -0.2546112819423327,
          -0.23824655511945356,
          -0.09438512771524953,
          0.3633553921598933,
          0.06359002831867656,
          0.06868378718305936,
          -0.03713435896741998,
          -0.222728007666524,
          0.4072511712769581,
          -0.0033566180895873068,
          0.20322762152998428,
          0.07443589783488991,
          0.40866733833503055,
          0.3873617424959719,
          0.22400092651810868
        ],
        [
          -0.2634306378568345,
          0.1103745973058141,
          -0.199955393270725,
          0.11085591805543232,
          0.21676159659727792,
          -0.05659923149777681,
          -0.1570245504785557,
          0.1398610458083015,
          0.17140782577531066,
          -0.08112678911059712,
          -0.22367290755847316,
          -0.19820900472995429,
          0.25801799334965747,
          0.29735830281407916,
          -0.21135552027105453,
          0.28309662042300004,
          0.05126383382057329,
          0.21074974296159418,
          -0.28390964485482606,
          -0.10340296279329556,
          -0.16494086434587654,
          0.16668533330719335,
          -0.0868031020620826,
          -0.1593671244146909,
          0.19750672958544496,
          -0.17480543724695202,
          -0.009517856991809532,
          -0.10328209887693297,
          -0.021681714877926854,
          -0.25206317485902074,
          0.03653828725397522,
          -0.28805056730452944,
          -0.08805748240762527,
          -0.1160485149567782,
          -0.043844175851943126,
          -0.16060142175504238,
          -0.3567960557605777
        ],
        [
          0.34754497457284417,
          0.03368095473904985,
          0.39185377191603615,
          -0.07050609081403171,
          0.16908299504219473,
          0.07706324078573758,
          0.06964932798813904,
          0.3628916895535509,
          0.07071075342313916,
          -0.10316500592419763,
          0.46350266874000867,
          0.4823655587999058,
          0.16372743837031328,
          0.14383033334348722,
          0.037889642361909136,
          0.17529281812132919,
          0.3465337274657511,
          -0.07200540851526831,
          -0.05028313175823657,
          -0.434722232533465,
          -0.3248617403666869,
          -0.05528326654636133,
          0.042623277263518465,
          -0.2504998712357586,
          0.0367032258727413,
          0.32319551528755086,
          0.06850434841016448,
          -0.4046231530065309,
          0.10245873302653677,
          -0.37096956370608297,
          0.3008930401336358,
          -0.07555800896540749,
          0.014075452943640938,
          0.5147343544082446,
          -0.42774985483995526,
          0.1024874034489208,
          0.039664210306131736
        ],
        [
          -0.3656352876046818,
          0.007583847251059318,
          0.5966019181057289,
          0.15283333022705237,
          0.2250054685235449,
          -0.09704014717041888,
          -0.35555575729353533,
          -0.8781748519836236,
          -0.035496262879118494,
          -0.006859502241742887,
          0.10721097624084555,
          0.8188728334755095,
          0.4366664945825346,
          0.9498341679251969,
          0.3070411595150641,
          -0.28885628601696317,
          0.1501370217228924,
          -0.4324954048644279,
          0.1096530964169253,
          0.6881520261223857,
          -1.2286125781939226,
          -0.3406313794549188,
          -0.6773618903401404,
          -0.6169107072617633,
          1.336019055866516,
          -0.6674978198730301,
          -0.053047164080195865,
          -0.8864776925979034,
          -0.3413183877801869,
          0.40512688286856074,
          -0.3472186691960707,
          0.553014089588735,
          0.8717290655081856,
          -0.0020033392398568694,
          0.043452757834762386,
          0.06859776152008196,
          0.6410328019750944
        ],
        [
          -0.4923554426222927,
          -0.00029992802329275285,
          0.5686172990510139,
          0.1787047082747575,
          -0.3602622372845485,
          0.23810685030909856,
          -0.26569652099253316,
          0.28391815873212367,
          -0.26411807607796045,
          -0.1718154414711682,
          0.1272298880116674,
          -0.08566130032768145,
          0.5583277907373627,
          0.5707411869321064,
          -0.3950150333197083,
          -0.14798702885446727,
          0.7041451569732781,
          -0.4282847215071104,
          0.08413945590304256,
          0.22762946617430915,
          -0.5435873713433035,
          0.08819314173672758,
          0.38551894986790985,
          0.21253232609560302,
          0.39946286083111143,
          -0.6380972906423783,
          -0.6604914606756436,
          -0.4530120588596187,
          0.21477993343064752,
          0.1342621668718514,
          -0.092056555514657,
          0.3275166249879702,
          -0.2547701791264392,
          0.2807278232024521,
          -0.21142365852291076,
          -0.04356833222880377,
          0.19743301848992903
        ],
        [
          0.4008811351185678,
          0.4696391027227398,
          -0.2384934607106864,
          0.06784357063708032,
          -0.015293292819277823,
          -0.1946065530388993,
          -0.5434209407283763,
          0.06577640297712195,
          -0.46184066325081663,
          -0.6387140712132985,
          -0.20930489254959617,
          -0.10014000594640442,
          0.07988888517777445,
          0.16027452937801404,
          0.19432430380414717,
          -0.08771376620207895,
          0.24518296046936128,
          0.5629376233870574,
          -0.27093503345600173,
          0.06447753273204729,
          -0.23166334468396232,
          0.398477293263117,
          0.07209550542759864,
          0.4026602856040854,
          -0.2974710470522702,
          0.18831213021529486,
          0.08884219986385739,
          -0.2790298857232254,
          -0.3285031264927866,
          -0.20541757893338555,
          0.0005805416608982413,
          -0.5026995299490741,
          -0.017321897007635915,
          0.5994383784340902,
          0.24475734318305153,
          0.4442973446624479,
          0.3385031543929444
        ],
        [
          0.40667199222348543,
          0.020226343391760368,
          -0.2766900697664786,
          -0.2468169283980292,
          0.11603927696051435,
          0.06284858141125023,
          0.07774068158250379,
          0.38954908634291685,
          -0.45415248758390625,
          -0.28963093493745223,
          -0.29000287357034155,
          0.057461028875164695,
          -0.4810141460480234,
          -0.10314202269151425,
          0.47453357064010443,
          -0.07469182540240624,
          -0.49847746819131444,
          0.5743751638074153,
          -0.36116722430494935,
          -0.008328299734131388,
          0.5327383593983341,
          -0.14894557862224925,
          0.23789881111260622,
          0.13421055374525326,
          -0.16451044958899014,
          0.01147731393121888,
          0.08586243696720149,
          0.4471034836568833,
          0.1057523625155933,
          -0.38046248104409436,
          0.1842543289011606,
          -0.07019113636588864,
          0.11476027428394778,
          -0.018392141364101222,
          0.17812382950743325,
          -0.1157095985743099,
          0.07828856655752645
        ],
        [
          0.19212595066288024,
          -0.3249355972954041,
          -0.07973234993215293,
          -0.16355899949461886,
          -0.03159118806544384,
          -0.11357958054887471,
          -0.24022109697696198,
          -0.1482926136548821,
          -0.016820064927789504,
          -0.24997366755475808,
          -0.005043331187175585,
          -0.14787837082976926,
          0.09032488128070693,
          0.12083715149250608,
          -0.0711042927932069,
          0.20853722380954876,
          0.2110379465498997,
          0.1441960787204556,
          -0.10008405517091802,
          0.2571725071709712,
          -0.22585055542364987,
          -0.0831503473150322,
          0.10133807033511169,
          -0.05575733606278453,
          -0.06438308493379408,
          0.15691640561321332,
          -0.011638160127928359,
          -0.08297606803744106,
          -0.2447512238132182,
          0.228842743485801,
          0.15594240020803582,
          -0.2678513371113922,
          0.013992418848826982,
          -0.2707641630477688,
          0.26011015425574907,
          0.12862685791725367,
          0.07523200546371352
        ],
        [
          0.2111157562682235,
          0.44532347653818616,
          0.2673685853211493,
          0.41335579027815456,
          0.015936970114508495,
          -0.3896258575656339,
          -0.34154137531375284,
          -0.45599688317789283,
          -0.5337778700690464,
          -0.13286170127535485,
          0.7249396437439668,
          0.8234486810832515,
          0.2812581413015551,
          0.11143806145439501,
          0.317631750947502,
          -0.459891261176736,
          0.14478268355769724,
          0.21896137849283415,
          0.09122264604045172,
          -0.7401848982143961,
          -0.6401490536018267,
          -0.20791100208540236,
          -0.3730400772453624,
          -0.07236656071197155,
          0.37099185092885656,
          -0.14136442131118385,
          0.1691311948845451,
          -0.2709727693180607,
          0.08218789485250734,
          -0.3896981074974745,
          0.2296704241519026,
          -0.5260075328892484,
          -0.08364098651289448,
          1.1636840545320586,
          -0.5372760263012747,
          0.37842716023627904,
          0.10700898999357289
        ],
        [
          -0.3978042314196787,
          0.32756894416841337,
          0.46237016509433965,
          0.05405959802185806,
          0.2743168931454063,
          0.572776480146213,
          0.7103532886649,
          0.8061862488819214,
          -0.11324172490523655,
          0.019054885584262212,
          -0.2508230787689894,
          0.045021119674928126,
          0.08988719646670322,
          0.3535763029788498,
          0.5358114869857814,
          0.42618267555347566,
          -0.19796866141711625,
          -0.2685915924927764,
          0.024832463387116796,
          0.5097284491353019,
          0.3244060660254499,
          -0.241491881326887,
          0.45658815581524936,
          -0.3103896052115456,
          -0.25466272160282133,
          -0.43369250438762197,
          -0.6079214613035462,
          0.08697333269762629,
          -0.0064343819198838656,
          -0.3640015389530694,
          -0.021675575177375124,
          0.3328795011246935,
          0.09235430477265191,
          -0.15460652392306923,
          0.1581356317752032,
          -0.7332894470685539,
          -0.08608977755687215
        ],
        [
          -0.7487910705200903,
          -0.0365927467905299,
          0.380513057392248,
          -0.33016721690045764,
          0.07184034638800932,
          0.1839719580143775,
          -0.17720664318416063,
          0.5525647057869234,
          -0.1443982405197002,
          -0.06464273499357442,
          -0.10861893654683101,
          -0.4458925829000935,
          0.558147102607794,
          0.37012329010225825,
          -0.49005768027888896,
          -0.11227968828335418,
          0.8008580257915029,
          -0.8802403471871845,
          -0.05927368301434555,
          0.23592519660021924,
          -0.3505656147702973,
          0.298977034685679,
          -0.012567959659513482,
          -0.08823342327315696,
          -0.15806598601085034,
          -0.6899349978596688,
          -0.6637579037546205,
          -0.41038031771000893,
          0.07890074628838056,
          0.04019324824807189,
          -0.49795970888375785,
          0.05152743502910361,
          -0.08554398175102497,
          -0.21724630920105126,
          -0.10264159350885473,
          -0.40528268291595293,
          -0.38617014775125
        ],
        [
          0.6552959040898021,
          0.23604695210480378,
          -0.1591521811588901,
          -0.024011523181188914,
          -0.3563445972351968,
          -0.2975391754653238,
          -0.44566396568869715,
          -0.2892374898799373,
          -0.38544694090566767,
          -0.6032895191767428,
          0.27153676668362675,
          0.2608501824946988,
          -0.08004202760617374,
          0.04692433130060671,
          -0.12863647975050743,
          -0.020575849003441556,
          0.09035660091374116,
          0.374596104207732,
          -0.41525508842022646,
          -0.3767199274891837,
          -0.12718225349147594,
          0.4447203605991499,
          0.1907939975029042,
          0.3396548483697869,
          -0.2894033121680086,
          0.3781224352923867,
          0.28909146883856995,
          0.1851580468120347,
          -0.17822690891575516,
          -0.4641688045625711,
          0.17790111942148767,
          -0.05315181324004667,
          -0.48386191927967936,
          0.5237909477348446,
          0.26536421082452544,
          0.35210853853853663,
          0.13659819358303965
        ],
        [
          0.31627644871637617,
          0.15441296859948564,
          -0.4068120485885152,
          -0.20503039542768753,
          0.07842241416858296,
          -0.09342812395890673,
          -0.10525927277876704,
          0.21754378317554243,
          -0.5403533600542909,
          -0.5625308808580851,
          -0.4315335355237015,
          0.12143199288233754,
          -0.130375921778576,
          -0.18077304487667137,
          0.2883832919976439,
          0.16974163230805858,
          -0.5197523242434172,
          0.5990666929597395,
          -0.44127825736516924,
          -0.42842614558462055,
          0.34198128391167926,
          0.18389938436016395,
          -0.04862514871735076,
          0.13860645424198204,
          -0.5842849880089007,
          0.1058461308876189,
          -0.106329470217827,
          0.41612134243497334,
          -0.31506488818960926,
          -0.13930977456353444,
          0.3350973586782816,
          -0.07062243543664115,
          -0.3676521366868446,
          0.5174140408437465,
          0.4819701632076872,
          -0.10059114602006555,
          0.29861239560105945
        ],
        [
          -0.18702492588679023,
          -0.34412580327418957,
          0.03441521111111323,
          0.00841349429403929,
          -0.11428354766769414,
          -0.07262980094896108,
          -0.21404013362403965,
          0.3509240317377275,
          0.006361795746430528,
          -0.2041084079099913,
          -0.1617142555818236,
          -0.3666336746048801,
          -0.020902025351429064,
          -0.09895006150771606,
          -0.2612296239437904,
          0.3458805620955093,
          -0.20597883452399937,
          -0.15351029303969824,
          -0.31313138109025235,
          0.2923387286528006,
          0.30863754441742247,
          0.03988006221908456,
          0.34671369568913935,
          -0.10265845984736746,
          -0.22372860580542545,
          0.2616313365648874,
          -0.0476636738985544,
          -0.2749345985164758,
          -0.25167114091466214,
          -0.3032738868146441,
          -0.019395442830271867,
          -0.07538020642516412,
          0.09738620214499756,
          -0.3917516251706177,
          -0.013666837972112131,
          0.15682792838152632,
          -0.009434077863359364
        ],
        [
          0.4227334250296711,
          0.08990736327678847,
          0.2286961106586167,
          0.233371406202941,
          -0.2957817815546593,
          -0.49372698394121073,
          -0.6928876738273649,
          -0.7264168379127501,
          -0.17872158021747295,
          -0.08611579725096984,
          0.759063227862543,
          0.5206470496662494,
          0.3467020662850098,
          0.349807306776746,
          -0.257075670653595,
          -0.399171871078679,
          0.3077468071690091,
          -0.00024811078765090376,
          -0.16801898608283988,
          -0.6198099799084098,
          -0.8332259818249853,
          0.14129380773201128,
          -0.5815868228893736,
          -0.06009844650417939,
          0.5447807485951449,
          0.03590051808629518,
          0.05094173700284951,
          -0.08889438330945632,
          0.2496847454171228,
          -0.34159836011575545,
          0.010438264920392017,
          -0.5635309527196605,
          0.03464827579415426,
          1.2421217295075604,
          -0.22245860681825,
          0.7866617630259485,
          0.1699575661779816
        ],
        [
          -0.4399159980257005,
          0.7354448815140635,
          -0.27146256316825124,
          0.22882427336769734,
          -0.04417007748567363,
          0.5341115788931464,
          0.8518826137216233,
          1.130290816174251,
          -0.3894049647748017,
          -0.263247403875418,
          -0.23490178107530588,
          0.31542799202837896,
          -0.33722232861738777,
          0.008074731407876313,
          0.5522690428008172,
          0.6875124095602378,
          -0.2080999483857954,
          -0.1996082221006954,
          -0.5107468914798367,
          -0.39787345325264634,
          0.6297495215210615,
          -0.1727671632327994,
          0.4897102660525747,
          -0.3012815316429404,
          -0.8591115623235872,
          0.03290576311903447,
          -0.70581837796155,
          0.7310440428339742,
          0.038970011734669095,
          -0.6716311425558644,
          -0.24116984805852865,
          -0.1677921069623756,
          -0.6893390874082226,
          0.22840835457906053,
          0.007284396923664587,
          -0.09862530969492071,
          0.28392002575439695
        ],
        [
          -0.43301741134384414,
          -0.17382743035409018,
          0.3341087662910255,
          -0.3633302448403549,
          -0.29148293435914413,
          0.22924321456958488,
          -0.02448010222601134,
          0.23898376204887242,
          0.08384256454285254,
          0.07188639224615938,
          -0.2103837637316203,
          -0.688560778130411,
          0.39149009815477986,
          -0.26208630876210953,
          -0.7518513977417104,
          0.05722865931056694,
          0.306566053396325,
          -1.0073379527919815,
          0.2541833964559022,
          -0.07020551135178353,
          0.1452085471730841,
          0.19038489983289691,
          0.2509744537196816,
          0.006236843434287491,
          -0.4608155683320831,
          -0.3525786362992955,
          -0.7321669602481429,
          0.23599259398005312,
          0.13708768705891372,
          0.06478487939624729,
          -0.3733084313744444,
          0.35182409714620405,
          -0.042956359399634624,
          -0.11788880163115364,
          -0.6421791857353732,
          0.11739915167974685,
          -0.07161994309630643
        ]
      ]
    },
    {
      "activation": 3,
      "biases": [
        -0.6662505029484043,
        -0.5810276066527238,
        -0.589917308955247,
        0.3234703288729975,
        -0.0050272859545814385,
        -0.48674119773183344,
        0.5852813892199435,
        -0.20966837264023094,
        0.9042057031332164,
        0.033718884267965515,
        -0.11657612444136535,
        -0.03380758296047708,
        -0.020053220052075896,
        -0.07117700641675817,
        0.06445408355739189,
        -0.025792570958245647,
        0.24597379729913638,
        -0.056695375540082686,
        0.046093152571852515,
        0.1249943412097864,
        0.4037106056229843,
        0.05542126848477291,
        0.2911409952612273,
        -0.43066803241712986,
        -0.055803402667114164,
        -0.10099545635981538,
        -0.12144612656600143,
        0.3760432450519034,
        -0.0511745699916582,
        0.5930361882718077,
        0.5280797800042091,
        0.0077866528596990696,
        -0.7979884895413057,
        -0.44796970743371817,
        -0.7903428939095951,
        0.6082919396937115,
        -0.0011082950927632338,
        0.04212375332745096,
        -0.229800187765037,
        -0.1580006512770564,
        -0.41444736736296484,
        0.15419472144530358,
        0.014474252741221966,
        0.16008394011942378,
        -0.08143914486097643
      ],
      "cols": 45,
      "rows": 37,
      "weights": [
        [
          0.17617934356456505,
          0.7311641808236361,
          -0.4457108884438116,
          0.17152386034200023,
          -0.1147566142687467,
          -0.4557739407708749,
          -0.007041236703368811,
          -0.37859193506065414,
          -0.1511217341389837,
          0.3130138886713236,
          0.0730056031156474,
          0.3135618028035371,
          0.1819381787980761,
          0.4442077527776455,
          0.19009437519860695,
          -0.5853569372043959,
          -0.2283702501198595,
          -0.5562673837057542,
          -0.6959188925218,
          0.3444311757296512,
          -0.578505379953464,
          -0.11546617441878637,
          -0.17276397495494164,
          -0.3003369208755289,
          -0.1222422934740469,
          0.15224047407874897,
          -0.47904806699694774,
          -0.32429275645975597,
          -0.27794988986523145,
          -0.8794100700882833,
          -0.29476369339626596,
          -0.5509717873605271,
          -0.10560290053501036,
          -0.11389946590432429,
          0.7929763370857914,
          0.024183258051913705,
          -0.2034216725676686,
          -0.16247376157182902,
          0.06630013620005812,
          -0.5891520158386131,
          0.6902786741872943,
          -0.15537293585383932,
          0.015373687612729104,
          -0.0478098974853277,
          -0.010418701630504743
        ],
        [
          0.3369080797122222,
          0.3929647347348055,
          -0.16510980970895625,
          0.1147827807454185,
          0.22126730282173082,
          0.04333149209574063,
          -0.4326854047821442,
          0.4433790932099184,
          -0.0727397542407397,
          -0.10746237855189777,
          -0.011947906684162271,
          0.34787608720038976,
          -0.07802989765036569,
          0.6567183474077696,
          -0.47520216867323256,
          -0.349695054881854,
          -0.191079535517915,
          -0.32284419784744994,
          0.1500944552612759,
          -0.4027197013074307,
          0.2936644725889452,
          -0.4845537624751162,
          0.027757045798580213,
          -0.24195647828597838,
          0.3654128916859257,
          0.6129691647272246,
          0.2779212670475257,
          -0.5200883117483491,
          -0.46960655891104297,
          -0.3065421487138127,
          0.19780709765590732,
          0.10401088482735686,
          -0.1553409250262455,
          0.016947269702843767,
          -0.18816697171263225,
          -0.24068866415417328,
          0.5440199217750447,
          -0.22209418821568963,
          -0.12142810177467135,
          -0.5977500012244763,
          -0.3252330227390624,
          0.4463917366191866,
          -0.4341243962209829,
          -0.11459494943291298,
          0.4231187025711932
        ],
        [
          -0.15498021754976443,
          -0.133791763070205,
          0.08405536368026557,
          -0.023443727049534582,
          0.0755740059172453,
          0.0636417962686318,
          -0.10092760388241558,
          0.383744229278061,
          0.21469599546189191,
          0.5918889006077057,
          -0.094554285996337,
          -0.6802508035502237,
          -0.12707946667765727,
          -0.2992367251347172,
          -0.21926472813022596,
          0.597656231813654,
          -0.264968925653723,
          0.5010509591753821,
          0.21844443699031366,
          -0.07035197840475818,
          0.2740093189820454,
          0.22286338385828913,
          -0.5454564755526289,
          -0.028171819986839746,
          -0.0034590490791592977,
          -0.05921106379269904,
          0.5037729133559417,
          0.0626239889216878,
          0.1707906808033104,
          0.18140745962767102,
          0.47751247835059785,
          0.2443365935525995,
          -0.13995936935889053,
          0.12422794291049029,
          -0.35833574250872,
          -0.05457789334702928,
          0.2299959724620569,
          0.07666278073466717,
          -0.06967481311580366,
          -0.1942621033430523,
          -0.3695871374467078,
          0.3839335247960622,
          0.35159340092851166,
          -0.07245932521633736,
          -0.006372161923227651
        ],
        [
          0.281610948114667,
          0.09848733276012574,
          -0.11133871510007776,
          0.27050672651230234,
          0.4063781637308494,
          -0.20686829531595263,
          -0.46057150713411954,
          -0.03923432942511121,
          -0.19952642466308482,
          0.03025852773158612,
          0.11219884937934584,
          -0.11154088821060347,
          0.04009109848341502,
          0.31982738333460303,
          -0.27617963135420953,
          0.21649551751067878,
          -0.40128932587905847,
          -0.21197219029015008,
          0.1351130018208054,
          -0.3743709387170018,
          0.17326084470706657,
          -0.12156425345179646,
          -0.059805567630459126,
          -0.2011405602057542,
          0.07408726825379582,
          -0.00670258032275834,
          0.25580733680768747,
          -0.32262112620694255,
          -0.1361754169731975,
          -0.1701166715189824,
          0.08445103088350514,
          -0.1293797267619408,
          -0.010238079514051516,
          -0.013378331749604727,
          0.4166846073976052,
          -0.24609488267946944,
          0.03567108978532235,
          0.08225835946947527,
          0.23527470799770997,
          0.05501935302564973,
          0.09585481597505252,
          0.2422527751444849,
          -0.10155234244816042,
          -0.3292381841157719,
          -0.23167352631659394
        ],
        [
          -0.43805427360869215,
          -0.46509224261362014,
          -0.32134507422887154,
          0.21473943622056238,
          0.14880967178616752,
          -0.08433212704121812,
          0.01535654663412229,
          -0.2170197530163188,
          0.47071744791174386,
          0.05511408734812072,
          -0.04674630080713862,
          0.08289768215062428,
          -0.2765028952060038,
          0.4291019308822635,
          0.07213467617558328,
          -0.07092823723728363,
          -0.14777547595949156,
          -0.11292465431831815,
          0.043161353134523246,
          0.10627545190025413,
          0.43567824194921057,
          0.17793945220425636,
          0.2781265985410985,
          -0.2723981648125829,
          0.2902348738993627,
          -0.46187047661569186,
          -0.16824118666560167,
          0.21323542777540208,
          -0.3243566284413017,
          0.4963383210029328,
          -0.046734086169488924,
          -0.1407509360942191,
          -0.02172286033660586,
          -0.07443779924141636,
          -0.6029114954139217,
          0.3275908540856779,
          -0.08749454927731742,
          0.038760949711050596,
          -0.41276241230713473,
          0.1497610042150427,
          -0.4295476888843952,
          0.07836971598483576,
          0.08411540494959706,
          0.15043520545937017,
          0.03860079310541125
        ],
        [
          0.04485609940543885,
          -0.3080954072452356,
          0.23967841702496864,
          -0.32876099589005503,
          -0.02873990865629978,
          0.37005687582329766,
          -0.549708138109198,
          0.3960408103344086,
          -0.3964332465899135,
          0.05118127193275932,
          0.013887337227579573,
          0.08372640250586703,
          -0.07312534781645816,
          -0.18916885347189566,
          0.1187579226327812,
          0.22156001921898716,
          0.26898792858531173,
          0.03250706689134548,
          0.20230187124686974,
          -0.1919226083149389,
          -0.08427910068056779,
          0.040461053724634044,
          0.08636567788917532,
          0.48642630620374777,
          0.1680207502209384,
          -0.1115082266021862,
          0.2790492186627755,
          -0.213829020661444,
          -0.14901630056975282,
          0.07813947769351731,
          -0.06596111346010365,
          0.4448788815922132,
          0.04842666037836624,
          -0.045532066940450075,
          0.007209378128162312,
          -0.16806458612012393,
          -0.3341771346629187,
          -0.3063497413122621,
          -0.2610212798637629,
          -0.08883444851597569,
          0.26734911039770537,
          0.06958121209199905,
          0.36334078271067755,
          0.26736385885480146,
          0.18737699336330857
        ],
        [
          0.18326559259613062,
          -0.36168773906189183,
          0.23973593627370518,
          0.2830711635744245,
          -0.08484238547447352,
          0.4060709999484175,
          -0.5518725793034314,
          0.7071099897608519,
          -0.23678723228772633,
          -0.43199035304176053,
          0.5712500561692673,
          0.3835834575618013,
          -0.557479683798889,
          -0.25166588743000606,
          0.20415066541007848,
          0.10931200572299558,
          0.00913789221347975,
          0.3291711361939062,
          0.2979939388789377,
          0.045025198978314036,
          -0.07874688595907199,
          -0.35448616336300515,
          0.42096872717240275,
          0.5780187308650266,
          0.30506653091419256,
          -0.3011823395965998,
          0.48620776307898883,
          -0.4090200685249109,
          0.21622689403486892,
          0.15834424555157545,
          -0.4235018586265689,
          0.48381627890819323,
          0.19091315459148864,
          -0.3472302965042624,
          -0.037523800910224676,
          -0.0016318806536391877,
          -0.10787661217679427,
          -0.5884084216627526,
          -0.5286407688113884,
          0.5148828966908118,
          -0.04254462357152107,
          -0.19180859093051175,
          -0.030765022431485597,
          -0.4334371134825119,
          0.41443416441629555
        ],
        [
          -0.34644528165947,
          -0.4341028828486793,
          0.48571158556903243,
          -0.5469501560697174,
          -0.6592830850786642,
          -0.032570586177917533,
          -0.38590621280690657,
          0.273100672719615,
          0.18309929279496828,
          -0.3652817812640951,
          0.3792901448882078,
          0.32776833915905407,
          -0.34604616972635044,
          0.11257108815308838,
          -0.2933425685931138,
          -0.2225305261922985,
          0.8890282030498192,
          -0.2916111583342166,
          0.4640592620262287,
          -0.15101448889040503,
          0.38905629935271946,
          0.006076765638208451,
          0.42655071266224365,
          0.4634122609830541,
          0.27191555163989534,
          0.29680770665171713,
          0.44257347477106657,
          -0.36756533499107447,
          -0.27390046789942285,
          0.42895473640085824,
          -0.06239706688684791,
          0.16638681965186553,
          -0.2798475221192275,
          -0.17224443206550227,
          -0.6923471785457361,
          0.3603942532388769,
          -0.15996224405572831,
          -0.381747520090911,
          -0.33327067296180796,
          -0.38119943399990636,
          -0.213969945095898,
          0.17115039153151287,
          0.23738706866736867,
          0.14594865033708038,
          0.257947216725404
        ],
        [
          0.08916057469786802,
          0.08722650517871532,
          0.5307270470734128,
          -0.17367329218737818,
          -0.3823607119250113,
          0.33633435744572054,
          0.09670241801239803,
          -0.09993545689750506,
          -0.14584565959052276,
          0.0932588405936056,
          0.05507817558661426,
          -0.15006251514933075,
          0.30551733511473317,
          -0.6261900984271194,
          0.5773838515273009,
          0.016368841910673074,
          -0.1859780638678075,
          0.4449729572246686,
          0.10119599991126726,
          -0.007301805324679237,
          -0.2642480299427104,
          0.029718050329291992,
          0.1881114827934868,
          0.5752178349743093,
          0.12956491245059643,
          -0.5486018271620628,
          -0.0775308297675828,
          -0.03330310980263984,
          0.4997577860103227,
          -0.18047204888478757,
          -0.6023769725660618,
          0.0804569223170269,
          0.2073093397648624,
          0.28323374686193503,
          0.08000133247750497,
          -0.28934778705522096,
          -0.5269695053795357,
          -0.059508751779749944,
          0.4172031061359189,
          0.5196508301243948,
          0.25723937559692833,
          -0.09151180489108035,
          0.30320000046374856,
          -0.10491456344480689,
          -0.3526681480362534
        ],
        [
          -0.06649136724363806,
          -0.34834628309564103,
          0.2778193620289183,
          0.16554270033066107,
          0.08287581274009956,
          0.43814779668921583,
          0.06749477900583806,
          0.34085001035434603,
          0.2924280290457722,
          -0.2933678656677859,
          -0.1694672869768345,
          -0.0856148902911283,
          0.23289721556731485,
          -0.5478997536100305,
          0.409799845028313,
          0.38295333752036376,
          -0.2889297762438496,
          0.18963513768658447,
          -0.2022212464017498,
          -0.3027128849285321,
          -0.09903082285697601,
          -0.301518496772928,
          0.230113948887674,
          0.001999125575483288,
          0.31572827178035284,
          -0.45955887860883066,
          0.02763913461199387,
          0.23747392485129848,
          0.2827061913335207,
          0.4413883668510955,
          -0.007832031807671964,
          -0.027987388877580305,
          0.09498739810313934,
          0.18072271664260445,
          -0.1805612387287261,
          0.2705393284591925,
          -0.09946106031614627,
          -0.11915984406022707,
          -0.17358933621038852,
          0.7414670864193907,
          -0.36504093074072785,
          -0.08491373146001165,
          -0.1739900026627182,
          -0.2555476212969362,
          -0.17520483964770697
        ],
        [
          0.1760097331843516,
          0.1923224217149876,
          -0.1956984812532142,
          0.45640276497234095,
          0.40396154933471196,
          0.005539500455888534,
          -0.29564276403515505,
          0.15612862856048743,
          -0.2247829822643254,
          -0.00912735428845453,
          -0.19594871318261545,
          0.15330043462570872,
          0.46123729703729865,
          -0.2558892198800929,
          -0.08180854301804182,
          0.22526779649324064,
          -0.3728700519294553,
          -0.078332494910385,
          -0.10371992415178748,
          -0.6626978110803619,
          0.04695404229050039,
          0.07975045538234982,
          0.20121602437832875,
          -0.5192194609255977,
          -0.09743131136133346,
          0.11767323870496008,
          0.2496995284534587,
          -0.26418528688441667,
          0.08663913794054663,
          -0.45471314144921765,
          0.28204526976187855,
          0.031207698309030394,
          0.16566596041807796,
          0.36133768301938035,
          0.31477813328247817,
          -0.08943357608068474,
          0.21366341865696592,
          0.3575989369349327,
          0.13584229989617538,
          -0.36341031415368363,
          -0.39670329771051466,
          0.4121800358040238,
          0.21513331866000818,
          -0.026282799880188803,
          -0.2376729308531109
        ],
        [
          0.34400421475079523,
          -0.05490492315048586,
          -0.22696152213134022,
          0.7102367830094145,
          0.8283354203744474,
          0.2797026551074341,
          -0.6281577658004479,
          0.5623364694335616,
          -0.0654272035994793,
          0.16600356617135004,
          -0.29561174785596345,
          0.2613346358400179,
          0.11187451513526488,
          0.5900699142238985,
          -0.012676369611056497,
          -0.3186051068627026,
          -0.5842435430530961,
          -0.3369532145719133,
          0.012818798353867731,
          -0.3285894287729222,
          0.040463037194231624,
          -0.2964522919152193,
          -0.07587978184302324,
          -0.33532443655802086,
          0.0014186971879083987,
          0.27883255027706827,
          0.4526927606511738,
          -0.3069621770958916,
          -0.41350765679538615,
          -0.49788587023422043,
          0.3369059200551136,
          0.350270293468082,
          -0.08310730439791193,
          0.019287093237549808,
          0.0023958304591168585,
          -0.19167532542350282,
          0.6360303885036215,
          0.2762198337948385,
          0.30306025283436777,
          -0.007938428703417627,
          -0.14027886140326046,
          0.38318540293560255,
          -0.24205985676205213,
          -0.4539263399051,
          0.02651566551213847
        ],
        [
          0.01695586552011546,
          -0.022280404011398677,
          -0.20192751048062654,
          0.09059761076507317,
          -0.09983261522099589,
          -0.05111714586806001,
          -0.3146012994963634,
          -0.11519364711211855,
          0.0021669853093289207,
          0.18490425071578714,
          -0.273752418954068,
          -0.35223171354645816,
          0.08942390216454849,
          -0.5067962862525911,
          -0.2139240856972798,
          0.5069619536843493,
          0.0035737629763867747,
          0.38721215578638374,
          0.5385481379806792,
          -0.3364983750139808,
          -0.04956707815615023,
          -0.18307528472699972,
          -0.19481505066835064,
          -0.23294265706035194,
          0.0728294915755821,
          0.028931739039010085,
          -0.050838492309364,
          -0.23454076344172417,
          0.0774953347954307,
          -0.15853398064650823,
          0.28736605189308423,
          0.25159271435442154,
          -0.09715193257561956,
          0.27081528109914615,
          0.2657171810843945,
          -0.05685570653947225,
          0.23046282649273425,
          0.28253085375123255,
          0.03231007406491506,
          -0.11859672653544438,
          -0.33923596305842213,
          -0.015747743010500307,
          0.25843983344610055,
          0.10183424275617188,
          -0.3472080901940464
        ],
        [
          0.10161000686162616,
          -0.19918708693519074,
          0.054066628465940826,
          -0.18349342909927782,
          -0.17520857999513847,
          0.40401785136760665,
          0.10784097033502316,
          0.2738683632101049,
          0.06411276314675324,
          0.4874217393308823,
          -0.36857036817690136,
          -0.6268897908288615,
          -0.16809788834603298,
          0.1422765249948177,
          -0.15130725659513183,
          0.6326677268043073,
          -0.36904959395009074,
          0.2412604775519462,
          0.2426488679096835,
          0.08755646036502836,
          -0.03495556262477612,
          0.42435392875706723,
          -0.40534345759779195,
          0.019456477608475686,
          -0.05410891729851416,
          0.32344491683449056,
          0.007872577093130866,
          -0.19037438385113034,
          -0.12298483468825347,
          0.4372376217312864,
          0.5305203107825467,
          0.10378754035691459,
          -0.4639308397461575,
          0.24179906710228563,
          -0.1716058428805891,
          -0.28964554192302033,
          0.14883446815351403,
          0.11160379434419841,
          0.2636598431757239,
          -0.23116689570915588,
          0.1800335676091806,
          0.44070198053843385,
          0.34292242703215187,
          0.20343616220816843,
          -0.1445728083719961
        ],
        [
          -0.16716685940138745,
          -0.29318345236653626,
          -0.3227867480640029,
          0.4280492948619654,
          0.19526558163004087,
          0.3850720230871655,
          -0.41133189034713363,
          0.19760715387652422,
          0.2744762224470894,
          -0.37910594505933304,
          0.0314270514098366,
          0.5165610107460996,
          -0.468490595788008,
          0.8881599485773161,
          0.1799254818838451,
          -0.43783750109670205,
          -0.27899746114974433,
          -0.42573107743891236,
          -0.13556371525961045,
          0.03489507742341055,
          0.2515488516459623,
          0.2235389470478548,
          0.12941860745891481,
          0.08469622986178313,
          0.07893815117475,
          0.06558246500609326,
          0.24279324826764198,
          -0.3499736051849647,
          -0.7463411197043219,
          -0.09071362821847334,
          0.11154426692823208,
          0.11564094262971678,
          0.15288888782086615,
          -0.3494921118891535,
          -0.35573026145511794,
          -0.14748471908536837,
          0.11088681381569188,
          -0.43986814065463514,
          0.16574700270960613,
          0.23196006278552092,
          0.03852101478483411,
          0.09269848017407042,
          -0.5472395000576767,
          -0.0719951064695209,
          0.5350955966649154
        ],
        [
          -0.13403661509176246,
          -0.05466437072142057,
          0.5308266510245897,
          -0.47955331002737,
          -0.13872283030118324,
          0.17301527349829135,
          0.056110521486657544,
          0.30942036309659876,
          0.16945593742113169,
          -0.307712440450371,
          0.05887109027648305,
          0.17557790291868855,
          -0.46390871689974744,
          -0.08028209111184602,
          -0.09900283729641807,
          -0.014826129552698599,
          0.19405017558229393,
          -0.18024240176516287,
          -0.045110730239530106,
          0.3028751092164147,
          -0.011560402703405585,
          0.14505740264011993,
          0.10552369943505244,
          0.23568316190902336,
          0.04072048323232856,
          -0.2860237632074833,
          0.2899188252724926,
          0.10579842863723388,
          -0.1581986427747789,
          0.2514018969330949,
          -0.1768921389916869,
          0.2349605306061289,
          0.2884389982470947,
          0.010858911668731748,
          0.07983510817569854,
          0.15226629959905782,
          -0.23125092040929557,
          -0.41720132865439946,
          -0.13143258350271608,
          -0.2046956979958606,
          0.319881815872153,
          -0.37126772772107225,
          0.262427265534576,
          0.2448091813880373,
          0.2671929575188249
        ],
        [
          0.30049627048794303,
          0.1559539131640307,
          0.05893036828664886,
          -0.251873889927378,
          -0.3865174541193343,
          0.0656725793840856,
          -0.04051466954510958,
          -0.2032482227719566,
          -0.19967479745220276,
          0.15201208701780589,
          -0.19186735439985636,
          -0.6333361017657037,
          0.22607540436912107,
          -0.34853408899762106,
          -0.3596118711007046,
          0.5681890876183061,
          -0.08238456617779884,
          0.46777649350296074,
          0.31991692400603744,
          -0.48959004146542023,
          -0.008329131691706359,
          0.23792214269155929,
          -0.115323190073376,
          0.2977716503254063,
          -0.5421906661974675,
          0.2753344659463465,
          0.27206082446945706,
          -0.1455934593710062,
          0.16034214767927685,
          0.038436621948680826,
          0.17257527146963794,
          -0.0792734281078319,
          -0.25083503197531715,
          0.36059456393838346,
          0.166211606710771,
          -0.2729218397601249,
          -0.27299333812417376,
          0.22525033269779102,
          0.14871559880770188,
          -0.3052323383041297,
          -0.11016397560405426,
          0.37720603888655396,
          0.46485242024440926,
          0.00878665119515639,
          -0.1893363192582922
        ],
        [
          -0.03831756503111603,
          0.2712564503204717,
          -0.40444057598948757,
          0.15563864735809277,
          0.5047391066583093,
          -0.45019761277580417,
          0.19109471651581175,
          -0.20865754596065914,
          -0.005952281238736558,
          0.02089371293483279,
          0.3494489258868022,
          0.6012269907847958,
          -0.2646851008111909,
          0.8577958366960828,
          0.10442924822947881,
          -0.6795977330272539,
          -0.3652829495472796,
          -0.816189440281896,
          -0.6166808211625282,
          0.5173234266296821,
          -0.28277040284420013,
          -0.3645173040270695,
          -0.14649654688142882,
          -0.02218491504303619,
          0.3453568345998798,
          0.1671144440377717,
          -0.10597661178849978,
          -0.23201704654845381,
          -0.41852088520016295,
          -0.5937246936506125,
          -0.2555916595369629,
          -0.45032279044416884,
          0.08283256053056004,
          -0.35796070440864436,
          0.27829928696390566,
          -0.204876852187553,
          0.21798519457817708,
          -0.2079965202663399,
          0.26031210379733694,
          -0.305695621849526,
          0.3128535799352156,
          0.12792702992532196,
          -0.7258205678502427,
          0.06578639568062888,
          0.16381809064254985
        ],
        [
          -0.2056367463628717,
          -0.007552498010078836,
          0.37987175415052615,
          0.2572565185792489,
          0.10987333709284904,
          0.2334467400529149,
          0.4021331512473033,
          -0.20668977121597212,
          -0.17123137133403515,
          -0.020639399066986176,
          0.035510392292616176,
          -0.41595836633283206,
          0.17069588674620984,
          -0.6563543975383459,
          0.4620720225506602,
          0.28525558811617036,
          -0.08923300555749053,
          0.3140634537013322,
          0.0799176719122697,
          -0.0650577626703461,
          0.1471829415465221,
          0.18585680399281387,
          0.3311953804419989,
          0.31616741853026475,
          0.22933428324624774,
          -0.36945369621388147,
          -0.19197991814751325,
          0.41840502026339504,
          0.05507355036847777,
          0.4407999975754738,
          0.1970391891627032,
          0.2400687170976902,
          0.02498670129026867,
          -0.20611261799515712,
          0.1022469629203185,
          -0.055848599309714156,
          -0.2650683834020487,
          -0.13323778697964286,
          -0.03995822445901981,
          0.21081264843261405,
          -0.043172504890426754,
          0.08860968034381429,
          -0.003631256448717675,
          0.30112075814169,
          -0.19037318438509815
        ],
        [
          -0.06309521065271946,
          -0.4527057878555055,
          0.6112324181007937,
          -0.5573879729099023,
          -0.7566998963898621,
          0.41547457523289916,
          0.21882009172611983,
          0.2585173571030925,
          -0.11201536178459556,
          0.49818782799669736,
          -0.013605875289679763,
          -0.6590603680453044,
          -0.0868775121300708,
          -0.13591211326248745,
          0.2092081254731772,
          0.7153042609914697,
          -0.21422789641910978,
          0.3027882560372999,
          -0.12070369310884972,
          0.4087964942544712,
          -0.40594790497228533,
          0.5907555360783009,
          -0.5286957944610217,
          0.47714175632000727,
          0.015522657546274014,
          -0.4326169036483164,
          -0.20225446609907002,
          0.45375754492841064,
          -0.03137971394928984,
          0.6440006386833792,
          -0.4823281911971164,
          0.27496496881803145,
          -0.01614679664106018,
          0.010096474561262316,
          -0.27000208737998516,
          0.05117336310679644,
          -0.3177986524390579,
          -0.35283150319334805,
          0.0367361171186313,
          0.6570883568520035,
          0.3361633416469718,
          0.2436402408394373,
          0.3159739576501894,
          0.23894985025093976,
          0.36795848669938436
        ],
        [
          0.16801466025888773,
          0.08827384303799138,
          0.4935622106495804,
          -0.27493794132169863,
          -0.3806879476269444,
          -0.39118728640019285,
          0.2193396119678054,
          -0.16509860647879498,
          -0.24661066113142358,
          -0.6544580574060521,
          0.5004079896551157,
          0.33082170073071326,
          -0.6485287131641442,
          0.550700083690704,
          -0.08076097964482915,
          -0.596813823709649,
          0.6504233597547944,
          -0.5235009382907325,
          0.17184011347781114,
          0.12927594260938235,
          -0.07588330811850522,
          -0.39461182889262353,
          0.4769649546649006,
          0.12230966598012537,
          0.5595362861742266,
          -0.12413765964351019,
          -0.04275275390714655,
          -0.16681031862964696,
          -0.2437435525371399,
          0.18041639863810754,
          -0.6234083831634933,
          -0.058966949150229035,
          0.4149925615529798,
          0.006091528383228749,
          -0.3971168939533159,
          0.05961800314078885,
          -0.16659277019357388,
          -0.6394183068813128,
          -0.5143499798796589,
          0.24435795902486027,
          0.20538636352524642,
          -0.4090615933560119,
          -0.4037113547967874,
          -0.016262165831803645,
          0.3048235924777042
        ],
        [
          0.10081100416407707,
          0.1320030896925359,
          0.3284394092497554,
          -0.40977384804216255,
          -0.5640981718601735,
          -0.3919480961763194,
          0.2684456381825057,
          -0.130859839808696,
          0.1397786674013776,
          0.2212645510116501,
          -0.04240897749685672,
          0.020581135866372394,
          0.2431971918350676,
          -0.5536759429298945,
          -0.08937904328318903,
          0.10441299351046529,
          -0.08464105190379216,
          -0.4120720599552762,
          -0.17677375757335678,
          0.18511405069486037,
          -0.33528527369137856,
          -0.00122743370080262,
          0.03442434842995424,
          -0.06556278146997332,
          -0.47423938781273706,
          -0.02695308676685986,
          -0.1734122497992732,
          0.41239586367762165,
          0.2921235659770959,
          -0.4265409062517077,
          -0.31472541537244475,
          -0.11450892712585006,
          0.2179875507109003,
          0.11192572055312841,
          0.3340940876489042,
          0.026420975308938093,
          -0.22067084490668692,
          -0.10505526535597204,
          0.05014372329067284,
          -0.4517035158753133,
          0.716072850529058,
          -0.44292983662678165,
          0.44274048746780603,
          0.5284517041020315,
          -0.04690760492739396
        ],
        [
          0.06015554794823196,
          0.3113463986684879,
          0.23760681372746806,
          -0.06816594255855965,
          -0.6401614492553122,
          0.09392250947989045,
          0.1005778430660654,
          -0.2516119562904588,
          -0.2552807984412128,
          -0.20909405317996954,
          0.19704182383014263,
          0.1667235188193057,
          -0.2668656136053711,
          -0.32208693748099915,
          -0.3124279441719068,
          -0.010200472817981608,
          0.344211632466134,
          -0.26862161339477714,
          0.2747281945632169,
          0.05716221219983255,
          -0.3799281492061709,
          0.1830029887022719,
          -0.10511241126844188,
          0.4696614355825232,
          -0.034835474303821,
          0.2359900237638583,
          0.21782435288367374,
          0.18687562521279555,
          0.04941123980684333,
          -0.13739287068650188,
          -0.3921033951270517,
          0.14180180101477474,
          0.3170386225891592,
          0.23179956848712963,
          -0.03500402384220399,
          -0.03270193063238613,
          -0.2787349510863564,
          -0.2963350074536494,
          -0.35565539639397525,
          -0.3364216381138402,
          -0.03105954872954268,
          -0.2029228761470615,
          0.22734136592899165,
          0.1316267443867518,
          -0.20803944388562007
        ],
        [
          -0.22119821063650377,
          -0.020704090000329665,
          0.12060545625015606,
          0.041280260150725896,
          -0.3280971243730406,
          -0.40954799248031115,
          0.6701614227504759,
          -0.6666634609287216,
          0.027473806619267,
          -0.2544704236064558,
          -0.061485225230179553,
          0.08216320318161609,
          0.14050790611392017,
          -0.1919515623863072,
          -0.028264358656956246,
          -0.3651962728389786,
          0.30755735039707244,
          -0.11501919038908719,
          0.08341404222868587,
          0.18672824605031693,
          -0.4003202845168642,
          -0.21361833906368818,
          -0.1036906613288141,
          -0.0419428186984254,
          -0.2236681413420398,
          0.020840509205205797,
          -0.4959639993606274,
          0.48307447076272586,
          0.1909657150657723,
          -0.23416060476494874,
          0.059316825742069264,
          -0.16885440000639595,
          -0.07906050026625566,
          -0.23768272314534697,
          0.24016625958245877,
          0.30909566413245504,
          0.08642454089812243,
          0.11217278641821354,
          0.14674732923637437,
          -0.24428022025573454,
          0.14712527380221296,
          -0.47996956983578226,
          -0.20630963222948434,
          0.32539664438779897,
          -0.26861001829312836
        ],
        [
          0.04549282301099685,
          -0.402885857449267,
          -0.23572752250801118,
          0.22938770423350358,
          0.27765895117407335,
          0.6221645003611126,
          0.06532565284452864,
          0.26605219215078924,
          0.26527659090711053,
          0.6231585296503022,
          -0.5217984016820802,
          -0.6221210760461374,
          0.44243476228956513,
          -0.0802766036820353,
          0.3741494087625595,
          0.6046675999703012,
          -0.9170502889818777,
          0.3611328461332615,
          0.03760474740135145,
          0.19222853503637174,
          -0.06933309636385361,
          0.34450899147427055,
          -0.6247064855961302,
          -0.22430506939057923,
          -0.18240268716453856,
          -0.018465145418602467,
          0.11002509411787419,
          0.40309963003979987,
          -0.3377877216282169,
          0.3838757761312267,
          0.40058590568460717,
          0.22885673400758966,
          -0.2796074545475196,
          -0.1255167424989095,
          0.184020398683517,
          -0.2558652361033297,
          0.39882424498165114,
          0.05264062667199766,
          0.4091799941317066,
          0.45912615001810136,
          -0.0024486824917231333,
          0.6482461432712197,
          -0.02820279578720612,
          0.20386539084651095,
          -0.047367664920743256
        ],
        [
          -0.15719253432236235,
          0.7075299442348982,
          0.23475823296621687,
          -0.22276661208908632,
          -0.13852655572621855,
          -0.17846306087581232,
          0.12093538484059564,
          -0.37674825059634387,
          -0.22827830256385262,
          0.09920316872256074,
          0.37645238983225743,
          0.32775499957986576,
          -0.17573570861806498,
          0.08872274325296936,
          0.07571744012694659,
          -0.5547661400333259,
          -0.19252146120862534,
          -0.6638754362051632,
          -0.6194284100586616,
          0.3665584106902691,
          -0.8122480764974743,
          0.19050599770482787,
          -0.050671410698358385,
          -0.016624114791861357,
          -0.1936381579286149,
          -0.09530847113474072,
          0.012732936508934405,
          -0.1673499617048492,
          -0.21123768099620371,
          -0.7030496315227487,
          -0.5849310291012569,
          -0.464552423394117,
          0.15252984789210705,
          0.0035039797790752955,
          0.5392874602569755,
          -0.1956426186765917,
          -0.5263746901796761,
          -0.23078126664047457,
          0.22477741291746792,
          -0.034646819479884294,
          0.7923442285345363,
          -0.5614961505327468,
          -0.37436302065113236,
          0.13431717603536955,
          -0.29987250534940924
        ],
        [
          0.2539583904021506,
          0.1733823953303188,
          -0.01180438338011563,
          0.3986730537909447,
          0.31750639999752583,
          -0.16809595981352216,
          0.31190621263568546,
          -0.5170334890182027,
          -0.15295446191521492,
          -0.16348099433113597,
          0.022862882077095668,
          0.3100142936437536,
          0.07323234229072242,
          0.02698070479026816,
          0.2678354864978684,
          -0.4240592073208193,
          -0.6642783829373797,
          -0.06275859335598816,
          -0.6359184807544789,
          0.4276439256759347,
          -0.4355224785978033,
          -0.22822900278740182,
          0.2818002269930442,
          0.10019281704072494,
          0.16675680722781505,
          -0.597062904004151,
          -0.5991290305455013,
          0.15479652386601425,
          -0.1885925887239957,
          -0.1462923975946006,
          -0.17284146365645567,
          -0.5381738496149387,
          0.12371943021952284,
          -0.42145813608398236,
          0.5032786878242022,
          -0.09195481612846568,
          -0.1967922718291968,
          0.09432621211472889,
          0.46138588124702495,
          -0.08484522517648717,
          0.26662006433665547,
          -0.191213724264932,
          -0.495604403847032,
          -0.19206859427298625,
          -0.13064189426661388
        ],
        [
          -0.10182273708846996,
          0.32550628951406746,
          0.17620082836514264,
          0.04376230591756091,
          0.3237594071483598,
          0.14679613354332413,
          -0.04994587481506796,
          0.017691982061707866,
          0.20007140540688614,
          -0.64618500345855,
          0.28060030757107807,
          0.7650777899827216,
          -0.2647882147272809,
          0.36689613973660745,
          -0.2678240436865581,
          -0.5512600403403529,
          0.6297140220386259,
          -0.4699754073327748,
          -0.06964740549382151,
          0.052208086509819625,
          0.4422674316705927,
          -0.4241345193215263,
          0.3039255567706682,
          -0.21469677974535592,
          0.544507623894787,
          0.2602531858783638,
          0.02970774578082522,
          -0.12404485501787127,
          -0.24243457539816196,
          -0.07360129430856874,
          -0.34505290592977933,
          -0.20515341740450324,
          0.14247506476285812,
          -0.20330166185026957,
          -0.21480108035430498,
          0.2310554794003828,
          -0.2182584974020631,
          -0.001833845246814224,
          -0.5646326502774079,
          0.017123552664268963,
          -0.40454907039461296,
          -0.4086694526997564,
          -0.018701037983681685,
          -0.5420914043364436,
          0.3933667063341062
        ],
        [
          0.05668777029116871,
          -0.20914653836863875,
          -0.2074061274241385,
          0.39695046871682177,
          0.4501948529113465,
          -0.1652196945281453,
          -0.18649928244208386,
          -0.0015358518677768748,
          0.08680530436032227,
          -0.08320214850062026,
          -0.3376865232677875,
          0.2553337142171172,
          0.3120025934065501,
          -0.3354286347786751,
          0.05766235043531421,
          -0.08293970239924758,
          0.1851089781449839,
          0.15186550120374415,
          0.15057035046200729,
          -0.3841502422898152,
          0.25140623347621105,
          -0.4377798102221514,
          0.8303259026412606,
          -0.38921127924919013,
          0.3054848627491789,
          -0.08843990265187456,
          -0.10556874223698419,
          -0.3197620247061229,
          0.20640719988937814,
          -0.022660335625115654,
          0.15555601433008495,
          0.20480299568990126,
          0.12488396909110497,
          0.13443517126612342,
          0.04044428624102768,
          0.28231771525414007,
          0.40036846805409637,
          0.12189590403514267,
          -0.4822922080620365,
          0.035054887981554046,
          -0.42384298203499,
          -0.39071217627506916,
          -0.2549346756532717,
          -0.2831071420727514,
          0.06699501030600213
        ],
        [
          -0.005630932052991104,
          -0.17329138780920414,
          0.4062231712729684,
          0.2918935343711097,
          0.1441384155719077,
          0.11858320741464179,
          0.05958240794358018,
          0.155306234867194,
          0.24551165012796106,
          0.25895958681933806,
          -0.08414579068233013,
          -0.09093957464158427,
          0.4231606226645022,
          -0.5241217326244755,
          0.5070888178175936,
          0.5382480687806603,
          -0.02151078784410324,
          0.7110794928993311,
          0.010514375586667454,
          0.012725774244405724,
          -0.10422255908392969,
          0.2703594156950282,
          0.24171665208033707,
          0.4100878219182326,
          -0.25466694718018973,
          -0.47791693460398077,
          -0.24169361832122213,
          0.5323234904003893,
          0.3427750329195106,
          0.49248490936120526,
          -0.41018616237409616,
          -0.32876531966495975,
          -0.02637917473295207,
          -0.04958282645087773,
          -0.15884639332730183,
          -0.13490102255126044,
          0.050767388264478734,
          0.40617891123979827,
          0.13081448420353745,
          0.9163869258969916,
          0.05080242915374357,
          -0.408966065431251,
          0.07685936087360862,
          -0.06992134339170807,
          0.07271977392030239
        ],
        [
          -0.2825481950445029,
          0.10239540458230414,
          -0.22300596442819398,
          -0.22216426790940808,
          -0.06940931505709634,
          0.07617466721825879,
          0.5242113283091533,
          -0.33453900152769117,
          0.2780327496265181,
          0.08888154735391346,
          0.35271397267331067,
          0.11515970611843457,
          0.05180095861765233,
          -0.052608835144055455,
          0.12848901085131978,
          -0.2130173065451406,
          -0.23718749549823445,
          -0.4459800515465691,
          -0.5350305226710578,
          0.4378780027824253,
          -0.5467007168562127,
          0.16450195014305324,
          -0.08556603170308638,
          -0.09175261743920826,
          -0.10245356200267569,
          -0.47912386186140615,
          0.06712037954664328,
          0.29633630283595247,
          0.12854254963286924,
          -0.21432108749879228,
          -0.19787244570766593,
          -0.23120354567616733,
          -0.09490447368988393,
          -0.25617585463138426,
          0.3647346914096184,
          0.3299532460003873,
          -0.1404670616730161,
          -0.3344677002958922,
          0.29928992004620497,
          -0.2501460749580896,
          0.49103856243218275,
          0.18665955237666404,
          0.04784582692175478,
          0.2760512420567193,
          0.03559354687029249
        ],
        [
          -0.21256186119072804,
          -0.7024979846241496,
          -0.18876307037467147,
          -0.024069545203674464,
          -0.06132500022064924,
          0.16236803326129598,
          -0.04146097958340456,
          0.08491942325230263,
          0.15994330503712464,
          -0.2230937238401811,
          0.05329085491209803,
          -0.31990298487728924,
          -0.25927068649778423,
          0.003498167125406773,
          -0.11354200727782868,
          0.4490064833217053,
          0.22380797300154134,
          0.6270911110131273,
          -0.06327847295295812,
          0.11956001258148771,
          0.4883599489773114,
          0.3147951628089615,
          -0.30123832156041197,
          -0.11738038717827519,
          0.11713114926655871,
          -0.18880332893408588,
          0.2701229733557871,
          0.12613640754744576,
          0.1980474640621936,
          0.6045677045613962,
          -0.16829148223299184,
          0.2820872939130076,
          -0.31367115406123347,
          -0.04309172599144525,
          -0.7164662796913184,
          0.01888811378732283,
          -0.08990582464749815,
          -0.07736448151026067,
          0.0033334481173167255,
          0.39097587638179854,
          -0.5522833120853698,
          0.1644880386534297,
          0.2510639357552795,
          0.20099713264176824,
          0.362140942756588
        ],
        [
          0.08914771218657036,
          -0.42260238639556386,
          0.11286826431559491,
          0.159483504659797,
          0.24497512904009966,
          0.19444498808916177,
          -0.09139486186864233,
          0.2621777557524242,
          0.13654529327356238,
          0.2440823718638267,
          -0.24337593369551316,
          -0.14441976206357665,
          -0.0250755539533025,
          0.12721364012628683,
          0.45510422111266785,
          0.41257064553355255,
          -0.4488855205328933,
          0.3923290119396028,
          -0.09859052993581578,
          0.23384669868566968,
          -0.33590276816668674,
          -0.0220559696765333,
          -0.38346519201926343,
          -0.2554224192102618,
          -0.12185195867188871,
          -0.4837625765675214,
          -0.20558310882218733,
          0.3891387038838682,
          0.2625795250678177,
          0.23615318294374238,
          0.190840088009038,
          0.23314365332137169,
          -0.1860484929883688,
          -0.18493263006909635,
          0.09086500243674468,
          -0.05367961955084577,
          -0.013835948821233991,
          0.15973896127524595,
          0.2641369705053291,
          0.4275557513137931,
          0.0053235258187654105,
          -0.17184821797944447,
          -0.15085468103493907,
          0.2234694547191093,
          0.18401949576050589
        ],
        [
          -0.2412287199948646,
          0.6637838894409488,
          -0.977143538097236,
          0.6599260056716673,
          0.8925849367179944,
          -0.5919430529444589,
          -0.4868414643380228,
          0.006480819779179849,
          0.15537092536184466,
          -0.028365679012770196,
          -0.2880694409441135,
          0.21473346062153367,
          0.032397890767361395,
          0.3321585199365761,
          -0.7278141825557276,
          -0.5186366716166616,
          -0.08179426247609728,
          -0.8829891416992365,
          0.11771299387850345,
          -0.4703138636293207,
          0.4682606647795077,
          -0.3689178854173532,
          0.42645981612104844,
          -0.949438394373396,
          0.0346317506649127,
          0.7703914552976567,
          -0.12063603150353322,
          -0.306804436237638,
          -0.26010335667647494,
          -0.7433198752043523,
          0.8254708296957598,
          0.20764200868071475,
          -0.4185598837112891,
          0.26717036998091254,
          0.0924779118731805,
          0.09068166051830212,
          0.8741454985051966,
          0.4805850731245025,
          -0.35160565000110866,
          -1.0014524198423023,
          -0.7350811833674654,
          0.4575342580693373,
          -0.549169710773656,
          -0.22759276202768328,
          0.12606173027340756
        ],
        [
          -0.04588983034664223,
          0.02802196988989059,
          0.05567142366397521,
          -0.4330836606099264,
          -0.07094805008872486,
          0.11886473317183813,
          0.06107662045493617,
          -0.23175220429600643,
          -0.19830240701817953,
          -0.1550492796042355,
          0.44343482025439274,
          0.2648579990874814,
          -0.32037650084821623,
          0.8212060590204536,
          -0.09766774688677328,
          -0.01842227490120326,
          -0.1774661994742532,
          -0.3973774292925829,
          -0.19821814715051905,
          0.46057493666163996,
          -0.24991793561544554,
          0.03350935001577902,
          -0.48998623455962637,
          -0.0001236496962625097,
          0.1232083277324071,
          0.22280452365680914,
          -0.3608948247281171,
          -0.1467511855232294,
          -0.6169523833588489,
          0.19678084856797057,
          -0.3175334318001749,
          0.19139727755736483,
          0.33995381004149244,
          0.1565259571083362,
          -0.25242424708337297,
          -0.32457302970505897,
          0.1598339298858111,
          -0.046388408100500225,
          0.17310253093229985,
          0.17693548883153407,
          0.27600989291738354,
          0.31138785380612793,
          0.006512453816430147,
          0.28726002758500346,
          0.3536181768273133
        ],
        [
          -0.48404938486167765,
          0.17274890459443995,
          -0.6690083109494861,
          0.5009215759155845,
          0.5959470979598969,
          -0.230116636701675,
          0.537501636429685,
          -0.18279466299097993,
          0.4218294386366742,
          0.1769463182992152,
          -0.36542483686669874,
          -0.17958157550059053,
          0.385196081472656,
          0.3218773199425675,
          0.08819227719671192,
          -0.45049242881744006,
          0.08128003923811838,
          -0.06607502944040793,
          -0.16162868120857496,
          -0.34231972592083787,
          0.3667665920069413,
          -0.2532743935137953,
          0.18535604923992297,
          -0.82223956266829,
          0.22081834213651924,
          0.20296376157027557,
          -0.33594265922745425,
          0.04130807592904751,
          -0.3848097730796676,
          0.09885293453200317,
          0.5904757462741702,
          -0.4311083164137082,
          -0.35668363032980727,
          -0.16091737914147639,
          -0.4092479645131469,
          0.2856073558283036,
          0.46623720886726133,
          0.30008307674260454,
          -0.09766116891226133,
          -0.4868176263177795,
          -0.29629166834106824,
          0.35342735989707524,
          -0.2928880296321611,
          0.09188888010486895,
          -0.07212092915626774
        ],
        [
          -0.17481984118957608,
          0.10009105862590141,
          -0.47259458397994375,
          0.2135494515996112,
          0.4724008672264474,
          0.15714878144558583,
          -0.05012461150317687,
          0.3355341474845496,
          -0.17159960364508395,
          -0.09836337130929913,
          -0.1725990344954442,
          -0.04188931281954182,
          -0.01160795967408484,
          0.4128921659117053,
          -0.2072587672856911,
          -0.07782324263081077,
          -0.5004547770633274,
          -0.14096870164090883,
          0.23411590701499355,
          -0.04292212295935562,
          0.6118728354685063,
          0.19720030240149233,
          -0.44929302565501883,
          0.041130823758944994,
          0.021345547804553704,
          0.34792551442229497,
          0.059372755779418064,
          -0.3205652992276217,
          -0.5880662085242976,
          0.24170295382724444,
          0.49444141394545577,
          0.3692992671992366,
          -0.15413439613716215,
          0.07887252909740265,
          -0.165949479283429,
          -0.12006361873775837,
          0.12474405295888975,
          -0.06980434984860714,
          -0.12491722922748037,
          -0.37506359629380187,
          -0.5823371769118522,
          0.2889054089904399,
          -0.31748939295205164,
          -0.336724753937408,
          0.30711539710250246
        ]
      ]
    },
    {
      "activation": 1,
      "biases": [
        1.019542243364057,
        -0.2537282923567743,
        -0.3714718967106872,
        -0.023636954746188543,
        -0.5676485199276744,
        -0.6438527788924487,
        -0.12346099740527597,
        -0.10357226747462533,
        0.4326313260955987,
        -0.15645411691677238,
        -0.39406247985395243,
        0.5368856442727866,
        0.08099207160295582,
        0.39324866413464415,
        0.6464289876215105,
        0.23194987767686487,
        0.04652211686432934,
        -0.20511818423021855,
        -0.44173489858270887,
        0.1168570318541929,
        0.035816595832007705,
        -0.32108586160324876,
        0.3583584513336969,
        0.5747918701228745,
        0.0025754078399897722,
        -0.5468320720886257,
        0.5660621337721294,
        -0.3694888501653448,
        0.9128161837564058,
        -0.27138187569078875,
        -0.030868666527401483,
        0.38856816944363154,
        0.03255285169842766,
        -0.6857065122183961,
        -0.050062281621448046,
        0.3125250515027434,
        -0.6625950446541696,
        -0.18009589941248322,
        -0.35852851303265326,
        0.025910558913978098,
        -0.4855093882903904,
        -0.930001233997462,
        -0.2590657573476133,
        -0.19568545412835156,
        -0.14707220805619167,
        -0.24110757336849897,
        -0.02464280668254429,
        -0.8017445172149968,
        -0.5094620813310355,
        -0.9390104507485434,
        -0.7149737350400579,
        0.054657232636056936,
        0.29725605026516116
      ],
      "cols": 53,
      "rows": 45,
      "weights": [
        [
          -0.8232642217857425,
          0.3490572770188206,
          0.07743890005784689,
          0.02678648158288867,
          0.4814176457520348,
          0.6770178754604596,
          0.17585854323114017,
          -0.17206230968288208,
          -0.3426347815610192,
          0.08285463751902593,
          0.2987893046925648,
          -0.4086469570615561,
          0.05491212087678061,
          -0.434720045389688,
          -0.1427956902890935,
          0.11579366070101911,
          -0.13896766776141053,
          0.08460218623019555,
          0.28025503660058343,
          -0.04911187951224554,
          -0.014983930092789817,
          0.10050593976255648,
          -0.3829195531336313,
          -0.29849033663591157,
          -0.2219791399716321,
          0.1880733054458271,
          -0.57169698563148,
          0.32719269886856533,
          -0.7592031076833361,
          0.0825663961683322,
          -0.2991733838265065,
          -0.2329871789101405,
          -0.05920142472151402,
          0.3290053720074709,
          0.13349221662264193,
          -0.37800772118893416,
          0.38423123103305357,
          0.08902212911444504,
          0.08301520798581127,
          -0.16394172374857646,
          0.2793082338047735,
          0.3517940343525388,
          0.26012745014869554,
          0.04077824329730101,
          0.11859702905556732,
          0.3133559448055628,
          -0.08076636456345404,
          0.6927270878233598,
          0.06929133607585576,
          0.3885002141771337,
          0.22324657418751537,
          -0.21130490189714513,
          -0.09347295995697534
        ],
        [
          -0.2931150302760754,
          -0.03626928062202926,
          -0.11353412948160202,
          -0.06885542902767423,
          -0.21255035540647507,
          -0.26458702341047097,
          0.39004147161135383,
          0.15072137646978365,
          -0.09690042034422695,
          -0.057173997840183524,
          0.13800709400037184,
          0.45876530119650416,
          -0.5383454374948194,
          0.7722864359850606,
          0.2877820581898748,
          -0.007104756823389211,
          0.2815031254650073,
          0.8175764985861652,
          0.10841476044684312,
          -0.15149941303202039,
          -0.06900495305303642,
          -0.04643794754596619,
          0.21587167508260885,
          -0.28651003621218935,
          -0.0036518029557664937,
          -0.19682304663140418,
          -0.07068059515200983,
          -0.011401581370998778,
          -0.2983497864077457,
          -0.12088053305841069,
          0.4866600118319426,
          0.004231507862384279,
          0.16428112880090598,
          0.029472702832280068,
          0.04246059461729211,
          -0.9242568699467565,
          -0.22232671411118196,
          0.15516444280550842,
          -0.6099908463384387,
          -0.7299528911780011,
          -0.40860231695460286,
          -0.2601846670368553,
          0.5685125732433732,
          0.13203704782555534,
          0.060112074404990244,
          0.5903765501453886,
          0.4216111863179036,
          0.12302050689792408,
          0.3370844844734782,
          0.0978401446476525,
          -0.050337549080212526,
          0.16921400195382388,
          -0.307043125906609
        ],
        [
          -0.38718527736703345,
          -0.4969558594950044,
          -0.006951785641099892,
          0.13606380324546158,
          -0.12885339180994776,
          0.741485734485123,
          -0.15495320974106083,
          0.2697872596933049,
          0.06473893954414085,
          -0.016257963311565496,
          -0.1505352478668442,
          0.4706124793236023,
          -0.26011210146367436,
          0.8878995030394563,
          -0.1543086716341366,
          0.05517977778207002,
          0.2651515116685306,
          -0.689239101722564,
          0.02829045079038052,
          -0.052063057120205265,
          -0.08905541423575393,
          0.9065930886982136,
          -0.061844014571597765,
          -0.2039488028504338,
          -0.16066384093832167,
          0.7887422521821229,
          -0.09317374072261343,
          0.12279410200954032,
          -0.1837543865053121,
          0.20539269161565815,
          0.6729795026737376,
          -0.34128960234115635,
          0.40470399149126285,
          0.08816518369292929,
          -0.11046343773839218,
          0.5770559896933847,
          -0.275367017397355,
          -0.28725556233723537,
          0.5746841921208092,
          -0.4260264992289522,
          -0.31273301430911543,
          0.43425591078262904,
          0.10199010994180661,
          -0.17499930195593136,
          0.6069727861535851,
          -0.0949205876573046,
          1.0649154402634815,
          0.31496448776683245,
          0.33576571487987544,
          0.24620570586205645,
          0.1955429867802731,
          0.0731039539250139,
          -0.11467115082923093
        ],
        [
          0.652840557100715,
          0.6823281859607477,
          0.09594244618653067,
          -0.001840284283144452,
          -0.05340600568130804,
          -0.32358697111452034,
          0.3466537589709583,
          0.025319357247674812,
          0.1963329352475871,
          -0.13502167916135016,
          -0.04812257053491716,
          -0.32550774244059744,
          -0.1597276429433321,
          0.14522281053886216,
          0.15414326349025986,
          0.09988539358904015,
          0.10978575011802871,
          0.20169736362233756,
          0.018304737287944645,
          -0.1111828487296475,
          -0.15645269713963755,
          -0.7871961393624489,
          0.06862225547747756,
          -0.0255829771418202,
          -0.05175569253857612,
          -0.23654773565402545,
          0.5697614641199887,
          0.004763081034008869,
          0.5296795022652322,
          0.10307209236848475,
          -0.242218199022055,
          0.279516851931142,
          -0.6556772380096086,
          -0.20401874765683345,
          -0.07862168462374382,
          -0.27647442431143743,
          -0.3210065551420115,
          0.5499780358517885,
          -0.6193014827804951,
          -0.6171455434307613,
          0.16102172364333836,
          -0.9214386092771182,
          -0.16109496000673393,
          0.07451748539788074,
          0.256231499814178,
          0.10926208279982182,
          -0.5438959860880032,
          -0.40668608447115734,
          -0.4039161295801552,
          -0.6681679689009273,
          -0.3433217389601388,
          0.09753765315468961,
          0.23380051462227222
        ],
        [
          0.12682565370784976,
          0.7908100935406127,
          0.06540972285865954,
          -0.00449883900660643,
          -0.15020755557688426,
          -0.4567432619139114,
          0.3602857010278677,
          -0.11277530589729216,
          -0.22399087696432426,
          -0.08050331166423877,
          -0.260318624349865,
          -0.4423643759010373,
          -0.25154422649927577,
          -0.3918277683949434,
          -0.10424720139066428,
          0.11932906153710861,
          0.12177795046524598,
          0.3927818592704963,
          0.08440183026065631,
          -0.20234788582671973,
          -0.05286854931133248,
          -0.9918897044034134,
          -0.2971150200215922,
          0.10038360079908991,
          -0.1570547526949225,
          0.1524992256199953,
          0.09238602602813971,
          0.0145605174990254,
          0.4169741145260141,
          -0.16833226537810636,
          -0.17933352200818042,
          0.4341134123412021,
          -0.37911614326378146,
          0.0535212351580169,
          -0.03374038255116312,
          -0.473386404312814,
          0.37346926434865807,
          0.5232435658143861,
          -0.60767911068047,
          -0.7987696755730244,
