{
  "layers": [
    {
      "activation": 1,
      "biases": [
        0.03742577310389094,
        0.09588384733703738,
        0.34739547254343556,
        0.2198192827605104,
        -0.37009581917109097,
        -0.762099426504108,
        0.228749576448771,
        0.4409933677514343,
        0.3153211689999485,
        -0.18572242376027207,
        0.04098320242815612,
        0.10868956798262676,
        -0.09166199412179568,
        0.07675852568852161,
        -0.44309904433534764,
        0.6914043741125258,
        -0.39197155095979724,
        -0.9278587323366425,
        0.5172951967359407,
        0.49608630391232994,
        -0.7920399825235934,
        0.1487193944957228,
        -0.44410639607180413,
        0.3256969314858483,
        0.3934929173648191,
        -0.4652116013113373,
        0.3430302921005115,
        0.7768969431745288,
        0.3955484875433163,
        -0.40365160332931677,
        -0.8262082078721394,
        0.21388615442123599,
        -0.10521193236568831,
        -0.24944327917751274,
        0.3293522397595092,
        -0.04885832761241684,
        -0.1615779222305768,
        0.055309265220760295,
        0.4178843872046575,
        -0.05533082695757601,
        0.6188167675811704,
        0.4751047063176997,
        -0.5806133771589667,
        0.40554461013291415,
        0.15843573033332317
      ],
      "cols": 45,
      "rows": 10,
      "weights": [
        [
          0.7000724682769357,
          -0.8125605334299603,
          -0.7271209325180809,
          1.1070732131219443,
          0.7632849940414895,
          1.0862733705510734,
          -1.0475868393256682,
          -0.2984216290186592,
          1.1899670539641745,
          0.5331325941044802,
          -0.28992679844048524,
          -0.7533811538821631,
          -0.7825271012306035,
          -0.11426020208798987,
          -0.2503834319322134,
          -0.3833108662510787,
          1.18407720803752,
          1.379194415425497,
          -1.9928783580544254,
          -1.7638592011220768,
          3.1058861265234614,
          -0.48536167755850845,
          0.5019306718741612,
          -1.6907011054421752,
          0.5391651185566381,
          0.25930385492405755,
          -0.6702865963877648,
          0.016826942463910678,
          -1.6875036697496726,
          1.0552889055296966,
          0.410730252261072,
          -1.5193189241970833,
          -0.3027528826966682,
          -0.9101056907127766,
          -0.1757478175514282,
          -0.37368664401684665,
          0.1861960209445279,
          -0.20086533032939427,
          1.380947859115114,
          -0.7984735341449196,
          -0.07923511934265329,
          -1.2833197570670383,
          -0.05805060999380799,
          -0.15636614548245534,
          -0.009587500325741202
        ],
        [
          1.3603092033571016,
          -1.5558837265797012,
          -0.047317352475201975,
          -1.9124529063890365,
          -0.192276926881376,
          1.1254154827850809,
          -1.610492203180049,
          0.22705116996561803,
          -1.8859927327608104,
          0.17496634280537873,
          -1.7219306009517992,
          -0.7572338353249755,
          -0.7044167637587061,
          1.265455231966001,
          -2.141731244511049,
          -2.4983406339093555,
          -1.3501840576812771,
          0.49356866519163456,
          -1.3117452352315888,
          -1.428171014306055,
          0.7074834907334768,
          -0.8258451671089526,
          -1.0072643459371051,
          2.728271289173413,
          -0.4917529240231477,
          0.8834585908128136,
          0.09733993730257966,
          -1.2674198261380385,
          0.7957668322008675,
          1.1463030092215847,
          -1.643736613869003,
          -1.133478337091487,
          1.00674592756869,
          0.29731072766810596,
          0.030097667535393672,
          -1.8208910798506557,
          2.2724677890748812,
          0.058851187952185614,
          -1.7263298384374897,
          -1.3223841220510573,
          -0.006042369651139434,
          -0.7466990166147324,
          0.11256325019437753,
          -0.421333099997993,
          -0.3407337110189874
        ],
        [
          -0.2663922694957208,
          -0.3902024522512838,
          0.8405645047902841,
          1.395543610300945,
          -1.511087437499191,
          -1.7286808297029421,
          0.7238342083895912,
          -0.749082670280802,
          2.1048435753817096,
          1.486907959395289,
          -1.6400571489361757,
          -2.5204870036197065,
          0.01056037114107407,
          -0.31605177815990243,
          -1.3709503752544874,
          2.1490161318056766,
          1.342461709941208,
          -3.40792871978481,
          -0.1303645176715983,
          -0.5245678529959189,
          0.4201144932447236,
          -1.194026649650383,
          0.2922582938075766,
          1.5420848829413079,
          0.18727477317835908,
          -0.7812940417944346,
          0.6752537608158458,
          2.265753521881341,
          0.2508946882499076,
          0.5792128250101195,
          -0.46286358236344577,
          -0.2411744954649801,
          1.4880901251414056,
          2.526393313949645,
          -2.133517068594683,
          -1.012847063507487,
          -0.8662325509856588,
          0.8029596362400255,
          0.2530066282950361,
          -2.6582579476257022,
          -2.110932556627486,
          -0.1978581457305354,
          -2.45907374590911,
          -2.6421881456302954,
          0.3994845170353111
        ],
        [
          0.7485057336038882,
          -0.319861445375308,
          -0.3389015378430223,
          -0.4604514223380423,
          -0.8556197392743842,
          0.737260631894359,
          0.8641666910349675,
          1.0407212880279373,
          -0.6184310946864456,
          -0.2785876755435644,
          0.9802643534711135,
          0.02674968911172044,
          1.1476112742807192,
          -0.3267972762350135,
          -0.02230164132272462,
          0.4242216131822489,
          -0.12309308666534091,
          -0.19710242937381045,
          -0.36131933929846577,
          0.16610661277470706,
          -0.14991150792421676,
          2.719028870400848,
          -0.19378136745298036,
          -1.2626739413661265,
          1.8140495158103158,
          -0.8137465905317777,
          0.8012416474060976,
          -0.3201538240776672,
          -0.14698964147202725,
          -0.26141220659659425,
          -0.033613636159854424,
          0.15957973116975324,
          0.8058843831492646,
          0.04115615048962252,
          0.5370114067428046,
          1.9933390594517226,
          0.9821166456517872,
          -0.8373888784927356,
          -0.510353196098708,
          -0.6909039868734689,
          0.4358155909262543,
          0.2526272322118407,
          0.9131030316746105,
          0.7521761560539985,
          -0.8670150570339272
        ],
        [
          1.028252743916269,
          0.05775379083197316,
          0.07103241512146387,
          -1.2782529008811512,
          -2.7280471470602365,
          -0.721850374202104,
          2.2735249444804237,
          -1.927385757693629,
          1.9811677160617511,
          -0.2670822843442982,
          -0.3464314841470878,
          -1.400707850793989,
          -0.32513162066341383,
          1.7672741087125505,
          -0.0805537624206794,
          2.036015735751256,
          1.6661193628543325,
          -1.1634826337473083,
          -0.04372057127208577,
          0.1612375297815543,
          -0.18772113319456823,
          2.2889653631005404,
          0.5999853709762305,
          -1.1371860002587482,
          0.3362652860233582,
          -0.6031090193754644,
          0.057938288120732144,
          -0.8478342349163727,
          -0.4558222356934836,
          -1.951741956065856,
          1.6567547828749978,
          0.23179245244402688,
          0.6466044182041685,
          -0.3403685657230944,
          -2.232604235186953,
          2.5813726651751465,
          1.2456021403740702,
          0.5856035839724638,
          0.9982798419693325,
          -1.375140196477655,
          -0.3497027185937798,
          -0.2318659808740506,
          -0.4003641161418528,
          -0.07815195367394337,
          -0.25376911930180035
        ],
        [
          -0.0819671512697844,
          0.4324968700456734,
          -1.1091337338933125,
          -0.21762530921932507,
          0.4936699215663646,
          0.34052071359613895,
          -0.08950793136352746,
          -0.9559618007393486,
          -0.44629285334841573,
          0.3838103112303946,
          0.1276970992807969,
          0.8241526179741611,
          0.39825795165192207,
          -0.48610002092991367,
          1.435883344017364,
          0.157086946755091,
          0.4542726919969323,
          0.2957692425711013,
          -0.5235237760992582,
          -0.4602332049161456,
          2.5162410194878437,
          -1.2771417176959827,
          0.8970270711664685,
          -0.20100573895344398,
          -1.950647668958258,
          0.7301164758817825,
          -1.2509709474534156,
          -0.6214692781107256,
          -0.7962618549421006,
          0.27779439951835033,
          1.8214282180292634,
          -0.7412749320982872,
          0.23373214757933633,
          1.3701599367174009,
          -0.1167514531833138,
          -0.1417541722856204,
          0.15411573481051477,
          -0.1869435041956328,
          -0.8417563591613758,
          1.4250204587829405,
          -1.3623200006169596,
          -1.7057968881550427,
          1.1718646891307811,
          -0.5870790965876167,
          0.005795147160560457
        ],
        [
          -0.8069016993024909,
          0.4396467835410738,
          -0.2645918281241198,
          -0.7111417282854609,
          0.3610468849917498,
          -0.2684053908520655,
          0.2823026887274971,
          -0.029689733833751855,
          0.3766149266447042,
          -1.4398710628938596,
          2.6696104375522696,
          1.6232769091947556,
          0.5405535819249739,
          1.6606899949797145,
          1.5537855846513426,
          -0.7290177132300037,
          -0.9349795447459928,
          -1.8850098186044555,
          -0.11769447011384929,
          0.7225710411983052,
          -0.40186824803110366,
          1.2958459569052407,
          0.12812006275578233,
          -0.7173451479404676,
          -0.2613421579333315,
          0.7779972730528867,
          -0.5790082480438156,
          -1.049696601525157,
          0.2672196754198057,
          -1.469606525387277,
          0.35687784987875226,
          0.005180780449139972,
          -0.9968633922794757,
          -0.5332270152043584,
          0.011587681564660779,
          1.8782356799916713,
          -0.9026971640430027,
          -0.53647794309415,
          1.212333938374178,
          1.7244759052280412,
          0.5593287479117462,
          -0.6928628659858045,
          0.661931377372161,
          1.490703417512157,
          0.21403171251171604
        ],
        [
          0.043019741696955806,
          -0.4472235473203507,
          -0.15258860628176246,
          0.6053752452336443,
          -0.038163293579610125,
          0.4570400880116381,
          0.7008734643881696,
          1.1385920669015248,
          -0.5949629571300481,
          0.7553076327681212,
          -0.18621588054181756,
          -0.5010274597665982,
          1.0513396816176743,
          -1.5421110646849119,
          -0.23238829961697716,
          0.40123030095011064,
          -0.4657176530695886,
          -0.8597906935710062,
          -0.38632816321767927,
          -0.5463231642838392,
          0.6008856741269382,
          1.5145019218924063,
          -0.24308613944686314,
          0.03371081001756717,
          1.7948106369506958,
          -1.0368551314326246,
          0.7936536023099661,
          1.4290928548638562,
          -0.16389765685346153,
          0.44505468960698363,
          -0.36700934206474317,
          -0.37261179339102396,
          1.158049940128216,
          1.5168788504142232,
          0.8958454000617342,
          0.30892480795232147,
          0.37162844184549343,
          0.018225443657411897,
          -1.3357645338265598,
          -0.6438031655191265,
          -0.36118769244004334,
          0.5438736698218157,
          -0.2973067375371101,
          -0.8262451058500442,
          -0.4912040879995807
        ],
        [
          -2.3682860172633546,
          -0.17944092781717402,
          0.19337415540283864,
          0.04365387644437378,
          1.996053165900022,
          0.05812450443220597,
          0.4747001713432468,
          -0.17233025808851235,
          -2.492533266382985,
          -1.4577189535790724,
          2.047192444210048,
          1.6170277645407034,
          1.3719795753440374,
          -1.5470998182726767,
          2.379002263921555,
          -0.3925896851924528,
          -0.16816842798355094,
          1.3325909826645144,
          -0.5451506119312242,
          0.15725068646223903,
          0.2011107721737797,
          -0.5823935668963371,
          1.0680663446433463,
          -0.6989835770467312,
          0.022816212454232696,
          0.26477355332389646,
          -0.15654463903342344,
          0.17467972208490135,
          0.013894225685622947,
          -1.132912684411184,
          0.7014185597296629,
          -0.05043957550942723,
          -2.2295062664859286,
          -0.9046832512909408,
          1.9211255253476305,
          -1.129527388311809,
          -2.3265645629022536,
          1.2444345512651362,
          -0.86444061635258,
          2.827514101562019,
          -0.07043435470399091,
          -0.27815406185173164,
          1.2898976073953003,
          1.8064437620200353,
          0.006033644911139297
        ],
        [
          -1.3463622438893834,
          -0.26969967484115515,
          0.14198337892488433,
          -0.3069468395500553,
          0.8402549092346336,
          -0.5437303783019829,
          0.1478763962886227,
          -0.3462544915372024,
          -0.888075629305046,
          -0.5761184172964977,
          0.8160307925647631,
          0.7272340710851248,
          0.18919044513415845,
          -0.03892904149874384,
          0.8685625067166278,
          0.17484664118521817,
          -0.04374777722618078,
          0.43878049742045405,
          -0.03223289622573974,
          -0.12973946566617162,
          0.3567388843633636,
          -0.7317726509845178,
          0.5663564875152034,
          -0.3331654258703731,
          -0.599430594095484,
          0.39999287715804827,
          0.05234604539663301,
          -0.16692705275289624,
          -0.2433002541745809,
          -0.9624422771440988,
          0.22582628917885486,
          -0.3353404763865228,
          -1.2282176395450146,
          -0.11712751144570134,
          -0.08658412040495468,
          -0.778072256087831,
          -1.3192911755582197,
          0.7199024630581183,
          -0.06335121720554084,
          1.3899912741840414,
          0.028753913032847477,
          -0.4661574759628993,
          0.17742580996423082,
          0.5683834166303376,
          0.25658023507912664
        ]
      ]
    },
    {
      "activation": 1,
      "biases": [
        -0.12286112275516811,
        0.08355732215389318,
        -0.020925371390966785,
        -0.040715798545024946,
        -0.21128809542644225,
        0.0021897403540660234,
        0.003748574277647396,
        0.045629989450662094,
        0.14690382034249885,
        0.16263266371495325,
        0.09095718764437542,
        -0.030021608623064952,
        0.05475880070789434,
        -0.19445198013293116,
        0.0015908259779444408,
        0.006568299697436565,
        0.22835495247861795,
        -0.04918193024148951,
        0.04960003408513942,
        0.2872304283756074,
        -0.0756666568461934,
        0.010533793444878412,
        0.03953862808443739,
        -0.06431133094158066,
        -0.13052574673969994,
        0.03445840860395199,
        -0.10159369379673114,
        -0.07843948920467049,
        -0.009120933407013048,
        -0.16172569743428955,
        0.042685395786999085,
        -0.19238920399527573,
        0.09264757060280575,
        0.14083062947788658,
        -0.056974561207284995,
        0.4026389892271913,
        -0.06313900933334365,
        -0.022728451859230517,
        -0.16107340153408356,
        -0.0037051411117988344,
        -0.044814234873984816,
        0.16005936500347503,
        0.13252593957777817,
        0.21617612263234715,
        -0.07245649099045685,
        0.2090803466017064,
        -0.17728820134073286,
        0.015327745730766524,
        -0.06544519196788225,
        0.07963458757928553,
        0.07349663483993134,
        -0.07007623505801654,
        0.44632732934188435,
        -0.008640868480004964,
        0.20661218804501277,
        0.19568260105780053,
        0.007010070934245325,
        0.015587007676981068,
        -0.048138501448764824,
        0.11470390795923459,
        0.30850937022581953,
        0.009268581235947133,
        0.15472751104007532,
        -0.05832290725604505,
        0.20165096128639745,
        -0.10531297582271931,
        0.03493840096646417,
        -0.027055151769319264,
        0.03114080558704126,
        0.00214377388613724,
        -0.022737555976197588,
        0.016292874481267674,
        -0.4769174578506207,
        0.01509809719276314,
        -0.09329919705883458,
        -0.07046634919736473,
        0.01187961988570602,
        -0.012093804645686596,
        -0.012575266708023463,
        -0.09388255963474554,
        0.09516800750669746
      ],
      "cols": 81,
      "rows": 45,
      "weights": [
        [
          0.2426731117821738,
          0.012603415461197231,
          -0.6090434940074023,
          -0.10694315223402019,
          0.06350767422831824,
          0.06170234966109251,
          -0.08930125113759865,
          0.39813961258981756,
          -0.16482883916801735,
          0.1547346161273846,
          0.5261296480816515,
          -0.09777816700362288,
          -0.5558551141718494,
          -0.4205388601975137,
          -0.05687381298780075,
          -0.2273802317837785,
          0.7248680914484668,
          0.11034735563997208,
          -0.3040298247573927,
          1.025285410057265,
          -0.39614015790878127,
          -0.10677700716796583,
          0.6675577621582253,
          0.1250009978822768,
          -0.1314668922326708,
          0.35341034456096987,
          0.040649619204518435,
          0.18979043230058923,
          0.026889444466284967,
          -0.19885345291526738,
          0.4806724620584059,
          -0.6705528954275447,
          0.0167929326905919,
          0.108678508960088,
          0.38286391300793937,
          1.4975335977566235,
          0.12322692623833074,
          -0.004528118341476534,
          -0.40033490712970193,
          0.08713695419918144,
          -0.5583483744241767,
          -0.7323907383772909,
          0.8707208603493531,
          -0.1278370955829295,
          0.5889684584456196,
          0.13317318095057956,
          0.025312121593988778,
          -0.37633818227170823,
          0.21653901102571724,
          0.6559102604628685,
          0.04961230582408123,
          0.29994754613210733,
          0.4725219155497716,
          -0.40964027675611914,
          0.5389374154124308,
          0.21728434934144322,
          0.03333921714721607,
          0.1017367919672317,
          -0.3067551480086607,
          -0.2040003042500052,
          -0.5577354562254526,
          0.10575142276651578,
          -0.09950080078951172,
          -0.2756509668094316,
          0.5124372449761485,
          0.0642699683009491,
          0.4648863681209133,
          -0.37131179880584925,
          0.0837863135148403,
          0.6572102068812792,
          0.051300957645171265,
          -0.6566402160379876,
          -0.2749995036278988,
          0.37102898047596417,
          -0.9629239122961447,
          -0.6416147009924185,
          0.3439087116240119,
          0.11526880513023649,
          0.2210853069291083,
          0.106098228989204,
          -0.18811839175684628
        ],
        [
          0.06522222985410606,
          0.15865951754011443,
          -0.4289624010148076,
          0.04198292207044211,
          0.053432191599554014,
          0.16683657520231257,
          -0.006510512340987996,
          0.11060649468453694,
          -0.18172364068286265,
          -0.09711903359570787,
          0.281881691983683,
          -0.12592199564533957,
          -0.0031600296169021665,
          0.23880374696485443,
          0.464650487884406,
          -0.20176303252979266,
          0.04203382613083406,
          -0.3603027573052202,
          0.12347416781828709,
          -0.35347177260902185,
          -0.23970354955326156,
          0.19693167578543636,
          0.027572759850984965,
          0.06516790177962768,
          0.02947580622690489,
          0.05693360376995652,
          0.31843729909524787,
          -0.04203433087788,
          -0.3123138068211649,
          0.18424467143862902,
          -0.1906118169770058,
          -0.013575535793754711,
          0.3709145056807879,
          -0.009679186487408025,
          0.27325159143357786,
          -0.33058632444349556,
          0.09154047567910788,
          0.51601544501747,
          0.3071243868188498,
          0.10165648404300347,
          0.2628916377477988,
          0.11468482567007407,
          -0.1304587003666361,
          0.33230895120712656,
          -0.2971080256424947,
          -0.31393788261079913,
          0.2998737955971665,
          0.08938710250439127,
          -0.14870046764992556,
          0.13242457290995316,
          -0.2527376820815349,
          -0.16737328404761878,
          -0.30044629432757586,
          -0.1214754287058318,
          -0.5447425874421737,
          0.011911046910183758,
          -0.19173202902933847,
          0.050697694042135547,
          -0.0001358797993363828,
          -0.07061983956104585,
          0.15933787448564365,
          0.1308996454001148,
          0.0631236053789144,
          0.427552192144129,
          -0.13683623655927063,
          0.07954798203316481,
          0.3711123840353476,
          0.22526137644538538,
          -0.3464600416313129,
          -0.19809884290807203,
          -0.1009046676973555,
          -0.029846461035933147,
          0.27137139709399066,
          -0.3703983722109739,
          0.1407925225289922,
          -0.45375319263033187,
          0.32258336799827686,
          -0.19090121622260064,
          0.12512477845907066,
          0.12158019376380644,
          -0.2912040049445266
        ],
        [
          0.024665970478749473,
          0.38330840697029767,
          -0.2818155724703809,
          -0.2304063647034433,
          0.5606866328516352,
          -0.015307477065082419,
          0.24447657545390847,
          0.2764822308394669,
          0.07728084592314925,
          0.29834332495663557,
          -0.007873252063054354,
          -0.2136910537748571,
          -0.009917783074420507,
          -0.6199209017535228,
          0.10262994989225709,
          0.07597761954875304,
          0.02754536263429093,
          -0.027564068063031674,
          -0.059052903622210336,
          -0.06832185626513584,
          0.041063796891547155,
          0.05692078858244578,
          -0.06969653607158549,
          -0.32083047911460455,
          -0.021319299295269947,
          0.11772779194790427,
          -0.28747564737531844,
          0.11864386454355544,
          -0.031230099583059723,
          0.06624860090808679,
          0.2448730064604053,
          -0.16516449979375356,
          0.09007236783832955,
          -0.27947618617460707,
          0.026735506645995694,
          0.11464047211346011,
          -0.22746853497017058,
          -0.036197370889847806,
          -0.12861778828264067,
          -0.014182992393898895,
          -0.14814587904254237,
          0.3583716075089664,
          -0.32528803401596895,
          0.7384389155047892,
          -0.12986364321260543,
          0.17216792926247879,
          0.5316912408625935,
          -0.08462830722696794,
          -0.2197942044656247,
          0.2554208363098761,
          -0.08683073587529064,
          -0.3958771093810345,
          0.2998515462936084,
          -0.13473636375411818,
          0.11185401348140137,
          -0.20548009045341112,
          0.057708717161379264,
          -0.06517810083057364,
          -0.20608560225308079,
          0.12277665859221376,
          -0.13867361084635305,
          0.19621428758238704,
          0.06875703083505588,
          -0.3012499757549803,
          0.2214546097707789,
          0.023943648939341675,
          0.09666502761258233,
          0.1974359170020932,
          0.0920922872121708,
          -0.019799780562316356,
          0.309499839576329,
          0.3321742587799869,
          0.7685775291358925,
          -0.03873990744609515,
          0.12178056397053362,
          0.24266031330377077,
          0.15113339622645022,
          0.1755210344329926,
          0.3140695831126972,
          -0.023275901338809454,
          0.2520326211279047
        ],
        [
          0.28119105118299537,
          -0.3461864963563036,
          0.26382148246786963,
          0.04204604943106072,
          -0.08257965353763232,
          -0.2329476627351532,
          -0.1591032722576262,
          -0.38075215028282755,
          0.03699737777337515,
          0.2861573929514272,
          0.3325996981637668,
          -0.36105099191095263,
          -0.10652804792134901,
          -0.10774442151016028,
          0.7654571967716104,
          -0.47092797785301016,
          0.027752035208231864,
          -0.5435990356322858,
          -0.6664446042320639,
          0.3491484093959585,
          0.33852753572932265,
          0.2769780215266325,
          0.019069688069249552,
          -0.025527463034293936,
          0.22317892621531968,
          -0.0744489300045315,
          0.012481376285761365,
          -0.8695923601915887,
          -0.06061299940248587,
          -0.49897579255077684,
          0.503062531562255,
          -0.03263332133098723,
          0.30866345954350344,
          -0.14330844188551967,
          -0.17430310451803957,
          0.364046464187432,
          -0.20315443894503543,
          0.6781481058090695,
          0.4091596970557745,
          0.05714300521736943,
          0.020298868451928558,
          0.8649443237238332,
          -0.9731812740014245,
          0.3520438780678579,
          -0.13617438692938066,
          0.18165108491459728,
          -0.13835835712375583,
          0.4432266005860307,
          0.0483410385477234,
          -0.26732642437378784,
          -0.13523624330939094,
          -0.9341990553728151,
          0.045111436376597654,
          -0.28770786668421344,
          -0.17524362229202048,
          -0.42871297325812585,
          0.23702234116276194,
          0.33320950692363266,
          -0.30877673891294194,
          0.23594937476004,
          0.8511967879971896,
          -0.426093524798158,
          0.17866396964827339,
          0.1148641028163037,
          0.06558789551043125,
          -0.008617672342389072,
          0.1808169026823916,
          -0.362129894292758,
          -0.09555405439897338,
          -0.06495509938538736,
          0.21068735198216598,
          0.5381779339129602,
          -0.5726555123815773,
          -0.21480768360266042,
          0.7669013350424714,
          -0.2793245525325624,
          0.3352555352888605,
          0.4100963379556035,
          -0.16474229906697052,
          0.36672959965665014,
          -0.017837543629672544
        ],
        [
          0.2500678632357571,
          0.28696988311069344,
          1.0145952733583836,
          0.6240414141963756,
          -0.27247055923746577,
          -0.7268079624350102,
          0.3197062015516191,
          -0.23640468006150453,
          0.9903568929892845,
          -0.15811251016514358,
          -0.11450675560659059,
          0.21570584331898196,
          0.16557134189415654,
          0.9362399030967488,
          -0.22516901631111386,
          0.266039886769874,
          -0.5641209203881176,
          -0.24990726399646368,
          0.19589083108752908,
          0.09241212178069923,
          0.33457607132391753,
          -0.3210829487150896,
          -0.3217740865430703,
          0.1463619369183496,
          0.587328574289927,
          -0.20340517109226,
          0.029749070408647934,
          0.469373655299057,
          -0.4699225385136771,
          0.30267109098441575,
          -0.40974792507261115,
          -0.5353036348377148,
          0.048808893428743935,
          0.03022370702362138,
          -0.3786035472172809,
          -0.9142358623371069,
          0.21345097704850044,
          -0.25023541757677914,
          -0.4022486787520449,
          0.2728340736839992,
          -0.12046478388676858,
          0.4896267638339507,
          -0.8458015666041655,
          -0.4717386655541199,
          -0.4535688993357123,
          0.3866168804233682,
          -0.4587210429160841,
          0.07874261075720417,
          -0.0559610017157574,
          -0.3984026507767691,
          0.01292514989454576,
          0.03546681150756399,
          -0.4390374247945687,
          0.5281150006188754,
          0.1548565531951348,
          0.03825767304529487,
          -0.04724836733164424,
          -0.08775392163869726,
          0.5338214544675354,
          0.13853449410441918,
          1.5032672802959852,
          -0.5442462646664763,
          0.1685692659460732,
          0.02114355425974479,
          0.17534865319595647,
          -0.05425118953720067,
          -0.6578547577433277,
          -0.244111364274687,
          0.41499061876164023,
          0.19230582291329237,
          -0.3625649007825579,
          0.16899688888951322,
          -1.2452234835606653,
          -0.6885678097612402,
          0.5794516149825554,
          0.46105827016045847,
          -0.2393624909480856,
          -0.6966969405948844,
          -0.313489814276803,
          0.2794971809474831,
          -0.31951356041807205
        ],
        [
          0.3298120845496531,
          -0.018619441604404804,
          0.5151047917699015,
          0.4172895249364066,
          -0.685777148756158,
          -0.5538183367141488,
          0.2353837510303542,
          -0.12434276692369324,
          0.31083984885349075,
          0.17359013241130608,
          -0.002871369360493113,
          0.15177219803282346,
          -0.3995168632548725,
          0.5353124052907776,
          -0.2627836590565682,
          0.33047498819287513,
          -0.12797358346754037,
          -0.18166972252029534,
          0.06623783964629655,
          0.5738246945975054,
          0.12698344107326257,
          -0.37929073891706583,
          0.4085929875016045,
          0.5076360190822533,
          -0.028342191921256525,
          0.062462437506231074,
          0.18727215873308273,
          0.4852652426954564,
          -0.36727792356178707,
          0.022172634502368123,
          -0.25089512303171985,
          -0.27484277893276354,
          -0.34433876939758185,
          0.3820782880547026,
          0.12043142428764428,
          0.08757449526742539,
          0.30345185282786613,
          -0.3839748019626817,
          -0.4083138442463324,
          -0.11844834790004587,
          -0.31465313255645627,
          -0.5948271301324842,
          0.4621253827433479,
          -0.7848715660701701,
          0.0367437485315027,
          0.3459652761293593,
          -0.3538950700065514,
          -0.3991195628569037,
          0.09728336717768483,
          -0.2775857701939263,
          0.011682286596030595,
          0.712209552093914,
          0.0635962196638372,
          0.14002252541987129,
          0.4146743679852304,
          0.008484177190803088,
          0.01657135239366453,
          -0.21758754821054774,
          0.13797000798825954,
          -0.3752664697011635,
          -0.09578652523461105,
          -0.07180802049656755,
          -0.01064156601870202,
          -0.6224331122577502,
          0.04095205211573722,
          0.19830927169972612,
          -0.5601798072257812,
          -0.4699614509480759,
          0.21918902428411552,
          0.11998009821661473,
          0.042191970901084556,
          -0.3374830863018777,
          -1.3117774672221492,
          0.11587583211920405,
          -0.17051775273926081,
          -0.29288310721848376,
          -0.21723804495532223,
          -0.1671141950251628,
          -0.39425967935214146,
          0.032562678913656294,
          -0.3371660371235167
        ],
        [
          -0.23879349285467916,
          -0.3196951855750595,
          -0.3441347576521267,
          -0.44175482483072476,
          0.04137357005164953,
          0.6059621982441521,
          -0.23275036158965473,
          -0.18565286295509537,
          -0.9839239251415843,
          -0.07121878627659192,
          -0.2818159974473944,
          -0.07193810833583644,
          0.04864730479929552,
          -0.5695201097102293,
          0.5542088505248864,
          -0.40694388908141443,
          -0.0384959775275503,
          0.006884182457654563,
          -0.2803316702199542,
          -0.2841343751565499,
          0.025779892848046975,
          0.0008833175005537938,
          -0.10800121989895849,
          -0.3833416179977719,
          -0.44334639583899044,
          -0.018372994432463687,
          -0.25966447907930074,
          -0.6561389182674086,
          0.6622699164385953,
          -0.562382170572886,
          -0.5508363428069364,
          0.7987425018533688,
          -0.03859091290123781,
          0.0957695385546377,
          0.16857967436798266,
          0.11327874687226322,
          -0.11129312533414344,
          0.16151479723763276,
          0.9550153656376962,
          -0.28619050876330576,
          0.37281505948176047,
          -0.17093655099075092,
          0.20538463392484668,
          0.36558191807075696,
          0.006229252254682151,
          -0.6386358647656332,
          0.17703170648598293,
          0.05405154220760482,
          -0.07746145660272388,
          -0.17172102920107057,
          0.07924472538890573,
          -0.11817376410524752,
          0.15985229747119475,
          -0.20128274840095597,
          -0.04187687690964533,
          0.20934482206013294,
          0.02865159394826982,
          -0.2358827708901545,
          -0.03238658904428773,
          0.20608034703724878,
          -1.075481676898563,
          0.3138116121211794,
          -0.28899284548228615,
          0.2427970085593008,
          -0.31355680023150995,
          0.42537504201648485,
          0.1589983963126573,
          0.5402277695642729,
          -0.1727059341690474,
          -0.7354278288119408,
          -0.22370336988933423,
          0.05953092743340939,
          0.7935385874608014,
          0.3179672698268819,
          -0.0666640091667698,
          0.3103648628909795,
          0.3021519962611867,
          0.24613456118321234,
          0.38184830020971355,
          -0.2621595026090061,
          0.37334304552872927
        ],
        [
          0.6500040630074752,
          0.38331301368610116,
          0.5220444730269145,
          0.3771428674220047,
          0.3065819672588239,
          -0.500066968173218,
          0.4659385198663519,
          0.20302134046491277,
          0.5005093562531951,
          0.29577079173305276,
          0.6231496054847676,
          0.12340138557700649,
          0.23046153426951776,
          -0.4158602801616059,
          -0.11363322870191546,
          0.10195293655853185,
          -0.684094278576048,
          -0.235369468639614,
          0.10853689097437291,
          0.7426645006021542,
          -0.06242640636228043,
          -0.04429704696904506,
          0.33296229269804456,
          0.4883053991983963,
          -0.0023144055907165194,
          -0.0070811623942270046,
          0.2706669541388639,
          0.05991657739678382,
          -0.6142053676487356,
          -0.15111255496382248,
          -0.027602876213231937,
          -0.7486248706040397,
          0.4939879341517671,
          -0.13786796541669788,
          0.3974420625614462,
          -0.01812997407787434,
          0.09534408125322627,
          0.08371778887505121,
          0.4877736719266829,
          -0.05316109469928232,
          -0.1706575375718091,
          -0.07921248902594391,
          -0.6976437561713577,
          -0.19630312980900871,
          -0.01130528455757084,
          0.0581206552217866,
          0.24211470793584428,
          -0.13652142098997813,
          0.3091194694996774,
          -0.13512891731046694,
          -0.1958481344913702,
          0.07913251575289311,
          0.13927993914269743,
          0.5198643430550284,
          0.3544695116577948,
          -0.517673080494234,
          -0.10611244864646967,
          -0.12067614299870259,
          0.162245211953947,
          -0.3649865108926119,
          0.3966432992741942,
          -0.4879082902033833,
          0.22941374670110748,
          -0.5041601251278107,
          0.02427470067899434,
          0.013842993588368031,
          -0.11173421520713894,
          -0.07512301477023486,
          0.6193310744934476,
          -0.32144283454129446,
          0.25358699041260013,
          0.09462683911484637,
          0.29746676210004236,
          0.08645838957715052,
          -0.22843831351457067,
          -0.3575972160065821,
          -0.27060871817839927,
          0.17908042453459241,
          0.1698396339059182,
          0.5269004949136538,
          0.006221445440852303
        ],
        [
          -0.3335082481030423,
          -0.30279362621375805,
          -1.3154102212193957,
          -0.7135057245874995,
          0.062196080135412786,
          0.7396864745972913,
          -0.8521732201785747,
          -0.14193720402316895,
          -0.1742561752630761,
          0.10269588119337213,
          0.12374812846140375,
          -0.19646765273129485,
          0.1437082827752224,
          -0.9018594636373615,
          0.8484916962456674,
          -0.4555435734723908,
          0.8523424813490167,
          -0.04800518974070604,
          -0.6759049539734985,
          0.30714961290843334,
          -0.04715422661027019,
          0.45266298255006715,
          0.2255626651693164,
          -0.4828664622915129,
          -0.7561604580826794,
          0.20164516762442927,
          -0.5352224416767373,
          -0.9692031320985428,
          0.3952410914995864,
          -0.027408114055643928,
          0.2298212887737856,
          0.13700191287689384,
          -0.3335395018580608,
          -0.021328188152545818,
          0.1395642976375412,
          0.944722359148086,
          -0.20951808862010493,
          1.4748830505697976,
          0.46956444707420725,
          0.27954399490780096,
          0.03165931681353198,
          0.48077813568274935,
          0.5595734322855058,
          0.7530354580042712,
          0.6409680688359893,
          -0.545104980242448,
          -0.2058874618052191,
          0.2712328849467596,
          -0.2828796649746062,
          0.6178834991496455,
          -0.048632701338184176,
          -0.36966638807911706,
          0.40682584015794826,
          -1.2758860355960924,
          -0.3983563850470762,
          0.2660540340492671,
          0.4814617921740515,
          0.23042105121073955,
          -0.2286165526494581,
          0.3991391469691532,
          -0.511354668148054,
          0.3910068578031641,
          -0.026866563781359317,
          0.5821192340139382,
          0.2726839769587015,
          -0.640968381643283,
          0.8019952806534025,
          -0.19896735424542977,
          -0.7642999943140334,
          0.4916574992958189,
          0.024832940840009032,
          -0.3416928744241763,
          -0.06235368377040557,
          0.09316069763268192,
          0.05456906721161884,
          -0.7752506132475688,
          0.840699790726756,
          0.5035318501090685,
          0.15278430850275004,
          -0.34774311761099364,
          -0.1486513981775832
        ],
        [
          -0.05828630654373517,
          -0.49877962958401606,
          -0.28103794194823145,
          -0.3977193691631197,
          -0.4807924705787992,
          -0.013958064625168918,
          -0.1063276659788233,
          -0.020152683601843926,
          0.22091537021489324,
          0.4507902495633111,
          0.4563327484630265,
          -0.2724230518194399,
          -0.2769504743143007,
          -0.6816538144968591,
          0.06416996797062505,
          -0.046348556288682126,
          0.7071346959076119,
          -0.3527197242114198,
          -0.3296090140911065,
          0.4190402188360099,
          -0.1408125332082106,
          0.0007118020096047478,
          0.2270237152282675,
          -0.06781417846833254,
          -0.06730732964004525,
          -0.15514840784828432,
          0.10382671543644814,
          -0.13516081712931,
          0.0820871108399949,
          -0.2976482975189117,
          0.7008237177781867,
          -0.4522318250663484,
          0.20271738183711263,
          0.4115481155756415,
          0.05957364978579228,
          1.5983087228155408,
          -0.3791795312889498,
          -0.01475561427315724,
          -0.36289246744001646,
          -0.2377975518244241,
          0.017968352266932813,
          0.24845095032540998,
          -0.08048975167371104,
          0.0022652611947551367,
          -0.03211872882678059,
          -0.016077750487684894,
          -0.20437302000148141,
          0.21703580492204774,
          -0.04629970449602507,
          0.03493702664019785,
          -0.027985472859945217,
          -0.696641620857086,
          0.9686421116680506,
          -0.306106100680697,
          0.29089412691264366,
          -0.25665276239153206,
          -0.036350530962246504,
          0.13724044994449078,
          -0.3097977574872086,
          0.02434238651906536,
          0.18861830121642928,
          -0.06180806062667683,
          0.5210690074559886,
          -0.16322204000134372,
          0.35017853068352195,
          0.24247542869308855,
          0.34536238400531194,
          -0.4052986849761491,
          -0.2647424472393358,
          0.4613948924943371,
          0.22219406614964674,
          -0.14008444608647874,
          -0.7415380808821692,
          0.20496753801731923,
          0.11923682601028326,
          -0.32375037702856607,
          0.2240108625447183,
          0.42554716551575644,
          0.12901337591097742,
          0.12241767712161102,
          0.06478215584621558
        ],
        [
          0.24982300251062442,
          0.12620415830800064,
          0.35638593838001026,
          0.43200725664048223,
          0.06312098975844235,
          0.3122633013195984,
          -0.25848763070201924,
          0.0447848889456112,
          0.2766969378557127,
          -0.4537292135261252,
          -0.4324539530575651,
          0.23908444383655222,
          0.4543846186010281,
          0.5762905816533083,
          -0.03152783561306963,
          0.15505045954943153,
          -1.1324592666667537,
          0.32652880030258263,
          0.011599549191970489,
          -0.7997667824163175,
          0.08858888849351429,
          -0.04494303027674863,
          -0.0537534629057431,
          -0.08652658500018134,
          -0.11699540890837955,
          -0.13318050701002798,
          0.15213952431746144,
          -0.3722403585137241,
          0.14636635990658609,
          0.3125331486898147,
          -1.3924633835713833,
          0.3727053255728388,
          -0.011471102158197565,
          -0.40541861845643284,
          0.165411633645349,
          -2.043135767208159,
          0.3603839996792068,
          0.05791539858913921,
          1.076819387396855,
          0.23320184222712365,
          0.3042693650070361,
          -0.2289293332556148,
          -0.4610387630576738,
          -0.47172583411423097,
          -0.10879430773389275,
          -0.8579046639028715,
          -0.2982767693414068,
          0.2751865797692195,
          0.16108247639185963,
          -0.3900309990624822,
          0.03274231651296329,
          0.20476627994545243,
          -0.9062381783470181,
          0.1254550666045912,
          -0.08888402368363706,
          0.31573256100781066,
          -0.06411320442920661,
          -0.15750870042329868,
          0.8818785006358528,
          -0.2176226500067202,
          -0.1252382037687084,
          -0.21486121798804264,
          -0.2976761049804523,
          0.260826728896872,
          -0.4708387754678268,
          -0.24759534201500727,
          0.05658405776152145,
          0.03165435748032123,
          0.25842781744739296,
          -0.8865283744954991,
          -0.21411827459851027,
          -0.015545043658062939,
          0.3233512685800637,
          -0.5218678423955755,
          0.1862493519591055,
          0.4959196312375189,
          0.011768500498507011,
          -0.6019969331373122,
          -0.4873609586796954,
          -0.07932392710891845,
          0.04446651818539641
        ],
        [
          0.06422671234475048,
          0.5539744265940431,
          0.5427674955488008,
          0.38185294006970744,
          -0.20511705203225064,
          0.08505216025097809,
          0.01915139706060375,
          -0.18008492863332487,
          0.46948124493267107,
          -0.20379023606545943,
          -0.2649421292117958,
          0.3159849769885419,
          0.37426454037115026,
          0.9998537879530388,
          -0.17649877785618714,
          -0.0010943643287843047,
          -0.946021490160062,
          0.16332778992111435,
          0.3573357896768155,
          -0.5705299900498305,
          -0.13372775409238177,
          -0.10702100687491503,
          -0.035984508865454484,
          0.5031646861288411,
          0.14781704061280332,
          -0.24919273522792865,
          0.5358128112716507,
          0.5104883886052287,
          -0.6069327470734809,
          0.4898253180819022,
          -0.815182894775507,
          -0.20209505993080312,
          -0.046882326105671765,
          -0.34049287437175063,
          -0.2009640097618861,
          -1.8329204126516416,
          0.22878386841535375,
          -0.16979489711854875,
          0.030284015489100553,
          -0.08209024692220776,
          0.10588862089018405,
          -0.30703639855151277,
          -0.36970488188088196,
          -0.36349906609532723,
          -0.44456385248740266,
          -0.32004277751342114,
          -0.10140243862159631,
          0.06548300549335316,
          -0.15039312340393604,
          -0.47009264125528055,
          -0.09515800628209004,
          0.37885360546790625,
          -1.0300909346184914,
          0.6209011188533902,
          -0.09759153279239856,
          0.21675850546246936,
          -0.03467083750478426,
          -0.2829415939845215,
          0.28088748139020747,
          -0.20719852596924318,
          0.6174650380509076,
          -0.40539267251793953,
          0.043609875796768637,
          0.23444148599498585,
          -0.4828602448095818,
          -0.19242775612272617,
          -0.2467173748714523,
          0.23693038604559663,
          0.2083427533756538,
          -0.5937127066574079,
          -0.54403626485424,
          -0.29883074823022,
          -0.15681873921476688,
          -0.5902036377726261,
          -0.26542710316918716,
          0.22544711191525982,
          -0.19422016115475624,
          -0.8150619730092286,
          -0.08066738710566065,
          0.3061306207496947,
          -0.19739127168476736
        ],
        [
          -0.05160475026665669,
          0.16079323955930463,
          0.4826076918739373,
          0.2733681503862661,
          -0.06616971533157825,
          -0.18830000759157117,
          0.2906918300003452,
          0.08537845470693466,
          0.10893859389257854,
          0.21368705084955025,
          -0.10031044672482571,
          0.2924729592621531,
          0.07976186081520624,
          -0.4119633047236073,
          -0.04321015549587218,
          -0.2223280129828798,
          -0.3609320904912148,
          0.024406637682054377,
          -0.038495317071692764,
          -0.35884900503222916,
          -0.03571396810776013,
          0.002811324142275969,
          0.06843679887119784,
          0.10069968534734253,
          -0.018252739526304632,
          -0.3652618107140507,
          0.32064212408375276,
          -0.06364328256535288,
          0.13447291682032675,
          -0.08285537275447324,
          -0.5520313303550612,
          0.3066919849828164,
          -0.003737442362602096,
          -0.04343196348282442,
          0.22363415575931242,
          -0.446625633524276,
          -0.0133710737248451,
          -0.3510167016787527,
          0.6624528748452256,
          0.05692098562531861,
          -0.026231396401867446,
          0.07616924496536838,
          -0.5252480866439732,
          -0.39961199661018587,
          -0.09223227817642937,
          -0.10774566010030971,
          -0.13771409173952015,
          -0.11720206244804335,
          0.21855427868331942,
          -0.27735414634401523,
          -0.026767149622148132,
          -0.36399133271341366,
          0.1748958676989507,
          0.29486383842378716,
          -0.16168029971632936,
          -0.16121524107191834,
          -0.23734315924958813,
          -0.34539578688567163,
          0.2851085805984243,
          -0.049185591303858446,
          -0.3285982801093165,
          -0.24387704416788913,
          0.27936435114501607,
          0.2792473857743437,
          -0.5673981267072458,
          0.43016332845740435,
          -0.3353840884308639,
          0.20039864897300758,
          -0.16630747552642014,
          -0.9569996470254826,
          0.030295398039790818,
          0.17624328241360174,
          0.0856982009237349,
          -0.14695412825384538,
          0.11127864988763994,
          0.3109558969153336,
          -0.3533193334882819,
          -0.21957020333864227,
          0.14582678282882086,
          0.31378888004446703,
          0.10609340581527625
        ],
        [
          -0.2826870236148013,
          0.37507661681821197,
          -0.5368243617843438,
          -0.13525652676516325,
          0.16161841944860117,
          0.6891766577647636,
          -0.44961236736760923,
          0.5019370908527411,
          0.05663584559057932,
          -0.46508811061021726,
          0.20636003910765194,
          -0.1810223003557,
          0.15937028965463756,
          -0.05357832751405075,
          0.031723528432152044,
          -0.03294677021759041,
          0.3437427871037757,
          0.5875878788136615,
          0.09684961204977896,
          -0.0665688016706469,
          -0.6676163890053322,
          -0.2515606683633602,
          -0.17994591695168605,
          -0.055375765538569585,
          -0.11286947947573481,
          0.3941805524821928,
          -0.47327400510522494,
          0.07758407463830998,
          0.2940082330746688,
          0.5312037267812714,
          0.025470313543613787,
          -0.3376308835098831,
          -0.5187165998447023,
          0.15477448382502687,
          -0.019606677421065564,
          0.15454738948687752,
          0.2933150152823149,
          0.39475968941063455,
          0.027464290288110208,
          -0.07366099589129277,
          0.11564040718757841,
          -0.591434222169424,
          1.3741950548539092,
          0.525609463566106,
          0.17711881606444554,
          -0.08457521018185951,
          0.37981200810189264,
          -0.039043823647141075,
          -0.20706525004086676,
          0.797519288408515,
          0.11857409371012038,
          0.893269547808587,
          -0.1383406384892786,
          -0.47377846031327686,
          0.36736290692481594,
          0.34497669865610325,
          0.28918995909020145,
          0.06665687335397667,
          -0.33771945767420364,
          0.33369533339305313,
          -0.1890117143630026,
          0.3035316921847557,
          -0.4502796918548949,
          0.33252997094982534,
          0.47698937374434264,
          -0.8886002311914013,
          0.6175527353433641,
          0.32313759185243135,
          -0.11769497831493538,
          0.5833577444337299,
          0.03425812645677946,
          -0.4365299746141988,
          0.5056417056758453,
          0.3838963893055649,
          -1.0086974375637687,
          -0.2671887877628865,
          0.40873510425670245,
          -0.26014669062079315,
          -0.2749662279284207,
          -0.43811336097680936,
          0.2450986953573183
        ],
        [
          -0.19391995585361751,
          -0.01809253112012491,
          0.4395482034256501,
          0.12597172120502156,
          -0.586508902135702,
          0.07128694508200861,
          -0.05704362090654006,
          -0.2710548131890635,
          -0.1880242594628527,
          -0.14323652324654748,
          -0.6141865334439854,
          0.5165857339575944,
          0.4453210123890312,
          1.073611885188678,
          -0.0712979958192856,
          0.12326093613870151,
          -0.5899832659250874,
          -0.02013042918633813,
          0.14592880820146434,
          -1.1457724962186366,
          0.26029299304259496,
          0.39361862740016396,
          -0.6008493002715084,
          -0.25019564507882847,
          0.2832699643319189,
          -0.3710838787597984,
          0.5207933332227882,
          -0.32311101504044243,
          0.10605109646690702,
          0.3140799556686344,
          -0.8380980735339238,
          0.7178814869955429,
          -0.10086687879216434,
          -0.2309978387514756,
          0.15150496749677775,
          -1.7218539495567853,
          0.07636992048536174,
          0.037344774268753635,
          0.6425496448725501,
          -0.0788725650959126,
          0.4059935266279499,
          0.046205119274498406,
          -0.34278027263732,
          -0.4705282782186805,
          -0.19397090287589855,
          -0.5941736453551838,
          -0.5646669081448973,
          0.022684323682017008,
          -0.09925300717953314,
          -0.30138661269611355,
          -0.02994647941549827,
          -0.04478842556447304,
          -0.9137675893194607,
          0.09280840566720676,
          -0.3411302607407002,
          0.41804730802916645,
          -0.12075433851675985,
          -0.24867090961274513,
          0.6075096431559894,
          -0.10247884902083237,
          0.2960006153411173,
          -0.04543873548187884,
          -0.2500068417918479,
          0.714842695889562,
          -0.7600375210125612,
          0.25482323995380424,
          -0.08067323559925875,
          0.3120879674591109,
          -0.05810210817861368,
          -0.6981555778073965,
          -0.5691238482834039,
          -0.02048113641692771,
          -0.587380944674795,
          -0.26369340753523246,
          0.4355830099322005,
          0.5511371361857884,
          0.00899278759819675,
          -0.5584315655506543,
          -0.22901217859947332,
          -0.1939025461445451,
          -0.3107585903813557
        ],
        [
          -0.246917049043734,
          -0.6329412756642451,
          -0.8272545537690255,
          -0.5835372983817079,
          0.2274569384776177,
          0.33019002542954884,
          -0.17383741693697283,
          -0.061119111121749184,
          -0.7596864011213327,
          0.2045872011959125,
          -0.09663799161424001,
          -0.15900818020239527,
          -0.1409949714347755,
          -0.6220608112345718,
          0.9228336918248314,
          -0.6038147644351455,
          0.8112634999622196,
          0.08964476869915983,
          -0.5319981978269881,
          -0.4786509883040351,
          0.2827955237740831,
          0.3643328787677051,
          -0.1579337935234382,
          -0.43926601337744253,
          -0.38907069230972313,
          -0.2837894338340895,
          -0.12681936308223082,
          -1.1013442499903678,
          0.3458369919190255,
          -0.5491522631091871,
          -0.11213470490136174,
          0.83950716954776,
          0.20984822142614226,
          -0.026314138418015505,
          0.29829828827557314,
          0.9595069383413667,
          -0.47565756368252016,
          0.5367417040770163,
          0.9077670679087685,
          -0.22684266631981748,
          0.03476214071199029,
          0.4569123838869696,
          -0.15472139468483678,
          0.6138546830246294,
          0.19025579321773362,
          -0.5751206592879106,
          0.013572407532604745,
          0.47858402970265795,
          0.08035549390286063,
          0.08420512011471382,
          0.12105610118226258,
          -0.912170079043461,
          0.6842205467010134,
          -0.5588473333281276,
          -0.3868648995719452,
          0.25981337826747825,
          0.16149488621262456,
          -0.04691536221269073,
          -0.05847396501505965,
          0.2595369642722839,
          -0.9393235845066901,
          0.3270104348658283,
          0.040738414383504666,
          0.4877824256939371,
          0.11996500023150428,
          0.11071300332263868,
          0.5380123557940277,
          0.4457594628670181,
          -0.6300775553164871,
          -0.5972954217013055,
          -0.1004091411226961,
          0.2721059302415237,
          0.626006513328335,
          0.056364781539683016,
          0.24873364397299702,
          -0.257490590079792,
          0.35373904968727227,
          0.6830815549662612,
          0.2510214964579589,
          -0.35812092329957296,
          0.26288936627250375
        ],
        [
          -0.232162358546957,
          -0.5015062113071639,
          -0.5455442631114004,
          -0.3410594663604274,
          -0.4001115688389109,
          0.1820292462533814,
          -0.26633261613125514,
          -0.14480362996222917,
          -0.47287110767925844,
          0.06808839574577001,
          -0.07310041438644094,
          -0.5209279161320929,
          -0.4505895152538339,
          0.2036267521417802,
          0.4689142031301894,
          -0.18827603085462935,
          0.8122707123703474,
          0.22583170063604135,
          -0.5029548184602382,
          0.0007963453960459191,
          0.5203000743020201,
          0.18854815638112635,
          -0.1568269699381404,
          -0.5859574504305524,
          0.04662458545409725,
          -0.14795615774097126,
          -0.14077354503706085,
          -0.7401736914469103,
          0.34819536484893526,
          -0.5165804998022433,
          0.04071407680923149,
          0.5835301695983222,
          -0.19059690442454633,
          -0.060617312587156344,
          -0.30227927560758955,
          0.7820784956618502,
          -0.28526775880838867,
          0.462227805768597,
          0.1439659607701155,
          0.10474186117415236,
          0.11437966635750647,
          0.5075932832714095,
          0.33060851793545487,
          0.060564823127733085,
          0.5376580191267221,
          0.018361740975567756,
          -0.2901293745230268,
          0.12747337537331266,
          -0.2420257905921571,
          0.24421313958547214,
          0.11864151409532343,
          -0.1288836920992956,
          0.448243257685908,
          -0.267609161950778,
          -0.4877959553524589,
          0.48255004512160254,
          0.031253085446432016,
          0.028080567629556366,
          -0.24501178536960688,
          0.4093615865667945,
          -0.24273545171527114,
          0.15583051750756677,
          -0.33847400801397554,
          0.35889353181505856,
          0.07423866317122246,
          0.39001279560298424,
          0.482455867220842,
          0.04192272856728172,
          -0.5056802667794184,
          0.2968066421268495,
          -0.10128691147236643,
          0.37337503070068667,
          -0.6910262366209963,
          0.20124969230661588,
          0.5227856248670437,
          -0.30359484255807007,
          0.2635515185280264,
          0.39204344175795725,
          0.15606036849755942,
          -0.42399788585444964,
          -0.06931339878689728
        ],
        [
          -0.04169549319049245,
          0.14798901349018972,
          0.5335918142907612,
          0.6975217704088038,
          -0.6930031761039008,
          -0.37263611073559827,
          0.5294259317908614,
          -0.08286403309198839,
          0.5198047630654757,
          0.11997053520534921,
          -0.2216974937999016,
          -0.368930207913687,
          -0.6748067370759742,
          1.8583874611238964,
          -0.7604211092617142,
          0.8637677108075926,
          -0.34177879785280474,
          0.35570649034868895,
          0.3594173176523407,
          0.2319703962079838,
          -0.010635179111664337,
          -0.31302863634120104,
          -0.13486694035804941,
          0.4213990908553439,
          1.0043715103994075,
          0.2816491669036732,
          0.5122662224231375,
          0.8939429791971042,
          -0.36521851288358786,
          0.2752419410601202,
          0.09256997738912727,
          -0.34410515642134026,
          0.10966922718573617,
          -0.025018494779864137,
          0.08406264971445593,
          -0.20668493034642854,
          0.17322527236934465,
          -0.8695876687814496,
          -0.7956267080058039,
          0.4512936016598806,
          -0.06949774236938308,
          -0.5152763556937809,
          -0.5392478076281487,
          -0.4649657492335535,
          0.1380687448407939,
          1.3400715184623535,
          -0.503152335591342,
          -0.6841798742504063,
          -0.18741957243934484,
          0.1371031455122871,
          0.044825361528305505,
          0.689309130803512,
          -0.4572067493922154,
          0.8993282796665126,
          0.08673463402308502,
          0.5486420549090768,
          -0.2361347921962264,
          -0.1462463671296571,
          0.05053729040485962,
          -0.16538728725989785,
          0.6644904814004621,
          -0.6045900580809878,
          -0.4396006574468284,
          -0.9825169921665734,
          0.35129301809292685,
          0.4408348133356427,
          -0.7527017714919816,
          -0.3982332273224185,
          0.6341660614816319,
          0.20560477040636918,
          -0.140630633589666,
          0.33486805028330513,
          -1.4307495652315814,
          -0.14140126993014981,
          0.14994842058815966,
          -0.02690341298243426,
          -0.33225668755789795,
          -0.3261262167383421,
          0.22411055105019484,
          0.3131759736876281,
          0.03625040496100252
        ],
        [
          -0.03634309547970189,
          0.20682817100338563,
          -0.7955664089208379,
          -0.28597028399831537,
          0.5449591770446938,
          0.44344168501277653,
          -0.02820802913026356,
          -0.036683993560605074,
          -0.5359496947729702,
          -0.06557120045350598,
          0.590839263720659,
          -0.08457189050450666,
          0.07512716578100762,
          -0.6297083797178492,
          0.3861326860132602,
          -0.5557585685837173,
          0.17701367717377156,
          -0.014989790772653772,
          -0.03540574478230652,
          -0.09845625201219294,
          -0.27839402506152905,
          0.3556914388982323,
          0.3213102704670291,
          0.22597895417814515,
          -0.006891998865507971,
          0.02856475368816034,
          -0.22886351317358078,
          -0.16816556705496197,
          -0.31327133172607613,
          0.0828308123910563,
          -0.22344367254561548,
          -0.20272312488534586,
          0.327359857011627,
          -0.37925144007894235,
          0.16899846193559942,
          0.32783204915964476,
          -0.14831079491932758,
          0.4731656605517801,
          0.11552799108469372,
          -0.030855134896689257,
          0.22694645762745563,
          -0.03200960929347195,
          -0.27796443112028524,
          0.5959911675317975,
          -0.15069386433006376,
          -0.430375394916704,
          0.45096589616606775,
          -0.11860218754090436,
          -0.11121650557036285,
          -0.01119501055874471,
          -0.3839287003521289,
          -0.3135627769206401,
          0.3303945316146214,
          -0.15166884279716986,
          -0.2193596152429472,
          -0.290923202662381,
          -0.12833997207987546,
          -0.09904184461237102,
          -0.12094160750831096,
          0.2509186657967465,
          -0.12762213663803673,
          0.13008811341604573,
          0.09192565651449948,
          -0.026261473439314828,
          -0.0336774035674344,
          -0.3477897315423452,
          0.27784557484553346,
          0.4646055672441735,
          -0.16133697400487754,
          -0.23441081608950162,
          0.16265200721230944,
          -0.07688469552812026,
          1.101009492460973,
          0.2784026750378093,
          -0.6074926495142055,
          -0.6658955078725713,
          0.13641540808658603,
          -0.02265871072834759,
          0.4123286042157227,
          0.2202383985668328,
          0.23774101812931484
        ],
        [
          -0.00037662854603248626,
          0.02735046186324782,
          -0.5680097192539062,
          -0.0776579932165563,
          0.5906708803239868,
          0.33923714512476105,
          0.10089489728803,
          -0.17218077182257632,
          -0.26418380542977754,
          -0.35897758691645026,
          0.258988434784124,
          0.2961137302882587,
          0.3498506370053707,
          -0.25088045464503156,
          0.5272021364408855,
          -0.14785650235506825,
          -0.38728205164872687,
          -0.10327760239434551,
          0.08364612158858883,
          -0.19377117459212545,
          -0.34437944783482816,
          0.3595339873908555,
          -0.0015025590847002267,
          0.2380482265163861,
          -0.20660260155597024,
          -0.007400628496895914,
          0.13551690043876252,
          -0.3294438040679768,
          -0.16104638503127786,
          0.13815491445824926,
          -0.38985243987880974,
          -0.2692670142253866,
          0.2113346167881794,
          -0.4655465371794224,
          0.25741763002653223,
          -0.4990368335322883,
          0.15266978808911294,
          0.5108940530068595,
          0.6585444391933329,
          -0.03933967655628198,
          0.2513031939825627,
          -0.15584523413915888,
          -0.39484002772910565,
          0.22272827645012933,
          -0.010735820752604675,
          -0.3354993018024494,
          0.6729573421012218,
          -0.08654616991711159,
          0.04372863037068562,
          0.1479000071991339,
          -0.05467738965746841,
          -0.3342810420403881,
          -0.09938569612561737,
          -0.06485313527052304,
          -0.37125826148931756,
          -0.04479843586958915,
          0.10367221349062453,
          -0.27958892904487875,
          0.06336111684214407,
          0.2853206799779816,
          -0.1994299556545263,
          0.21990265841409384,
          -0.1729987062638281,
          0.2032859388501602,
          -0.19237908777062324,
          -0.09891983957286012,
          0.4327852799407093,
          0.2320531412081739,
          0.05012189671773297,
          -0.45922377168179435,
          -0.09108398037506893,
          -0.022804711140595832,
          1.2480981796616766,
          -0.1273192620317724,
          -0.2579843337317084,
          -0.1099777686513852,
          0.3826310883157373,
          0.15041008833395772,
          0.35649387869329024,
          0.18673578562554152,
          0.3063953521893883
        ],
        [
          -0.41606685700012075,
          -0.1712509489818804,
          0.45439045424462116,
          0.1602834740352724,
          -1.207285471329301,
          -0.4344764716942276,
          -0.1523568945864278,
          -0.16964866584738025,
          0.9332759733193028,
          0.35732888554983877,
          -0.44274605487721674,
          -0.05119374584686162,
          -0.4536568572623572,
          0.8883412608645841,
          -0.20666526511980127,
          0.24503332846369746,
          0.4883372607919406,
          -0.005585000371995484,
          -0.2917040429616454,
          -0.02567530698701523,
          0.48910523023915864,
          -0.25034935991333945,
          -0.4384394687436407,
          -0.06691338313454057,
          0.1821239755588129,
          -0.09014015550330927,
          0.09937456800819985,
          0.28906641358159463,
          0.03852392125452619,
          0.07605939978282401,
          0.1965573126662852,
          0.3279432854047338,
          -0.17739461634770612,
          0.45157809200093696,
          -0.2863863564291493,
          0.23951657747421362,
          -0.11239279858013533,
          -0.008008781884639922,
          -0.3888104993218348,
          0.4167194648899852,
          0.1647727160797875,
          0.19269263913923879,
          -0.034237280752638564,
          -0.23750396676162847,
          0.3900579124308558,
          0.400147475807712,
          -1.380774140241558,
          -0.1338475561878845,
          -0.11894454684903821,
          -0.03313328831956957,
          0.08007889089027795,
          -0.2665759988597283,
          0.2535315612215306,
          0.3037662192812438,
          -0.1875598152016862,
          0.5422299113302873,
          0.04596735243679389,
          0.01766376613887129,
          0.3965995798445033,
          0.04484418013146104,
          1.335596464153574,
          -0.029034570683004055,
          0.12537344549674692,
          -0.0002746710686228815,
          -0.07527719011205927,
          0.006855464796452156,
          -0.09404390070954662,
          -0.6471813310942482,
          -0.35860004718208005,
          0.26692564360296506,
          -0.25544365945634906,
          0.1715528542191473,
          -2.7852931833346046,
          -0.13459744736226306,
          0.8261738839182071,
          0.2909997305927679,
          -0.13693627112859544,
          -0.13622182105969924,
          -0.4468370293469165,
          -0.10103028667395496,
          -0.11967984626112753
        ],
        [
          0.49779720262571187,
          -0.27821964571956764,
          -0.4206437504037868,
          -0.19008447124385294,
          0.42645023824265565,
          0.3906963774177985,
          -0.006825296025565178,
          -0.08318022912045346,
          -0.7228339751414345,
          0.0953803292164909,
          0.1443066257586089,
          0.30061193571207606,
          -0.3286435592793149,
          -0.8456346420141759,
          0.3193520231597766,
          -0.3899858021224085,
          -0.5791775777810284,
          0.44476145766782926,
          0.01915150316196229,
          -0.035059032334216214,
          0.19056605434896143,
          -0.20754012259088533,
          0.44129787315888874,
          0.24342074447771014,
          -0.18551365267086004,
          0.19027091285789735,
          0.034935389642789146,
          -0.5294054763064098,
          0.3051836750170011,
          -0.48846854505779813,
          -0.7459963151159509,
          0.2702293365279998,
          -0.5674174538852975,
          0.029657144605437374,
          0.8292910403411926,
          0.14436004453790385,
          0.24443695527342674,
          0.2636865944832886,
          1.4949709885325788,
          -0.11332500830682822,
          -0.2681780031087538,
          -0.7644593332284054,
          0.4982383741481213,
          -0.5737166945453653,
          0.2668400689245063,
          -0.3748253945502708,
          0.6671448730021494,
          -0.13415225648998177,
          0.30870236744956703,
          0.28710148429723625,
          -0.18700423975368416,
          0.8564973424743744,
          -0.44518347273202225,
          -0.23863611639012972,
          0.2751290097616101,
          -0.37146723873299,
          0.14536282430538386,
          -0.3809212635909337,
          0.3768806164968913,
          -0.5852722534911013,
          -2.0971307189981276,
          0.15772621088609592,
          -0.5006110127871204,
          -0.1383034218965748,
          -0.20636931704771797,
          0.31723887959757435,
          0.11376150680614586,
          0.11764521133381436,
          0.4565280557333708,
          -1.1697798331368177,
          -0.08068229165791406,
          -0.5047345993177877,
          1.2337598424511578,
          0.7366251791431452,
          -0.7621903909380268,
          -0.2907808398125627,
          0.06520610776718044,
          0.19373498950684448,
          0.134010853273222,
          0.3197372029847366,
          -0.0027288922190843727
        ],
        [
          -0.37029654410801316,
          0.04831292736744413,
          -0.018676141909638927,
          -0.20711635286551597,
          -0.5587862458274907,
          0.09962404075556601,
          -0.3530994794989358,
          -0.21624259027224552,
          -0.07470697087035241,
          0.07455513186149255,
          -0.4602632411702156,
          -0.0567281705870879,
          0.18082864197786425,
          0.2982946367215058,
          0.1768919445602186,
          0.1484495877645681,
          0.2992789361545326,
          0.15125242778086195,
          -0.16333609997740808,
          -0.41479051539744666,
          0.4548102973624001,
          0.16531635885631132,
          -0.48473390660360566,
          -0.3063332427963139,
          -0.22493851495622566,
          -0.13401425809261985,
          -0.057676242620378994,
          -0.21348438326934158,
          0.3493781645436871,
          -0.10743881945312332,
          -0.40852159561321877,
          0.5118412460964001,
          0.0858267847326279,
          -0.012602217603465929,
          -0.26407571441499267,
          -0.11683259279105086,
          -0.10046796849520705,
          -0.09978395214431021,
          0.10268613595283863,
          0.2860986199721654,
          0.19427418748033184,
          0.46980932051279956,
          -0.013360856964095048,
          -0.33611016050893794,
          0.13604769871222325,
          -0.054159945199479226,
          -0.6221934289820338,
          0.2167427750258942,
          -0.18295956049333403,
          -0.22280165261484017,
          0.09621286599606052,
          -0.04715824855840057,
          -0.044292817800045445,
          0.05694885147469348,
          -0.3643617320881923,
          0.25174525091863614,
          0.07729135764244367,
          -0.19647527454689212,
          0.3820468274062672,
          0.3938593071779356,
          0.03118538841874068,
          0.23533321813019892,
          -0.14242677868942133,
          0.1306743404004018,
          -0.14979973244738215,
          0.4093810994377112,
          0.03369725158248228,
          0.18029348390618175,
          -0.3019282814889772,
          -0.08689234678648629,
          -0.18119160489861622,
          0.11793297673064301,
          -0.6615763999612319,
          -0.12406959055488079,
          0.2571318103975696,
          0.29497580097914894,
          0.15974213488092384,
          -0.18227884483862386,
          -0.04989835710279378,
          -0.21799003642334905,
          -0.1579655756513459
        ],
        [
          -0.1198070538586654,
          0.5431525865644834,
          -0.15046055115434198,
          -0.1411863837109574,
          0.39195565773360075,
          -0.0074275881598508415,
          0.5622254849821353,
          0.44689952376569125,
          0.49073613911382846,
          0.41233546207907057,
          0.13234723510690546,
          -0.06486786592630493,
          0.5293621274750919,
          -1.3458648003525329,
          -0.42757729813072565,
          0.20988223789233607,
          0.25839506561261805,
          -0.29256177953004675,
          0.54361120354386,
          0.7989619466470966,
          -0.7371013307314797,
          0.25001424615418616,
          -0.13789523504435516,
          0.10152164044948307,
          -0.2467525703747915,
          0.08916709172440891,
          -0.38911882628590627,
          0.7795478684326075,
          -0.2163797861892017,
          -0.2397823976512076,
          0.8478533286710911,
          -0.7959238065301767,
          0.24332804890348197,
          0.4613916397976398,
          -0.4278256710793213,
          1.0683248918325443,
          -0.10453693738653386,
          -0.6812446997284615,
          -1.234462806610631,
          -0.44536551783761036,
          -0.14113322960709987,
          0.4944408576959786,
          0.1246281083659215,
          0.9763401246227761,
          -0.5226744315909423,
          0.6169601197992355,
          0.06390809956732123,
          -0.2957221521360412,
          -0.1021987202210131,
          0.09090156782954167,
          0.05748294163235514,
          -0.36034401812126754,
          1.2438485570806432,
          0.12961778439460897,
          0.7039064591394145,
          -0.14303304510521703,
          -0.16369251582246588,
          -0.0931954535416166,
          -0.36649274638487483,
          0.3527772866806742,
          1.137563560889935,
          0.12391115850946433,
          0.686902086902259,
          -0.12411684227970327,
          0.458863895706555,
          -0.4241191403831073,
          -0.22595538491091682,
          0.2689923216076311,
          -0.11256035244666111,
          0.5391960035753809,
          0.6297755496470455,
          -0.09690657575937452,
          0.44448969295627194,
          -0.03797747903260064,
          -0.3465791119090204,
          0.34559965816555355,
          -0.4403365189743091,
          -0.07181256010313167,
          0.28582643353189063,
          -0.01068516519514673,
          0.4347335484069629
        ],
        [
          0.675241463576741,
          0.1240618276130284,
          0.47599701836253744,
          -0.15976892189742917,
          0.43496986360762596,
          -0.2337380264418549,
          0.07007616583013786,
          0.034290690681750564,
          -0.14964646262810663,
          0.22750075826310293,
          0.2969199620955008,
          -0.2790169448875206,
          -0.2830278730783726,
          -1.1168253101687717,
          0.38971586882559356,
          0.048781418528807276,
          0.0023103578922479095,
          0.11152420591630219,
          -0.2550072252341599,
          0.5183775259198458,
          0.2792493424380388,
          -0.5334436319631046,
          0.3674589219759053,
          0.3528163402474639,
          -0.09152276098634511,
          0.1583183099850258,
          -0.2581513217591066,
          -0.5337090514394472,
          0.10973253864928019,
          -0.6721402607908467,
          -0.32685244028384397,
          -0.20856995129676698,
          0.1343321856344047,
          0.18266776864838416,
          0.2926660983599327,
          0.7145181077424825,
          0.3004783364931642,
          0.11211257665626699,
          1.0432720651314698,
          0.037517731007578416,
          -0.38256765167284823,
          -0.22432697409919058,
          -0.49551080055814645,
          -0.0635989192523307,
          0.41669249105428013,
          0.08366132676134458,
          0.20934406329488117,
          0.11028754758297564,
          0.12601587052933652,
          0.0014062304278328636,
          0.25023871187287355,
          0.1252059643109598,
          0.05317307193991868,
          0.11922746185570948,
          0.42727827102449917,
          -0.7450016020232265,
          -0.14856251695281172,
          -0.22032523064624707,
          0.11699681835642069,
          -0.5836379735976877,
          -0.9747376686097052,
          -0.06323365553201893,
          -0.28496462460486666,
          -0.5610124624784099,
          -0.0036491009738406953,
          0.18071963409740996,
          -0.21097365825280706,
          -0.3876298356660335,
          0.7060900268596303,
          -0.8795386869099896,
          -0.03942044667882333,
          0.359964458619605,
          0.4807896215210334,
          0.42384407938773966,
          0.32455802707235987,
          -0.09889765964622302,
          0.10328510762400563,
          0.7280112184247847,
          -0.012079650068052136,
          0.4331147331444525,
          0.2802349648900104
        ],
        [
          -0.33500312290024414,
          0.13049036554746807,
          0.21474819719436444,
          0.2758984230229745,
          -0.37259818335577677,
          -0.0942348900278089,
          0.03965021814156719,
          -0.1583992884510789,
          0.5189146509911265,
          -0.2588817566447513,
          -0.2644777732708957,
          0.0784616408448685,
          0.015795171391228637,
          0.6997592581857687,
          -0.3818445058075447,
          0.37370650241876924,
          -0.20679661336004043,
          0.1433290131227552,
          0.23823640982836333,
          0.08869034724364315,
          -0.020782925744480076,
          -0.16248549435958495,
          0.03136458349513598,
          0.09339661529230271,
          -0.19858972197167357,
          0.2657642177062428,
          -0.0793012916893366,
          0.16044360535835164,
          -0.06527349795541033,
          0.4716766486482087,
          -0.08512573900318451,
          -0.11530723546552518,
          -0.3347389283462934,
          0.19977383058222467,
          -0.4730555280345222,
          -0.16264533054595828,
          0.17226962940679239,
          0.09817413773639563,
          -0.7222168193803062,
          -0.1319688601212548,
          0.16462253886766143,
          -0.19662759924924228,
          0.6274907904463368,
          0.006932523319123937,
          -0.43834948528026196,
          -0.108241177374764,
          -0.134690120451119,
          0.11327271534938725,
          -0.20794295992850528,
          0.06087847338129358,
          -0.08428296818210697,
          0.4187866159662258,
          -0.1847300225815067,
          0.10481304609679194,
          0.3288024409468181,
          0.6450916238853095,
          0.11876063395407943,
          -0.15454835383651047,
          -0.019510170554991327,
          0.28801061103050085,
          0.979499588222702,
          -0.09239641243079025,
          0.20632441535138552,
          0.1983086226790868,
          0.251050613143756,
          -0.21135063972148319,
          -0.006989672577395481,
          -0.0034443584152180668,
          0.1863769515352415,
          0.42218935910330957,
          -0.1867780485441669,
          -0.10374007626751787,
          -0.7231660251059319,
          -0.044707637720285506,
          -0.2453891202518666,
          0.20586572591570956,
          -0.09669935348379176,
          -0.4238162628393231,
          -0.21010808426085184,
          -0.031000743886484595,
          -0.2507962264779969
        ],
        [
          -0.05490441939354853,
          0.18906572592635976,
          0.08531366384861741,
          -0.02276904986529117,
          0.2730648955596061,
          -0.14398522689158444,
          0.2588379678255862,
          0.03514750662178871,
          -0.35978535529335753,
          0.22807113311450194,
          0.23625282367507422,
          -0.010539331727397306,
          -0.12900512389738036,
          -0.8328223419731804,
          0.22467242434129306,
          0.042883410266915764,
          -0.07836945654100202,
          0.05966115542395957,
          0.260590321427709,
          0.08528352801273321,
          0.09372938754750428,
          -0.028012025742513092,
          0.17031037261978624,
          -0.2460796089959506,
          -0.141793600082185,
          -0.15065271065709293,
          -0.3501342057305106,
          -0.09683305521742702,
          -0.1793400414932148,
          -0.5800391019880331,
          0.10165602465546295,
          -0.36820969267706444,
          0.10555257794721395,
          0.04039114945109229,
          0.15410291733170892,
          0.3171390073965534,
          -0.18632626385264994,
          -0.23202492784616166,
          0.37195807344652076,
          -0.06972353113167314,
          -0.08851955658209526,
          -0.013203525357671555,
          -0.2626807836086468,
          0.2828298222737924,
          0.1599154694151786,
          0.35183265044187184,
          0.22640651195470826,
          -0.0659545567432329,
          0.19867422203833787,
          -0.08647542080342324,
          -0.07061235935741432,
          -0.3770463935520344,
          0.52252855165809,
          0.13190885767676822,
          0.13849731118471217,
          -0.2754227935314917,
          -0.11842084538444056,
          0.1555232403378868,
          -0.2381084958638329,
          -0.22083696846013612,
          -0.35699918549468596,
          -0.19203140290290124,
          0.18519995502426087,
          -0.515993451675572,
          -0.0055436413425823,
          0.1800619034730131,
          -0.001765906418869827,
          0.16448453692963316,
          0.006747260696704489,
          -0.2833778776509558,
          0.2065487520650469,
          0.163611228226745,
          0.8474628026487343,
          0.41217837332569257,
          -0.02457284165505681,
          0.12802342057154084,
          -0.1529125934507137,
          0.550187806320943,
          0.2735534583410964,
          0.15781403180291095,
          0.3745423313500451
        ],
        [
          -0.08810732731297209,
          -0.1793467168640025,
          0.35953998676558374,
          -0.08167461832502376,
          0.3359279133352079,
          -0.3517063872276767,
          0.18541748299059815,
          -0.32627566159603083,
          0.03176932455485062,
          0.6427192531003668,
          0.2913041412273029,
          -0.31067513927764373,
          0.2277179517871821,
          -1.2622142542766173,
          0.6802527770477934,
          -0.5208350106688744,
          0.3231952362816623,
          -0.14671611231105633,
          -0.34797744418520254,
          0.06970682639242844,
          0.2757179384379106,
          0.3388600511500618,
          0.1211738153310817,
          -0.48061344794330835,
          -0.15736799488309416,
          -0.3952560143229458,
          -0.06897651717679695,
          -0.6295821287474141,
          -0.17458904095250008,
          -0.6146095798516023,
          0.3572907698310143,
          0.019640825743136393,
          0.4743725902967524,
          0.2140933453549828,
          0.25016708671777466,
          0.6607393747611342,
          -0.37275342923595983,
          0.42549656387797247,
          0.31542879378198857,
          -0.27136605724926827,
          0.10865577218713628,
          1.0208114423542372,
          -1.0419933945696873,
          0.6329149672651561,
          -0.1500077094005707,
          -0.0008489557260787581,
          -0.11618187997687345,
          0.10089839893678683,
          0.1728740182842313,
          -0.19485177271134624,
          0.1342132232655684,
          -1.0567596678863833,
          0.6998854985354358,
          0.07186620312836632,
          0.04911157319644384,
          -0.6060265366813242,
          0.055088811186619464,
          -0.1548171138733401,
          -0.25208789839534124,
          -0.05766827613805126,
          0.35454115166649525,
          -0.19171603350420988,
          0.5267226264818046,
          0.08686721382391964,
          0.013884309497172993,
          0.10383163743615303,
          0.0040401484565612805,
          -0.1481972504052771,
          -0.21266527308910937,
          -0.25431514437714253,
          0.2391271878220434,
          0.5326829151654174,
          0.2198428247377768,
          0.2048404591955324,
          0.6894696091446286,
          0.07500276193336329,
          0.08737524217439743,
          0.7852067822737531,
          0.1230514883129327,
          0.17667964929968497,
          0.19193338542108843
        ],
        [
          -0.10023202812706211,
          0.3947480255285121,
          -0.12369606509639834,
          0.24529508424103955,
          0.5502907276067829,
          0.11964511651530216,
          0.06674290512985584,
          -0.005269463586387616,
          0.10282831754079161,
          -0.13024904040443383,
          0.22190520057964636,
          -0.006731487132593248,
          0.22903259674800933,
          -0.6138618157405954,
          -0.2571656519447382,
          -0.15508304478512022,
          -0.19028065300508984,
          -0.18343995307617678,
          0.5247440851915202,
          0.10552066248833519,
          -0.6072637529989511,
          0.00035901002518638655,
          -0.03528720987867533,
          -0.06433065907562519,
          -0.17813487617984713,
          -0.12490691557997374,
          -0.35292255347619633,
          0.32523391543270713,
          -0.24618180435241127,
          0.047678539598941666,
          -0.16300055864248197,
          -0.48630213670775724,
          0.3572647040696138,
          0.011603105251696237,
          -0.05953390761712254,
          0.06826078218119452,
          0.06562577033820392,
          -0.27391433164772694,
          -0.22264479762526448,
          -0.21182139904518132,
          0.2459718197156206,
          0.058709467627829116,
          -0.0036678107072506453,
          0.5537191632051933,
          -0.5403012923651733,
          0.4134304651023895,
          0.6132924189249089,
          0.06208711027620438,
          0.11983835178865093,
          0.12033197518884656,
          0.0812306989138132,
          -0.06198168087341764,
          0.2774991822819593,
          0.19331139790105903,
          0.2872636509913637,
          -0.04148326633496132,
          -0.060014578403082955,
          0.11851271115730617,
          -0.40072451211795856,
          -0.14520812393411714,
          0.30859798623370555,
          0.22801105676267305,
          0.0293119830935224,
          -0.2544939447556019,
          0.12988769446808388,
          -0.24773881958987615,
          0.18354373166079194,
          0.14335898925284188,
          0.15793047956371556,
          -0.29900250157980235,
          0.2811778735585688,
          -0.057540360844147403,
          1.0052504119339984,
          0.22234701437812543,
          -0.43379208561483157,
          0.10606249369518006,
          -0.17417924406192292,
          -0.27530949300191826,
          0.197288132420546,
          0.09410605864273862,
          0.4591021164583355
        ],
        [
          0.03190543367297726,
          -0.31393142780004435,
          0.21889292594905646,
          0.2743688475894715,
          -0.40548375274557313,
          -0.7666643575884273,
          0.3277973846538307,
          0.1291318954080849,
          0.7279002610115954,
          0.5051816266501408,
          0.4668096589063336,
          0.058070058361819436,
          -0.08105653065447033,
          -0.33570135807428036,
          -0.02442064441925364,
          -0.15802642505132516,
          0.6589809563723459,
          -0.6290511292545723,
          -0.1935508960471968,
          0.947637142200125,
          -0.014153020715150294,
          -0.1085664904796019,
          0.3320165165715874,
          0.2914428453830563,
          -0.04602765488741151,
          0.12697194379468674,
          -0.018222846113026967,
          0.1301838564203777,
          -0.49791412103860827,
          -0.12377936751857463,
          0.596243667669755,
          -0.8662163175446047,
          0.4041448937516402,
          0.22232853704477673,
          -0.21561182173545207,
          1.135444955661855,
          0.11751669428094631,
          -0.18489484699871514,
          -0.5407497593539238,
          0.06677725711609821,
          -0.3876361756478006,
          0.1895491967122091,
          0.016048429194448505,
          -0.13779625523733033,
          0.06531636390678314,
          0.7524865120626207,
          -0.40627784266085837,
          -0.22400559270155848,
          -0.01107638996124967,
          0.11498523832061854,
          -0.08910482670282667,
          -0.38486876178264046,
          0.8853181226220245,
          0.03172979195898454,
          0.34743852788980484,
          -0.25064487338141594,
          0.027008982263196757,
          0.2291961663871883,
          -0.28321686600523877,
          -0.24999432952619835,
          0.9193785846073422,
          -0.11557139373241708,
          0.4026345374585025,
          -0.6607755224298715,
          0.35617595872611935,
          -0.006884060664972289,
          -0.18219488716141127,
          -0.718735281400159,
          0.2083400406532146,
          0.48498569681759207,
          0.41227417291857626,
          -0.06106076989453901,
          -1.31627228040995,
          -0.17054445410746322,
          -0.07708099172935445,
          -0.4652056263871819,
          -0.3100478959673208,
          -0.012926630935444472,
          -0.22584025875588812,
          0.13010107075467545,
          -0.29343793015712666
        ],
        [
          -0.3588351426938165,
          -0.5348028605793704,
          -0.3479815412334705,
          -0.18043028019030144,
          -0.54322823925702,
          0.5278767771726971,
          -0.4018855820991342,
          -0.206779517901111,
          -0.37125130587390726,
          -0.2852754729737104,
          -0.5138260374016518,
          0.14787800648667762,
          -0.13309383710280007,
          0.9414590885821559,
          0.018374934803576916,
          -0.15507243612727986,
          0.4856959456817771,
          -0.16990665930050106,
          -0.34949104688235166,
          -0.7877705516210464,
          0.507391187822152,
          0.2792853705044859,
          -0.48127445009949166,
          -0.2060711332886245,
          0.05663342898258466,
          -0.21195842820606442,
          0.41791299067245613,
          -0.06075785937263332,
          0.37088916765995755,
          -0.31663604646392907,
          -0.32704045505233525,
          0.6541282667809056,
          -0.3646680119936324,
          0.2617168716035432,
          -0.1772699129921049,
          -0.09678838893784536,
          -0.16710353341291376,
          -0.10595732333531145,
          0.2583555653205255,
          0.10499559994565172,
          0.19531203170405007,
          -0.24711108426405692,
          0.6453033543848726,
          -0.34327985562811947,
          0.242657651847171,
          -0.6046144012471857,
          -0.6028939142421386,
          -0.041932485605053145,
          -0.168418165150179,
          -0.23558601277858052,
          0.10982244362257174,
          -0.09352043366663118,
          -0.2751536072926202,
          -0.0745368333241854,
          -0.5884793596051552,
          0.9914691066928089,
          -0.12383417640176865,
          -0.0960246270093955,
          0.6135336882992894,
          0.08179460077451145,
          -0.5679788424794664,
          0.024530876501317907,
          -0.16644699477548242,
          0.5836298675917536,
          -0.5536759858571145,
          0.4072173249529616,
          0.16316584928075217,
          0.020046742907557674,
          -0.6246508856008016,
          -0.22032523429231932,
          -0.4556545241860397,
          0.04246953568579534,
          -0.8283745572989346,
          -0.28896568187128524,
          0.11822194537002559,
          0.010875182957099383,
          -0.016092728353964275,
          -0.18918953785242698,
          -0.27347138160585893,
          -0.1110973560196826,
          -0.28419878084045813
        ],
        [
          0.22130328609054079,
          0.06557838360002723,
          -0.47560443426221627,
          -0.05022921113970382,
          0.44645895354782417,
          0.1764261695741714,
          0.17364401746320235,
          0.09553725676332332,
          -0.3074755291981014,
          0.019866414521005047,
          0.17923638781048756,
          -0.1704979137071564,
          -0.03370866413377306,
          -0.6194189376379378,
          0.41646172393286296,
          -0.4148865955013013,
          0.11428609381680448,
          0.0671775257901268,
          0.10747688670999678,
          -0.09466181331787135,
          -0.3597054450880907,
          0.17571912962928374,
          0.26719564596399825,
          -0.11539885721318356,
          -0.2460977838269804,
          0.21467864882092486,
          0.08641939174930958,
          -0.42015818926142884,
          -0.199665182680283,
          -0.1576118082087966,
          -0.23907258481796548,
          -0.1841290156896638,
          0.3068500939623899,
          -0.27918397222299435,
          0.2255376594309443,
          0.08355970496970064,
          0.12276264157495244,
          0.23472487651887894,
          0.39858117365958867,
          -0.1607333925660595,
          0.1674694001532683,
          -0.22850100537351425,
          -0.22312201934202636,
          0.4125435077514827,
          -0.1375230340589723,
          -0.32263163148461993,
          0.3555067081916138,
          -0.010676676316755625,
          -0.09636231693980245,
          0.17160081726525575,
          -0.3489157861594622,
          -0.01743353169191947,
          0.008278532031198518,
          -0.13826884541593612,
          -0.14114101697910836,
          -0.27836344750996583,
          -0.17992562941454673,
          -0.12031534776815961,
          0.0020961657718786115,
          -0.13935951841329283,
          -0.21219515412372855,
          0.2841697899785732,
          0.1911875866162699,
          -0.03127356996416076,
          -0.20763220796949794,
          -0.23771287687881476,
          0.035803483369805156,
          0.45181959951040523,
          0.1904359958822534,
          -0.04086891183490293,
          -0.0789102688960494,
          -0.13169504515503838,
          0.8714670754437123,
          0.03379370800341824,
          -0.039300407604304824,
          -0.4693421267873957,
          0.2447900275203003,
          0.2544640153646642,
          0.24073266235855562,
          0.2568097642458391,
          0.08031670298942739
        ],
        [
          0.2371583278742011,
          -0.4946161639108876,
          -0.47282491127284904,
          -0.2518008321376265,
          -0.2428072106093841,
          -0.035405481060692,
          0.10777874512245848,
          0.0900720357889306,
          -0.48142080325802716,
          0.5500538714605878,
          0.23196255458246892,
          -0.07628321140258716,
          -0.13834680646397954,
          -1.3372887122376729,
          0.06426494408537667,
          -0.22142388670898805,
          0.9159846453240442,
          -0.13635753205114734,
          -0.048858957697260175,
          0.9041019479366207,
          0.014094471067481837,
          -0.08587742692045636,
          0.4057963222103402,
          0.1545138354582747,
