{
  "layers": [
    {
      "activation": 0,
      "biases": [
        0.20398289614290063,
        0.22645252470312358,
        0.42235260941837216,
        -0.1507269993720242,
        0.04496028589220863,
        0.12227538476499406,
        -0.21171939630009626,
        -0.22607098526436056,
        -0.23931712002947023,
        0.3368868040026062,
        -0.1788413627866476,
        -0.10122151701266258,
        -0.17942608875304938,
        -0.09488012648676243,
        -0.12680464003266023,
        -0.1845463949812671,
        -0.19375897680725043,
        0.05300981227761053,
        0.3458660781957415,
        0.031443102135511346,
        0.10133579920053086,
        -0.17741622178671831,
        0.055194761911154265,
        -0.057702986642565894,
        -0.009736848672088233,
        -0.23619201769696316,
        0.18890424636622313,
        0.12971584775110506,
        0.04264299742977852,
        -0.17604672170947586,
        -0.2165964058077734,
        -0.08147298950314591,
        0.11382635929398287,
        0.18537874018867356,
        -0.0005367152098001656,
        -0.09480340575034682,
        0.12193097155580211,
        -0.35260681779768566,
        0.4362996295566113,
        0.0298134666899903,
        -0.38761621788904715,
        -0.36697325783401946,
        0.05036550323597906,
        -0.13027520943565218,
        0.24596432763011614,
        -0.17274180822503404,
        -0.1726962665583352,
        -0.0901381663790345,
        -0.38209763484900455,
        0.08047723511133097,
        -0.6590515630947216
      ],
      "cols": 51,
      "rows": 30,
      "weights": [
        [
          0.3080774235440207,
          0.5837011231985768,
          -0.32289661910542633,
          -0.2358150093286356,
          -0.7697081674604,
          -0.05464060657341402,
          0.05167157912388748,
          -0.12711599905331333,
          0.142078926943363,
          -0.4992884261947367,
          -0.6389360827031304,
          -0.0299950221036998,
          -0.20288534404045672,
          0.3533290835282364,
          0.39435466100403677,
          0.43633726896782843,
          0.11240342532988992,
          -0.3384163810961765,
          -0.9237998405928137,
          -0.38768281512774116,
          -0.4024222353207774,
          0.09431580278251482,
          -0.5434171632899037,
          0.4312588683103362,
          0.040744655502734956,
          0.950096178624841,
          0.2758997478618936,
          0.05656579706593551,
          0.1055347167048547,
          0.9549906567487336,
          -0.21929073518493583,
          0.18634570931799957,
          0.5509401669214806,
          -0.6876631902950215,
          0.4917919091980808,
          0.29588938994509645,
          -0.1659045227889049,
          0.7193540662429992,
          -0.8275518725254148,
          -0.4582009574465389,
          0.716700744193652,
          0.15837151699726432,
          0.37590330229096874,
          -0.5060731994240727,
          -0.037515959969129015,
          0.2519717705792446,
          0.2743987588075814,
          0.29820450405925675,
          0.7532896862938511,
          -0.009204274758570446,
          0.7087112572565808
        ],
        [
          0.14464129975311513,
          -0.1906839132195406,
          -0.058518580926106505,
          -0.04487508974629612,
          -0.06643754481434294,
          -0.22654539265218956,
          0.17820315573684525,
          -0.1449986928818233,
          -0.19816169970245806,
          -0.20850603873627768,
          0.017763319445334005,
          0.15859344077730078,
          -0.17857801575196264,
          -0.2677230098338794,
          0.20993729254348528,
          -0.09689110689413066,
          0.2144947780955496,
          0.23231610567645128,
          -0.03338827211466434,
          -0.049880783816175556,
          -0.06039365739224749,
          0.20667025199191674,
          0.25995992935210127,
          0.04456286363867388,
          -0.0206280614321726,
          0.002334783700666445,
          0.045020414950947815,
          -0.2556565828149718,
          0.0023736270549095766,
          0.18189521777433137,
          -0.19043989668477918,
          0.19850108858009025,
          -0.2561177453698908,
          -0.23202843662715292,
          0.2580765640359753,
          -0.0487956995668836,
          0.025942353384277934,
          0.16459931497217373,
          -0.20927300969315937,
          -0.06166169960909064,
          0.24365173094308143,
          0.05558361805101525,
          -0.1399238554412376,
          0.27149859329554266,
          -0.1415024483032278,
          0.1505585001598574,
          0.15398256981990954,
          -0.10337390059540628,
          0.11306040743616647,
          0.14551577051158546,
          -0.03600647372712494
        ],
        [
          -0.057985173478178845,
          0.41645927357563045,
          0.2360155861613357,
          0.7474209735901145,
          -0.5758323788735079,
          0.14239051605473899,
          0.5581872039538417,
          -0.11757748014021452,
          0.15280666397337686,
          0.06378023402160349,
          0.34928560926310603,
          -0.23316886037653461,
          0.06940159864905641,
          -0.4990094789805742,
          0.2422530110935577,
          0.2818481797668018,
          -0.05170002312318589,
          -0.012106563338355721,
          -0.05323571682233474,
          0.05008820061638164,
          -0.2179570939083682,
          -0.009085566016055147,
          -0.19477552711540833,
          0.0699278836806057,
          0.07594391246751736,
          0.20846293833103247,
          0.049159759008055255,
          0.2543409455302182,
          0.49544057059210506,
          0.26189045128938043,
          -0.14959988934935559,
          -0.007062318760014372,
          -0.25065242152347783,
          -0.044009406638799084,
          0.41987769618650445,
          0.20543289896228317,
          0.06652764747135012,
          0.4021930281229561,
          0.043486995613891105,
          -0.09434808019640059,
          -0.09572495529306682,
          0.14695027621765733,
          -0.17060806080409194,
          -0.18557255866577319,
          -0.1949335213207149,
          -0.04406026922349948,
          0.5226305305695106,
          0.10950816132722957,
          0.15351521847521477,
          0.22384686447514898,
          0.1591125375779661
        ],
        [
          -0.7065476035008861,
          -0.6164028324770965,
          -0.3792513797913245,
          0.05764115824247356,
          0.38061114517019823,
          -0.14801348129554592,
          -0.5548488380577585,
          0.0019145861740785734,
          0.15784979949335282,
          0.2895505196671779,
          0.2934367165511872,
          -0.5302112022677448,
          0.3094257246038073,
          0.1028988672216213,
          -0.07684173012999693,
          -0.3739649630078415,
          0.07700939243665532,
          0.08838811638096046,
          0.8098664238893435,
          -0.4137183843038587,
          0.32978742680520257,
          0.3132405896079687,
          -0.1342422449313813,
          0.041745023395996485,
          0.18537492393832605,
          -0.06749750726576637,
          -0.2445366134287433,
          -0.20186361814775725,
          0.47390319568604655,
          -0.46303420069264883,
          0.10474238088677335,
          0.4194746463966768,
          -0.40423443103117895,
          -0.024070141163786685,
          -0.5397119027115335,
          0.10875961251680963,
          0.3281073212066703,
          0.11403329212347511,
          0.2869561054656523,
          0.4397519332571056,
          0.27866680373629715,
          -0.0706051982316162,
          -0.16597555077497583,
          0.17422771352306243,
          -0.4969525142959421,
          0.2845482615962094,
          -0.3953108574620219,
          -0.5948258776494045,
          -0.15881715805044574,
          -0.6054106556564446,
          0.32251429529108905
        ],
        [
          -0.007161376970816663,
          -0.5524004534013086,
          0.1443372129934606,
          0.30659025387607275,
          0.4507336251226332,
          -0.0918101440092572,
          -0.33945418732792226,
          0.6423621621527617,
          0.06580326762773128,
          -0.21695012911866995,
          0.5952348930083484,
          0.2751782179494647,
          0.1923017889823672,
          -0.36172865379450686,
          -0.11448024053450266,
          -0.46908752378609064,
          -0.4325742881442509,
          0.08986717060516845,
          -0.028016134574780333,
          -0.35121455509761834,
          0.12176479343304115,
          0.14385917989341357,
          -0.00618218532102647,
          0.1432960674890274,
          0.11646062865045578,
          -0.2652264658662076,
          -0.10186566323309351,
          -0.09438830336288445,
          -0.28768126367008046,
          0.014940166878844837,
          0.7091220666412649,
          -0.2112343563883069,
          -0.05767214941414175,
          0.20313281135877462,
          -0.21084939264958086,
          0.09001700337177114,
          0.30446593519734155,
          -0.0015852821442926962,
          0.09440146298253645,
          0.2131414671813882,
          0.13544641892817955,
          0.012418395200621962,
          0.026453145415629015,
          0.28195291650566967,
          0.19507225348427326,
          0.29704001337580194,
          -0.2668721864890392,
          -0.0011628616026270922,
          -0.1625145277732843,
          0.09170577153081447,
          -0.38110161392724995
        ],
        [
          -0.09989654915817113,
          0.2085631367417742,
          0.3660184670040816,
          -0.18525797319662832,
          0.2757584536876655,
          -0.008706715963596451,
          -0.09855010166668479,
          -0.3230732640192805,
          -0.2556014351513255,
          -0.03778666851487956,
          -0.24983892363713203,
          -0.3267542374579654,
          -0.06279757536731947,
          0.22571385326903562,
          -0.29874052794878275,
          -0.28571423311340627,
          -0.20747368500667446,
          -0.11285292532082583,
          0.5663456303093627,
          -0.08193236240002683,
          0.15532381357328073,
          -0.07522988342696425,
          0.020482650834460808,
          -0.06548642643050323,
          -0.2765152869974799,
          -0.009305640415323847,
          0.33537066993028924,
          -0.04665563135891549,
          0.06181760986417821,
          -0.322295360024426,
          -0.4403453690041897,
          -0.31228469349653915,
          0.15740165445556448,
          0.2947745497283275,
          0.15788030695755026,
          0.15968892366089324,
          0.4644566577716425,
          -0.2930310418799211,
          0.12960977462837134,
          0.07559764815184127,
          -0.3311121556211264,
          -0.65114226243579,
          0.07471228286972575,
          -0.14973894767395232,
          0.30988872109787724,
          -0.4090198877665778,
          -0.5065935743293264,
          0.15393154985802765,
          -0.5199033307236378,
          0.036489155109905996,
          -0.32193689469288445
        ],
        [
          -0.2742015974847414,
          0.21085097363263317,
          -0.016204164400697902,
          0.612083355277558,
          -0.5291703724176,
          -0.49215908155513416,
          0.36655517455462305,
          0.44802503244629815,
          0.4586530182992689,
          -0.608925792548431,
          0.11008221345153808,
          0.5545713140423723,
          -0.022233848544773182,
          0.3308846491314846,
          -0.09174261982639462,
          0.22390587851301255,
          -0.2504198658514742,
          -0.49036225404800166,
          -1.1821899275477121,
          -0.3945825073704068,
          -0.5851033631808044,
          0.1325154863391449,
          -0.40779564528767925,
          0.38994193581586295,
          -0.444897934365234,
          0.6499797778573982,
          0.2891905251022595,
          0.12886990913281848,
          -0.19387549747828786,
          0.8544405103198544,
          0.328768529050304,
          0.6094401162999531,
          -0.02526706743769027,
          -0.15876358556570241,
          0.4728320033289995,
          0.5169904065897071,
          0.11657214710268866,
          0.4140604368004862,
          -1.2289446456809592,
          -0.39337745771104865,
          0.6511838606251954,
          0.19286013088690987,
          -0.43787298166408906,
          -0.476672568551533,
          -0.4330168321469778,
          0.9336765601973244,
          0.8212537836800194,
          0.4045143876544485,
          0.8864528772656618,
          -0.10903242648148553,
          0.9258435992463772
        ],
        [
          -0.7076838883572502,
          -0.27573073911046714,
          -0.5497173289421966,
          0.40077401945724356,
          -0.5742794905976667,
          0.2596793033751785,
          0.4736858124329257,
          0.2729091473114903,
          0.6995241742179188,
          0.033402231002760165,
          -0.2445969504260744,
          0.24010821978147268,
          -0.30768767241065414,
          -0.5029312022750654,
          -0.7144807336214128,
          0.43046002676738004,
          -0.011972621080280466,
          -0.5926658711494711,
          -0.28127383104614595,
          -0.1333029189600554,
          0.1353256264924655,
          0.5116158820810811,
          -0.07558947361664704,
          -0.1720362071441694,
          -0.29912818346143794,
          0.6704544345039679,
          -0.3554684148187538,
          -0.4383767581959679,
          -0.7005264308783006,
          1.0286350281888317,
          -0.07850814104302484,
          0.704584311943877,
          -0.3574691099400129,
          -0.17747752282834856,
          -0.2813864725548641,
          0.12625796580007764,
          0.22006378610093297,
          0.9717146807177635,
          -0.1304461920356184,
          0.1282338621046965,
          -0.019793814843696585,
          0.08747389980351683,
          0.6658430315269643,
          -0.3434224751234276,
          0.08348886880670003,
          1.2256287054814623,
          0.15898529964589228,
          0.19871434922650535,
          1.0873141020020602,
          -0.17282684403231133,
          0.23850483236696604
        ],
        [
          0.06530935023118499,
          0.08908474802529111,
          0.04910329115772878,
          -0.24850794106204135,
          -0.13534897270808638,
          0.17419504824702037,
          0.06383609250368229,
          -0.0478744816310383,
          0.05900047206957251,
          0.2599166537532528,
          -0.10250968665827609,
          -0.10099429573878971,
          0.03824043679018947,
          0.12861880292898634,
          0.24022547202895994,
          0.21323811660331665,
          0.13675295576540286,
          -0.08658068342847554,
          -0.23228770139128194,
          0.2609259807373808,
          -0.03800419582076671,
          -0.26497367730166094,
          0.1629118826990365,
          0.25192764133901524,
          -0.18921443960388243,
          0.03795087530475805,
          -0.14450304469594005,
          0.24458600202432532,
          0.20406284405851527,
          -0.10928626319930416,
          0.2711846640967902,
          0.15267919841096486,
          -0.03648343835188173,
          0.2048145690672945,
          -0.14519119794379626,
          -0.2619524336855234,
          0.0047903105804815126,
          -0.13104969594788607,
          0.049022549835280545,
          -0.0039747215553732175,
          -0.18996316703032712,
          0.226252121829714,
          -0.028466378797199165,
          -0.013052469763897786,
          -0.010116051188202095,
          0.14070786998311652,
          -0.1618248497424058,
          0.24444755812909513,
          -0.06049147677214323,
          0.22394999228435156,
          -0.11152725078454342
        ],
        [
          -0.6896070813300285,
          -0.4397746032792125,
          -0.05219462085043419,
          0.4882682644294339,
          0.02717475449135529,
          -0.4749714166050319,
          -0.07478669950755686,
          -0.0569956677561045,
          -0.20180636429705587,
          0.4566931169138092,
          0.15108282140100945,
          -0.6056378435169417,
          -0.21353742413367094,
          0.2659686880984872,
          0.14771593531925506,
          -0.2233422750310053,
          0.19302503102583518,
          -0.11072370819686499,
          0.2860695546773386,
          0.3111769084145527,
          -0.3808328041020265,
          -0.38042527860701086,
          0.2164513458773508,
          -0.33127579846565663,
          -0.13444311392657787,
          -0.4090366543217034,
          0.05002240104259424,
          -0.029703722635873557,
          -0.1293817278007323,
          -0.4527455994501156,
          0.21288904675713188,
          0.6485529006802963,
          -1.0320357405969487,
          -0.043258502741981786,
          -0.25478688124146853,
          -0.18939953813124347,
          -0.1756116468767513,
          -0.18926601886212602,
          0.08706181638135688,
          0.37107971592283456,
          -0.3510651663992854,
          0.019740063054385897,
          -0.26610949628592767,
          -0.023207606567088805,
          -0.6167844112274203,
          -0.17394984553984758,
          0.4365104857681519,
          -0.746707113173144,
          0.0836804294475229,
          -0.4154201560553722,
          0.297575523375955
        ],
        [
          0.32926883838755905,
          -0.0022493655461321396,
          0.14231351488059196,
          -0.19345957672865283,
          0.4436830507243599,
          -0.24674654151624217,
          -0.5610455914830343,
          0.30469224751597607,
          -0.027957649548228918,
          0.27702882250494604,
          -0.11017412036878026,
          0.1511482557906186,
          -0.4757346866508845,
          0.3894419658189086,
          -0.23859684317593477,
          0.10356269550640969,
          -0.11017379019343781,
          -0.2643621693986917,
          0.14636134840923432,
          0.26463713906453945,
          0.37598010617918726,
          0.16620296580537008,
          -0.05329573654753629,
          -0.32589284255905626,
          -0.15418417424651767,
          -0.4187018567105568,
          -0.21024196122882233,
          0.0035159723840538577,
          -0.6729284438943408,
          0.08224650448160341,
          0.306361610545542,
          0.12705086897846443,
          0.34652750903481455,
          -0.039154354196925194,
          -0.01612104209862613,
          -0.14122207875300857,
          -0.37111069096121135,
          -0.5895701206924481,
          0.47034192319651774,
          0.28695919390349356,
          -0.15010296188258496,
          0.15580788860642258,
          -0.20471860289224642,
          0.04275529477184075,
          -0.004124026277791177,
          -0.1859778523052285,
          -0.085302433788496,
          -0.07958397313957954,
          -0.2946663400239055,
          -0.30455441800268906,
          -0.4899197048151378
        ],
        [
          0.2478805532296786,
          0.19200173616636046,
          0.11958107222616245,
          0.47047219137148477,
          -0.08805021756863271,
          0.09356520583384056,
          0.0933879458937145,
          -0.2837853479561739,
          -0.28519455416869155,
          0.42712532384083696,
          -0.23144987656767863,
          -0.24986787555281775,
          -0.36154922706055226,
          -0.21274838882012168,
          -0.28657815700930156,
          -0.10834369924522595,
          0.20220149711180552,
          -0.2010570925424013,
          0.04805206696135277,
          -0.05548780979127061,
          -0.07896917432576181,
          -0.16881869320097084,
          0.13810664888330706,
          -0.004454231409205847,
          0.11916051890939533,
          -0.2843931734139524,
          -0.07534283161608565,
          0.08857041302138043,
          -0.37118517523524247,
          0.005733754867481403,
          -0.1431212177443716,
          0.3402281910561015,
          -0.19193994158801442,
          -0.08955161930987177,
          0.014412635057224552,
          -0.2668501675146228,
          -0.18369300549266787,
          -0.3001975859459672,
          0.20632251129103055,
          -0.10980331469231186,
          -0.39629148375595663,
          0.10160241697362404,
          -0.186168149306253,
          -0.28245205719331284,
          0.1575122693685374,
          -0.0012517899582882937,
          0.3318306313981768,
          -0.08265378491048386,
          -0.2613552401635027,
          0.21602154782578722,
          -0.23413740870699268
        ],
        [
          0.05116089367189633,
          0.014164490937955267,
          0.21928701748566878,
          -0.056682988849700335,
          -0.05825840517678297,
          -0.004724294317272449,
          -0.25784179042695626,
          -0.19226192790756622,
          0.046844745182002615,
          -0.21357864611349622,
          0.1331772182233138,
          0.007193369123537833,
          0.04697938291315901,
          0.008536261675932761,
          0.10806366302272785,
          -0.04575564058319192,
          0.07348300089145295,
          0.15722883463678577,
          -0.12594201437330874,
          0.2315295708435904,
          -0.109357343110602,
          -0.2568523512584508,
          -0.19048009536396254,
          -0.08322483195939673,
          -0.23285853373784252,
          0.00968962773814682,
          -0.06301782071082251,
          -0.05472467408972792,
          0.22326491468879095,
          0.06053713654648969,
          0.14016441180379804,
          0.011210909137581904,
          0.05892041056412251,
          -0.26132904251202194,
          0.07885804622819363,
          0.03308095858468682,
          -0.15970779264386353,
          0.270141292019335,
          0.24412333915739565,
          -0.21929205147731132,
          0.24980856050486003,
          0.16301758638457378,
          -0.019315086911074374,
          0.10247836286073324,
          0.24726678659602733,
          -0.2660264765803834,
          -0.11610947767045654,
          -0.20765706441040246,
          -0.023253872331093866,
          -0.11691564836588399,
          0.188973059197675
        ],
        [
          -0.18192530031018875,
          0.18992861727046628,
          -0.10866342611974683,
          -0.09164918123336274,
          0.10255025312808755,
          0.0711192865670651,
          -0.1274511954357332,
          -0.19708608447762685,
          0.21692825958991022,
          0.24699558270428765,
          0.020212829361724655,
          0.05746088199690822,
          -0.2418706626232845,
          -0.23444825587833465,
          -0.20674261422767176,
          0.12472795221156058,
          -0.058365434023866444,
          -0.18224319561504548,
          0.19603324641739775,
          -0.10520753331856993,
          0.2371035353993289,
          0.17212129108082094,
          -0.188034491480362,
          0.1710579145897495,
          0.08690138164771204,
          0.09858826343994538,
          0.12771830344273205,
          0.16188375251410148,
          -0.20486476931960132,
          0.09291410090523891,
          -0.12153231703177678,
          0.08320520801010343,
          0.13715321285134682,
          0.05005683766165423,
          -0.07893341542481752,
          0.22966484802581916,
          -0.11244392900285004,
          -0.0006260431441741916,
          -0.18652347045090165,
          0.024057128583625745,
          0.10705727481498968,
          0.21837982603499587,
          -0.20735755914389667,
          0.09038989679321857,
          -0.1547146026949165,
          0.02828527372385276,
          -0.02516279009754677,
          0.15843639341869642,
          0.0018644687101870977,
          0.033802680648413075,
          -0.10149387353053572
        ],
        [
          -0.11099226598420872,
          0.17297009127012727,
          -0.075516786237609,
          0.10909369451538248,
          0.2099875123132823,
          -0.049145145528423174,
          -0.1295443879666448,
          -0.17135851866560928,
          -0.016140441651427858,
          0.18614107440328054,
          0.0544454165717819,
          0.10175401151224824,
          -0.055915797370526106,
          0.04066301003528844,
          -0.2579999500290313,
          0.08380405125034138,
          -0.0632904179485873,
          -0.010548115192941227,
          -0.10509703314643384,
          -0.23574924970210276,
          -0.04852652473370882,
          0.26731849540032077,
          0.09040093380722114,
          -0.18625646357998868,
          0.11130360037065279,
          0.029215405829792953,
          0.2641802299820889,
          0.2136208533198586,
          -0.26826170929421017,
          -0.07849987341377082,
          -0.263537925853582,
          0.04345342358933417,
          -0.1079650933600898,
          -0.2305388300866114,
          -0.0991345643290459,
          0.12559719760559432,
          0.07230456980922058,
          -0.17961709905103956,
          -0.09742815978801073,
          -0.10981298120188307,
          -0.2468465491764874,
          -0.1145606269288768,
          -0.25108913193655163,
          -0.04497617589780761,
          -0.018882765630327328,
          0.1895853768569324,
          0.03421575109344678,
          -0.02705174425968115,
          -0.2350755170913325,
          -0.15996666781860916,
          0.1259906572819775
        ],
        [
          -0.024492503717913068,
          -0.16383517962780483,
          0.1693915201433165,
          0.23073401031211885,
          -0.18243437424810274,
          -0.23225205130122373,
          0.07168725187034924,
          0.032983246170776616,
          -0.19553796754298597,
          0.2024704348412153,
          0.04361462893378468,
          -0.10850003025385747,
          -0.26140728559571746,
          -0.2565941003899195,
          -0.06398435775209341,
          -0.23407826281556005,
          -0.09917504005520131,
          0.1697515405289922,
          -0.011566018466456269,
          -0.05189802796260308,
          -0.17738237962185913,
          -0.08656712510959541,
          0.14052291844334638,
          0.03550788803222123,
          -0.1862210028349333,
          0.036715116791114895,
          -0.031281776006141536,
          -0.08195011932341639,
          0.019571775113015777,
          0.11110231395890824,
          -0.06013381521457559,
          -0.1705841373992779,
          0.2304097723298769,
          -0.11767523664197113,
          0.042733468238686914,
          -0.0037270679236289365,
          -0.26833869083830825,
          0.035441465957299224,
          -0.1272712700299147,
          0.19982889056388298,
          0.14134121152801377,
          -0.12151896605454637,
          0.14362083081679014,
          0.16124562462156145,
          -0.017637495001660522,
          -0.1525609994760816,
          0.2505356544409368,
          -0.14223572269339416,
          -0.15942617173527932,
          -0.1087105593378706,
          0.07717706562621837
        ],
        [
          -0.1312331993912688,
          0.19293793772784884,
          0.11186688071585392,
          0.13208296303486683,
          0.042298922724472374,
          -0.06223833118499608,
          0.24301978958800463,
          0.2204054692925547,
          0.26428326610830866,
          -0.23715093045599078,
          -0.18286118297848517,
          -0.050977737994703586,
          -0.17631256210552942,
          0.15789520687246456,
          0.2130618693572527,
          0.2714948226178148,
          -0.0932110073038539,
          0.17508790929731555,
          -0.06388610493182964,
          -0.23180753665854495,
          0.03552818951724773,
          0.06323549623795596,
          -0.08375281961273785,
          0.19423902635085538,
          0.08716557622571096,
          -0.20044727309313187,
          0.07098878223478654,
          -0.17808897056115935,
          0.1668677375583909,
          0.2410756526371225,
          0.15373487715318473,
          -0.01593610544172545,
          0.12592573501211834,
          -0.21298323465638253,
          0.2487405251635171,
          -0.042759387972694074,
          -0.18559492864020644,
          0.1665453210395902,
          0.17280663786566275,
          0.0015608244683776083,
          0.06102270559623627,
          -0.039148051542274444,
          0.27141031543364286,
          -0.16910461151571643,
          0.22704591083210243,
          0.25087697250841745,
          -0.19228918243512774,
          0.1461976485061137,
          0.2661102499576165,
          0.2209773246597733,
          -0.025959587328173574
        ],
        [
          -0.006951556290857952,
          0.12783100098010228,
          0.027203841779977582,
          0.13632171149525443,
          0.02163776913409758,
          0.16465346916383766,
          -0.22662524884378102,
          0.18190025784934744,
          0.06745323551418991,
          -0.20371113863063622,
          -0.05477170743913533,
          -0.005763556822396247,
          0.05302640606086424,
          0.13085389040226872,
          -0.22316566166052004,
          -0.11374154047090426,
          -0.012626482542423396,
          0.04881389645812315,
          0.23140385767495877,
          -0.21191548700791552,
          -0.008884968761055493,
          0.2647679573779416,
          0.006466288114629998,
          0.22198532977751587,
          0.19697344118367116,
          -0.052425968469798905,
          -0.06520724232638486,
          0.1351374596383957,
          0.15247518411311473,
          -0.24187174521030894,
          -0.1174327957009685,
          -0.02724561478555027,
          0.07469058400685796,
          -0.08821408267047283,
          0.1195120732752235,
          -0.14004244067034358,
          0.2673045419156314,
          0.17693129214749437,
          -0.18934127870357534,
          0.10488625033504739,
          0.08890731071926937,
          0.13494195674061432,
          0.09893937700626923,
          -0.1887730622076568,
          0.19993515290589461,
          0.10093303819456836,
          -0.11082187525259092,
          0.03350090374882067,
          -0.25329928442192606,
          -0.0048855564398764635,
          0.2507210447440268
        ],
        [
          0.19637001919091399,
          -0.019036475244624092,
          -0.023116523443109212,
          0.06959901754238425,
          0.05284179696433224,
          -0.04822205442046113,
          -0.20617281656156866,
          0.23443468057670327,
          -0.15505609464549222,
          0.06922239182808347,
          -0.08427469702425948,
          0.02282808940958241,
          0.144871345820436,
          0.16387802558839376,
          0.24001725361301401,
          0.03659078429481342,
          0.07581895069879369,
          0.10825946628708011,
          -0.04074454270325067,
          -0.10550413529503173,
          -0.18296118426170713,
          0.04869359495724419,
          -0.18730644777758415,
          0.06239378495319481,
          -0.08884416099238887,
          0.14872427608208635,
          -0.19971017454224493,
          -0.23820399841704668,
          -0.060182616037483656,
          -0.07411083749020252,
          0.05140428311223058,
          -0.13463132726508453,
          0.09723499037094739,
          0.14370352211394663,
          0.05782645447487689,
          -0.005823058806390156,
          0.223247711668711,
          0.0036793841601956124,
          -0.09952976866627877,
          -0.26507436879431107,
          0.07642816102151805,
          -0.25803487771847616,
          -0.057260478434755346,
          0.19685696105529985,
          0.15451884480239228,
          0.2460088222479513,
          0.1176092528234212,
          0.21137952024969447,
          0.012099677851770869,
          0.08244206172089005,
          0.20191037184021957
        ],
        [
          0.11173243182275258,
          0.12062028727131166,
          0.13296301326081125,
          -0.016747107603149812,
          -0.23619846983425044,
          0.04087068956572421,
          0.06496150698511143,
          -0.2688231045540213,
          0.22930361451406084,
          0.18527715956535165,
          -0.05543050410038209,
          -0.08169432917950065,
          0.0599048775886169,
          -0.01715693206142751,
          -0.06745936299223458,
          -0.11277932262487951,
          0.010107093420596463,
          -0.18186347397053712,
          -0.02506334214784724,
          0.2225718714224671,
          -0.10250011269562101,
          0.26367635682164325,
          -0.19298279449688194,
          0.27073379714471796,
          -0.10373280924455912,
          0.04070836488053383,
          -0.18362486460457406,
          0.06030042031350552,
          -0.12212949951102572,
          -0.15139425607535156,
          0.09840364572530075,
          0.03547393342907629,
          0.14665920115736386,
          0.028209784887548335,
          0.2582890552614438,
          0.11144035232760431,
          0.05033512614888278,
          -0.21433057009928652,
          -0.06749318021252608,
          0.24476026963923478,
          -0.09318503763548855,
          -0.1066829803001419,
          0.0004423338799850893,
          0.13079853727906057,
          -0.005233810313667059,
          -0.06841029668720479,
          0.1926553041910365,
          -0.19319230689708444,
          -0.2205285232665075,
          -0.2631320183274721,
          0.14782918294063288
        ],
        [
          -0.05515448876708359,
          0.17632325236723756,
          0.23038740224435725,
          -0.04948259304945966,
          0.018693966356763927,
          -0.03211055606644971,
          -0.12004632857767562,
          -0.16217043935203954,
          0.04198715895324271,
          -0.1647388434822195,
          -0.270049103562115,
          -0.23367245338384923,
          -0.19117217897810318,
          0.13890143805104777,
          0.052071571149108015,
          -0.12134549612199838,
          0.03863028699824485,
          -0.16053908336314548,
          0.07264427983828328,
          0.12244024051507127,
          0.08839168219979021,
          0.20941887961322092,
          0.2069233897849489,
          0.15964862803362975,
          0.055040834365743085,
          -0.03864627030192074,
          0.17397649772798612,
          -0.07525824919704523,
          0.04190617049374253,
          0.264415366312258,
          0.1923317995087855,
          0.16789506524496037,
          0.17018155798546744,
          0.009506612992442175,
          0.023996513342265578,
          -0.06515507815830537,
          0.09200734314840787,
          0.12902339441861047,
          0.02803660366177181,
          0.17607711273509458,
          -0.1204853202775599,
          0.005641812801555706,
          -0.18632923441566954,
          -0.22211086221925724,
          0.2169807983924131,
          -0.14467047561283428,
          -0.26774242061162334,
          -0.04836519670789098,
          -0.07274418226668451,
          0.2299813286928432,
          0.23814744712271593
        ],
        [
          0.014292171570994236,
          0.12664482246813402,
          -0.2500482923168256,
          0.08390905610833797,
          0.11047442793274831,
          -0.2500413425694512,
          0.21657259439277443,
          -0.1329870529789064,
          0.22513460559499088,
          0.24632904723141763,
          -0.08295571821343174,
          0.015630240008135357,
          0.15539939259760127,
          -0.11942107538490898,
          -0.11743845146408631,
          0.1547058350327355,
          -0.12771378501700095,
          0.06866035477235896,
          -0.002142771898901747,
          -0.26259265501899876,
          0.11955649736431022,
          0.058514806953218035,
          0.03030841747528935,
          0.2067264327074065,
          0.2528425209065316,
          -0.14091759986392477,
          -0.12342451489940207,
          0.15997512928431967,
          -0.04737632532092025,
          0.11033714748271649,
          -0.26157507568512717,
          0.00017788582808680523,
          -0.21824345504931522,
          -0.2556852978591418,
          -0.03991123483867709,
          0.13268194441837997,
          -0.0771079818218785,
          -0.11872895045452272,
          -0.17949497887493224,
          -0.19990659729680735,
          -0.08525720418856353,
          0.10834436813011346,
          -0.09888943935292226,
          0.005106682507202715,
          -0.22178289588942862,
          0.050134377862226694,
          0.03795980012075674,
          -0.18759751946050832,
          -0.04392418038482022,
          0.001377228760495455,
          0.07790408377359918
        ],
        [
          0.15853280094897237,
          0.18511027032218047,
          0.2184185930935953,
          -0.10225477632226526,
          0.030485236051522646,
          -0.2091080567371059,
          -0.006163816443079236,
          -0.09009189031788005,
          0.19216021592899704,
          -0.1296995390870076,
          -0.20492684254283094,
          -0.21445524199713933,
          0.09719452706501301,
          -0.16141807381471646,
          -0.043652127608991426,
          -0.12847533264633065,
          -0.18823904871930472,
          -0.007251718815184959,
          -0.08771774402168754,
          0.041432537022971914,
          0.26013106580393114,
          -0.14785402819878044,
          -0.10029399171261684,
          -0.013962861069077038,
          -0.06828932576175746,
          -0.017685168626137875,
          0.04982469612560688,
          0.25092241353478867,
          0.10243226280222348,
          -0.09946307182564974,
          0.26962572889612196,
          0.26807184289553015,
          0.2292235674566231,
          0.19086983100181537,
          -0.17226546500702145,
          -0.1388882008835982,
          0.09838897896505845,
          0.040173498199036296,
          -0.08940895001423939,
          -0.21891577682436125,
          -0.23849679600375204,
          0.15641969398767877,
          -0.1920994896660689,
          -0.17629362583092523,
          0.0739262484181085,
          -0.01598278696936044,
          0.03436539802808362,
          -0.1860450838375691,
          -0.1207905690091527,
          -0.2591515422808972,
          0.21775122876107417
        ],
        [
          -0.039723544766897594,
          -0.2479910837010978,
          -0.007333727000182524,
          -0.14288832242474783,
          0.14984054928080673,
          0.26650578634565764,
          -0.1723627079872699,
          0.15459152134578258,
          0.12060602252067384,
          0.18571764169176452,
          -0.22286426421135505,
          0.2109870230137074,
          0.010923472270375415,
          -0.007593708081551335,
          0.09695200273109751,
          0.07637523998037483,
          -0.08160625739188107,
          0.050517958393379865,
          -0.22362967098080344,
          0.15723174071504264,
          -0.04420237432628423,
          -0.11139064685634915,
          0.1521553748268434,
          -0.06712173474430777,
          0.25549470652510947,
          -0.029873641806774185,
          0.222506805179433,
          -0.22400173948786653,
          -0.14008273262792192,
          -0.03518148766414331,
          0.04360140824213864,
          0.05532998598387916,
          -0.2147016274989648,
          0.20634870945112121,
          0.03120559670693507,
          -0.20243290524219287,
          -0.054172439883589725,
          0.22547733094956113,
          0.2018170716464766,
          -0.18386742670610062,
          0.03823086612269505,
          -0.173193736361066,
          -0.18864182939139135,
          -0.17304268061849615,
          -0.22933900884895453,
          -0.2674909957952034,
          0.043996415123203826,
          -0.22215015878483255,
          0.22773790344911318,
          0.1771226074029835,
          0.2072260693050972
        ],
        [
          0.2605863016321338,
          -0.043263655285053305,
          -0.23913149895696303,
          0.06457504268140453,
          -0.24967487254040474,
          -0.13749185803655814,
          0.02983598952638443,
          0.12757874654360957,
          -0.06342441160256528,
          0.16214055376540196,
          -0.13770635778920567,
          -0.25792070470953743,
          0.15123326643718946,
          -0.2539851019077991,
          -0.2548656301855179,
          0.10603313177449258,
          0.1578879732343228,
          -0.10111744730019379,
          0.062047362935275366,
          -0.1334007383516201,
          0.1025833423713399,
          -0.18810717436059982,
          0.00809324911958192,
          -0.26105205941537546,
          -0.12815205837185425,
          -0.21306610287832084,
          0.11753400174563444,
          -0.2036664418036337,
          -0.13867893587392152,
          -0.15173857958285772,
          0.1392697064774107,
          0.21363428135315446,
          -0.11969672850400519,
          0.16961501796591966,
          -0.2626721560936571,
          -0.22075120667747178,
          0.18965613789806476,
          -0.03529634327829317,
          0.21272598855838853,
          -0.0924473649662194,
          0.23552326099148999,
          0.21534951388315868,
          0.22516268822178181,
          0.032488109495222406,
          -0.0925286915599014,
          -0.09099174192484741,
          0.24617770911892384,
          -0.11101964116534639,
          -0.1450281199341768,
          -0.046871440546142014,
          0.21846362704088407
        ],
        [
          -0.01368856504923834,
          0.09403370373710206,
          0.25739941054145843,
          -0.08337923355743893,
          -0.03748787202238143,
          -0.1403339949675723,
          0.12457528031940805,
          0.0959716422372477,
          -0.17388216665589426,
          0.1750310523134621,
          0.0648860399475624,
          0.1792296190774177,
          -0.24851294514376376,
          -0.08348267422800221,
          -0.18558298114795715,
          -0.04102490435350256,
          0.009278134154241415,
          -0.07938633678284455,
          -0.10827051850951659,
          0.03340175185663565,
          0.22178736970375346,
          -0.04251812644574546,
          -0.059525535141062104,
          -0.19366774256727995,
          0.06633543158659098,
          0.1520128730679574,
          0.016572547732834335,
          -0.2682201446441828,
          0.04869778868291012,
          -0.07931928482528244,
          0.08242477302663213,
          0.1437348362794813,
          0.10465943910163102,
          0.05787740754466492,
          -0.20607991685658678,
          -0.005066892681419127,
          -0.051942289067972484,
          0.09520732920767527,
          0.11932734529943259,
          -0.24203500876282277,
          0.0640231463559743,
          0.12210210861450631,
          0.11981387045272784,
          0.06360917252996304,
          0.02410209307906609,
          0.272055073696444,
          0.048416073988983156,
          0.05974388085318558,
          0.02684786252868038,
          -0.12126619072919037,
          0.20522077113007556
        ],
        [
          0.1883230390701958,
          0.23140908734845164,
          -0.23132383875312384,
          -0.24664552789844166,
          -0.26763565791213423,
          -0.00699664676282628,
          0.2395028296015049,
          0.1424782221868676,
          0.07585368169249257,
          0.1818806767371432,
          0.24457233319082505,
          -0.015844735198252715,
          -0.10489205894292661,
          0.1921513377521958,
          -0.07622500980229543,
          0.16187788763501657,
          0.25891930011571174,
          -0.09074907336428309,
          -0.0038912285202728305,
          0.17792683015149383,
          0.0012651489390182093,
          0.10452266509245026,
          0.03480804760981047,
          0.12595330359384124,
          0.10960018251257451,
          -0.20960959667030737,
          -0.162689877584227,
          0.17381779417092297,
          -0.21017074986254455,
          -0.052468930521433775,
          -0.009372048768716553,
          0.010175911077342004,
          -0.2667733911614994,
          0.02599519128598211,
          -0.006666313240251004,
          -0.24362088012783487,
          0.11295817330136444,
          -0.18371662494437802,
          0.21908968906886375,
          -0.09642609483110115,
          -0.10547285788321246,
          0.04206608565604498,
          0.23115213122459854,
          0.013172749719495308,
          0.10157423971161281,
          0.04877042086836805,
          -0.0459701251274055,
          -0.17538904161278177,
          -0.01841820652515605,
          -0.14540158989842977,
          0.2639425444649133
        ],
        [
          -0.13976107703776727,
          0.04715057969177697,
          -0.24737059987322269,
          0.2539195079321065,
          0.19932732857845228,
          -0.01713448922889871,
          -0.00408686119669076,
          0.11917396063867486,
          0.04949985056642799,
          -0.09466507224116617,
          -0.2609155059284872,
          -0.12457909459464657,
          0.1674490961690467,
          -0.02860949497681739,
          0.24156125539889775,
          0.11504983054086723,
          -0.2700993000123133,
          -0.004062860513576108,
          -0.08015126600746646,
          -0.13857605512720209,
          0.03444711395767516,
          0.15612110629668888,
          -0.13702682011919085,
          -0.006295316927782481,
          0.033980915890270254,
          0.0020899383062538603,
          -0.15388855812493088,
          -0.06909992870179024,
          -0.17558384644344419,
          -0.029007871793375436,
          -0.2043490637440567,
          0.10658653601615051,
          -0.005493850200980509,
          -0.19665637980794354,
          0.09147048517595645,
          -0.07794448295063701,
          -0.13869750790653224,
          0.2647536284984072,
          -0.15917580365154613,
          -0.15982821175663184,
          0.20392027791725878,
          -0.08133746226260766,
          0.08313743770751036,
          -0.1483344228323442,
          0.13606164017717745,
          -0.07810371677509781,
          -0.21412745867546615,
          -0.21096523693205202,
          0.16957263028614092,
          -0.26242023320102487,
          -0.2157448855131652
        ],
        [
          -0.17592397166275417,
          -0.08622167415018463,
          0.04291801472716578,
          0.06970683266550376,
          -0.26322565538802734,
          -0.02823292958930467,
          -0.1021633348526268,
          -0.1815220884789992,
          0.20613803157792915,
          0.0438015438823798,
          -0.0759375042436622,
          0.24072170041659902,
          0.12541038227224174,
          -0.19546143591505932,
          -0.24531193733120776,
          0.17859826350052244,
          0.16205465120741372,
          -0.24311490769655422,
          0.1170307432593949,
          0.14482133694092322,
          -0.21559711808749257,
          0.2517534806900913,
          0.0549235268985641,
          -0.2051671385876967,
          0.11397777231526665,
          -0.25592539365962697,
          0.2561719733224594,
          0.23996744218966892,
          -0.2190637021642732,
          0.1853231095673129,
          0.23423608960640516,
          0.006412268010658861,
          0.201138843929574,
          -0.02561583667168014,
          0.1535479923679837,
          0.1919219106681374,
          -0.2634423634052867,
          -0.19213188337694123,
          0.11939820164675115,
          0.040996258507707106,
          0.17979527472653034,
          -0.22345177463354982,
          -0.0068999441889313895,
          -0.02041744388576859,
          0.05322880623692288,
          0.23733429271441153,
          -0.26760028309473083,
          0.07974832513987538,
          -0.11020127254545699,
          0.21767076195085894,
          -0.23514044671193476
        ],
        [
          0.05209333036253003,
          -0.11841182241515956,
          0.08442703331696917,
          0.16230850481073786,
          -0.2551146401560979,
          0.14583143854128797,
          -0.23902470406628873,
          0.13381633339669205,
          -0.10526167306222156,
          0.23696308829987162,
          0.1746876937810911,
          -0.20310512207904458,
          0.12245394813007812,
          -0.08244282518427515,
          -0.19432809454437353,
          0.25958316295978623,
          -0.18007113189211557,
          0.26096836030599485,
          0.267604032734125,
          -0.2362633064299316,
          0.07106246076050128,
          0.13546759088879928,
          -0.08575091811512028,
          0.09312854134499399,
          0.1234404462409286,
          -0.03410291008984953,
          -0.17628112830031417,
          0.18402215275073414,
          0.05160665515268634,
          0.06321178552898224,
          0.2037758353087249,
          -0.006560227316073368,
          0.2447048835644197,
          0.04049673495937558,
          0.0075809431359763636,
          -0.07427311908482996,
          -0.08700890857100792,
          -0.18875187407093016,
          -0.2230208434036672,
          -0.09899756396767294,
          0.2375018422570907,
          -0.21403505248416646,
          -0.024847491632789636,
          -0.22741539846792155,
          -0.26370627282514875,
          0.019494292197544616,
          0.24954083072638586,
          0.18704579651122527,
          0.2057889265387843,
          -0.056517502077614676,
          -0.1620361972936401
        ]
      ]
    },
    {
      "activation": 0,
      "biases": [
        -0.0882485064270798,
        0.10887718816057809,
        -0.2583727769666652,
        0.1580973688715509,
        0.18535362997605978,
        -0.07806021663494042,
        0.11323301183518969,
        0.007938680356005399,
        0.025464742141792708,
        0.16069066332285048,
        0.25895375751073135,
        0.2557231338837794,
        -0.15329785274357915,
        -0.272912869295198,
        0.019165580194767076,
        -0.075695937099281,
        0.054704000310447067,
        0.35964993341851814,
        -0.07212100171140258,
        0.0649863222865737,
        -0.02482858259795762,
        -0.05329260099169448,
        -0.11343768539924765,
        -0.2567942940168507,
        -0.1131917288456844,
        -0.14964271928594974,
        -0.041091603568927965,
        -0.02814828001670817,
        0.08250967639431554,
        -0.04330504735569144,
        -0.02665460708000479,
        0.02913536266659431,
        -0.26586343554956376,
        -0.022156453247096305,
        0.06682923027512903,
        -0.02988687329148072,
        -0.21835431085250176,
        -0.4923786318832711,
        -0.14819185607714058,
        -0.15226703315838067,
        0.4328863444022639,
        -0.12709993360720262,
        -0.3477759572509294,
        0.07523423894032283,
        -0.11360029225712928,
        0.11043935651490132,
        0.6181030186318932,
        -0.1946804733576781,
        -0.14953150398965057,
        -0.18400368619679586,
        0.14775784243627788,
        0.4705185232105623,
        -0.34274111955694947,
        0.3869422610338354,
        -0.12722594081679425,
        0.274173700640277,
        -0.061355331893989846,
        -0.24602501499356078,
        -0.165770257148879,
        0.38519857170720917,
        0.04426866924457554,
        -0.12589869729838482,
        0.2985216117812305,
        -0.14425236030277705,
        -0.08676505012495926,
        0.12140890194348841,
        0.13620421018567166,
        0.058930658098409576,
        0.23378114563811514,
        -0.1021855063613275,
        0.09708574457688293
      ],
      "cols": 71,
      "rows": 51,
      "weights": [
        [
          -0.05563970814739759,
          -0.11266131436313369,
          0.19215596357115483,
          0.16814045807734837,
          0.10535977714772622,
          0.06033474570391485,
          0.2254998215537793,
          -0.15742381244256684,
          0.1051116044480441,
          0.28819364107508433,
          0.2010041265210306,
          -0.10972811256289226,
          0.21935969448607545,
          -0.28418643895976947,
          0.16666962452442166,
          0.03152531023867789,
          0.20210436200203627,
          0.05648424760846225,
          0.06410339453445546,
          -0.06537121464038165,
          0.07550287261155399,
          -0.12991553540237943,
          -0.1185206668206112,
          0.21519832223322444,
          -0.029028973357641166,
          0.39613971452285507,
          0.1990915130677208,
          -0.27267305240384354,
          0.09285963898519926,
          -0.09577420065912444,
          -0.20353266182405383,
          0.25390238605764864,
          0.009563038936191324,
          0.16802230973704743,
          -0.039217641624604026,
          0.1559998559490491,
          -0.2963963769568812,
          0.010305748199696811,
          -0.16333562167172463,
          0.2181207498704189,
          0.2274599941636635,
          0.0679587267975384,
          -0.050562261029418964,
          0.21141770046723188,
          0.18106663315017016,
          0.14102257164924942,
          -0.10881351195323857,
          -0.33353813427138335,
          -0.009762375801811907,
          0.018493520876507505,
          -0.1657628437985552,
          0.031158940574531682,
          -0.0417248832196108,
          0.04699958892846243,
          0.02903159217661565,
          0.3017954915890239,
          -0.31834903226402617,
          -0.12793304653662407,
          -0.23895359604704522,
          -0.38881736968718117,
          -0.22173206678877594,
          0.1427883019771642,
          -0.1613788128548136,
          -0.07347831795582987,
          0.2565870240048568,
          -0.015312742817959154,
          0.11638723737887728,
          0.20627220638591673,
          -0.023103085264154048,
          -0.011929983337611185,
          -0.06317407903661706
        ],
        [
          0.26656585783998066,
          0.05901940117943441,
          0.07623460991714158,
          -0.048395834296464914,
          0.05374383376316526,
          0.1920006503726532,
          0.05129518819976299,
          0.04142664710583217,
          0.221482024315759,
          -0.02799383789032248,
          0.07897478697926923,
          0.021320758319986133,
          0.0273525828034283,
          -0.2366461211440961,
          -0.0718622901498567,
          0.12603704107605207,
          0.19552969606548493,
          0.3138110098763293,
          0.20723110337684447,
          0.14412742807806933,
          0.32804824171732244,
          -0.23434352300013025,
          -0.21680280132213214,
          -0.17600202915495514,
          -0.3365066484283239,
          0.26297316348091837,
          0.08912868751926462,
          -0.07238318915664427,
          0.2625444999785591,
          -0.17593779501530196,
          -0.2142931833498019,
          -0.053104899261305245,
          -0.06267841094901976,
          -0.12078370016219978,
          0.20487090353160575,
          -0.21233447626008073,
          0.050050411022305716,
          0.09720470405518887,
          -0.15808052201757203,
          -0.11101986641695369,
          0.2654952604611342,
          -0.08089264787982223,
          0.14437678492326533,
          -0.14683998494595696,
          -0.11904589815804043,
          0.10549807826752036,
          0.07008927294505224,
          -0.11502585130259653,
          0.25308040328568343,
          -0.018654180355684107,
          -0.0504540105626963,
          0.21590367209347533,
          -0.11386490947838777,
          0.15569864511497244,
          0.2783463311867772,
          0.3595319862356789,
          -0.17080841314351083,
          -0.015724833398986143,
          -0.013935149500633742,
          0.22305695911704274,
          -0.06575586822792744,
          -0.01963593456984896,
          -0.14439640889836503,
          0.18500564320321639,
          0.1193221362925317,
          0.19415542147649376,
          0.06418233399764113,
          0.2228403955865035,
          0.1118429052564368,
          -0.13026274736817695,
          0.161280721279759
        ],
        [
          -0.14178671410918445,
          0.26245050215570653,
          -0.07412587976435611,
          0.23693938855289215,
          0.08336859208007102,
          0.06999132897721382,
          0.215410521628972,
          -0.026886127994199562,
          0.18900858561983755,
          0.2213781532079571,
          0.0020310872372803477,
          0.208511937302819,
          0.02292155652218169,
          0.06258782154291588,
          -0.25616177167319215,
          0.10303946115555633,
          0.058951303432283525,
          0.2624026109905261,
          -0.13377459052488933,
          0.0204826649835451,
          0.24581086513272907,
          0.023668772373638645,
          0.06981067370538079,
          0.10963821601559263,
          0.09891845195612142,
          0.2589640159194862,
          -0.2462546110132968,
          -0.10535850934198845,
          0.02955649730421786,
          -0.15342220040476628,
          -0.1678411522620381,
          -0.08273247783964574,
          -0.24768170380774568,
          0.21216583926415591,
          -0.10836670492672808,
          0.1611891583013369,
          -0.016706763666886403,
          -0.3301145553740677,
          -0.07769125307505852,
          0.018173111393028938,
          0.046859652457065436,
          -0.002147480996599329,
          -0.2390827698448452,
          0.15754314834708508,
          0.04076890722424532,
          0.27336264829197765,
          0.19997482507054812,
          -0.03370807574600766,
          -0.07487179356929857,
          0.1198799287750268,
          0.15034897305505027,
          0.2026705510629309,
          -0.1873645181162348,
          -0.042479246202555644,
          -0.18689143709777267,
          0.2879390840867686,
          0.2554445583496283,
          -0.20819964137758323,
          -0.15584664894699782,
          0.2580384293906563,
          -0.20297048870818327,
          0.12635708027372003,
          -0.029781504821828904,
          0.08234271181841592,
          -0.15568977220187935,
          0.23119849758340041,
          -0.0740755698468708,
          0.1117282214168625,
          0.07519191473997215,
          -0.047033944364752445,
          -0.079386501139375
        ],
        [
          0.23268018778353003,
          0.21757542246099962,
          -0.28349992594193646,
          0.0863142328299012,
          -0.3525144614114771,
          -0.10349389837758197,
          0.306211634110376,
          -0.05349429719154053,
          -0.30064968853390206,
          -0.049531990177599315,
          0.10446294183534632,
          -0.258584885395988,
          -0.21054710234765756,
          -0.14329672055786077,
          -0.2542095613086017,
          -0.2170405821807384,
          0.06696228910823405,
          0.16916478287036765,
          -0.23438851698618474,
          0.014802397439479,
          -0.22171363895536617,
          0.1637814599166348,
          0.09728721400681424,
          0.003990089018977843,
          -0.17678810312487298,
          0.06805490438974592,
          -0.25458409796511233,
          -0.08638124351456604,
          0.250021823499755,
          0.08056719434053845,
          0.2906738179685872,
          0.0314195010638207,
          0.27643104094870247,
          -0.16217539249162088,
          -0.08892490070015424,
          -0.08740153090226419,
          -0.24167287830624729,
          -0.1442514803500911,
          -0.26800436075611067,
          0.3009901398748483,
          0.0017678311146183182,
          0.09082337378872075,
          0.10591152662808985,
          -0.04127691032984898,
          -0.007627077844853353,
          0.03936591301685721,
          0.0846804957385142,
          0.002921199463920192,
          -0.3111626590931743,
          0.23785512257292069,
          0.05751137847118446,
          0.10872302472836408,
          -0.13636540108313427,
          0.08730093962651941,
          -0.21691333644001787,
          -0.14834043162497298,
          0.4510345743811248,
          0.2103958613069653,
          0.2608322368495731,
          0.3626038961674518,
          -0.3476399935250538,
          0.29708394130164084,
          0.2137019186313767,
          -0.2466715708829733,
          -0.011143626049925378,
          0.21311285652594092,
          -0.25064239055055754,
          0.24591061745385231,
          0.30689661522054734,
          -0.16014622104684306,
          0.0721912576561682
        ],
        [
          -0.395064748508562,
          -0.010149211115079756,
          -0.13256529691486268,
          0.16350547099444088,
          0.238674691033528,
          0.14446648952750782,
          0.15290347350954983,
          -0.04033305567160066,
          0.23014715098837896,
          -0.1406810573985526,
          -0.0316706821669472,
          0.1348298823133841,
          -0.12554564415830938,
          0.09520595833427598,
          -0.07587144199781194,
          -0.1684186851857831,
          0.24216931611874976,
          -0.03448813186683777,
          0.06972089809970115,
          0.0985565193828129,
          -0.10313651430232615,
          -0.07254927461619501,
          0.2698666948675826,
          0.32452819650712755,
          0.17836459307725622,
          -0.04611106573762308,
          -0.0335855676145828,
          -0.0820236495468039,
          -0.06408094305431265,
          0.2145691151896669,
          0.2757069582999044,
          0.007297474817574732,
          0.12194315391920955,
          0.19933549151641106,
          -0.23894720729520177,
          -0.03988601498736501,
          0.06362384586624639,
          -0.04849055175803199,
          0.2578159376326108,
          -0.1932821294783829,
          0.17791068382747327,
          -0.2342728894857253,
          -0.05522433550965128,
          0.30884817391967867,
          0.11747350894705158,
          0.09274883058781518,
          -0.17020298612466728,
          0.056188550249570014,
          -0.059434958092859036,
          0.1336325273585534,
          -0.1823902600576472,
          -0.22049569473750194,
          0.0585996247040783,
          0.252187029235893,
          -0.22360571910647842,
          0.023291459683877472,
          -0.3812718672978552,
          -0.1914289516369746,
          -0.1182798781758086,
          -0.06901613482269069,
          0.07161662782421771,
          -0.19000067852720406,
          -0.018815620408913915,
          -0.04341775705405326,
          -0.07648756663846583,
          -0.06431275660726143,
          -0.11585348623451816,
          -0.0440756219384662,
          -0.13515990859282243,
          0.09670937485668604,
          0.20398738015079254
        ],
        [
          0.0907239479134013,
          -0.2119847631354354,
          0.25547124650974606,
          0.04836671276379022,
          0.17605855817972363,
          0.1368033541746546,
          -0.24688518491760794,
          0.06976202154886131,
          -0.1924017966074726,
          0.040391657771964164,
          -0.08631475158469509,
          0.11768042235930919,
          0.2029638749975196,
          -0.06740356206129201,
          -0.010580713500229067,
          0.16085429771780202,
          0.22352896032744965,
          0.24026417680896053,
          -0.3072592526692329,
          -0.23690819748768724,
          -0.0755080595967281,
          0.08496279936687152,
          0.11422545247097594,
          0.008457242615506677,
          0.19055271949742042,
          -0.1088687149574598,
          0.19119764126514,
          -0.004234551464694682,
          0.0978494778880098,
          -0.18384236702387083,
          0.02973337419388403,
          -0.08098072434590534,
          -0.30470588258396547,
          0.0012593020027663105,
          -0.255501007975707,
          0.16367989792993978,
          -0.09121011265096536,
          0.15296816792088438,
          -0.15301907943624551,
          -0.044740565332323484,
          0.11689688278346126,
          -0.25055942673168236,
          -0.14003892304907212,
          -0.026680737322222713,
          0.026596636110029746,
          -0.1385698729459784,
          0.19199588510606327,
          -0.14926121934292003,
          0.03287873738766833,
          -0.046019323189175766,
          0.1131571945296296,
          0.10123454260256681,
          0.07206298514444834,
          -0.1914502836962655,
          0.07718168715833008,
          -0.169416070540898,
          -0.19630577506822522,
          0.1359694419216996,
          0.10782237601286032,
          0.1192070751250839,
          -0.15019525469938771,
          0.1527763006812321,
          -0.09220049368113162,
          0.25775146380756625,
          0.19013455835972334,
          -0.23821947415982014,
          -0.129403190970961,
          0.2125405962059585,
          -0.11146067309714443,
          0.07957379063575964,
          0.04317999091871722
        ],
        [
          0.3839209706316411,
          0.053828155064377874,
          -0.017665517051574712,
          -0.23685723556562613,
          -0.06270053781484279,
          0.14772090344803326,
          -0.22178587295330254,
          0.15693480582715486,
          -0.22651789916489926,
          -0.15025024016303073,
          0.09568903444586566,
          0.031058275161919214,
          0.0799129120208647,
          0.15541804775042892,
          -0.24123590089934188,
          0.15827000695982635,
          0.03964228757542377,
          -0.321459825557612,
          -0.22524512463489268,
          -0.028138030987504562,
          0.2514762972608295,
          -0.045534995425115,
          -0.13384789208159167,
          0.13304166134470535,
          -0.16348578752879006,
          0.17115222810069125,
          0.18136695411368606,
          -0.0804487057975648,
          0.24523596068214856,
          0.13195049837176986,
          0.013578089737605289,
          -0.10886561567084532,
          0.09975345803391204,
          0.005343896585311074,
          0.17021367084145647,
          0.2221077089488216,
          0.04206823139075593,
          0.404746190935251,
          -0.1411053319048712,
          0.2823122279801483,
          -0.24676116944335383,
          -0.15824153484430525,
          -0.11293120572901819,
          -0.13920052216635403,
          0.05902953599278662,
          0.11558988155645682,
          -0.19974752232407708,
          -0.13807751617677438,
          0.17928298399102618,
          -0.21172301957484524,
          0.18560625151648838,
          0.27277620718386125,
          0.0619461413152946,
          -0.10764489361786932,
          0.059081513370198055,
          0.05679416363483936,
          0.2881984178811292,
          0.3216642483146298,
          0.01785433770742168,
          0.1594013137088982,
          -0.052974581067561664,
          0.10189385790920745,
          -0.08408049818154578,
          0.2032598473794751,
          -0.005546616120765707,
          0.0400715280655612,
          -0.3291552299989716,
          0.15140859977674734,
          -0.22149357239912704,
          -0.027010986958750233,
          -0.16249837936057523
        ],
        [
          -0.27756085036180667,
          0.009695458234948362,
          -0.13320596521445083,
          -0.1080835712095564,
          -0.05671157049929913,
          -0.13198701995042927,
          0.07872208136662545,
          -0.08333859076381807,
          0.1441168995035911,
          0.010336466227659142,
          -0.09614190078914274,
          -0.08950261986426991,
          0.1758950582102325,
          -0.05126932313775331,
          -0.20194751211395548,
          -0.029964944176301002,
          0.10355419460991441,
          0.1359979572557209,
          -0.10839503688352245,
          -0.00213783160903925,
          -0.12082014980380722,
          0.23841483860679147,
          0.0858531469766175,
          0.41047998001272284,
          -0.21969307415241482,
          0.06011817659647374,
          -0.06981472426593231,
          0.14580881291730552,
          -0.0683893168848027,
          -0.16264461730924665,
          -0.045216533776853696,
          0.23070760344609134,
          0.10119869002943913,
          -0.12327138916751583,
          -0.18295636083278322,
          0.0099715857662375,
          0.15056963138808888,
          0.09290464356535562,
          0.12011829143486676,
          -0.2004325679880589,
          -0.2645075835979565,
          -0.30020538346574466,
          0.07388878521508646,
          0.12038292658741127,
          -0.069195339029582,
          0.01957490931727736,
          -0.3052315612110362,
          0.3110930757689885,
          -0.15274280363525533,
          0.10663767928856743,
          0.10335434673896768,
          -0.2679309355679963,
          0.12701571532463865,
          -0.10186806907272404,
          0.010437859083983769,
          -0.15495854967695458,
          -0.0035969402039868217,
          -0.18236018433239978,
          0.1907226983726431,
          0.11441523751756702,
          -0.03737381667485501,
          0.14848987179933976,
          -0.044823984961050466,
          -0.21525886221678814,
          0.15818724465102937,
          0.032555855320437664,
          -0.30712847010198363,
          0.11105995981415809,
          0.0622982561102934,
          -0.12230465465848195,
          0.17077919888563073
        ],
        [
          -0.10340828321153601,
          0.038739831132005687,
          0.07842522351294533,
          -0.0004126212367317225,
          -0.3037785866649233,
          -0.07899676742634343,
          -0.1972132580399612,
          -0.13898743912109357,
          0.12035139415076983,
          0.0025255730727441637,
          -0.28570513161672273,
          0.05799124361659005,
          0.12744903936438706,
          0.12528771717066828,
          0.012226303141953302,
          -0.09665596823483211,
          -0.12653658054834419,
          0.026296776846336068,
          0.09052299327798724,
          -0.04377956104496833,
          -0.19235162362179517,
          0.19656844546473948,
          -0.10650225485792772,
          -0.16343637746202774,
          -0.15053193535295076,
          -0.218451144941775,
          0.07350582914984014,
          0.20729809233387825,
          -0.06880337776382815,
          -0.2169484567772606,
          0.06574059877906645,
          0.13514054103389708,
          0.2219613513467924,
          -0.030245803352336936,
          0.2633759593997701,
          0.033015523443243655,
          -0.10620188354006495,
          0.13346335653047783,
          0.01842364794936006,
          0.09493485696652353,
          -0.07149425844759764,
          -0.07289292439280373,
          0.10777549299417874,
          -0.14427451350803647,
          -0.29681875017319037,
          -0.05162990556111876,
          -0.20365153477056233,
          0.014116212039745231,
          0.021530865771713977,
          0.0247999599315182,
          0.10050648330575608,
          0.12242287872118661,
          0.06343861518161201,
          -0.07687341028554012,
          0.17463550430966884,
          -0.17486099354679058,
          0.22278580288177252,
          0.11431416718012626,
          -0.19492177289997253,
          -0.1298338877244854,
          0.0788279802372216,
          0.12221852270873992,
          -0.25502962653546213,
          0.07219004922205419,
          0.0029703092620102546,
          -0.1514499306781489,
          -0.1251981798301786,
          0.08274344548448571,
          -0.08290683551558421,
          0.12266563968849449,
          0.035316401052020524
        ],
        [
          -0.09353615964231511,
          -0.0012694414387277283,
          -0.17379575201869274,
          0.27334561523439865,
          0.19391305083264956,
          -0.3230886063118615,
          0.03507013867519354,
          -0.1912742432191303,
          -0.21021469439223456,
          -0.18498482089961554,
          0.29251373644281237,
          0.10750318526102015,
          -0.26664595426122567,
          -0.061315211177779355,
          0.09379877987629268,
          -0.17524731418545364,
          0.30828457345372184,
          -0.11889481183253572,
          -0.07615762166519371,
          -0.19168225824642973,
          0.15755450670888926,
          0.09881447444470143,
          0.18434110303224974,
          0.11024759562410759,
          0.12246451779894195,
          -0.11598142771233996,
          0.24468354445060306,
          -0.17725366298054385,
          0.26641957478891237,
          -0.18866095656269166,
          0.0985665779187652,
          -0.16597427967581607,
          0.16472706349597302,
          -0.16366188967569142,
          -0.08833863585475332,
          0.08868283930078534,
          -0.3112217431912255,
          -0.08064823286278958,
          0.18643593022549668,
          0.1657697573030028,
          0.1920154047475634,
          -0.0771397423316543,
          -0.23351747212919668,
          0.08368146209694106,
          0.16955089945707622,
          -0.0502910764078262,
          0.1969896299301763,
          -0.2662874682124809,
          0.022487500462251106,
          0.09277679796387424,
          0.21645446674139565,
          -0.03599205874832281,
          0.16759479255508827,
          0.12422120386253487,
          -0.15597567507055246,
          0.05951392472434311,
          -0.05073954682145359,
          0.08031988976069301,
          -0.17652506200026175,
          0.1589881303888175,
          -0.0256105291890764,
          -0.10769192148567959,
          0.33604942296151835,
          0.14771291797042443,
          -0.30710066017462995,
          -0.027506216224317107,
          0.22041849193166932,
          -0.10863013012946,
          0.22391510980933382,
          0.11692299097435464,
          -0.011079096195389809
        ],
        [
          -0.08453597012127582,
          -0.20907333440972434,
          -0.19624240924027628,
          -0.11994833246827152,
          -0.342553403947162,
          -0.017832049136729033,
          0.25187675176855573,
          -0.04344355944161935,
          0.06681304863740245,
          -0.17552389805865434,
          -0.22298375510833401,
          -0.09949322664282981,
          -0.03529854696484252,
          -0.08641791768328518,
          -0.1693940118724143,
          -0.07821686772551113,
          0.1671279844695553,
          -0.07980898141559604,
          0.022744519721668827,
          -0.11945314186669104,
          0.053157655562357124,
          0.25589326213995073,
          0.29140203494110606,
          0.1505730905472433,
          0.19962230696365546,
          -0.08406623649108567,
          0.011215683224904814,
          0.22550601581682783,
          0.19304648197107474,
          0.08477851094282049,
          0.22383184504079015,
          0.2081622232938979,
          -0.07299024332036673,
          -0.16323015652631181,
          -0.18337929873798975,
          0.09953952028630841,
          0.28304592913933974,
          0.223747942476349,
          -0.2173746176510541,
          0.27287758512810906,
          -0.05917605193262347,
          -0.09759409182244166,
          -0.15142898281097758,
          0.2814605925590596,
          0.13766684435962967,
          0.1263854549529532,
          -0.3364565420384245,
          0.12761047936676417,
          0.15006227621870216,
          0.23383915460007593,
          0.21074436331869167,
          -0.08231425443735325,
          0.1205346553506135,
          0.05559977887300042,
          -0.2192376911287298,
          -0.12963936785678976,
          0.15282824165408784,
          -0.061900361888223655,
          -0.11690394524403787,
          -0.08341800832056435,
          0.03426232734157176,
          0.2608374827543505,
          0.07353666725036553,
          0.06610565051874208,
          -0.01350674181033817,
          0.2132803628029139,
          -0.14917678686476285,
          0.08367264160375394,
          -0.023795919873838892,
          -0.22360872060371428,
          0.10487219468171063
        ],
        [
          0.0005946862017524263,
          0.08636432668926441,
          -0.0572248989675588,
          -0.0037941465075224936,
          0.14753671559909026,
          0.02497891608193991,
          -0.06881358252905122,
          -0.16294077338595944,
          0.03360319777986722,
          -0.12847476200801491,
          -0.1902572219886462,
          -0.24032621098333715,
          0.06164124699752107,
          0.09239735542416769,
          0.025244439544998953,
          -0.05014061009130342,
          -0.03305738280887838,
          -0.30760457269313873,
          0.03476783883700494,
          -0.2748540771537334,
          0.1763584699817819,
          0.020688179926290597,
          0.08890008800382622,
          0.31172951807969035,
          -0.32444215315938907,
          0.10594810579032955,
          -0.06601949066303008,
          -0.18681008161503157,
          -0.020612723135677684,
          -0.06079662090055154,
          -0.22805078975111936,
          0.3019531700807443,
          -0.14205803388716473,
          0.32330847291562925,
          -0.027475541159205766,
          0.11593455434250345,
          0.1852614204120084,
          0.00510414728882992,
          -0.10375127328820627,
          0.12552669978360004,
          -0.006892454662874788,
          -0.2272909890940957,
          0.14976270836020988,
          -0.04298350984622019,
          0.12570644072662351,
          0.14857287483977025,
          -0.19932837252850258,
          0.1268922745393225,
          -0.17108746244193243,
          0.17181894700736774,
          -0.16283674073892337,
          -0.38158373555554326,
          0.11904784876700988,
          -0.07103838289741934,
          -0.15995452334635643,
          -0.1470232148143475,
          0.17135429851946785,
          -0.192715170417255,
          -0.08895129103542995,
          -0.33951064568592887,
          -0.20197361210592116,
          -0.021124886303712037,
          -0.3053620112353835,
          0.2615411118193367,
          0.29108615212476324,
          0.037491218712051466,
          -0.3172694941840714,
          0.307046061259475,
          0.07352100103657393,
          0.15053816496529193,
          0.032527325113797696
        ],
        [
          -0.08066869006704891,
          -0.10069785691166808,
          -0.14933300780161646,
          0.05606310338591105,
          -0.0006879823050934321,
          0.33619159815041755,
          0.08903654322524697,
          -0.020774359889956573,
          -0.1850142889443187,
          -0.19275351244779682,
          -0.24801196742915013,
          -0.10306606135789094,
          0.19283978412869318,
          -0.03553479055331956,
          -0.058074497385513624,
          -0.21841675226581453,
          -0.04740553591402129,
          -0.08376273018622384,
          -0.0022274802073209317,
          -0.14260845308366166,
          0.08471708997945072,
          -0.15067604890527023,
          0.004100477047508062,
          0.022068234458558683,
          0.46053418089826365,
          -0.19462642904307956,
          -0.14196379000014903,
          0.2016280206343621,
          -0.11930875937192524,
          -0.09390125860001204,
          -0.16614495737067,
          0.1651349295805025,
          0.051094740870179484,
          -0.10694948616196123,
          0.15749352095104335,
          0.16738278993886602,
          0.2773625352803887,
          0.28340631366627717,
          -0.10591237073944637,
          0.16017739580359713,
          -0.25654308119118907,
          -0.07112136112829325,
          0.05526654449254366,
          0.127152787472296,
          0.12880950711647665,
          0.3002302554150909,
          -0.33742130069881093,
          -0.06294673672355422,
          0.022374777081073872,
          0.0905073990034309,
          -0.15549352519705134,
          0.13393391660193163,
          0.15105222631056295,
          0.11025632965030077,
          0.04641717791932143,
          0.099381098683578,
          0.1631747667063634,
          0.04899504028565987,
          0.11685301002233145,
          -0.150893834317862,
          -0.0041770889938692705,
          -0.04791640110152393,
          -0.25976492948768065,
          0.09581444097394647,
          -0.23746270608564052,
          -0.17081009491572224,
          0.10979681452064416,
          -0.12253024970842658,
          -0.02764493423150066,
          -0.16826768638880035,
          0.13786784998228677
        ],
        [
          -0.21710870959791084,
          -0.05795662507701575,
          -0.11116900425689348,
          0.29535841149936304,
          0.18833194022037109,
          -0.19916322630375785,
          0.17031697139607324,
          0.05522570489153144,
          0.1957138401174529,
          0.055355266213129174,
          0.025654520848826776,
          0.17581447915086268,
          0.308502108889727,
          0.2686007462435318,
          0.008938117284361793,
          -0.1099281678144266,
          -0.13226935114923413,
          -0.1511970452439146,
          0.37243063365893264,
          -0.02756442245136188,
          0.21762103907030245,
          0.02710352955941924,
          -0.38609377182999344,
          0.07500809630913177,
          -0.09202879847385625,
          -0.009771748503318677,
          0.15911649309680295,
          0.1483669111416714,
          -0.15345247798329664,
          0.03161657153323802,
          0.091519261549625,
          0.10090263119551111,
          0.2504536077883875,
          -0.15933227782085846,
          0.20259186310471552,
          -0.01564483187655192,
          0.061017189757174455,
          -0.06816362069326425,
          0.2639416689026469,
          -0.3026604434453531,
          0.09810783742830215,
          0.03528041548529419,
          -0.10532947906665974,
          0.042437989397042145,
          0.20509875763190713,
          -0.11428293078201163,
          -0.1829793235036914,
          -0.10407334019636617,
          0.1679382473829562,
          -0.15386613132801327,
          -0.29961515944878786,
          0.04654274887019423,
          -0.2016740018479065,
          0.14264411289554216,
          0.06097194048896977,
          0.08072967764254159,
          -0.2041198604463162,
          -0.0016350770707817819,
          0.09746351654743769,
          -0.2928429610775731,
          -0.04539855028017373,
          0.08121293793618779,
          -0.27161733588585785,
          -0.036806059465142656,
          0.2004576422932242,
          0.26046921587541877,
          0.16610766303945323,
          -0.4165452565315827,
          0.0014887998309468353,
          0.1237393878739497,
          0.07203512098279691
        ],
        [
          -0.13719196903621048,
          -0.08070590124962011,
          0.20844532683236075,
          -0.10514513826408796,
          0.043570371744432436,
          0.3150879069813158,
          -0.04716080847396326,
          0.22173323444127538,
          -0.08062373361489814,
          0.12344066633897201,
          -0.0028607833629768036,
          0.021346371268366804,
          0.028830585115849537,
          -0.13331246770719676,
          0.22157315908694597,
          -0.03993731314710218,
          -0.09311350101352298,
          -0.0673766700141454,
          0.054104506210049,
          0.2252270784040183,
          0.2232462067980279,
          0.012671455829209954,
          0.18674545216691676,
          0.08061486098430287,
          0.3686397625432492,
          0.19974232870210826,
          0.02294110409357293,
          0.11919886482136595,
          0.04621746425730698,
          0.24193346559542234,
          0.23342075379501814,
          0.02582921118503625,
          0.21416471722895766,
          -0.2341821229229013,
          0.1036094574538021,
          0.05568531714758915,
          -0.13023870861278763,
          0.01573459319116453,
          0.18475794280465102,
          -0.03443313684679524,
          0.18529256080516285,
          0.33375933653510953,
          0.1264727261995124,
          -0.09430462073450631,
          0.370162329280901,
          0.14815368209283117,
          -0.2779059381217951,
          -0.12748577490863336,
          0.1809448176309751,
          0.17363341068751847,
          -0.2167134597498596,
          0.03413063980905709,
          0.043120345771375836,
          -0.2028383990320757,
          0.1837120672089832,
          0.11776101351447339,
          -0.06691450834938562,
          -0.01605360002775673,
          0.01609650696301767,
          -0.05549442115717659,
          -0.14452702031046857,
          0.1631239154691847,
          -0.24743814787644233,
          0.12434134493124868,
          -0.1286319124021305,
          0.1724038148146134,
          -0.1200511704446129,
          0.15479533832422998,
          0.06685923746007388,
          -0.14512932758416958,
          -0.08416429972825669
        ],
        [
          0.2751512674385125,
          0.21784221276536267,
          0.14327294317291045,
          -0.12036377425883497,
          0.1642264755726192,
          0.03418915463112918,
          -0.11787109550368041,
          0.24677028096425935,
          0.08450300205949413,
          0.07001891258923058,
          -0.07435289813912388,
          0.07059167399018985,
          0.17451105640164274,
          -0.12353774003782235,
          0.08661191163408032,
          0.10167071211953997,
          0.08792028425334028,
          -0.10833125746005277,
          0.20499438438461176,
          -0.050870328765584276,
          -0.06151494800478148,
          0.029223973673786135,
          0.2105833852893354,
          0.05520553118403665,
          -0.1574398958891687,
          0.05206446130827865,
          0.24717889097176257,
          -0.10429678094750756,
          -0.014257263924618282,
          -0.2635984003017637,
          -0.10276278879566739,
          -0.26517028327033776,
          -0.17312879269163545,
          0.09841622476334078,
          -0.061192475137455876,
          -0.03279990942657244,
          0.024528808186109616,
          0.24265373146182467,
          0.19748366337926504,
          0.22828610562555535,
          -0.2661884884459876,
          0.2789065904485763,
          0.33444880746932365,
          -0.06567619311952431,
          -0.10251826846420155,
          -0.13762567007033563,
          -0.26529529102904537,
          -0.1562696425092516,
          -0.012238723694116325,
          -0.04719449498829988,
          -0.23457438648198944,
          -0.045956719174221096,
          0.04378542350312119,
          0.04325138609741342,
          -0.05537938854054712,
          -0.20466142570777288,
          -0.12142890499060437,
          0.2764716063851319,
          -0.19196364645544683,
          0.09137358934068797,
          -0.28171310373712183,
          -0.008139711870139154,
          -0.12048842812456378,
          0.29750806104535,
          -0.08017357521048103,
          0.16760093072043133,
          0.12123576797191211,
          -0.010250455912459393,
          -0.1725954312723703,
          -0.16542383620618514,
          0.05518974561628223
        ],
        [
          0.06264555217436264,
          0.026000506189434867,
          -0.07652472333722658,
          -0.05999955002089634,
          -0.037258950008322266,
          -0.055104704483583455,
          -0.26617463399245495,
          -0.10982888443359999,
          -0.11520901997755635,
          -0.08629209123957292,
          0.17229430636475526,
          0.18377437038794023,
          0.16396552318505683,
          0.005750187319009051,
          0.05571880421298785,
          0.17294597030604758,
          -0.02449279160509136,
          -0.24839829160678512,
          0.14289302540211668,
          0.19522449881300516,
          0.17822790490576015,
          -0.16069431899388284,
          0.05662797771928941,
          -0.29777480629148334,
          0.2893506519647749,
          0.17102664148938246,
          0.1866233764033619,
          -0.17772275342465269,
          0.05373093132922558,
          -0.05723574524301371,
          -0.02750972209287741,
          -0.1153663516555762,
          0.11199482613914279,
          -0.18437876429504813,
          -0.11414447937027798,
          0.059495348394701025,
          0.011538792440639151,
          -0.13019252734585868,
          -0.07746147357616606,
          0.13243625767414022,
          -0.1847841509297125,
          0.11398083924133068,
          0.18326314447631964,
          -0.17448467567467243,
          0.09127594216379592,
          -0.06087948234403912,
          -0.18254409148753528,
          -0.24464233609833033,
          0.18496543022423603,
          -0.022978979122917444,
          0.185311261250793,
          -0.1753969007816678,
          0.1436100637257723,
          -0.03861110772515029,
          -0.05833059478127597,
          -0.20442975763489385,
          -0.22439720353001627,
          0.08587825779185732,
          0.04761450734373433,
          -0.04980612098049591,
          -0.10585874801878528,
          0.0701971188467689,
          0.10455304195229122,
          0.18144587204074933,
          -0.19799423816091355,
          0.004438006268399313,
          0.1277978990775038,
          0.05030301964159349,
          -0.2351958260822249,
          0.021905910647505217,
          -0.24998704807788816
        ],
        [
          0.08257357282537675,
          -0.13875989669786723,
          0.09310354378349388,
          0.15608604965635198,
          0.18673005547483665,
          0.07607149005069641,
          0.015354745767792045,
          -0.015325193016694728,
          -0.2396097927665875,
          -0.19931891793763212,
          0.02026627056610874,
          0.13763502133194064,
          0.05928227843428358,
          0.01962929773204276,
          -0.08803000675255447,
          -0.013355185942654972,
          0.18235442418860878,
          -0.045852225555953356,
          0.08412247235947919,
          -0.05083139827317554,
          -0.2296996378477198,
          -0.18608488704360757,
          -0.013229125257712316,
          0.13256761477180745,
          0.22567613203460596,
          0.03179035681741475,
          -0.28620865222008657,
          -0.16203606102875867,
          0.07591090305902987,
          -0.011304558797460907,
          0.11066478969329827,
          0.006558826761060942,
          -0.13496996263390373,
          0.0565229415731937,
          0.017797194661202283,
          0.12978087479208059,
          0.13434666487707436,
          0.16680565350804452,
          -0.18160188867587423,
          -0.018531329942762634,
          -0.03369438487266406,
          0.03379667821415702,
          -0.232683312884578,
          0.06371777703401064,
          0.31743082056021266,
          0.15847544015256879,
          -0.35865171430235215,
          0.2249600665324079,
          0.12699635445732474,
          -0.014658838633652258,
          -0.1634461550512062,
          0.10343534748076322,
          0.3048694361687031,
          0.011593881854020606,
          0.10883263401614693,
          0.1838681480489543,
          -0.24164072082857707,
          0.05910982846187227,
          0.09096277694761347,
          -0.06653012359055979,
          0.2441492461987636,
          0.006385194708645456,
          0.03599356581300379,
          0.12111241426093486,
          0.05259246447999255,
          0.004577656025440983,
          -0.12985972368545598,
          0.07973575966408576,
          -0.3274744521266979,
          0.049302633587162366,
          -0.23009730011523105
        ],
        [
          -0.01084442454240519,
          -0.24869345429367565,
          0.13199148390633605,
          0.27941375776565647,
          -0.14646382582733167,
          -0.16205740192379092,
          -0.04968037659365059,
          -0.08076235134778038,
          -0.07834026055332184,
          -0.07590540711995238,
          0.13641094220078082,
          0.17095622210210762,
          -0.2519763407870069,
          -0.05110590875794513,
          0.2135471309221187,
          0.0744505561105886,
          0.21352236901719976,
          0.02724917425236036,
          -0.23280252342526425,
          -0.07506736309183205,
          -0.21452147884846076,
          -0.23646550217111667,
          0.18192026348157841,
          -0.3391380399718728,
          0.1664773840106213,
          -0.018302782022609806,
          -0.34083738221703164,
          -0.022506306664112772,
          -0.21921310084579068,
          0.2927741389226729,
          0.22467234575597292,
          -0.22964709092039198,
          -0.004883771769093687,
          -0.13303705374972144,
          -0.2300087681116762,
          -0.0469113415515612,
          -0.07479094523540632,
          -0.3248621713564843,
          0.13830602644718015,
          -0.04281131050582157,
          0.17922176147471575,
          -0.12322261455280331,
          -0.4958668229392945,
          0.2587432785823168,
          -0.028218049858444318,
          0.07426765185259353,
          0.19903054398117828,
          0.05150185578053171,
          0.08183222745395721,
          0.1552277669577749,
          -0.12288251201186202,
          0.321171230704122,
          0.16718151601051168,
          0.29537829559102663,
          -0.16493652079897025,
          -0.2559212801063421,
          -0.17790125906164803,
          0.0006751667753261736,
          -0.21624293821619386,
          0.01210664443053758,
          0.2598368310149631,
          -0.138067040333587,
          0.30494853404056976,
          0.020424216299399688,
          0.003758979697998359,
          0.03138937620265702,
          0.3348775453629134,
          -0.02252179087013458,
          -0.13271596120243556,
          0.1656027189544669,
          0.18857878134314904
        ],
        [
          0.2088984344916568,
          0.0064897843665940305,
          0.08385819839954813,
          -0.04273737080044084,
          -0.01967430437100808,
          -0.09532261888757645,
          -0.15315946417448772,
          0.2198445202068071,
          0.011129052113365975,
          -0.060999953558038285,
          0.17661871529804052,
          -0.09768464557681515,
          0.17581466788404437,
          0.06610076470533696,
          0.16870435995944344,
          0.002517254226992385,
          0.26650202434841225,
          -0.3894900480064177,
          -0.11190080855528552,
          -0.05993699959488413,
          0.1637068912126495,
          -0.2303866575680741,
          0.24653229796342496,
          -0.1722232755829811,
          0.04599382957058005,
          0.18359304801202664,
          -0.03394612082446179,
          -0.1090622786815286,
          0.09575990850363388,
          -0.10130860934238885,
          0.13365873255198904,
          -0.17555525970560024,
          -0.10580856023843925,
          0.3696859118133346,
          -0.2701322026841419,
          0.26764646396165087,
          -0.11834581126808981,
          0.15554415553397374,
          0.24588282318101828,
          -0.031157329345457545,
          -0.030099518408820265,
          0.08407005383275608,
          0.10763170541781582,
          -0.32256350019659963,
          0.23672966829310316,
          0.03882624812126146,
          -0.33241368270793914,
          0.02812772048301589,
          -0.02819298383963181,
          -0.2854986946556772,
          -0.050527842262454103,
          -0.09112264280590802,
          -0.22561386858800236,
          0.050690573553479994,
          -0.19467833473805318,
          -0.0933315176013136,
          -0.19822059090282299,
          -0.09291233568861759,
          0.09601981953329183,
          0.11601315296506808,
          0.06879774023397657,
          -0.13248461612005724,
          0.021319399258097702,
          0.08331957606504037,
          -0.10691907434624069,
          -0.1929771752583454,
          -0.17086180904556994,
          -0.06812265545617466,
          -0.30762055202950245,
          -0.07157647020437516,
          -0.1632950393673863
        ],
        [
          -0.08242664672502296,
          -0.23817530552079758,
          0.05538560191998174,
          -0.06528614924365438,
          -0.011421732900512908,
          -0.029928933203416018,
          -0.28890469727600326,
          -0.25045718741452366,
          0.03338798715002021,
          -0.07572283623956277,
          0.05181781607900652,
          0.24201447734017284,
          0.08900980386596484,
          -0.21639527918907378,
          -0.11079493783799255,
          -0.15300965992306764,
          -0.02511615895477289,
          0.23098858733989266,
          -0.09596731109136541,
          -0.0535418235544062,
          -0.04279262627501347,
          -0.08650727170675734,
          0.21750049910429567,
          0.11989718968028971,
          0.03315755252582134,
          -0.18427703152661637,
          -0.23277060014329823,
          0.08394713485934477,
          -0.13323671136139714,
          0.10464182821105647,
          -0.087436085939313,
          0.03408509481466629,
          0.04644165102500398,
          -0.05042310865732101,
          0.019230080562474657,
          0.11791701600484097,
          -0.2163772507952791,
          -0.2608458324145263,
          -0.014594217668089918,
          -0.23311212590016933,
          -0.13202120653855062,
          -0.27289768399297426,
          -0.10746202280046359,
          0.081938940845451,
          -0.13298099553448917,
          -0.20724745989177334,
          -0.16534079897874643,
          0.09848309701450494,
          0.043376497393052056,
          -0.19262177064172736,
          -0.1730720207374621,
          -0.005597457261561857,
          -0.15531207204818467,
          -0.16715300353911,
          0.02685055269195178,
          -0.1791134795362106,
          -0.2500121714160768,
          -0.17101504246886115,
          -0.15096621160559454,
          -0.22047825059254186,
          0.10021895405231279,
          0.014803874633037483,
          0.1429525067290563,
          0.13123778208644316,
          -0.1869550042222287,
          -0.2945890102174613,
          0.07796525532831061,
          -0.13120157865723264,
          0.08349625959136678,
          -0.07103077473903321,
          0.01796217185524781
        ],
        [
          -0.04654557095810232,
          -0.03236418289657422,
          -0.013899853712792596,
          0.10796997829125413,
          -0.07773357074185441,
          -0.17806271554354428,
          -0.025565314423873338,
          -0.03127535051244301,
          0.05796001302662329,
          -0.04251119763175608,
          -0.05980293979088074,
          -0.08900758789035144,
          0.012782389054776452,
